{"key":"advection","name":"Advection Equation","description":"Linear advection \u2014 transport of a profile at constant speed","latex_equation":"\\frac{\\partial u}{\\partial t} + c \\frac{\\partial u}{\\partial x} = 0","latex_ic":"u(x, 0) = -\\sin(\\pi x)","latex_bc":"u(-1, t) = u(1, t) = 0","latex_domain":"x \\in [-1, 1], \\; t \\in [0, 1]","x_min":-1.0,"x_max":1.0,"t_min":0.0,"t_max":1.0,"y_min":-1.3,"y_max":1.3,"y_label":"u(x, t)","params":{"c":1.0},"layers":[{"W":[[0.7467350959777832,0.40607261657714844],[-0.6775408983230591,0.7195435166358948],[-0.8812847137451172,0.9010120034217834],[-0.9440560340881348,0.9060510396957397],[0.6871145367622375,-0.8834325671195984],[0.9483190178871155,-0.28779593110084534],[0.8056670427322388,-0.24462124705314636],[0.6094008684158325,-0.6075484752655029],[0.6268208026885986,-0.2263423353433609],[-0.3541002571582794,0.30582210421562195],[-0.23784635961055756,-0.05572839826345444],[-0.6569424867630005,0.7758994102478027],[-0.536235511302948,-0.20942282676696777],[-0.29913175106048584,-0.5210540890693665],[0.3600004315376282,-0.8841288089752197],[0.8572982549667358,-1.0960582494735718],[0.7814764976501465,-0.06359085440635681],[-0.6609036922454834,0.7832273840904236],[-0.18220847845077515,0.6720505356788635],[0.41453227400779724,-0.5641623139381409]],"b":[-0.014937619678676128,-0.3417538106441498,0.5182242393493652,0.59213787317276,0.592464804649353,-0.5973398685455322,0.012502717785537243,-0.14453305304050446,0.3024417757987976,-0.49451684951782227,-0.9137275218963623,-0.6082684993743896,-0.6628643870353699,0.7893097400665283,0.16602130234241486,-0.14821884036064148,-0.127725288271904,0.06475725024938583,0.6625683903694153,-0.5094997882843018]},{"W":[[0.06921396404504776,-0.02373785898089409,0.14274510741233826,-0.015298725105822086,-0.05879930034279823,-0.10598170757293701,0.13539710640907288,-0.3552049398422241,-0.20205257833003998,-0.08389247208833694,0.19958141446113586,0.2482861429452896,0.2028491497039795,-0.21756678819656372,-0.3926398754119873,-0.39821657538414,-0.23535549640655518,0.2993195056915283,0.11914318799972534,0.13289764523506165],[0.030231084674596786,0.09816627949476242,0.9722261428833008,0.4598045349121094,-0.05565223842859268,-0.49954885244369507,0.044769275933504105,-0.5865238904953003,-0.1800307333469391,0.14769290387630463,-0.015133516862988472,0.1544148027896881,0.06631560623645782,0.15934567153453827,-0.631872296333313,-0.5607104897499084,0.12557488679885864,0.3744655251502991,0.11789699643850327,-0.465398371219635],[-0.09809433668851852,0.25858741998672485,0.03000671975314617,-0.19334392249584198,-0.2542989253997803,-0.1213575154542923,-0.4343200623989105,-0.3964725136756897,-0.43296051025390625,0.15076252818107605,0.3840986490249634,0.34109023213386536,0.3080434501171112,-0.3233688175678253,-0.11778072267770767,-0.268114298582077,-0.05621420592069626,-0.03009052947163582,-0.20967289805412292,-0.09705737978219986],[0.14798636734485626,-0.11595609039068222,0.006663263309746981,-0.1428413838148117,-0.20133225619792938,-0.1425519585609436,0.0007530589937232435,-0.2429419457912445,0.2709376811981201,-0.02308589778840542,0.19051818549633026,0.10738355666399002,-0.2732011377811432,0.2214127480983734,0.08914171159267426,-0.09890138357877731,-0.05390791967511177,-0.20498664677143097,0.07692277431488037,-0.04434219002723694],[0.05916620045900345,-0.28988462686538696,0.09141117334365845,-0.22752320766448975,0.051027700304985046,0.1521671712398529,0.1823258101940155,0.3319070339202881,0.27579382061958313,-0.20140573382377625,0.06986162811517715,-0.23650304973125458,-0.049217209219932556,-0.2831794023513794,0.2081936001777649,-0.051486894488334656,0.2392837554216385,-0.014270493760704994,0.04774851351976395,-0.07806430757045746],[0.2072034627199173,0.06477921456098557,0.016402296721935272,-0.216746985912323,0.10357113927602768,0.027539687231183052,-0.14576995372772217,0.34382954239845276,-0.005043612793087959,-0.16946521401405334,-0.16177137196063995,-0.09988202899694443,0.11753629893064499,-0.10482409596443176,-0.3168551027774811,-0.023563040420413017,-0.2503396272659302,0.038108061999082565,0.20218050479888916,-0.249594047665596],[0.05028464272618294,-0.08459187299013138,-0.21190325915813446,-0.2861630916595459,0.2295788675546646,0.24583543837070465,0.12933261692523956,0.19316743314266205,-0.014760934747755527,0.0007405609358102083,0.014117867685854435,-0.19852963089942932,0.14737379550933838,0.3475518822669983,0.4488753378391266,0.26314228773117065,0.08436314016580582,-0.35145506262779236,-0.053967978805303574,0.21760354936122894],[-0.21195544302463531,-0.20131106674671173,-0.08773060142993927,-0.2353677749633789,-0.07924147695302963,0.0769488662481308,-0.15460596978664398,-0.07998808473348618,-0.08401983976364136,0.20263008773326874,0.3479143977165222,0.1510336697101593,-0.12426666170358658,-0.22153306007385254,0.28509804606437683,0.33993250131607056,0.10013062506914139,-0.24594886600971222,-0.1284337192773819,0.22965556383132935],[-0.15000388026237488,0.03902854770421982,-0.5559007525444031,-0.451842725276947,-0.2752234637737274,0.5762516856193542,0.18593940138816833,0.3543388247489929,-0.17755746841430664,-0.1149403378367424,0.02303410694003105,0.1707819104194641,0.2509857416152954,0.016896693035960197,0.3981308043003082,0.347865492105484,0.12046979367733002,-0.4282660484313965,-0.46845588088035583,0.19343255460262299],[-0.215071901679039,-0.6170393824577332,-0.04042866453528404,-0.011527841910719872,0.6287956237792969,-0.10334184020757675,0.2351589798927307,0.4584081470966339,0.3701881468296051,-0.4377763271331787,-0.5172440409660339,-0.8658984303474426,-0.08195947110652924,0.201857790350914,0.33878275752067566,0.1137797087430954,0.4083952307701111,-0.47460436820983887,0.18509405851364136,-0.08655458688735962],[0.23519845306873322,-0.5491946339607239,0.1450577676296234,-0.07837601751089096,0.571965217590332,0.17959386110305786,0.13532978296279907,0.2720278203487396,0.19380544126033783,-0.6008933186531067,-0.10875580459833145,-0.8266107439994812,-0.18034175038337708,0.3524869680404663,0.3532521426677704,0.19939573109149933,-0.06357967853546143,-0.15441636741161346,0.28251713514328003,-0.29582899808883667],[-0.09885339438915253,-0.5565026998519897,-0.008006066083908081,-0.019770899787545204,0.397220641374588,0.007499908562749624,0.09598851203918457,0.5264369249343872,0.5205512046813965,-0.45709776878356934,-0.35447704792022705,-0.6463468074798584,-0.31009772419929504,0.019827021285891533,0.35249063372612,0.17528629302978516,0.10136815160512924,-0.2989993989467621,0.023467816412448883,-0.23071172833442688],[0.02123662270605564,-0.19991646707057953,-0.46915203332901,-0.47096508741378784,-0.2205604463815689,0.49502795934677124,-0.05933520942926407,0.2522537410259247,-0.0796227753162384,0.09135329723358154,0.35820576548576355,0.08902627974748611,-0.13046415150165558,0.1072593554854393,0.5711787343025208,0.3138999342918396,0.2532915472984314,-0.10125609487295151,-0.2744447886943817,0.3179728090763092],[-0.23195017874240875,0.16878977417945862,0.8313255906105042,0.5927850604057312,-0.2804262340068817,-1.217376947402954,-0.32293519377708435,-0.7086479663848877,-0.30561473965644836,-0.021488849073648453,-0.0610949769616127,0.18136878311634064,-0.28619179129600525,0.31429001688957214,-0.08618766814470291,-0.6046183705329895,-0.3406525254249573,0.6365444660186768,0.1590886116027832,-0.356339693069458],[0.06471461057662964,0.15164105594158173,-0.029988374561071396,-0.15115919709205627,-0.3874662518501282,-0.11744916439056396,0.25027769804000854,-0.2866230309009552,-0.13292495906352997,0.12196874618530273,0.05168166011571884,0.3714468479156494,0.15760141611099243,0.0952189564704895,-0.16520793735980988,-0.13719145953655243,0.22031882405281067,0.12603937089443207,-0.12283048033714294,0.17713287472724915],[-0.094196617603302,-0.006989083718508482,-0.23910360038280487,-0.04353519156575203,-0.14047101140022278,0.24923790991306305,-0.07737601548433304,-0.33611732721328735,-0.34982672333717346,0.15188172459602356,0.2807958722114563,0.3443576991558075,-0.08153986185789108,-0.29904401302337646,-0.5777621865272522,-0.2982587516307831,-0.08473828434944153,0.22781337797641754,0.17951272428035736,-0.19156308472156525],[0.401685506105423,0.1693408042192459,0.6503781080245972,0.6319980025291443,-0.17483335733413696,-0.004412820562720299,-0.20172932744026184,-0.5272420048713684,0.19507679343223572,-0.06395052373409271,-0.2840728461742401,0.07662683725357056,-0.08188815414905548,-0.17311115562915802,-0.46449828147888184,-0.6059213876724243,-0.1767369508743286,0.5354161262512207,0.4605162441730499,-0.5517471432685852],[-0.04867668077349663,0.36918121576309204,0.31197842955589294,0.2698833644390106,-0.18348605930805206,-0.6639474034309387,-0.26008644700050354,-0.5433043837547302,-0.13291485607624054,0.05572110041975975,-0.19360436499118805,0.06952259689569473,0.11042317748069763,0.29766955971717834,0.04206949844956398,-0.36203834414482117,-0.2611616253852844,0.4507253170013428,0.006579417735338211,-0.33264195919036865],[0.05484263226389885,-0.28448623418807983,-0.4006441533565521,-0.04564870148897171,0.4250227212905884,0.1518784612417221,0.07757681608200073,0.09112003445625305,0.054040923714637756,-0.08074576407670975,0.06503365188837051,-0.27659523487091064,-0.21907460689544678,0.18830935657024384,0.09324841946363449,0.44934117794036865,0.01997217908501625,-0.26498955488204956,-0.01584319770336151,0.11502592265605927],[-0.056670501828193665,0.44283154606819153,0.43366631865501404,0.47071573138237,0.03980482742190361,-0.7086712121963501,-0.3547138273715973,-0.2800748646259308,0.0010253364453092217,-0.03882988914847374,-0.013954699039459229,0.021321173757314682,-0.17866766452789307,0.12443812191486359,-0.16771438717842102,-0.2950339615345001,-0.31094279885292053,0.6250224113464355,0.15260358154773712,-0.2633097171783447]],"b":[0.004759299103170633,0.1374366581439972,-0.00043160366476513445,-0.17348162829875946,0.05366257578134537,-0.0535614937543869,-0.2528281509876251,-0.353368878364563,9.273442265111953e-05,0.5701248049736023,0.34203726053237915,0.4259670674800873,0.017203068360686302,0.23859180510044098,-0.1064220666885376,0.05130826309323311,0.0695173591375351,-0.016685592010617256,-0.07102440297603607,0.06790675967931747]},{"W":[[0.0942716896533966,-0.0038810300175100565,-0.14270877838134766,0.1174999475479126,-0.12868909537792206,-0.32073161005973816,0.18493972718715668,0.12266332656145096,0.2612988352775574,0.3169030249118805,0.05018249526619911,0.24424102902412415,0.20294994115829468,-0.1075829267501831,0.0037029872182756662,-0.06336994469165802,-0.020047307014465332,0.16331937909126282,-0.08009154349565506,-0.09509497880935669],[-0.3992909789085388,-0.1593581885099411,-0.3227541446685791,0.03875206410884857,0.4284719228744507,0.198439359664917,-0.056863874197006226,-0.20475147664546967,-0.02071085199713707,0.8305773138999939,0.3974248170852661,0.5612855553627014,0.018451858311891556,-0.09916221350431442,-0.3992120325565338,-0.6119207739830017,0.06010402739048004,-0.2500610947608948,0.5042741894721985,0.04630370810627937],[-0.1541079729795456,-0.05113660916686058,-0.14074479043483734,0.11108113080263138,0.39009812474250793,-0.05682213976979256,0.15033307671546936,-0.07983250916004181,0.14566132426261902,0.3271275758743286,0.20913247764110565,0.254461407661438,0.07209877669811249,0.09897689521312714,0.09506070613861084,-0.165016770362854,-0.42133939266204834,-0.09220276027917862,0.03417162224650383,0.22855812311172485],[-0.14347246289253235,0.07852260023355484,-0.06224062293767929,0.1631370186805725,0.20070573687553406,-0.10485678911209106,0.15180353820323944,0.32289808988571167,0.21216803789138794,-0.022170910611748695,-0.06534101814031601,0.1919460892677307,0.060165174305438995,0.08532852679491043,-0.02699940837919712,-0.20082306861877441,0.05835195630788803,0.05328231304883957,0.07775325328111649,0.2229834944009781],[0.09923165291547775,0.4899415671825409,0.06707069277763367,-0.12329384684562683,-0.2908584177494049,-0.2665582597255707,-0.1546657234430313,-0.19038350880146027,-0.30827605724334717,-0.3883272409439087,-0.26899611949920654,-0.4686077833175659,-0.33438512682914734,0.2579243779182434,0.12303276360034943,-0.057723578065633774,0.15158551931381226,0.15520638227462769,-0.1581490933895111,-0.033661119639873505],[-0.20758286118507385,0.14941447973251343,-0.6814804673194885,-0.09248674660921097,0.24051246047019958,0.21632596850395203,-0.1345542073249817,-0.5590071082115173,-0.05527570843696594,1.7481474876403809,1.1803388595581055,1.9459093809127808,-0.5248276591300964,0.38008785247802734,-0.5721055865287781,-0.9293107390403748,-0.03404421731829643,-0.042470719665288925,0.4420720338821411,0.24990305304527283],[-0.000411675515351817,0.44881653785705566,-0.15645362436771393,-0.20731568336486816,-0.1822250634431839,-0.18990764021873474,-0.4661796987056732,-0.014424197375774384,0.030235834419727325,0.04502018541097641,0.09315548092126846,-0.33896344900131226,-0.3323535919189453,0.24197207391262054,0.12177391350269318,0.10733979195356369,0.44341015815734863,0.06364534050226212,-0.24631695449352264,0.4046877920627594],[-0.2082674205303192,-0.18263505399227142,-0.32688480615615845,-0.16499781608581543,0.04118303209543228,-0.05263211205601692,0.05835619568824768,0.21315068006515503,-0.1022346019744873,0.3026129901409149,0.08955782651901245,0.20951497554779053,0.3301272690296173,0.3638123869895935,-0.2200913280248642,-0.20468392968177795,-0.2763403654098511,0.02819152921438217,0.015792112797498703,-0.19560964405536652],[0.085694819688797,-0.11312591284513474,0.24161097407341003,0.09982778877019882,-0.2722134590148926,-0.253675639629364,0.00011826333502540365,0.005344750825315714,-0.06788834184408188,-0.1981445550918579,0.09426649659872055,-0.1695859581232071,0.21061034500598907,-0.051361218094825745,0.10522067546844482,0.17207585275173187,0.009946056641638279,-0.1481049507856369,-0.15720689296722412,0.22485102713108063],[-0.12360649555921555,0.15883716940879822,-0.18733055889606476,0.11180642992258072,0.01820206269621849,-0.13072101771831512,0.06861557811498642,0.13441233336925507,0.1116320788860321,-0.2709795832633972,-0.10399682074785233,0.019984642043709755,0.22942684590816498,0.1123904287815094,-0.12206758558750153,0.16939133405685425,-0.011310442350804806,-0.014090624637901783,-0.2933180332183838,-0.03717690706253052],[0.28662776947021484,0.9290544986724854,-0.18167833983898163,-0.12119770795106888,-0.2952333986759186,0.2698509693145752,-0.9068441987037659,-0.2727925181388855,-0.4124997556209564,-0.2243882268667221,0.07458097487688065,0.07910811901092529,-0.3871988356113434,0.9408249258995056,0.06012013927102089,0.27152732014656067,1.2092921733856201,0.5431003570556641,-0.3194923400878906,0.6753287315368652],[-0.534467875957489,-0.25880780816078186,-0.37136566638946533,-0.39126846194267273,0.647440493106842,-0.08611886948347092,0.37939298152923584,0.0008570317877456546,-0.17650820314884186,0.43566417694091797,0.24274775385856628,0.5260205268859863,0.2065211534500122,-0.44730567932128906,-0.08536819368600845,-0.36769407987594604,-0.10521071404218674,-0.6241546273231506,0.7722051739692688,-0.06256163120269775],[-0.042874157428741455,0.2948347330093384,0.10310652107000351,0.16785165667533875,-0.09309422224760056,-0.08061335980892181,0.038559380918741226,-0.1857822835445404,-0.21014416217803955,-0.23804816603660583,0.10203743726015091,-0.29990702867507935,-0.18971343338489532,0.04937675967812538,0.14926104247570038,0.15450340509414673,-0.0909901112318039,-0.1742730289697647,0.02911270409822464,0.28307512402534485],[-0.06702521443367004,0.3907848596572876,-0.20136544108390808,0.20803490281105042,-0.15707655251026154,0.026488229632377625,-0.011719544418156147,-0.5916742086410522,-1.0668333768844604,0.5023483037948608,0.2771948277950287,0.37098953127861023,-1.0683114528656006,-0.25161415338516235,-0.005008293315768242,-0.29431429505348206,0.36535272002220154,0.018630128353834152,-0.06766068935394287,0.4184185564517975],[-0.522789478302002,0.014630024321377277,-0.6395944356918335,-0.37113961577415466,0.03377170488238335,0.4533994495868683,0.14859651029109955,-0.6755046844482422,-0.1443289816379547,1.2127282619476318,0.5743101239204407,1.058005452156067,-0.47351279854774475,0.04771740362048149,-0.4423249363899231,-0.48310941457748413,-0.36797890067100525,-0.06664068251848221,0.38377442955970764,0.2604796588420868],[0.0004767118953168392,0.12460446357727051,-0.0067633516155183315,0.16284267604351044,-0.11298829317092896,-0.4184827208518982,0.09133417159318924,0.37376752495765686,-0.20119278132915497,0.30408141016960144,-0.08684630692005157,0.23801711201667786,0.16458027064800262,-0.08885972946882248,0.12216465175151825,-0.2525835335254669,-0.06770308315753937,0.011707203462719917,-0.21344879269599915,0.3126949667930603],[-0.04072051867842674,0.14138835668563843,-0.20231710374355316,0.004672839771956205,-0.06393589079380035,-0.1612514704465866,0.014603720046579838,0.10409900546073914,0.1811215579509735,-0.14232563972473145,-0.11394697427749634,0.05063999816775322,-0.002290060743689537,0.19887810945510864,0.10487621277570724,-0.028516100719571114,0.14289897680282593,0.2264549285173416,-0.08877241611480713,0.22882680594921112],[0.10297434777021408,-0.17295634746551514,-0.11405632644891739,-0.06942934542894363,-0.027284640818834305,0.10062140226364136,0.2050573229789734,0.06276777386665344,0.23834867775440216,0.07499058544635773,0.19313593208789825,0.1315130740404129,0.09885392338037491,-0.16722263395786285,-0.1714526265859604,0.18505427241325378,-0.33747372031211853,-0.029681328684091568,0.1591644585132599,-0.33881768584251404],[0.07670291513204575,-0.3223118185997009,-0.16154822707176208,-0.3646312952041626,-0.06314989179372787,0.08376441150903702,0.026223715394735336,-0.22529776394367218,0.14769332110881805,0.15025047957897186,0.1361166387796402,-0.1662517488002777,-0.3168320953845978,0.3069135248661041,-0.15760985016822815,0.1850312054157257,0.16150686144828796,0.16137534379959106,0.2792675495147705,0.20448237657546997],[0.06665096431970596,-0.2369309961795807,0.22045114636421204,-0.18170885741710663,-0.11185286939144135,0.3588268458843231,0.12890896201133728,-0.12893030047416687,-0.03298509493470192,-0.3346128761768341,-0.02121793106198311,-0.039782457053661346,-0.10862341523170471,0.05767703801393509,-0.06627374142408371,-0.005189675372093916,0.23979702591896057,0.01876319944858551,0.1541520059108734,-0.06515301764011383]],"b":[0.05215461924672127,0.12841562926769257,0.042468320578336716,0.11674747616052628,0.18462304770946503,0.351528525352478,0.137777641415596,-0.10333698987960815,-0.19388161599636078,0.02627192810177803,0.046014901250600815,0.027740055695176125,-0.02815261483192444,0.2580700218677521,0.37916845083236694,0.013145530596375465,-0.06238863617181778,-0.1902001053094864,-0.004592241253703833,-0.03367331251502037]},{"W":[[0.20430198311805725,0.17832382023334503,0.3435228765010834,0.024444660171866417,-0.16459248960018158,0.11536454409360886,-0.21368148922920227,0.18160024285316467,-0.02214985154569149,-0.15896815061569214,-0.24087637662887573,0.5330155491828918,-0.044277124106884,0.12925934791564941,0.23593702912330627,-0.0715065523982048,-0.11845175921916962,0.2432561069726944,-0.055189672857522964,-0.06226796656847],[-0.31707078218460083,0.06657975912094116,-0.16774173080921173,-0.01424769964069128,0.3872278332710266,-0.175058513879776,-0.11066391319036484,0.27099940180778503,-0.14967955648899078,-0.09176381677389145,0.3814987540245056,-0.1564185917377472,-0.18852552771568298,-0.40260809659957886,0.04936306178569794,-0.30865544080734253,-0.3358639180660248,0.167876198887825,0.22934028506278992,0.007956250570714474],[-0.2810092866420746,-0.07260967046022415,-0.1953314244747162,-0.09671363234519958,-0.04755033180117607,-0.04189978539943695,-0.21151357889175415,-0.11218047142028809,-0.2031281590461731,0.08571508526802063,0.005787835922092199,-0.16905862092971802,0.20657439529895782,-0.08209488540887833,0.1904795914888382,-0.4136233925819397,-0.24322469532489777,-0.057447731494903564,0.3264661729335785,0.08451096713542938],[-0.3137218654155731,-0.011881460435688496,-0.2855077087879181,-0.10739762336015701,0.13601282238960266,0.1332724541425705,0.06872624158859253,-0.0005251653492450714,0.032457347959280014,-0.07953054457902908,0.4551987946033478,-0.03757092356681824,0.1639813780784607,-0.22796425223350525,0.29093146324157715,-0.38205623626708984,-0.1375097781419754,0.14220686256885529,0.32102084159851074,0.32402193546295166],[0.08770786970853806,-0.02087840810418129,0.15051548182964325,0.17676854133605957,-0.3482448160648346,0.02322542481124401,-0.08512753248214722,0.10777291655540466,0.09266986697912216,-0.06485734134912491,-0.0746292993426323,0.22227172553539276,-0.09751349687576294,-0.15127554535865784,0.21002702414989471,0.06940047442913055,-0.013691800646483898,0.0911666676402092,-0.04665520414710045,-0.24713511765003204],[0.1228790134191513,-0.1527060568332672,-0.1268070489168167,0.04093831032514572,-0.22726979851722717,-0.0900985524058342,0.008418888784945011,-0.18901075422763824,-0.05637578293681145,-0.037601713091135025,0.008919795043766499,-0.14319930970668793,-0.08732626587152481,0.11102257668972015,-0.028676940128207207,0.1791802942752838,-0.06368651241064072,-0.025184890255331993,0.029946219176054,0.11896390467882156],[-0.195027157664299,-0.08731520920991898,-0.16645856201648712,-0.1315067857503891,0.2609575390815735,-0.0793752446770668,0.02272687666118145,-0.05962231010198593,0.012102494016289711,-0.1352289915084839,0.14798924326896667,-0.19375848770141602,-0.09017078578472137,-0.2870701849460602,0.022334327921271324,0.11776688694953918,0.07106294482946396,-0.07211301475763321,0.05762985348701477,-0.008482654578983784],[-0.2076551467180252,0.23679475486278534,0.04713431000709534,0.05807499587535858,0.06059174984693527,-0.09240791201591492,-0.02817455492913723,0.20480062067508698,0.015246925875544548,-0.11961191892623901,0.3587031066417694,-0.12263374775648117,-0.20490829646587372,-0.2593138515949249,0.3109113276004791,-0.014646481722593307,-0.09867677837610245,0.010589603334665298,0.04798617586493492,-0.168068990111351],[-0.16758385300636292,0.10600793361663818,0.17929650843143463,0.2102307379245758,-0.28533944487571716,0.1620420664548874,-0.05472758784890175,0.043776735663414,0.1988733559846878,0.18717966973781586,0.10574936121702194,0.2112857699394226,0.051859013736248016,0.21021650731563568,-0.12860998511314392,0.2095380276441574,0.005563077982515097,-0.1004781723022461,-0.2901402711868286,-0.07185620069503784],[-0.06593579798936844,0.017189260572195053,-0.09664276242256165,-0.13425064086914062,0.13081730902194977,0.15191593766212463,0.12274004518985748,0.2789615988731384,-0.15264473855495453,-0.24101081490516663,0.12302037328481674,0.06200451776385307,-0.25933900475502014,-0.123602494597435,0.3704477846622467,0.1862327754497528,-0.2065669298171997,0.29434463381767273,0.18085281550884247,0.12787801027297974],[-0.11424438655376434,0.07874574512243271,-0.1526370644569397,0.20328551530838013,-0.19368214905261993,0.16401340067386627,0.09110276401042938,-0.03384630009531975,0.00398811511695385,0.109586700797081,-0.17660874128341675,-0.1754460483789444,-0.056161023676395416,0.28313204646110535,-0.10417534410953522,0.07172078639268875,0.009630158543586731,0.080637626349926,0.02955646999180317,0.07337605953216553],[-0.22435353696346283,-0.1977800875902176,-0.12345808744430542,-0.15195094048976898,0.2973232567310333,-0.40260499715805054,0.05064510181546211,0.19469425082206726,0.1058010682463646,0.06922898441553116,-0.07691329717636108,0.13534340262413025,0.07975883036851883,-0.3377218246459961,0.21277469396591187,-0.3639667332172394,-0.06764621287584305,0.16261623799800873,-0.04652848094701767,-0.09109808504581451],[-0.012154899537563324,0.0017100354889407754,0.028604578226804733,-0.18277262151241302,0.08639940619468689,-0.17205682396888733,-0.17259077727794647,-0.13258221745491028,0.09563406556844711,0.026619240641593933,-0.12883324921131134,0.14686791598796844,0.053533002734184265,-0.029012400656938553,-0.11158748716115952,-0.04583299905061722,0.13121886551380157,0.22832922637462616,-0.06882283836603165,0.22339440882205963],[0.09488462656736374,0.2997681498527527,0.3565419614315033,0.24570265412330627,-0.06378056854009628,0.3308592736721039,-0.13583853840827942,0.17947335541248322,-0.24993152916431427,-0.0905538871884346,0.10715997219085693,-0.12343995273113251,-0.14777931571006775,-0.04766175150871277,0.38332679867744446,0.11998794972896576,0.053104061633348465,0.24661186337471008,0.2699526846408844,-0.05555327609181404],[-0.039698828011751175,-0.1199512779712677,-0.3756473958492279,-0.2113330215215683,-0.029886720702052116,-0.19845129549503326,0.011525887995958328,-0.26505014300346375,0.11315442621707916,0.20723623037338257,-0.13747167587280273,0.20495136082172394,0.3738401234149933,-0.04353440925478935,-0.33869999647140503,-0.09159761667251587,0.02507523074746132,-0.25363466143608093,-0.11097566038370132,-0.030742501839995384],[-0.08240392804145813,-0.1263413429260254,-0.20957182347774506,0.24556270241737366,0.1077137142419815,-0.20856988430023193,0.07786346971988678,-0.13617263734340668,0.1890408992767334,0.18312066793441772,0.2226007580757141,-0.38292357325553894,0.29551026225090027,0.12927989661693573,-0.13174059987068176,0.2756955921649933,0.22519849240779877,-0.1370156705379486,0.10802401602268219,-0.05628277733922005],[-0.29499825835227966,0.07471957802772522,0.012434909120202065,-0.17113669216632843,0.264669269323349,-0.2558230757713318,0.13387081027030945,0.2875773012638092,0.04511937126517296,-0.15524975955486298,0.3322380483150482,-0.03586843982338905,0.0834079161286354,-0.054544851183891296,0.22096964716911316,-0.2951512932777405,-0.12738248705863953,0.09736097604036331,0.12843407690525055,0.2308918833732605],[-0.15699413418769836,0.12687698006629944,0.1045292541384697,-0.2213411182165146,0.40514126420021057,0.2735011577606201,-0.8902488350868225,0.21691443026065826,-0.08780396729707718,-0.09463037550449371,0.2658868730068207,-0.47966909408569336,-0.33330848813056946,-0.5174463987350464,0.29449668526649475,-0.40017393231391907,-0.37331700325012207,0.44066283106803894,0.16484928131103516,0.11402303725481033],[0.05502014607191086,0.25542837381362915,-0.09636042267084122,-0.14463567733764648,0.33034971356391907,0.19980280101299286,-0.24883118271827698,0.292350709438324,-0.05080224946141243,-0.23078230023384094,0.01522885076701641,0.036767613142728806,-0.19322063028812408,-0.09597610682249069,-0.09288310259580612,0.0531405508518219,0.07583467662334442,0.2724689245223999,0.10047710686922073,0.09033512324094772],[-0.13490772247314453,-0.08344058692455292,-0.0049870554357767105,-0.1052260473370552,-0.2832539677619934,0.18218205869197845,0.2918853461742401,-0.29352545738220215,0.09952627867460251,0.11384742707014084,0.07065576314926147,0.1856839954853058,0.2410656064748764,-0.0013767564669251442,0.10736942291259766,0.3829568028450012,-0.09677201509475708,-0.28748512268066406,-0.03881627693772316,0.0990256518125534]],"b":[-0.11466391384601593,0.15087440609931946,0.0715656578540802,0.1340620368719101,-0.11844167113304138,0.10780443251132965,0.15271638333797455,-0.14718672633171082,-0.01773647405207157,-0.0014019713271409273,0.046190351247787476,0.2584756314754486,0.08344393223524094,-0.02468823827803135,0.17316363751888275,-0.0884261503815651,-0.027950918301939964,-0.059291571378707886,-0.16590441763401031,-0.0038543748669326305]},{"W":[[-0.20448271930217743,0.25345173478126526,0.1722482591867447,0.11986342817544937,-0.27467334270477295,-0.17757472395896912,0.1739003211259842,0.3176947832107544,-0.333956241607666,0.19059912860393524,-0.1675582230091095,0.08703738451004028,0.20068462193012238,0.26121243834495544,-0.21599741280078888,0.21172115206718445,0.23003654181957245,0.3909151554107666,0.24507883191108704,-0.19401898980140686]],"b":[-0.032504722476005554]}]}