{"key":"allen_cahn","name":"Allen-Cahn Equation","description":"Phase-field model \u2014 interface dynamics and phase separation","latex_equation":"\\frac{\\partial u}{\\partial t} = \\varepsilon^2 \\frac{\\partial^2 u}{\\partial x^2} + u - u^3","latex_ic":"u(x, 0) = x^2 \\cos(\\pi x)","latex_bc":"u(-1, t) = u(1, t) = -1","latex_domain":"x \\in [-1, 1], \\; t \\in [0, 1]","x_min":-1.0,"x_max":1.0,"t_min":0.0,"t_max":1.0,"y_min":-1.5,"y_max":1.5,"y_label":"Phase u(x, t)","params":{"eps":0.1},"layers":[{"W":[[0.37520089745521545,0.5777478218078613],[-0.20173774659633636,0.8085223436355591],[-0.11803825944662094,0.11900953203439713],[-0.8173250555992126,0.3011105954647064],[0.7568714618682861,-0.5552458763122559],[0.8528990149497986,0.24643421173095703],[0.732373833656311,-0.009584058076143265],[0.7844352126121521,-0.051777761429548264],[0.658677339553833,0.01601770520210266],[-0.1631196290254593,0.1680978387594223],[-0.19263945519924164,0.03736259043216705],[-0.5340577960014343,0.5704729557037354],[-0.7608920931816101,-0.2297644466161728],[-0.5085189342498779,-0.41113215684890747],[0.03549426794052124,-0.8244587779045105],[0.949405312538147,-0.31480804085731506],[0.8543956875801086,0.15670393407344818],[-0.33870428800582886,0.5283734798431396],[-0.03188539296388626,0.6138851642608643],[-0.6052573919296265,-0.1997431367635727],[0.3550674021244049,-0.24485889077186584],[0.45703089237213135,0.9999279975891113],[0.7472167015075684,-0.3373461961746216],[0.8064336776733398,0.28774529695510864],[0.7614306807518005,0.01717759296298027],[-0.8926610946655273,-0.10593016445636749],[-0.6471860408782959,0.5652697086334229],[0.5901333093643188,0.4877042770385742],[0.2717134356498718,-0.10463713109493256],[0.84539395570755,-0.34690505266189575],[0.1252204328775406,-0.47759705781936646],[0.09890488535165787,-0.08797299116849899]],"b":[0.14227870106697083,-0.0856630727648735,0.6179665923118591,-0.5581752061843872,-0.5682298541069031,-0.5467115640640259,0.6665896773338318,0.34598082304000854,0.6942567825317383,-0.6487786769866943,-0.7679757475852966,-0.5013285279273987,-0.5587869882583618,0.3492220640182495,0.2116914540529251,0.7673500776290894,-0.6159926056861877,-0.5622133612632751,0.40362539887428284,-0.13897106051445007,0.47089797258377075,-0.054986145347356796,0.5512265563011169,-0.6614241600036621,-0.3708088994026184,0.5095615386962891,0.09181582927703857,-0.31705227494239807,0.4780314564704895,0.57603919506073,-0.5584554076194763,-0.4710015058517456]},{"W":[[0.22351473569869995,-0.05344448611140251,-0.11742623895406723,-0.15249937772750854,-0.07857338339090347,-6.90171291353181e-05,-0.007558882236480713,-0.1438753753900528,0.009645715355873108,-0.06795897334814072,-0.10180602967739105,-0.03126991167664528,-0.19014936685562134,-0.18239276111125946,0.15030920505523682,0.05736765265464783,-0.007697225082665682,-0.09674165397882462,-0.08998125791549683,-0.04883824661374092,-0.022949209436774254,-0.07161960750818253,-0.10076156258583069,-0.11917456984519958,-0.01942296326160431,0.03192867338657379,-0.0068480344489216805,-0.011131507344543934,-0.16460572183132172,-0.11404789984226227,-0.04880550131201744,-0.08913265913724899],[0.15167038142681122,-0.05722712352871895,0.1743055135011673,0.07238968461751938,-0.14200104773044586,0.18799430131912231,-0.05743158236145973,-0.07760705798864365,-0.15068592131137848,-0.2007523775100708,0.029266128316521645,-0.060734618455171585,0.08099067211151123,-0.17888112366199493,0.16747620701789856,-0.1832791268825531,0.03936393931508064,-0.005080647300928831,0.10849650949239731,0.10830387473106384,0.19603319466114044,-0.12163840979337692,0.03211522847414017,-0.03268790990114212,0.005808345042169094,-0.19565819203853607,0.14523327350616455,-0.09545429050922394,0.12195729464292526,0.02437165379524231,0.03721562400460243,-0.11398864537477493],[0.18665799498558044,0.1014939695596695,0.0751146450638771,-0.13566817343235016,0.03707791492342949,-0.01496825460344553,-0.08765570819377899,0.14028656482696533,0.040988124907016754,-0.14049287140369415,-0.12833347916603088,-0.013916794210672379,0.11130832135677338,-0.04415111988782883,-0.1486295908689499,-0.12260555475950241,-0.12408770620822906,0.019915856420993805,0.19803890585899353,-0.20212392508983612,0.08479657024145126,0.12015901505947113,0.015182571485638618,-0.0746217593550682,0.06376122683286667,0.09788969159126282,0.11978237330913544,-0.019910553470253944,-0.006916270591318607,-0.03496910631656647,-0.08993808925151825,-0.09989207983016968],[0.0406675785779953,-0.08155057579278946,-0.0608542338013649,-0.13304400444030762,0.369844913482666,0.41504064202308655,0.030304692685604095,0.2267160713672638,-0.17560815811157227,-0.07730869948863983,0.15581627190113068,0.051806677132844925,0.02337808348238468,-0.31577450037002563,0.06741004437208176,-0.13188181817531586,0.39142805337905884,0.01759951561689377,-0.03931716829538345,-0.0029531423933804035,-0.10055142641067505,-0.32522115111351013,0.04972539097070694,0.46693506836891174,0.4217051863670349,-0.64919114112854,-0.1732625812292099,0.12746848165988922,-0.09828002750873566,0.19630058109760284,0.028529148548841476,0.0226352009922266],[-0.17738959193229675,0.17119742929935455,0.14587318897247314,0.2245941460132599,-0.12723271548748016,-0.12077650427818298,-0.22221045196056366,0.019284779205918312,0.022982830181717873,0.17111274600028992,0.10474137216806412,0.16556160151958466,0.055575620383024216,-0.14633573591709137,-0.2016737163066864,-0.3544585406780243,0.13402338325977325,-0.02324311062693596,-0.010400244034826756,-0.08543756604194641,-0.08059529215097427,-0.09919422119855881,-0.2610040307044983,0.08773741871118546,-0.0683562234044075,0.07576117664575577,-0.0016316426917910576,-0.11752139031887054,-0.051705602556467056,-0.2622733414173126,-0.07819034159183502,-0.18262098729610443],[0.10674142837524414,-0.1204361692070961,0.08839467167854309,0.1882481724023819,0.14548319578170776,-0.0559815987944603,0.0930231586098671,-0.14173613488674164,0.036943789571523666,0.18207311630249023,-0.016363652423024178,0.022057052701711655,-0.01524065900593996,-0.16412097215652466,0.09649880975484848,-0.3398410379886627,0.2106212079524994,0.1217174306511879,0.16307887434959412,-0.07686479389667511,-0.15059657394886017,0.00555079011246562,0.01700379140675068,-0.13155701756477356,0.015544809401035309,-0.21677044034004211,-0.008740580640733242,-0.09852683544158936,-0.08206295967102051,-0.18702705204486847,-0.16644883155822754,0.14785324037075043],[-0.03996504470705986,-0.19954770803451538,-0.07028485834598541,0.20532241463661194,-0.2506304085254669,-0.4012512266635895,-0.07087688893079758,-0.47007957100868225,-0.2526542842388153,0.11639610677957535,0.045023903250694275,0.10977055877447128,0.08933159708976746,0.04707219824194908,-0.0063492716290056705,-0.29137685894966125,-0.3751223683357239,0.3232308328151703,-0.33209800720214844,0.19646555185317993,-0.19114626944065094,0.021607128903269768,-0.06801138073205948,-0.05464579910039902,-0.35424569249153137,0.37393078207969666,0.2157009094953537,-0.06869542598724365,-0.03181634098291397,-0.06477583944797516,0.13954219222068787,0.07731961458921432],[-0.17161865532398224,0.2681165039539337,-0.006281277630478144,0.5095848441123962,0.0843595564365387,-0.2598751187324524,-0.7544791102409363,-0.580791175365448,-0.5277705788612366,0.267556756734848,0.38791409134864807,0.3858141303062439,0.03300478681921959,0.16881400346755981,0.06610515713691711,-0.551012396812439,-0.07335571944713593,0.3503374755382538,0.04408989101648331,0.3260582685470581,-0.3912745416164398,-0.41689804196357727,-0.5080012083053589,-0.2853090465068817,-0.07451952248811722,0.00858951173722744,0.1710910201072693,-0.4180234372615814,-0.4671148657798767,-0.294951856136322,0.06524474173784256,0.20836755633354187],[0.2576238512992859,0.26991334557533264,-0.11571863293647766,0.13544976711273193,0.0009584716754034162,0.014098495244979858,-0.14433394372463226,0.1155872792005539,-0.0885465070605278,-0.11037806421518326,-0.188230499625206,0.12736114859580994,0.0463893748819828,-0.0006831914652138948,-0.10816985368728638,-0.27495047450065613,-0.13544777035713196,0.07554490864276886,0.2810000479221344,0.049331601709127426,-0.15906518697738647,0.09662532806396484,-0.2527099847793579,-0.08431470394134521,-0.01631939597427845,0.07240181416273117,0.3372996747493744,-0.1054135337471962,0.11769711226224899,-0.27400124073028564,-0.032452043145895004,0.08975844830274582],[0.014801169745624065,0.1614101082086563,-0.186407670378685,-0.1093573272228241,0.1259494125843048,-0.07976045459508896,-0.009466427378356457,-0.04175661504268646,0.14040908217430115,0.11481096595525742,0.07755594700574875,-0.08854801207780838,-0.1809004843235016,0.01960059441626072,0.01920381933450699,-0.0022924384102225304,-0.09823769330978394,0.16893287003040314,-0.012234202586114407,0.027913838624954224,-0.07939589768648148,-0.1599181592464447,-0.12383106350898743,-0.10140170902013779,-0.07787401974201202,0.08928319811820984,-0.09181706607341766,-0.07133256644010544,0.1454814076423645,0.12275319546461105,0.15906739234924316,-0.05496734008193016],[0.10972928255796432,0.29549163579940796,-0.1195170059800148,-0.23662057518959045,-0.13932998478412628,-0.2608799934387207,0.03637366369366646,0.23766013979911804,0.28809279203414917,0.05987728387117386,-0.0495462603867054,-0.14810191094875336,-0.23866194486618042,0.015633761882781982,-0.18327055871486664,0.1529759168624878,-0.28573256731033325,0.2306315302848816,-0.034484341740608215,0.05085451155900955,-0.1263159215450287,0.0681740790605545,0.07381050288677216,-0.11719544976949692,-0.13987885415554047,0.29831573367118835,0.022585788741707802,0.16501328349113464,0.17665480077266693,0.06467928737401962,-0.1874370574951172,0.10875643044710159],[0.16132336854934692,-0.15966658294200897,-0.1734505295753479,-0.21256546676158905,0.018517373129725456,0.5926885008811951,-0.11398563534021378,0.1740119904279709,-0.2155734747648239,0.2576237618923187,0.15188834071159363,-0.21672973036766052,0.1832323670387268,-0.43292781710624695,0.027938956394791603,-0.18349045515060425,0.6655789017677307,-0.16268569231033325,-0.12611797451972961,-0.07027211785316467,0.15401077270507812,0.49253934621810913,0.17708873748779297,0.6583768129348755,0.520504891872406,-0.6223301887512207,-0.4288072884082794,0.6144664883613586,-0.16434238851070404,-0.0934869572520256,-0.01615947112441063,0.21354112029075623],[0.12491406500339508,0.054951246827840805,-0.1264020949602127,0.06001575291156769,-0.09084092825651169,-0.1692369431257248,0.1089719757437706,-0.05593987926840782,0.17050014436244965,0.2154533714056015,0.07302656769752502,0.11864246428012848,0.03320107236504555,0.01257522776722908,-0.19432246685028076,0.01072727795690298,0.004835737403482199,0.2518366873264313,-0.021406928077340126,-0.06802180409431458,-0.09731367975473404,-0.07137003540992737,-0.009574858471751213,0.10287924855947495,0.12428995221853256,0.08112147450447083,-0.14305993914604187,-0.11889273673295975,-0.06648644059896469,-0.04370902106165886,0.013447586447000504,-0.15345486998558044],[0.09016364067792892,-0.014315316453576088,-0.0751069039106369,-0.10664135962724686,0.0833229273557663,-0.15762104094028473,0.131864994764328,-0.025580385699868202,-0.014490596018731594,0.12238159030675888,-0.03188696503639221,0.18705831468105316,0.12223248928785324,-0.1997605562210083,-0.07496196776628494,-0.028755098581314087,0.052403438836336136,0.16189274191856384,0.09268182516098022,-0.09892087429761887,-0.07293128967285156,0.2147669643163681,0.07352112233638763,-0.016995079815387726,-0.21372009813785553,-0.04202388599514961,-0.034862179309129715,0.17153026163578033,-0.11071593314409256,-0.06558975577354431,-0.08477289974689484,-0.010896282270550728],[0.1803462952375412,0.042217813432216644,0.09566579759120941,0.12161548435688019,0.11923011392354965,-0.08409612625837326,-0.025251351296901703,0.09279637783765793,-0.036139313131570816,0.10125762969255447,-0.029158806428313255,-0.10288051515817642,0.046037688851356506,0.011709148064255714,0.032970257103443146,0.2271622121334076,0.08796174079179764,0.21078097820281982,0.005941841751337051,-0.14494915306568146,-0.1518835574388504,-0.1152108684182167,-0.14751695096492767,-0.09114755690097809,-0.15522617101669312,-0.12392204254865646,-0.09961190819740295,-0.17104654014110565,-0.12487167119979858,0.10704867541790009,0.1515704244375229,-0.05027191340923309],[-0.031976714730262756,0.12452191114425659,-0.12956920266151428,-0.09922231733798981,0.11104078590869904,-0.21037593483924866,0.03789498656988144,0.16239742934703827,0.03747783228754997,0.09363719075918198,-0.06845709681510925,0.038293320685625076,-0.02270732820034027,0.03756234794855118,0.0017859464278444648,0.22848767042160034,-0.2039012312889099,0.082879438996315,-0.10648328810930252,-0.11346488445997238,-0.07053543627262115,-0.14020922780036926,0.1318824291229248,0.0006356909871101379,-0.09377536922693253,0.15449416637420654,-0.1787744164466858,-0.0666118711233139,-0.07523651421070099,-0.09925895184278488,-0.08277301490306854,0.004491088911890984],[0.14493463933467865,0.1810508817434311,0.13790647685527802,-0.0996287539601326,-0.08614059537649155,0.2358250766992569,0.058535702526569366,0.01424535270780325,0.025490283966064453,-0.176180899143219,-0.0878993421792984,0.14840517938137054,-0.031219100579619408,-0.034606706351041794,-0.15189015865325928,-0.1554056853055954,0.09164807945489883,-0.15793170034885406,0.005113283172249794,0.031449586153030396,-0.12891729176044464,0.07251165807247162,-0.11444153636693954,-0.03936018794775009,0.0895029678940773,0.052792176604270935,-0.06020369753241539,-0.04526577889919281,-0.12266329675912857,-0.13176432251930237,-0.1800081580877304,-0.058349497616291046],[-0.013793022371828556,-0.04442518204450607,0.15124598145484924,0.270561546087265,-0.35011574625968933,-0.4753129780292511,-0.047546785324811935,-0.3131592273712158,-0.09821546822786331,-0.028239918872714043,0.1880389004945755,-0.021981870755553246,0.24755273759365082,0.1907004565000534,-0.03209342807531357,0.03266416862607002,-0.45089542865753174,-0.06772661209106445,-0.02089008502662182,0.2773318588733673,-0.21842370927333832,0.002712043933570385,-0.31131938099861145,-0.16235579550266266,-0.3059348464012146,0.5785195231437683,0.2902323007583618,-0.2062217891216278,0.0219961479306221,-0.26733270287513733,-0.03686131164431572,0.06532076746225357],[0.1781487911939621,0.08043327182531357,-0.1624685823917389,0.1258176863193512,0.0006090038223192096,0.0176419485360384,-0.15083113312721252,0.0062883286736905575,0.12788455188274384,0.057080622762441635,-0.07574939727783203,0.049541324377059937,-0.06347595155239105,0.11795248091220856,-0.1399417668581009,-0.07740999758243561,-0.09846106171607971,-0.06853510439395905,0.045166026800870895,0.12679272890090942,0.034074585884809494,0.16237863898277283,0.04488300532102585,0.13196444511413574,0.16609112918376923,0.06521952152252197,-0.09958770871162415,0.17837944626808167,0.09716309607028961,-0.09763534367084503,-0.06420304626226425,-0.1119236871600151],[0.04713219776749611,-0.08605106174945831,0.04369140416383743,0.07899995893239975,-0.09305692464113235,0.12920363247394562,-0.03582477942109108,0.08193431794643402,0.07559164613485336,-0.13689196109771729,0.1918736845254898,0.1892993450164795,0.10138019919395447,-0.20345142483711243,-0.18568390607833862,-0.0894617810845375,0.04305940493941307,0.15727701783180237,0.06267046183347702,0.1526651680469513,-0.10380911827087402,0.0873258039355278,0.0303904227912426,-0.09423642605543137,-0.12885260581970215,-0.227128803730011,0.07335462421178818,-0.147703155875206,-0.18127569556236267,0.07359429448843002,0.11014741659164429,0.1735144704580307],[-0.11408400535583496,-0.11716160178184509,0.10887115448713303,0.22390441596508026,0.17827516794204712,0.04587187618017197,-0.020819414407014847,0.07495742291212082,-0.17242851853370667,-0.1486857831478119,0.08463676273822784,-0.12137917429208755,-0.019786549732089043,0.13470080494880676,0.03103572502732277,-0.019309265539050102,-0.05170939862728119,-0.07964307069778442,0.18321506679058075,-0.07431459426879883,0.05740617960691452,0.20653536915779114,-0.16748817265033722,0.22349700331687927,-0.01780107617378235,-0.03256503865122795,-0.059329722076654434,-0.10040133446455002,-0.12641823291778564,0.022662503644824028,0.032477911561727524,-0.1795799881219864],[-0.15082553029060364,0.13249576091766357,0.10722050070762634,0.0615222193300724,-0.17847232520580292,0.016200566664338112,-0.06376080960035324,-0.000897614227142185,-0.16149164736270905,0.01202304009348154,0.013673519715666771,-0.04618015140295029,0.07009036839008331,-0.10481926798820496,0.1299271136522293,0.024711355566978455,-0.014583534561097622,-0.2072862833738327,0.08486826717853546,0.02285228669643402,-0.08211982250213623,0.15091300010681152,-0.07629156857728958,0.1674240082502365,0.07035540044307709,-0.2366379201412201,0.1940298080444336,-0.12932263314723969,-0.107675701379776,-0.0466507188975811,-0.13825927674770355,0.13797049224376678],[-0.02712130732834339,0.07876363396644592,-0.13848170638084412,0.12584547698497772,-0.045285023748874664,-0.04593722149729729,0.014015045948326588,0.09244652837514877,0.14492999017238617,-0.12768742442131042,-0.10444977879524231,0.030026189982891083,0.05952494591474533,0.015718810260295868,0.09692893922328949,-0.10422403365373611,0.19625088572502136,0.10882807523012161,-0.030010612681508064,0.09599334746599197,0.10970629751682281,0.17426781356334686,-0.11671073734760284,-0.03190134838223457,-0.036320995539426804,-0.08605154603719711,0.11936358362436295,-0.049125637859106064,0.11247797310352325,-0.1101747453212738,0.08838783204555511,-0.02392447553575039],[-0.19004608690738678,-0.014700092375278473,-0.2494886815547943,0.051476363092660904,-0.08552674204111099,0.2394971400499344,-0.03632241487503052,0.002516933949664235,-0.04711981490254402,-0.04446570575237274,-0.008502351120114326,-0.08616706728935242,0.015842273831367493,-0.3485371172428131,-0.09816093742847443,-0.03824330121278763,0.3619815707206726,0.3240281045436859,0.0063790855929255486,-0.001030961167998612,-0.2799997329711914,0.15384526550769806,-0.0821404978632927,0.3388579487800598,0.2032172977924347,-0.21094901859760284,0.18450160324573517,0.4167943596839905,-0.0702134445309639,-0.1027313768863678,0.22953061759471893,0.024121301248669624],[-0.09318259358406067,0.10255750268697739,0.14264719188213348,0.08062389492988586,0.03016546741127968,-0.11199644207954407,-0.03136417269706726,0.15317438542842865,0.03550126776099205,0.0024888610932976007,-0.04366721957921982,-0.07299565523862839,0.1151934340596199,-0.022983543574810028,0.185460165143013,-0.09616420418024063,0.11814233660697937,0.03902123495936394,0.024453341960906982,0.09299985319375992,0.13749438524246216,0.16919395327568054,0.11688724905252457,-0.021389082074165344,-0.1339864730834961,0.016345778480172157,-0.021724125370383263,-0.009062869474291801,-0.015284390188753605,-0.04021881893277168,0.12878867983818054,0.05418100580573082],[-0.08185562491416931,-0.05580873414874077,-0.027101289480924606,0.005152652505785227,0.1553698629140854,0.12556158006191254,0.1177915707230568,-0.06423923373222351,0.0006335345096886158,0.06952209025621414,-0.1688249260187149,0.06731975823640823,0.031088141724467278,-0.11699424684047699,-0.13907453417778015,0.05528844892978668,0.17999519407749176,0.10840979963541031,0.17911778390407562,-0.08422598987817764,-0.03859328106045723,0.04855475574731827,-0.1058327779173851,-0.013357603922486305,-0.15752574801445007,0.03516104072332382,-0.07150883227586746,0.02295049838721752,0.17202754318714142,-0.14816072583198547,-0.06979728490114212,0.09116307646036148],[-0.023033548146486282,0.010406129993498325,0.147419273853302,-0.15300005674362183,-0.12962676584720612,-0.10153678804636002,0.00044126439024694264,0.01718267612159252,-0.05131963640451431,0.06600111722946167,0.03172058239579201,-0.09597339481115341,-0.1978076696395874,-0.08656181395053864,-0.1207723319530487,0.039711423218250275,-0.15850654244422913,0.03330891579389572,-0.1293586939573288,-0.13103753328323364,-0.14322350919246674,0.09662870317697525,-0.02232475019991398,-0.07622527331113815,0.14848291873931885,0.027747463434934616,0.08899212628602982,-0.13964629173278809,-0.12609830498695374,0.024550646543502808,0.15391317009925842,0.034715816378593445],[-0.13589218258857727,-6.156275776447728e-05,-0.1667153239250183,-0.0751257985830307,-0.04749945178627968,0.09892717748880386,0.07267846167087555,-0.023410648107528687,0.04158743470907211,-0.023171253502368927,0.09115749597549438,0.0675160214304924,0.029166055843234062,-0.04812781885266304,0.1316043734550476,0.05329444259405136,-0.12599994242191315,0.14451459050178528,0.12013411521911621,0.19577725231647491,0.024965841323137283,-0.0619780495762825,0.11710695177316666,0.13113954663276672,-0.1703348010778427,0.03537382557988167,-0.14100223779678345,0.004189664032310247,0.0481891892850399,0.02719133347272873,0.011956053785979748,0.10200614482164383],[-0.006388695910573006,-0.1104792132973671,0.18747344613075256,-0.07411490380764008,-0.03378922864794731,0.07906930893659592,-0.017262568697333336,-0.15766015648841858,0.08204680681228638,-0.12581194937229156,-0.13155336678028107,0.03012000396847725,-0.0848543792963028,-0.109589584171772,-0.08531299233436584,-0.12946519255638123,-0.010277757421135902,-0.09378921985626221,0.09292083978652954,-0.17896294593811035,-0.06232113391160965,0.031811922788619995,0.022419672459363937,0.12620288133621216,-0.13262109458446503,-0.0027363868430256844,0.14308686554431915,0.13717979192733765,-0.12044540047645569,-0.11578020453453064,-0.20000587403774261,-0.15187408030033112],[0.36290544271469116,0.415676087141037,0.1568763703107834,-0.10841132700443268,-0.3506004810333252,-0.1439690887928009,0.14041662216186523,-0.037515174597501755,0.006069912575185299,-0.17755462229251862,-0.04712978005409241,0.19708551466464996,0.00748663442209363,-0.13583946228027344,-0.3062576949596405,-0.014928171411156654,-0.200771301984787,0.17462928593158722,0.2316036820411682,-0.07346264272928238,-0.06198672950267792,0.1663266122341156,0.02830543741583824,0.009743157774209976,-0.06877879053354263,-0.03443090617656708,0.7798846364021301,0.038250572979450226,-0.07403868436813354,-0.08787847310304642,0.006956527475267649,-0.0893404558300972],[0.04670880734920502,-0.012879844754934311,-0.04993778094649315,-0.19014334678649902,-0.15707038342952728,-0.006615058984607458,0.21573607623577118,0.21209819614887238,-0.0730343759059906,0.10324769467115402,-0.11757981032133102,0.10869434475898743,0.04695381224155426,0.15876489877700806,0.02078951708972454,0.20704267919063568,-0.11549201607704163,0.12060412764549255,-0.03700924292206764,0.05461755022406578,-0.06679078936576843,0.037911731749773026,-0.12093192338943481,-0.11219292879104614,-0.11463692039251328,0.04763942211866379,-0.13646915555000305,-0.1614808738231659,0.015035145916044712,0.19013047218322754,0.15035496652126312,0.09947555512189865],[0.13872596621513367,0.27132728695869446,0.047490909695625305,-0.05574857071042061,-0.33376753330230713,-0.15042133629322052,0.32437437772750854,0.1571614146232605,0.03809687867760658,0.1979345977306366,0.0775754526257515,0.11673387885093689,-0.3133860230445862,0.047124750912189484,-0.6440359950065613,0.4221157431602478,-0.307239294052124,0.23045754432678223,0.1683661788702011,-0.02821102924644947,-0.08470291644334793,0.16234228014945984,0.04167431592941284,-0.32011300325393677,-0.1864270567893982,0.3120274543762207,0.02585664391517639,0.09714142233133316,-0.07449859380722046,0.3505229353904724,0.04113702103495598,0.04499778896570206]],"b":[-0.15076273679733276,-0.11358126997947693,0.06274930387735367,-0.12043745070695877,0.15462079644203186,-0.16809438169002533,0.018025536090135574,0.010736498050391674,0.13711383938789368,0.01951633207499981,-0.19864217936992645,0.023255886510014534,-0.06311684846878052,-0.14340856671333313,0.1583932787179947,-0.12423166632652283,0.024950304999947548,0.14088739454746246,-0.15524940192699432,-0.16047222912311554,0.06857728958129883,0.009239300154149532,0.06747057288885117,-0.2860916554927826,0.019553208723664284,-0.06028100848197937,-0.10855074226856232,-0.19735950231552124,0.14713899791240692,0.08852072805166245,-0.16058219969272614,0.088997982442379]},{"W":[[0.05149426683783531,0.07679738104343414,-0.09788218885660172,0.0006653164164163172,0.21777935326099396,0.1132475882768631,-0.17599892616271973,0.3654586374759674,0.05093684792518616,0.03217199444770813,-0.05085894092917442,0.41445788741111755,-0.2910133898258209,0.107582226395607,-0.1030622348189354,-0.0259946770966053,-0.11514905840158463,0.002507842145860195,-0.016050806269049644,-0.08507838100194931,-0.014753836207091808,0.035412877798080444,0.16550154983997345,0.10856472700834274,0.09273960441350937,0.03057202883064747,0.10186361521482468,-0.018570169806480408,0.04221684858202934,0.0294790081679821,-0.19910487532615662,-0.3677283227443695],[0.017880354076623917,-0.09604527056217194,-0.02243863046169281,-0.023983672261238098,0.0230467040091753,0.10967208445072174,-0.16713376343250275,0.2952774465084076,0.13773314654827118,-0.16341225802898407,-0.23943035304546356,0.035463523119688034,-0.14419719576835632,-0.059864386916160583,0.007770395837724209,-0.06804008036851883,-0.10546059161424637,-0.04786919057369232,-0.07546238601207733,0.13931900262832642,-0.08213117718696594,-0.14457225799560547,0.02147769369184971,0.03156920522451401,0.06961558014154434,0.07727493345737457,0.17596234381198883,-0.11089679598808289,0.10655256360769272,0.1436385065317154,-0.10558449476957321,-0.019260508939623833],[0.06281507760286331,0.05175745114684105,0.06118999794125557,-0.020394595339894295,-0.12495505064725876,0.14186786115169525,0.09215861558914185,-0.11303956061601639,0.15763221681118011,-0.2072673887014389,0.1408296525478363,0.20272193849086761,0.1090332418680191,-0.10085342079401016,0.03569139540195465,-0.03579302132129669,0.07904846221208572,0.007965954951941967,0.18563485145568848,0.015557480044662952,-0.09994693845510483,0.22469350695610046,0.0747452825307846,0.212977796792984,-0.06098528206348419,0.01913883537054062,0.17681191861629486,-0.026574091985821724,0.08850310742855072,0.1294707953929901,-0.16294336318969727,-0.0675823912024498],[-0.06791001558303833,-0.053106196224689484,-0.07676756381988525,-0.39813047647476196,-0.061017245054244995,0.03064924106001854,0.072522833943367,-0.044968798756599426,-0.045848991721868515,0.35664671659469604,0.18965590000152588,-0.6805211305618286,0.2958484888076782,0.04235301911830902,-0.05362165346741676,-0.007615653332322836,0.16691242158412933,0.3693695068359375,-0.10876309126615524,0.16422846913337708,-0.02367616444826126,-0.23147018253803253,0.10135801136493683,0.011770187877118587,-0.0038808060344308615,0.06555859744548798,-0.1138191670179367,0.16902057826519012,0.0698898583650589,0.26981887221336365,0.07988454401493073,0.18459166586399078],[-0.17976300418376923,0.015525570139288902,-0.0794776976108551,0.08697737008333206,-0.10369597375392914,0.29565954208374023,0.3595290184020996,-0.3000686764717102,0.0557548850774765,0.026236824691295624,0.12957723438739777,-0.01746411994099617,0.1638157218694687,0.08632779121398926,0.19233785569667816,0.06928251683712006,-0.17657099664211273,-0.40814879536628723,0.04255647212266922,0.2595243752002716,-0.12206719070672989,0.18859514594078064,0.02040492743253708,0.24231839179992676,-0.07444047927856445,0.18970705568790436,0.06594852358102798,-0.058046042919158936,-0.07210243493318558,0.0537731908261776,-0.01948215439915657,0.19703814387321472],[0.02185765467584133,-0.10072854906320572,0.17639189958572388,-0.11851620674133301,-0.0873689129948616,-0.021497711539268494,-0.06789478659629822,-0.25145336985588074,-0.14690718054771423,0.10928668081760406,0.29013878107070923,-0.2671017646789551,-0.027674641460180283,-0.14330464601516724,0.043772391974925995,0.2502621114253998,-0.13959050178527832,0.13903877139091492,-0.09393604099750519,0.03170241415500641,0.24438223242759705,0.1451960653066635,-0.12869416177272797,0.009726607240736485,0.1640845239162445,-0.040825024247169495,0.26948121190071106,-0.056935928761959076,-0.058540165424346924,-0.008586158975958824,0.13246209919452667,0.41303718090057373],[-0.0007685188320465386,-0.09259559214115143,-0.0852285772562027,0.05925893783569336,-0.1877916306257248,-0.03831443190574646,0.05732830613851547,-0.23060348629951477,0.044469524174928665,0.043858032673597336,0.26579490303993225,-0.24842938780784607,-0.026278642937541008,0.15753616392612457,-0.03503401204943657,-0.05389779806137085,-0.1102275475859642,0.023417111486196518,-0.15822947025299072,0.10235769301652908,0.05832414701581001,-0.09305360913276672,-0.07333963364362717,-0.1330951750278473,0.1821473240852356,0.16780540347099304,0.04580726474523544,0.1711483895778656,-0.07488856464624405,-0.13315846025943756,0.07348719984292984,0.2523365914821625],[0.15439006686210632,-8.396029443247244e-05,0.11518306285142899,0.1469399631023407,0.08764977753162384,-0.16879820823669434,0.2121262103319168,-0.3877374529838562,0.12594911456108093,-0.002059251070022583,-0.10198859870433807,-0.11108449846506119,0.0164619293063879,-0.1338704526424408,-0.0782928615808487,0.01991613768041134,0.12088923156261444,-0.14370712637901306,0.0839749276638031,0.07789024710655212,0.02765868790447712,0.07817303389310837,-0.09786077588796616,-0.12279635667800903,-0.04014497250318527,-0.14590048789978027,-0.07611992210149765,0.023320311680436134,-0.150558739900589,-0.06438310444355011,0.0014941924018785357,0.06370954215526581],[-0.21800410747528076,0.060087405145168304,-0.11366639286279678,0.2546476721763611,0.03879763185977936,-0.07366060465574265,-0.13734301924705505,0.27477940917015076,-0.15328480303287506,-0.14277121424674988,-0.268035888671875,0.6897385716438293,-0.053556352853775024,0.16187214851379395,0.04302334785461426,-0.3142549395561218,0.03804301843047142,-0.2525333762168884,-0.12313671410083771,-0.005934242159128189,-0.10605832934379578,0.010401533916592598,0.04168745502829552,0.3076702654361725,-0.10345733165740967,0.09499210119247437,0.010463989339768887,0.11214200407266617,0.0559808686375618,0.10261613875627518,-0.10849861055612564,-0.2831200361251831],[-0.08508290350437164,-0.01879902370274067,-0.013241478241980076,-0.19368404150009155,-0.15156246721744537,-0.1443580687046051,0.050986725836992264,0.1538018435239792,-0.14477454125881195,-0.07079321146011353,-0.03357040137052536,-0.06431401520967484,0.042812421917915344,0.1407448947429657,0.05495797097682953,-0.12880706787109375,0.058283690363168716,0.141035258769989,0.16897886991500854,-0.15956737101078033,-0.1544869840145111,0.087315134704113,-0.02185177430510521,-0.08344107866287231,-0.08337641507387161,-0.11021218448877335,0.20860840380191803,-0.0424005463719368,0.15792839229106903,0.1396285891532898,0.007966210134327412,0.0037842807359993458],[-0.0052720108069479465,0.08279956877231598,-0.17939715087413788,0.09076375514268875,-0.09305247664451599,0.07210773974657059,0.038436517119407654,-0.32562723755836487,-0.09173528850078583,0.14232581853866577,0.02803819440305233,-0.36143672466278076,0.058021169155836105,-0.03980060666799545,0.04519159346818924,0.16844144463539124,-0.05026107653975487,0.11829477548599243,-0.09103087335824966,-0.04303900524973869,0.01550526637583971,-0.16333632171154022,-0.12909741699695587,-0.13705457746982574,-0.14116136729717255,0.06012558564543724,0.08114175498485565,0.18445773422718048,0.11490671336650848,-0.025606730952858925,0.1117476224899292,0.08355649560689926],[0.09997674822807312,-0.3070373237133026,0.07905600965023041,-0.01907925494015217,0.00991902407258749,0.03000939078629017,-0.13887864351272583,-0.11005103588104248,0.08034983277320862,0.19910570979118347,0.10749249160289764,-0.07183980196714401,0.18755176663398743,0.1586499661207199,0.16453589498996735,0.037069182842969894,0.09734205901622772,0.045475855469703674,0.09730599820613861,0.1782023012638092,-0.043018121272325516,-0.20381145179271698,-0.06303593516349792,0.03288291394710541,-0.05007173866033554,-0.0326811708509922,0.19479289650917053,0.11283169686794281,-0.12021434307098389,-0.032427750527858734,0.02226478047668934,-0.01231938786804676],[0.02428329922258854,-0.06437232345342636,-0.1015242338180542,-0.015630630776286125,-0.10061699151992798,0.19805815815925598,0.13625162839889526,-0.00893111526966095,0.020185908302664757,0.037814799696207047,0.13962236046791077,-0.08107425272464752,-0.0418492890894413,-0.06148604303598404,-0.06736531108617783,-0.010538105852901936,0.061728496104478836,-0.02306392975151539,0.13965532183647156,0.0980830267071724,-0.056332066655159,-0.12511849403381348,-0.1077699065208435,-0.07464765012264252,0.060069285333156586,0.1443086415529251,0.12751856446266174,-0.052743732929229736,-0.038765691220760345,-0.03312422335147858,0.017547687515616417,0.14982043206691742],[-0.006407252512872219,0.028111541643738747,-0.0048922463320195675,0.09605333209037781,-0.08907505124807358,-0.10612883418798447,0.09872369468212128,-0.19083073735237122,-0.12195330858230591,0.08398638665676117,0.05135940760374069,-0.14686346054077148,-0.052797965705394745,-0.008526488207280636,-0.1666913628578186,0.0451260507106781,-0.025761384516954422,0.047462619841098785,-0.029520738869905472,0.06358300149440765,0.07763920724391937,0.17044690251350403,-0.06494130939245224,0.11545857042074203,0.0646485760807991,-0.12103486061096191,0.040873147547245026,-0.0857110545039177,-0.09097519516944885,-0.09673313796520233,-0.08674681186676025,0.19903483986854553],[-0.02867741324007511,0.23816825449466705,-0.2127877175807953,0.02950357273221016,0.1156851127743721,0.23521648347377777,-0.0010091901058331132,0.761735737323761,0.1588028520345688,-0.015071187168359756,-0.17702819406986237,0.3907724916934967,-0.22009530663490295,-0.2829474210739136,0.24200837314128876,-0.246395081281662,-0.0557439886033535,-0.04926103353500366,0.1386803686618805,-0.028946157544851303,0.01698482222855091,0.09962067008018494,0.08930213004350662,0.1141996830701828,0.12218958139419556,-0.18038351833820343,-0.2984236180782318,-0.13748876750469208,0.0422368086874485,0.09059470891952515,0.08088021725416183,-0.3284134268760681],[-0.069611094892025,0.03607087954878807,-0.1421218365430832,-0.10191299766302109,-0.19665966928005219,0.04229949787259102,0.15657758712768555,-0.10437066107988358,-0.0060053253546357155,0.06567905843257904,-0.04255402088165283,-0.09334760904312134,0.032625071704387665,-0.059631288051605225,0.1195436641573906,-0.1471710205078125,0.017822975292801857,-0.22791658341884613,-0.008993170224130154,-0.0028549807611852884,0.074335016310215,-0.07687809318304062,0.1351354867219925,-0.11791621148586273,0.12257654964923859,-0.1062178835272789,0.10612433403730392,-0.06455309689044952,-0.027927082031965256,-0.006432608235627413,0.1381276249885559,0.14391249418258667],[-0.13590140640735626,0.0049120415933430195,-0.13815414905548096,0.10983344912528992,0.019593030214309692,-0.0883939191699028,-0.11306638270616531,0.18002967536449432,-0.11344131827354431,0.11507651954889297,0.10699287801980972,0.15871112048625946,0.0396459624171257,-0.1879083663225174,0.1420704871416092,0.004009189549833536,-0.08297616243362427,0.025803908705711365,0.10051050037145615,0.11900357902050018,0.09830086678266525,0.06357645243406296,-0.21077503263950348,0.0009633157751522958,-0.17451797425746918,-0.03625384345650673,-0.1366569995880127,-0.0489482544362545,0.11734367161989212,0.16540145874023438,-0.06551259756088257,-0.12892355024814606],[0.003140900982543826,0.029782189056277275,-0.02448721043765545,-0.016100527718663216,-0.128498375415802,0.11503010988235474,0.15648028254508972,-0.1823054552078247,0.06141212582588196,0.0802602767944336,0.10104747861623764,-0.116187684237957,0.018995242193341255,0.12352127581834793,0.13313207030296326,0.15126162767410278,-0.05679828301072121,-0.02563885785639286,0.12052258849143982,-0.12600281834602356,0.09600146114826202,-0.12256694585084915,0.12027505785226822,-0.06331100314855576,0.019111543893814087,0.20517948269844055,-0.28001701831817627,-0.15999624133110046,-0.10068181902170181,0.07263486832380295,0.08043888956308365,-0.11206289380788803],[0.03545810282230377,-0.08372389525175095,-0.06492561101913452,0.12917613983154297,0.11922395974397659,-0.05415135622024536,-0.024473603814840317,0.23476234078407288,0.075156569480896,-0.08266758173704147,-0.23676541447639465,0.3202519118785858,-0.09017574787139893,0.035853274166584015,-0.031243259087204933,0.08336245268583298,0.14048314094543457,0.13847161829471588,0.053965482860803604,0.10873734205961227,-0.017797773703932762,0.02179810032248497,0.14984022080898285,0.1542627364397049,-0.09073405712842941,0.13186222314834595,0.07128118723630905,-0.03460168093442917,0.18310591578483582,-0.09996019303798676,0.08980263769626617,0.010934637859463692],[-0.07624859362840652,-0.10000071674585342,-0.19762247800827026,-0.02903457172214985,-0.2301906943321228,-0.0798262357711792,0.10920664668083191,-0.10521966218948364,0.029499035328626633,0.1502380520105362,0.23535898327827454,-0.2980101406574249,0.002129917498677969,0.10081946849822998,0.14533744752407074,0.05656953901052475,-0.03742650896310806,-0.1937664896249771,-0.11540628224611282,-0.08132366836071014,0.14479348063468933,-0.02656935341656208,-0.1340334415435791,0.03222271800041199,0.02181902900338173,-0.021453332155942917,0.06449370086193085,0.11320476233959198,-0.20028460025787354,-0.16321144998073578,0.07493367791175842,0.023658718913793564],[-0.16193920373916626,0.14796845614910126,-0.04284216836094856,-0.025317789986729622,-0.11763705313205719,-0.1383957415819168,0.24363957345485687,-0.2884630560874939,-0.15933968126773834,-0.11809363961219788,0.1785748302936554,-0.1751989722251892,0.05281451717019081,0.01455853134393692,-0.06800921261310577,0.050500255078077316,0.11440154165029526,-0.22414042055606842,-0.01176581159234047,-0.04666157066822052,-0.024731896817684174,0.18959133327007294,0.0020883267279714346,0.20865343511104584,-0.023501327261328697,-0.08415238559246063,-0.12725114822387695,0.18441542983055115,-0.1850723922252655,0.07299990952014923,0.10600218176841736,0.16183128952980042],[0.10799361020326614,-0.21413317322731018,0.13132412731647491,-0.10617697238922119,-0.17508654296398163,0.11512290686368942,0.08011823892593384,-0.2530499994754791,-0.12894143164157867,0.004105890169739723,0.30708742141723633,-0.23817980289459229,0.06359288841485977,0.13075344264507294,0.08497221767902374,0.05315696820616722,-0.0479416623711586,0.058063287287950516,0.15511766076087952,-0.054319728165864944,-0.34494444727897644,-0.08005885034799576,0.04646490141749382,0.0044420030899345875,0.10438363999128342,-0.07923523336648941,0.42081791162490845,-0.10920948535203934,0.08474709093570709,0.1541294902563095,0.2406700849533081,0.4235527813434601],[-0.15059173107147217,-0.14905501902103424,-0.20436030626296997,0.17135263979434967,0.046774886548519135,-0.08764953911304474,0.15005800127983093,0.07489421218633652,-0.19579271972179413,0.10213015228509903,0.04043155908584595,-0.0026072082109749317,0.244496151804924,0.2304881513118744,0.05329890921711922,0.1089160144329071,0.049988776445388794,-0.0945255383849144,-0.18544428050518036,0.1364481896162033,-0.16163519024848938,0.06709219515323639,0.05646488070487976,0.06408651918172836,-0.12653093039989471,-0.06332661211490631,0.1241115853190422,0.10862372070550919,0.05470574274659157,-0.04187057539820671,-0.03093935176730156,-0.04424891993403435],[0.15327608585357666,-0.09099418669939041,0.13972146809101105,0.07022539526224136,-0.1463238000869751,-0.03740213066339493,-0.09347715228796005,0.008136680349707603,0.09473149478435516,-0.004911121446639299,0.11515743285417557,-0.048350099474191666,0.0019475399749353528,-0.19683337211608887,-0.06441772729158401,0.0498468279838562,0.15414300560951233,0.16187644004821777,-0.1277429610490799,-0.07116717845201492,-0.0789710208773613,-0.049464862793684006,-0.17126822471618652,-0.1011759340763092,0.12001660466194153,-0.1907687932252884,-0.18632803857326508,0.011630183085799217,0.05936188995838165,-0.0463569350540638,0.1617850512266159,-0.15178945660591125],[-0.12242667376995087,-0.13545773923397064,-0.011540069244801998,-0.062274228781461716,0.16154569387435913,0.006803450174629688,-0.0019123092060908675,0.09606792777776718,0.20005947351455688,0.119501493871212,-0.25655680894851685,0.10237681120634079,-0.18643024563789368,0.07295457273721695,-0.12899833917617798,-0.1266401708126068,0.2034774273633957,-0.12464099377393723,0.16743098199367523,-0.025758305564522743,0.09023649245500565,-0.1009838804602623,0.10676658153533936,0.032908033579587936,-0.020106874406337738,0.14471927285194397,-0.17154164612293243,-0.15840527415275574,0.20135770738124847,-0.09979992359876633,-0.21219132840633392,-0.12936711311340332],[0.012108414433896542,-0.029962671920657158,-0.10733149200677872,0.059369079768657684,-0.20203883945941925,-0.010465149767696857,0.21001946926116943,-0.2034832239151001,-0.010785028338432312,0.08244560658931732,0.10412651300430298,-0.24334874749183655,0.05965784564614296,-0.07957705110311508,-0.0854974091053009,0.22487445175647736,-0.015012825839221478,0.007879388518631458,0.14220821857452393,0.022459257394075394,-0.0789148211479187,-0.12784215807914734,-0.03483733534812927,0.03873731940984726,-0.13322362303733826,0.022403404116630554,0.04538290947675705,0.13207770884037018,0.04214436188340187,0.022164883092045784,0.1637427806854248,0.2853187620639801],[0.1262693554162979,-0.0288680549710989,-0.13100793957710266,-0.05544440820813179,-0.0770244374871254,-0.03207554668188095,0.04275819659233093,-0.15321026742458344,0.0777561366558075,-0.03845789656043053,-0.035753004252910614,-0.26129621267318726,-0.04814532399177551,0.10503336787223816,-0.128475159406662,0.037861503660678864,-0.037485141307115555,-0.1249401867389679,0.06588664650917053,-0.06757412850856781,0.039266787469387054,-0.12508848309516907,0.014495606534183025,-0.017760995775461197,0.05206898972392082,-0.05936213210225105,0.02893613465130329,-0.060521118342876434,-0.09829835593700409,-0.16193737089633942,0.02860606275498867,0.014241274446249008],[0.13031230866909027,-0.08418954163789749,-0.103620745241642,0.05078578367829323,0.0062794070690870285,-0.00321555626578629,0.20531587302684784,-0.31694501638412476,0.030050989240407944,0.028516823425889015,-0.06854330748319626,-0.24470467865467072,0.11912854015827179,0.061394404619932175,0.11395585536956787,0.1294671893119812,-0.11995714902877808,-0.15123692154884338,-0.05960097536444664,-0.048178937286138535,-0.024389978498220444,-0.10539581626653671,0.08597949147224426,0.15165767073631287,0.02474048174917698,-0.11887558549642563,-0.12692716717720032,-0.04376417025923729,0.008931746706366539,0.011871403083205223,0.07054609805345535,0.2677132487297058],[0.10877680778503418,0.026835879310965538,-0.013593226671218872,0.04946723207831383,0.0799199789762497,-0.22279147803783417,-0.17613786458969116,0.12482569366693497,0.09496290981769562,0.08396629244089127,-0.1361226886510849,-0.07184620201587677,-0.07733933627605438,-0.04385955631732941,0.07482606172561646,-0.03934313729405403,0.15651671588420868,0.09631948918104172,0.1465490758419037,-0.20301398634910583,0.03497232496738434,0.00881258212029934,-0.11174917966127396,0.05978897213935852,-0.20191751420497894,0.12436354905366898,0.05019195005297661,0.0054158479906618595,0.11252383142709732,0.0004887200775556266,0.05751285329461098,0.06944596767425537],[-0.2183653861284256,0.09537016600370407,0.0049600121565163136,0.005359102506190538,0.03065437637269497,0.17347384989261627,-0.13246458768844604,0.08270011097192764,0.1996724158525467,-0.12782439589500427,0.0698823481798172,0.045263756066560745,0.137839213013649,0.09933649003505707,-0.20678159594535828,-0.10970242321491241,0.16886042058467865,-0.0364261232316494,0.015001573599874973,-0.06875863671302795,0.08695759624242783,0.04377090558409691,-0.020297247916460037,-0.03377319499850273,-0.03313537314534187,0.10602167248725891,0.11579577624797821,0.11255292594432831,0.021533513441681862,0.08586598187685013,0.09864599257707596,-0.02262021414935589],[0.002400339348241687,0.05834200978279114,0.15891313552856445,0.0075243697501719,0.13861306011676788,0.0748995691537857,-0.016366949304938316,0.18392369151115417,0.05489293113350868,0.015078353695571423,0.055508073419332504,0.2953176200389862,-0.07802759110927582,-0.054070424288511276,0.19974645972251892,-0.12164318561553955,0.12973237037658691,0.17043448984622955,0.1093616783618927,-0.11990382522344589,-0.11506901681423187,0.09258940815925598,-0.11642560362815857,0.0026584891602396965,0.08834059536457062,-0.19306355714797974,-0.033988967537879944,-0.07430727779865265,0.1535341590642929,-0.16161881387233734,0.09544078260660172,0.004327681381255388],[0.10050339996814728,0.1889140009880066,0.04123067110776901,-0.1873987466096878,0.16039533913135529,-0.009641455486416817,-0.00675670150667429,-0.025372367352247238,-0.017062295228242874,-0.08335880190134048,0.12318679690361023,0.2030348926782608,0.04601869359612465,0.06414631009101868,-0.08044960349798203,-0.06716620177030563,-0.06308047473430634,0.03306986391544342,0.14497214555740356,-0.013690304942429066,0.18542882800102234,0.020471982657909393,-0.1913275420665741,-0.09265492856502533,0.12790654599666595,0.04993636906147003,0.04796788468956947,-0.05671598017215729,-0.1421121209859848,-0.10808250308036804,0.08417756110429764,-0.11970673501491547]],"b":[0.1327013522386551,0.05306259170174599,-0.123191237449646,0.026073332875967026,-0.15340076386928558,-0.04173771291971207,-0.10359892249107361,-0.2100878804922104,-0.018915923312306404,0.0902416855096817,-0.13252942264080048,0.09378943592309952,-0.1974189579486847,-0.2113458812236786,-0.11277131736278534,-0.10316502302885056,-0.00637672608718276,-0.04767066612839699,0.12670880556106567,-0.2008703052997589,-0.03294754773378372,-0.03314756602048874,-0.0060402946546673775,0.22800686955451965,0.14312642812728882,-0.12240005284547806,-0.14997224509716034,-0.09667610377073288,-0.05211939662694931,0.05057786777615547,0.05056871846318245,0.1791267991065979]},{"W":[[-0.015561261214315891,-0.06362917274236679,-0.0026676717679947615,0.11451110988855362,0.09048500657081604,0.1679038256406784,-0.10327890515327454,0.193899467587471,-0.18335922062397003,-0.16203980147838593,-0.0066081383265554905,-0.11364270001649857,0.11163853108882904,0.07124699652194977,-0.09389195591211319,0.056890372186899185,-0.11383825540542603,0.03270015865564346,-0.045610446482896805,0.17938345670700073,0.17909906804561615,-0.10582219064235687,-3.2471554732182994e-05,-0.10539115220308304,-0.0485861711204052,-0.11680074036121368,0.062475837767124176,-0.07884714007377625,0.14883090555667877,0.07110922038555145,-0.1414870023727417,-0.1445949226617813],[0.15666978061199188,0.006929642520844936,0.09463351219892502,-0.17386983335018158,-0.03717738389968872,-0.1858588457107544,-0.18934421241283417,-0.2352641373872757,0.19780194759368896,0.02077426016330719,-0.2493179738521576,0.02503126859664917,-0.12805405259132385,-0.2535105049610138,0.1106429472565651,-0.025572236627340317,0.000514563056640327,-0.1017998456954956,0.06525669246912003,-0.20927965641021729,-0.23670832812786102,-0.07387421280145645,0.12544545531272888,-0.03324040025472641,0.15131817758083344,-0.1351945847272873,-0.09176317602396011,-0.28130605816841125,0.16886305809020996,0.22124306857585907,0.060461074113845825,0.13382335007190704],[0.3199772536754608,0.17211967706680298,0.1514432579278946,-0.22542358934879303,-0.27133020758628845,-0.19885501265525818,-0.08205103874206543,-0.3000952899456024,0.002104054670780897,-0.07000256329774857,-0.24299807846546173,0.1552208513021469,-0.012208906933665276,-0.19894637167453766,0.2656245231628418,-0.17449186742305756,0.001100731547921896,0.11629194766283035,0.24414828419685364,-0.08781521767377853,-0.2847963571548462,-0.17853982746601105,0.004093932453542948,0.10961367934942245,0.15835034847259521,-0.17630797624588013,-0.20269155502319336,-0.26741310954093933,-0.03402578830718994,0.08411161601543427,-0.02991228923201561,-0.1345512568950653],[0.06528972834348679,-0.12130469083786011,-0.1715351790189743,-0.19589370489120483,-0.19272762537002563,0.17427954077720642,0.049317866563797,-0.1663949340581894,0.06947392225265503,0.09564287960529327,-0.019311700016260147,-0.15750007331371307,-0.12495657801628113,-0.16635245084762573,-0.047014474868774414,-0.19508975744247437,-0.03632591292262077,-0.09936568886041641,0.18401332199573517,0.1036204993724823,0.018856162205338478,0.020017778500914574,-0.07793495059013367,0.0869368240237236,-0.09837325662374496,-0.0965651422739029,-0.08649088442325592,-0.08617261797189713,-0.14497941732406616,0.043473292142152786,0.19943402707576752,-0.08280579745769501],[0.0762384757399559,-0.011563348583877087,-0.06755638122558594,-0.020876090973615646,-0.011552529409527779,0.042905647307634354,-0.12939707934856415,-0.17292420566082,0.0864223837852478,0.08140771836042404,-0.001792623777873814,-0.19133053719997406,-0.10401089489459991,-0.10000426322221756,-0.16772855818271637,0.014327486045658588,0.03247620165348053,0.11317611485719681,-0.04128808528184891,-0.009622526355087757,0.028355801478028297,0.08940019458532333,-0.005932503845542669,0.1119355633854866,0.020503701642155647,-0.1744977831840515,-0.03451874852180481,-0.07059410214424133,0.1875087171792984,0.10684201121330261,0.08937918394804001,0.17252948880195618],[0.036941707134246826,0.21002672612667084,0.19069086015224457,-0.11737416684627533,-0.2579876482486725,-0.0900733470916748,-0.11864785850048065,-0.15219707787036896,-0.023422230035066605,0.027547480538487434,-0.15414151549339294,0.24012413620948792,-0.09408995509147644,-0.09533509612083435,-0.06127433851361275,-0.19923698902130127,0.08842847496271133,0.06565096974372864,0.2364797592163086,-0.1857328712940216,-0.041771914809942245,-0.15754258632659912,-0.14722231030464172,-0.014040648937225342,-0.033093612641096115,-0.2078460305929184,-0.19498616456985474,-0.20018161833286285,0.1723729372024536,0.21435411274433136,-0.0377483069896698,-0.12765897810459137],[-0.407230019569397,-0.2048562467098236,-0.06775889545679092,0.3310437798500061,0.1799146682024002,0.04515998065471649,0.38508397340774536,0.06634484976530075,-0.4257065951824188,0.04132065549492836,0.025451380759477615,0.22349831461906433,0.226828470826149,0.02023293264210224,-0.3518546223640442,0.14534656703472137,-0.2966277599334717,0.26626652479171753,-0.2838559150695801,0.14642247557640076,0.044701989740133286,0.06848201900720596,0.0035244643222540617,0.08340927958488464,0.10107167065143585,0.3486242890357971,0.04624297469854355,0.21571175754070282,0.06875772774219513,-0.04165518656373024,-0.07380259782075882,-0.18327262997627258],[-0.14335277676582336,0.15525470674037933,-0.0015696687623858452,0.18391741812229156,0.11390447616577148,-0.034081365913152695,0.13934433460235596,0.08109631389379501,0.012235664762556553,0.027152173221111298,-0.004236920271068811,0.015876246616244316,0.0975884422659874,-0.09330977499485016,0.07666797190904617,0.09133236855268478,0.030299631878733635,0.00812432449311018,0.04630732908844948,0.13032175600528717,0.16398197412490845,0.06741774827241898,-0.10330190509557724,-0.15373772382736206,0.1720653921365738,0.11818724125623703,0.08972851186990738,-0.12352953106164932,0.12248597294092178,0.027376512065529823,0.14928747713565826,0.14313679933547974],[-0.03399837389588356,-0.05520070344209671,0.29818999767303467,-0.06380876153707504,0.32773357629776,-0.2299349159002304,-0.0657099187374115,-0.0456206277012825,-0.10462034493684769,0.04276760295033455,-0.1618611067533493,-0.09264469891786575,0.19582422077655792,0.1225614920258522,0.08041805028915405,-0.1450425684452057,-0.00020361764472909272,-0.0567673034965992,0.16000671684741974,-0.05263931304216385,0.064060740172863,-0.12377572059631348,-0.032537125051021576,-0.013842595741152763,0.128282368183136,0.033095479011535645,-0.0684681385755539,0.15978166460990906,-0.020884893834590912,0.022257566452026367,-0.06593857705593109,-0.04867870733141899],[0.07261231541633606,0.07789672166109085,0.14942972362041473,-0.009392072446644306,0.2499256730079651,-0.1011262759566307,-0.08424146473407745,-0.01637478731572628,-0.16628187894821167,-0.15031886100769043,-0.1833670735359192,-0.0074660396203398705,0.024739272892475128,-0.023211857303977013,-0.05972585827112198,0.14862649142742157,-0.006454202346503735,0.05919904634356499,0.1443706601858139,-0.09113959223031998,0.010669541545212269,0.07739196717739105,0.20641930401325226,-0.07978444546461105,0.11528018862009048,-0.14979593455791473,-0.10279174149036407,0.11005741357803345,-0.027881504967808723,0.2092353105545044,-0.01008233055472374,-0.08733376115560532],[0.0804428905248642,0.13198117911815643,-0.03348720446228981,-0.12169557809829712,-0.0032064118422567844,-0.048906151205301285,0.1633414775133133,0.035801105201244354,-0.04223468899726868,0.10158621519804001,0.08626256138086319,-0.3862852156162262,0.1565350890159607,0.13823896646499634,-0.13687801361083984,0.16937509179115295,0.0478191152215004,-0.05406856909394264,-0.1601507067680359,-0.005310350097715855,-0.1554109752178192,0.13418608903884888,0.13926228880882263,-0.04601600021123886,0.1469501256942749,-0.03205863758921623,0.022558771073818207,-0.10453479737043381,0.009763208217918873,0.058540284633636475,0.10775390267372131,0.00536674028262496],[-0.13482099771499634,0.10683290660381317,0.13111791014671326,0.06261936575174332,0.03491254523396492,0.033292219042778015,0.022614143788814545,0.27734076976776123,-0.004265880677849054,-0.010333484038710594,0.027918076142668724,0.0705471858382225,0.0033637091983109713,0.18188637495040894,0.11229909211397171,-0.10239404439926147,0.0008422872633673251,-0.13134931027889252,-0.14988510310649872,0.05912109464406967,0.1121765524148941,-0.021941715851426125,0.18986429274082184,-0.1261618733406067,-0.09103838354349136,-0.009319634176790714,0.029850617051124573,0.014755643904209137,0.144511416554451,-0.07128267735242844,-0.13647860288619995,0.007592915091663599],[0.1417563408613205,0.019334711134433746,0.11060047149658203,0.048182930797338486,0.1662568598985672,0.10918360203504562,0.13978829979896545,-0.09613444656133652,-0.1412576586008072,-0.052777644246816635,0.06482508778572083,0.33801862597465515,-0.049732595682144165,0.13381566107273102,0.09091980010271072,0.01849270425736904,0.02900349721312523,0.030504535883665085,0.14222416281700134,0.010423025116324425,0.10720035433769226,-0.16384091973304749,-0.09739939868450165,0.017712214961647987,0.11142360419034958,0.10287825018167496,0.03791545704007149,-0.2169691026210785,0.00466426694765687,-0.06873350590467453,-0.17019516229629517,0.05175426974892616],[-0.03543682396411896,0.18074101209640503,-0.09578608721494675,0.020636942237615585,-0.0017808234551921487,-0.15520718693733215,0.04826159402728081,-0.11841359734535217,0.1473643034696579,0.18021734058856964,-0.0914398655295372,0.03258487582206726,0.11678121238946915,-0.01901303604245186,-0.014371460303664207,0.0958997830748558,-0.07713685184717178,-0.016176149249076843,0.14564307034015656,0.04983389377593994,-0.2027449905872345,0.010893690399825573,-0.1441831737756729,-0.07605358213186264,0.1316157430410385,-0.08844462782144547,-0.09927596151828766,-0.019226696342229843,0.03821523115038872,-0.11444389075040817,-0.10976870357990265,-0.16893717646598816],[0.25021693110466003,-0.05678049102425575,-0.007432229816913605,-0.08474484831094742,-0.09156761318445206,-0.14717361330986023,-0.21702252328395844,-0.19192735850811005,0.10846111923456192,-0.24311251938343048,-0.18432414531707764,0.3392680883407593,-0.14019325375556946,-0.17123453319072723,0.1410573273897171,0.06194707006216049,-0.13680467009544373,-0.08188111335039139,-0.06743082404136658,-0.01439096312969923,-0.2397116869688034,-0.3597695827484131,0.1609981805086136,-0.1453501433134079,0.21378374099731445,-0.29783669114112854,-0.00554119935259223,-0.038611557334661484,-0.1152549758553505,0.09239362925291061,-0.13022959232330322,0.07463168352842331],[-0.18019789457321167,0.0358540415763855,0.1551729291677475,0.20054595172405243,0.1276111602783203,-0.09215635061264038,0.19374032318592072,0.12198371440172195,0.08340106904506683,-0.10630346834659576,-0.06974701583385468,-0.2164207547903061,0.17644689977169037,0.06502692401409149,-0.10274184495210648,0.04797450825572014,-0.07727823406457901,0.021768715232610703,0.04504622146487236,-0.06957249343395233,0.10673104971647263,-0.10646698623895645,0.04983453452587128,-0.19792848825454712,0.007374889682978392,0.19910751283168793,0.1783420741558075,0.09056984633207321,0.12717771530151367,0.16946794092655182,0.023418163880705833,0.050409216433763504],[0.11676786094903946,0.18464384973049164,0.14017190039157867,-0.11756294220685959,-0.13942857086658478,-0.10584380477666855,0.011418542824685574,-0.2760479152202606,0.12519516050815582,-0.024110011756420135,0.039044711738824844,0.14026519656181335,-0.126239612698555,0.03724154457449913,0.11033297330141068,-0.18946875631809235,0.17810502648353577,0.148539200425148,0.13196520507335663,-0.05749811604619026,-0.046668875962495804,-0.1422429084777832,-0.08532033860683441,0.11637905985116959,0.11210639774799347,0.026604268699884415,-0.18880651891231537,0.09814051538705826,-0.0619240365922451,0.15049771964550018,0.17556099593639374,0.08018883317708969],[0.26313140988349915,0.12290922552347183,0.09742496907711029,-0.12317291647195816,0.03150610998272896,0.03560015186667442,0.060996029525995255,-0.1385737955570221,0.20923827588558197,0.18095412850379944,-0.15433554351329803,0.1955791562795639,-0.14766333997249603,-0.1576327681541443,-0.12386714667081833,0.01862773671746254,-0.12617842853069305,-0.08908448368310928,-0.06499620527029037,0.010261264629662037,-0.26047974824905396,-0.12413936108350754,-0.016410281881690025,0.044148288667201996,-0.0627637431025505,0.030122004449367523,-0.13830052316188812,-0.192490816116333,-0.01626192033290863,-0.13018453121185303,0.14229252934455872,-0.11120813339948654],[0.243815079331398,0.1576603502035141,-0.1985340416431427,-0.04737070947885513,-0.22847694158554077,-0.1345212310552597,-0.30608275532722473,-0.25257453322410583,0.1400482952594757,-0.21155568957328796,-0.020657217130064964,-0.01431255228817463,0.06032587215304375,0.031544510275125504,0.3494977355003357,-0.10493481904268265,0.21778564155101776,0.08072208613157272,0.2894478440284729,-0.14453740417957306,-0.26774945855140686,-0.3797819912433624,0.021754896268248558,-0.07052711397409439,0.2112099826335907,-0.2057933509349823,0.020869124680757523,-0.3010711967945099,-0.097008615732193,0.09760452061891556,-0.0800376832485199,-0.08615147322416306],[0.20096784830093384,-0.11613378673791885,-0.07545886933803558,0.09942303597927094,-0.01157132163643837,-0.10265233367681503,0.04040026292204857,0.06828998029232025,-0.07589928060770035,0.02982950396835804,0.02322572097182274,0.06465321779251099,0.08024251461029053,-0.13306035101413727,0.06768550723791122,-0.10859381407499313,-0.14597438275814056,0.13316284120082855,-0.07125106453895569,0.005082655698060989,0.05949388071894646,-0.18558715283870697,-0.18798771500587463,0.11356884986162186,0.164606973528862,-0.06125330552458763,0.13345223665237427,0.047840796411037445,0.04938100650906563,-0.160394087433815,0.15229780972003937,0.1061214804649353],[0.08936825394630432,0.12009834498167038,-0.16110311448574066,0.011401884257793427,-0.2149786353111267,-0.014050046913325787,0.03957569599151611,0.008446748368442059,0.09437734633684158,-0.1139918640255928,-0.11647865921258926,0.08009710162878036,-0.09239290654659271,-0.17747840285301208,0.15828706324100494,0.006274065934121609,-0.13032914698123932,0.0890338197350502,0.06851412355899811,-0.1087445542216301,0.02769557200372219,-0.13353870809078217,0.025879809632897377,0.21927426755428314,0.12876668572425842,0.060998208820819855,-0.04163023456931114,0.012263219803571701,0.0777805969119072,0.014047369360923767,-0.031580135226249695,0.04292234405875206],[-0.04999242722988129,-0.09245610982179642,-0.2005026936531067,-0.17591243982315063,-0.25558218359947205,0.1952667087316513,0.019444452598690987,-0.2791646718978882,-0.08735652267932892,0.07013380527496338,-0.06886527687311172,-0.19119103252887726,-0.09628376364707947,-0.09092026948928833,-0.05669373273849487,-0.0018758235964924097,0.09738580137491226,0.09816505759954453,0.1449003964662552,-0.04263033717870712,-0.14907288551330566,0.03126969933509827,-0.14700546860694885,0.12869471311569214,-0.0007242385763674974,-0.07335066050291061,-0.20452141761779785,0.05285909026861191,0.12269502133131027,0.13219131529331207,0.0036165115889161825,0.07456319779157639],[-0.05659555271267891,-0.1118907481431961,-0.05709649249911308,0.12333764135837555,0.06201093643903732,0.12656986713409424,0.08884723484516144,0.13976354897022247,0.08122364431619644,0.06702961027622223,0.07147521525621414,0.1545691043138504,-0.010176284238696098,-0.04325683042407036,-0.02088373899459839,0.06502944976091385,0.13084392249584198,0.11707980185747147,-0.03222120180726051,-0.002932483796030283,-0.018749523907899857,0.14760927855968475,-0.08914966881275177,-0.12636452913284302,0.14889079332351685,0.07930635660886765,-0.06326562911272049,-0.07643647491931915,-0.1306922882795334,0.19612470269203186,-0.17874068021774292,0.12419852614402771],[0.1189851239323616,0.010521424934267998,0.01639314740896225,0.17931614816188812,0.21697765588760376,0.1581123322248459,0.15776246786117554,-0.04601048678159714,0.0965835303068161,0.08112312853336334,-0.11549277603626251,0.2046251893043518,-0.07255718857049942,-0.08447615057229996,0.07492069900035858,-0.006421936210244894,-0.04555213451385498,-0.09827527403831482,0.08852021396160126,0.18513436615467072,0.03168708086013794,-0.12697987258434296,0.008143841288983822,-0.19216644763946533,-0.15529857575893402,-0.038108423352241516,0.14016371965408325,-0.11490597575902939,-0.035226430743932724,-0.062348637729883194,-0.21667850017547607,-0.04851222783327103],[0.03235873207449913,-0.01516569871455431,0.13278242945671082,0.046803057193756104,-0.00031187341664917767,0.07538710534572601,-0.013532709330320358,-0.009427273645997047,-0.0891328752040863,0.12410328537225723,0.05392744019627571,-0.004527694080024958,-0.032048411667346954,-0.180186465382576,-0.1934307962656021,-0.027751464396715164,0.020601538941264153,-0.04793950915336609,0.06735197454690933,-0.18124927580356598,-0.1619691103696823,0.13002638518810272,-0.2042003870010376,0.07379913330078125,0.1657528579235077,0.1081756204366684,0.012127640657126904,-0.19931289553642273,0.04416166990995407,-0.07402674853801727,0.007974638603627682,0.15252086520195007],[0.011721918359398842,-0.11373963952064514,-0.1289444863796234,0.09029774367809296,-0.06824605911970139,0.16724461317062378,0.0019089445704594254,-0.27637407183647156,0.09579400718212128,0.1849958598613739,0.09071160852909088,0.1718960851430893,-0.16380107402801514,-0.14373546838760376,0.10801040381193161,-0.16879813373088837,0.03557144105434418,-0.03349268436431885,0.08013700693845749,-0.020448941737413406,-0.1984873116016388,-0.08166918158531189,0.13248588144779205,0.051326487213373184,0.11315903067588806,-0.11784470826387405,0.11982676386833191,-0.07004709541797638,-0.05640113353729248,0.02818843349814415,-0.03922368958592415,-0.058561816811561584],[-0.26461347937583923,-0.0922294408082962,-0.05985506623983383,0.18815013766288757,-0.02914312109351158,0.18654097616672516,0.33823299407958984,0.184437096118927,-0.21883618831634521,-0.15229761600494385,0.1489381641149521,0.2181759625673294,0.24867689609527588,0.12036491930484772,-0.13197551667690277,0.21220140159130096,-0.04699283838272095,-0.042293716222047806,-0.25241902470588684,0.10800997167825699,0.28482770919799805,0.3226751983165741,-0.08685432374477386,0.06527462601661682,-0.09514378756284714,0.14054130017757416,0.12126610428094864,-0.017850829288363457,0.14946773648262024,0.05571051314473152,-0.14711160957813263,0.06464468687772751],[-0.07313740253448486,0.01093980297446251,-0.00781090697273612,-0.1492837518453598,0.11983085423707962,0.07074755430221558,-0.005722144152969122,0.002180712763220072,-0.0037583927623927593,0.010832961648702621,-0.04585340619087219,-0.057807546108961105,-0.07345955073833466,-0.002523076022043824,0.13329972326755524,0.1706376075744629,0.020712949335575104,0.07563463598489761,0.10156018286943436,-0.06255918741226196,0.010811102576553822,0.1113981381058693,0.15136343240737915,-0.005504053086042404,-0.15185804665088654,0.11861634999513626,-0.12321808189153671,0.10243843495845795,0.00361090456135571,0.10251510143280029,-0.21468335390090942,-0.07133755832910538],[0.1342286467552185,0.15056908130645752,-0.06996733695268631,0.1245366632938385,-0.15791936218738556,-0.11286541819572449,-0.11313599348068237,-0.07654999941587448,0.007473351433873177,0.09497872740030289,-0.1110847145318985,-0.09056178480386734,-0.21305297315120697,0.10783835500478745,-0.06551018357276917,-0.17097923159599304,-0.007944006472826004,-0.015837762504816055,0.06769692152738571,-0.033307336270809174,0.02757570520043373,-0.08579887449741364,-0.06657867133617401,-0.00880454108119011,0.05376775190234184,0.10005201399326324,-0.01850960962474346,0.10081809014081955,0.13920749723911285,-0.1251814365386963,0.0026795519515872,-0.07531115412712097],[0.04306920990347862,-0.04434323310852051,0.1430264413356781,0.09413504600524902,0.007838886231184006,-0.17293016612529755,-0.18563847243785858,0.05751386284828186,0.04453160986304283,0.007501589134335518,0.10940628498792648,-0.06299447268247604,-0.00609021307900548,-0.14103618264198303,0.053307823836803436,0.07451875507831573,-0.14552471041679382,0.20554795861244202,-0.02317008376121521,0.17285221815109253,0.029893064871430397,0.13628612458705902,0.1588808298110962,-0.10029367357492447,-0.03257662430405617,0.08516717702150345,-0.12610837817192078,0.14401531219482422,-0.1476503163576126,0.20482762157917023,-0.13817036151885986,-0.06225661188364029],[0.12367761880159378,-0.10688408464193344,0.12804320454597473,0.15412059426307678,0.18570008873939514,-0.15911009907722473,0.022719169035553932,0.03774581104516983,0.03075084462761879,-0.16041715443134308,0.0997328981757164,0.07425302267074585,-0.15707586705684662,-0.14622628688812256,0.1367816925048828,-0.017230842262506485,0.12560974061489105,0.06895265728235245,0.017887691035866737,-0.003094746731221676,-0.002338947029784322,-0.11259685456752777,-0.1485864222049713,0.11549568921327591,-0.14227358996868134,0.11730065196752548,-0.01338386069983244,0.1355222463607788,0.15941204130649567,-0.11759563535451889,0.08077333122491837,0.002088255248963833],[-0.19517511129379272,0.05937008559703827,0.10195247828960419,0.21199437975883484,-0.05904077738523483,0.158859521150589,0.15439961850643158,0.2787373960018158,0.04866044595837593,-0.10921911895275116,0.15002675354480743,0.036195434629917145,-0.05958902835845947,-0.002370259026065469,0.14653818309307098,0.17708832025527954,0.1108979806303978,0.1576523333787918,-0.106938436627388,0.0003926544450223446,-0.00437378603965044,0.10313054174184799,0.06799300760030746,-0.16292884945869446,-0.03850419074296951,-0.1249648854136467,-0.13811494410037994,0.1911407858133316,-0.09976169466972351,0.08216802030801773,-0.07716996967792511,-0.04601794108748436]],"b":[-0.019507406279444695,0.18123038113117218,0.00958001147955656,0.198846235871315,0.15562912821769714,0.14631693065166473,-0.1733105182647705,-0.09851746261119843,-0.22693966329097748,-0.0909261479973793,-0.05157977342605591,-0.0043860748410224915,0.1653299480676651,0.1084710881114006,-0.10843788832426071,-0.14838933944702148,0.17734861373901367,0.058842964470386505,0.057774316519498825,-0.048641566187143326,0.026408540084958076,0.10682276636362076,-0.16597673296928406,0.07680129259824753,0.13670694828033447,-0.06610728055238724,-0.1038522943854332,-0.08648455142974854,0.0616723895072937,-0.0904088020324707,0.17339496314525604,-0.21030253171920776]},{"W":[[-0.09632907807826996,-0.13720381259918213,0.01104923989623785,-0.02850068360567093,-0.07260457426309586,0.13377812504768372,-0.11837518215179443,0.08995985239744186,0.0034319788683205843,-0.039186298847198486,-0.18815787136554718,-0.11309429258108139,-0.17422206699848175,0.08410641551017761,-0.05950181931257248,0.13039147853851318,-0.11228485405445099,-0.05782647803425789,-0.01630672998726368,0.17395390570163727,-0.054628610610961914,0.05279206857085228,0.06606364250183105,0.11511891335248947,0.08786358684301376,0.08125337213277817,-0.028756294399499893,-0.041512519121170044,0.07417868822813034,0.1260816603899002,-0.03063870780169964,0.12046906352043152],[-0.09659397602081299,0.12789751589298248,0.01569465920329094,-0.062281690537929535,-0.06605815887451172,-0.12403108924627304,-0.0029655040707439184,-0.16271615028381348,-0.22868210077285767,-0.03725806251168251,-0.05278483405709267,-0.00042995630064979196,0.008808896876871586,0.02570001408457756,0.11630824208259583,-0.14090384542942047,0.10516232252120972,0.010242816992104053,-0.060833755880594254,-0.14254789054393768,0.010057657957077026,0.09084423631429672,0.002544370712712407,-0.0927334651350975,0.11350274831056595,0.03368150442838669,-0.18867792189121246,-0.023344222456216812,-0.07723702490329742,-0.14868777990341187,-0.1125839501619339,-0.17046886682510376],[0.188811257481575,-0.17839175462722778,0.1458417922258377,-0.2183387130498886,-0.08065114915370941,-0.0802517831325531,-0.07551388442516327,0.11785402148962021,0.2366756647825241,-0.09413284808397293,-0.13342837989330292,0.12580400705337524,-0.00746743893250823,0.05673074349761009,0.1197567731142044,-0.004442492034286261,-0.10870074480772018,0.050805505365133286,-0.07958737760782242,-0.06462071090936661,-0.08019676804542542,-0.15319381654262543,0.19612626731395721,0.05779191479086876,0.038387831300497055,0.0495266355574131,-0.11273739486932755,0.13725703954696655,-0.019106775522232056,0.006740302313119173,0.14896589517593384,-0.034844864159822464],[0.04281599819660187,-0.17269626259803772,0.06747028976678848,0.0013263528235256672,-0.17907975614070892,0.08650804311037064,0.04452376440167427,-0.04824982210993767,0.279874324798584,0.09331084042787552,0.026145238429307938,-0.03937029466032982,-0.09970548003911972,-0.08208393305540085,0.08940419554710388,0.09815778583288193,-0.11646578460931778,0.14940445125102997,0.0803990289568901,-0.02228224091231823,0.10094478726387024,-0.1388792097568512,0.0659528523683548,0.16583816707134247,-0.19147709012031555,-0.06366969645023346,0.0023175557143986225,0.035874396562576294,-0.1402340680360794,-0.06992669403553009,-0.02124781720340252,0.017119012773036957],[0.0358729362487793,0.04601409286260605,0.06194808706641197,0.07786617428064346,0.05130743235349655,0.002948407083749771,0.034423425793647766,0.075568787753582,-0.22445707023143768,-0.11120401322841644,0.10464067757129669,-0.15037420392036438,0.12989617884159088,0.06655972450971603,0.005638109520077705,-0.12509341537952423,0.015522398985922337,-0.1303899884223938,-0.13361190259456635,0.1266096532344818,-0.16610069572925568,-0.08561891317367554,-0.0768280029296875,-0.003488024929538369,0.07335066795349121,-0.10393046587705612,-0.032403647899627686,-0.04962480440735817,0.14280389249324799,0.10746540874242783,0.08225087821483612,-0.0392812117934227],[0.14766241610050201,-0.24395373463630676,-0.0546693280339241,-0.13432832062244415,0.12354478240013123,-0.2074073702096939,0.2120654433965683,-0.10598168522119522,0.16014283895492554,-0.0013204874703660607,0.18541491031646729,-0.12160287797451019,0.04088291525840759,-0.11883199959993362,-0.15225012600421906,0.08731209486722946,-0.09417901933193207,-0.21366047859191895,-0.27359145879745483,-0.024044249206781387,0.015679603442549706,0.13509154319763184,0.1503642201423645,-0.022488050162792206,-0.11137896776199341,-0.1788349151611328,0.26637983322143555,-0.09490563720464706,-0.023078743368387222,-0.12258534133434296,-0.2416662871837616,0.06481669098138809],[-0.04037094861268997,0.047864269465208054,0.03024447150528431,0.06276742368936539,-0.015482045710086823,0.0037182073574513197,0.0405353419482708,0.08861750364303589,0.013000265695154667,-0.1567329615354538,-0.12301170825958252,-0.036159053444862366,0.012532458640635014,0.07793866097927094,0.15571527183055878,0.011470711790025234,-0.11397574841976166,-0.006958807352930307,0.14509467780590057,0.020985731855034828,-0.13572314381599426,0.059129271656274796,-0.1758555918931961,-0.07340111583471298,0.14602865278720856,-0.08593261986970901,0.08570288121700287,-0.14146697521209717,0.136638805270195,0.04541241377592087,0.12349847704172134,0.020124413073062897],[0.007274816278368235,-0.04389503598213196,-0.045940905809402466,-0.0938677117228508,0.1478152871131897,-0.03934870660305023,-0.048733264207839966,-0.18621909618377686,-0.01032425556331873,-0.03448496013879776,-0.13618522882461548,0.02009758912026882,-0.13137370347976685,-0.019641859456896782,-0.1300700157880783,0.09841495007276535,-0.11080121248960495,0.05703480914235115,0.14191226661205292,-0.15877261757850647,0.13762277364730835,0.16638852655887604,-0.14595872163772583,0.026908067986369133,0.054782796651124954,0.14943285286426544,0.0935223326086998,-0.13546296954154968,-0.16305489838123322,-0.16069193184375763,-0.03821328654885292,-0.059897322207689285],[-0.06496565788984299,0.09145837277173996,-0.1498582810163498,-0.2071603685617447,-0.169149711728096,-0.11549042165279388,0.20332875847816467,0.05768083408474922,0.09480757266283035,-0.04094273969531059,-0.1831388920545578,-0.04287247359752655,0.07328558713197708,0.1378820836544037,0.1448851227760315,0.053875528275966644,-0.10552574694156647,-0.11720091849565506,0.1447279155254364,-0.0986422747373581,0.06933454424142838,-0.07550214976072311,0.16305500268936157,0.11925013363361359,-0.07770455628633499,-0.1156851127743721,0.03808483108878136,-0.11862295120954514,-0.004719856660813093,0.09539615362882614,0.09212256968021393,-0.009902579709887505],[-0.12405196577310562,-0.182878777384758,-0.2047332376241684,-0.024838948622345924,-0.1288600116968155,-0.005988639313727617,-0.04654339700937271,-0.10446072369813919,0.21383881568908691,0.09227508306503296,0.07833854109048843,0.17675796151161194,-0.15306507050991058,-0.07582209259271622,-0.1320285052061081,0.14185717701911926,0.08978796005249023,0.1256406605243683,-0.1596236228942871,-0.03285786509513855,0.1997145265340805,-0.18510295450687408,-0.136617049574852,0.06828293949365616,-0.17725315690040588,-0.02656681276857853,0.09797011315822601,0.14196428656578064,0.008781488984823227,-0.12219696491956711,0.10489491373300552,0.1973220705986023],[-0.1329679936170578,-0.03014395199716091,-0.1535276621580124,-0.15280702710151672,0.033680740743875504,0.06950628012418747,0.10211313515901566,-0.12382900714874268,0.0971742644906044,0.09311838448047638,-0.054729342460632324,-0.03874936327338219,-0.10694073140621185,0.1890036016702652,-0.12292464822530746,-0.09812991321086884,0.1196519210934639,-0.11725062131881714,0.08299694210290909,-0.04599778354167938,-0.005188240669667721,-0.14224569499492645,0.1466721147298813,0.131843701004982,-0.020433073863387108,0.023509344086050987,-0.05311613529920578,-0.09305376559495926,-0.050976816564798355,0.10315858572721481,-0.03021193854510784,0.1538027822971344],[0.029260287061333656,0.040323663502931595,-0.06712765246629715,0.12086398899555206,-0.13840287923812866,0.06173127144575119,0.01719820313155651,0.004570868331938982,0.01673946902155876,0.04059203341603279,-0.037727948278188705,-0.13673803210258484,-0.1282849758863449,0.07792779058218002,0.09280306845903397,-0.16581444442272186,0.0639600157737732,-0.05013587698340416,0.1936773806810379,-0.0959337130188942,0.1372000277042389,0.17260156571865082,0.10589031130075455,0.1171373575925827,0.08135445415973663,0.04704567790031433,-0.18089503049850464,-0.051420506089925766,-0.025111952796578407,0.05115197226405144,-0.04472870007157326,0.05606117099523544],[0.10263160616159439,0.09367506206035614,0.10685831308364868,0.05570996552705765,0.12458062171936035,-0.03679100051522255,0.1316293179988861,-0.0717339739203453,-0.1614283323287964,-0.19061356782913208,0.20394596457481384,-0.062173958867788315,0.09320884197950363,-0.1267714649438858,-0.1739395260810852,-0.09155894070863724,-0.12349268049001694,0.05296367034316063,0.01817031018435955,-0.10448909550905228,0.11406493186950684,0.18661975860595703,-0.17854735255241394,-0.16541041433811188,0.14186976850032806,-0.12453898042440414,0.029862234368920326,-0.06604517251253128,0.037920404225587845,-0.1568458080291748,0.0030356142669916153,-0.113541379570961],[-0.06400958448648453,-0.21518239378929138,-0.12538106739521027,0.0836464911699295,-0.01683812588453293,-0.05287861078977585,0.3166571855545044,0.18746113777160645,0.03171893209218979,-0.18394309282302856,0.10788039863109589,0.06732792407274246,-0.23872001469135284,-0.1633932739496231,-0.05395539104938507,0.19500960409641266,-0.2240907996892929,-0.1673775315284729,-0.21150729060173035,-0.15575209259986877,-0.1663074493408203,0.12200330942869186,0.1802971363067627,-0.16093449294567108,0.005450455937534571,-0.19005568325519562,0.2173151671886444,-0.11040942370891571,-0.08983899652957916,-0.06570368260145187,-0.12674161791801453,0.15190212428569794],[-0.0715288370847702,0.06678351014852524,0.1796397715806961,0.04773211479187012,0.04402412101626396,0.03072204254567623,-0.04413733258843422,0.06990046054124832,-0.037844859063625336,-0.1065874844789505,0.19220611453056335,0.08893568068742752,0.004754357971251011,0.13843651115894318,-0.00024408467288594693,0.07403144240379333,-0.13609950244426727,0.1728678047657013,0.2067103385925293,-0.1772628128528595,-0.17388375103473663,0.001705792616121471,-0.10684160888195038,0.04083135724067688,0.10694050788879395,-0.03446374088525772,0.09852644056081772,0.00242613535374403,-0.06332522630691528,-0.1969311237335205,0.06921763718128204,-0.195814311504364],[0.001349922618828714,0.04804288223385811,-0.07428911328315735,0.11685652285814285,0.06303596496582031,0.1273072063922882,0.0797543153166771,-0.19262215495109558,-0.2697805166244507,-0.0861474797129631,-0.10178574919700623,0.036716267466545105,-0.10438903421163559,-0.15731127560138702,0.03355368226766586,0.061142802238464355,-0.04477700963616371,-0.1663891226053238,0.05131561681628227,0.047871336340904236,0.12536905705928802,0.07506875693798065,0.12013835459947586,-0.1687426120042801,0.19945500791072845,-0.13217119872570038,-0.13675309717655182,0.11819294840097427,-0.04726070538163185,0.0635182186961174,-0.1105474904179573,0.09999202191829681],[0.1609453409910202,0.08803024142980576,0.18121428787708282,-0.06594987958669662,-0.011576446704566479,0.0765506774187088,0.05981936678290367,-0.13124433159828186,-0.007228952366858721,-0.06713509559631348,-0.07313832640647888,0.013902298174798489,-0.11908246576786041,-0.17032074928283691,0.050010018050670624,0.018485357984900475,0.08740459382534027,-0.004444682504981756,-0.09085547924041748,-0.17949098348617554,0.1666930913925171,-0.09896493703126907,0.04272398725152016,0.13454104959964752,0.16318054497241974,-0.12201900780200958,-0.08280795812606812,-0.1493387073278427,0.10605070739984512,-0.20667360723018646,-0.14651454985141754,-0.1544646918773651],[0.145549476146698,0.1398695558309555,0.14669370651245117,0.1955668330192566,-0.05688131973147392,-0.0864802896976471,-0.1383306384086609,0.024453068152070045,-0.05786317586898804,0.02530151791870594,-0.09617740660905838,0.0009650724823586643,-0.07988329231739044,-0.05285376310348511,-0.04475956782698631,-0.030303290113806725,-0.14524613320827484,0.1597059965133667,-0.04824585095047951,0.0033141220919787884,0.103464774787426,0.12666234374046326,0.12407058477401733,0.0890282392501831,0.15810951590538025,0.013671251013875008,0.09699007868766785,-0.07815369218587875,-0.10994960367679596,0.044577598571777344,0.04710541293025017,-0.03919673338532448],[-0.14835840463638306,0.09605411440134048,0.1563514620065689,0.029300246387720108,0.06316658109426498,0.09770066291093826,-0.22048403322696686,-0.05071154609322548,-0.17557746171951294,-0.0884777307510376,0.13973507285118103,0.1672057956457138,0.05717480555176735,0.09568705409765244,-0.13673830032348633,0.004049922339618206,-0.004999224096536636,-0.09163827449083328,0.07913022488355637,0.0019516487373039126,-0.030279837548732758,0.12106245011091232,0.09416193515062332,0.15508660674095154,0.035264693200588226,-0.013732856139540672,-0.03151337057352066,0.02606368064880371,-0.13310450315475464,-0.05827097222208977,-0.140960231423378,-0.14889685809612274],[-0.15119652450084686,0.10226956754922867,-0.1346871703863144,-0.07292268425226212,-0.0030661425553262234,0.14076046645641327,0.11656223237514496,-0.09027034044265747,0.27830857038497925,-0.16066668927669525,0.006002757698297501,0.17522047460079193,0.1272294968366623,-0.021966157481074333,-0.09859403967857361,0.11468294262886047,0.12225005030632019,-0.10907292366027832,-0.055900365114212036,-0.06181974709033966,0.07583095878362656,-0.017040317878127098,0.09893029928207397,-0.058557141572237015,-0.19433467090129852,-0.05447852611541748,-0.11485693603754044,-0.04384007304906845,0.0775943249464035,-0.11706499755382538,-0.024075457826256752,-0.13850460946559906],[-0.12434729933738708,-0.15795329213142395,-0.09911137819290161,-0.14665590226650238,0.0024346071295440197,0.08941108733415604,0.1753285825252533,0.08353782445192337,0.11413604766130447,-0.026451105251908302,0.09004933387041092,-0.08746180683374405,0.09718763083219528,-0.15592992305755615,-0.12333302199840546,0.08125419169664383,-0.08832819014787674,0.015989648178219795,0.11520405858755112,0.12851783633232117,0.1896241307258606,-0.12568172812461853,-0.08481883257627487,-0.01476000901311636,-0.062448062002658844,-0.06074757128953934,0.01479487493634224,0.16225147247314453,-0.08390050381422043,0.1416928768157959,0.07409127801656723,0.13312704861164093],[0.06468641757965088,-0.0819939449429512,0.05625560134649277,-0.16037648916244507,-0.1459776908159256,0.14486058056354523,0.16287007927894592,-0.08134297281503677,0.26835039258003235,0.055098142474889755,-0.014686297625303268,0.20591124892234802,0.018411993980407715,-0.05022561922669411,0.13805744051933289,0.012584049254655838,-0.05595671385526657,-0.08219058066606522,0.15920676290988922,0.13317638635635376,-0.023410582914948463,-0.07159759849309921,0.032618895173072815,-0.07708043605089188,0.012536393478512764,-0.10546212643384933,-0.004718410782516003,-0.022884612902998924,-0.07369846105575562,0.2121199071407318,0.057398948818445206,0.1424165815114975],[-0.11450096219778061,0.013725350610911846,0.030217403545975685,0.021980348974466324,-0.08511218428611755,-0.04298148304224014,-0.12155023217201233,0.160503089427948,0.25379592180252075,0.1080501526594162,0.05463046953082085,0.13203467428684235,0.16846530139446259,0.07785231620073318,0.08679097890853882,0.10883938521146774,-0.10505767911672592,0.036097124218940735,0.0325423888862133,-0.10116183012723923,-0.04574749618768692,-0.17313601076602936,-0.10099095851182938,0.13920533657073975,0.10552112013101578,-0.004263143986463547,0.06235606595873833,-0.027789844200015068,0.03972657024860382,0.018546607345342636,-0.10084307938814163,-0.0337851382791996],[0.18132594227790833,-0.015965623781085014,-0.15036572515964508,-0.04350023716688156,-0.19713015854358673,-0.023812705650925636,0.19036860764026642,0.08465708047151566,0.22721263766288757,-0.13922178745269775,-0.0782773420214653,0.11176423728466034,-0.14240406453609467,-0.06671945750713348,0.12586243450641632,0.0880698412656784,0.058921005576848984,-0.19130951166152954,0.06033431366086006,0.023886140435934067,0.0598331019282341,0.08642683178186417,-0.15764562785625458,0.055475231260061264,-0.18393559753894806,0.1105230450630188,0.08356311917304993,0.01090037077665329,-0.04671191796660423,0.14245758950710297,-0.09043567627668381,0.06760101020336151],[0.13336063921451569,-0.17171669006347656,-0.09692147374153137,0.002559807850047946,0.011153261177241802,-0.008157147094607353,0.2007550150156021,-0.046979159116744995,0.13121113181114197,0.07756541669368744,-0.07715878635644913,0.11237598955631256,0.07286754995584488,0.09900099784135818,-0.04804990440607071,0.16691647469997406,-0.11289273202419281,0.041574619710445404,-0.018029700964689255,0.18538077175617218,-0.1060091033577919,-0.0070001836866140366,-0.13348348438739777,0.09685800969600677,0.038326695561409,-0.11036231368780136,0.01941724680364132,0.04779273644089699,0.09858681261539459,0.18993186950683594,0.07661228626966476,0.04363900423049927],[0.10107661783695221,-0.1919563114643097,0.09112285822629929,-0.08652008324861526,0.06998372822999954,0.03267284482717514,0.019024647772312164,0.16590359807014465,0.015909066423773766,0.06287675350904465,0.04184902459383011,-0.03824399784207344,0.05239218845963478,-0.16354255378246307,-0.07002663612365723,0.1329483985900879,0.07730943709611893,-0.17458899319171906,0.03668287768959999,0.06033514440059662,0.17929910123348236,-0.2311469167470932,-0.02807440422475338,-0.08535421639680862,-0.13888108730316162,-0.006851238198578358,-0.14683130383491516,0.14494192600250244,-0.056741248816251755,0.10335039347410202,-0.10793145000934601,0.04460921883583069],[-0.14437568187713623,0.2250451296567917,0.23194511234760284,0.17257118225097656,-0.03995029255747795,0.16909635066986084,-0.24338431656360626,0.07925080507993698,-0.08537592738866806,-0.10783261805772781,-0.1324370950460434,-0.17430323362350464,0.06955276429653168,-0.056763991713523865,-0.05460190773010254,0.16035427153110504,0.0052625457756221294,0.11610183119773865,0.054069094359874725,0.05455201119184494,0.03513316065073013,0.1415102183818817,0.07700556516647339,-0.034823667258024216,0.17465870082378387,-0.028493786230683327,-0.1709669828414917,0.057547908276319504,-0.034109801054000854,-0.1577940136194229,0.06603948026895523,-0.063836008310318],[-0.053579360246658325,-0.11372487992048264,-0.10528744012117386,-0.14296922087669373,-0.016920482739806175,0.14729033410549164,-0.07311247289180756,-0.038734495639801025,0.011928592808544636,0.008374701254069805,-0.023765483871102333,-0.0906006395816803,0.07429894804954529,-0.1537310630083084,0.18356311321258545,0.0845516249537468,-0.037986934185028076,-0.08193205296993256,0.05415341258049011,0.17770011723041534,-0.1090049222111702,-0.10836426168680191,0.14542017877101898,-0.015442706644535065,-0.16495633125305176,-0.03690662607550621,0.02300632745027542,-0.025349611416459084,-0.11521012336015701,-0.06423083692789078,0.04675506427884102,0.1726835072040558],[0.16316717863082886,-0.002178806811571121,0.08936842530965805,-0.07530862838029861,0.12482443451881409,0.172726571559906,0.06560856103897095,-0.11679011583328247,0.018772605806589127,-0.18700779974460602,0.008372355252504349,-0.06533266603946686,-0.16775086522102356,-0.12095769494771957,-0.1490793079137802,-0.0007224123110063374,-0.011491443030536175,0.08661879599094391,-0.01612037979066372,0.1076689288020134,0.011763529852032661,0.2060810923576355,0.13489393889904022,-0.16481761634349823,-0.08680153638124466,0.08389633148908615,0.15342015027999878,-0.16231900453567505,-0.0021237090695649385,-0.11293837428092957,0.17990590631961823,0.11106771230697632],[0.1380460411310196,0.010974252596497536,-0.10944169014692307,0.11894969642162323,-0.10430625826120377,-0.04185190051794052,0.04844222217798233,-0.0803898498415947,0.01737954281270504,0.038798436522483826,0.0342840738594532,-0.09647267311811447,-0.08626344054937363,0.02271164022386074,-0.14966651797294617,0.1397295594215393,-0.20433372259140015,-0.044056106358766556,-0.23414771258831024,-0.16030330955982208,-0.07696423679590225,0.1203887015581131,0.21701562404632568,0.05620051920413971,0.12089987099170685,-0.11879109591245651,0.17560869455337524,0.13399462401866913,-0.18551862239837646,-0.10341718047857285,-0.014951246790587902,0.050829242914915085],[-0.12901081144809723,-0.11197114735841751,0.15874886512756348,0.08321128040552139,0.028374919667840004,-0.14976878464221954,0.1200566291809082,-0.16531848907470703,-0.03943539410829544,-0.035361148416996,0.02711171656847,0.05962652713060379,-0.03188185766339302,-0.05974819138646126,0.12818068265914917,-0.1833716183900833,0.09767872095108032,-0.02690082974731922,-0.028005149215459824,0.08554846048355103,0.03689782693982124,-0.10781680792570114,0.13499236106872559,-0.09733545035123825,0.18072509765625,-0.06580200791358948,0.15104451775550842,0.04178759455680847,-0.011095244437456131,0.027455974370241165,0.012775342911481857,-0.13086079061031342],[0.1060793325304985,0.09684847295284271,-0.04286021366715431,0.09286577999591827,-0.020958129316568375,-0.10655602067708969,-0.0733313262462616,0.176642045378685,0.07591551542282104,0.13544224202632904,-0.22074899077415466,0.0352952666580677,-0.12361268699169159,0.08169994503259659,0.16697710752487183,0.12327926605939865,-0.07232881337404251,-0.18029610812664032,-0.10138919204473495,-0.04976584389805794,0.18228881061077118,-0.15957990288734436,0.08358214795589447,0.15836942195892334,0.030326206237077713,-0.13424980640411377,-0.01129805389791727,-0.047892481088638306,0.1264571249485016,0.03554588928818703,-0.0025510818231850863,0.2074875682592392]],"b":[0.005192610900849104,0.1264529973268509,-0.10995736718177795,0.06545484811067581,0.0750967264175415,-0.05815192684531212,0.0736895427107811,-0.12576404213905334,-0.041735321283340454,0.04521061107516289,-0.21204853057861328,-0.052754346281290054,0.16662068665027618,-0.013810214586555958,0.039009734988212585,0.06558224558830261,-0.03615478798747063,0.19104492664337158,0.022190874442458153,-0.10330895334482193,0.051631566137075424,-0.19984158873558044,-0.0832318663597107,-0.026467707008123398,-0.08967892825603485,0.04933559149503708,-0.12087498605251312,-0.10133045166730881,-0.026436693966388702,0.13026273250579834,0.11492281407117844,-0.1830587387084961]},{"W":[[0.015125822275876999,-0.030256362631917,0.19404129683971405,0.10306211560964584,-0.12756682932376862,0.2014717310667038,-0.029767557978630066,-0.002152056200429797,0.07970529794692993,0.1850658357143402,0.09955749660730362,-0.14747701585292816,-0.10194149613380432,0.20889654755592346,-0.07956834882497787,-0.11645734310150146,-0.06925395876169205,-0.13864906132221222,-0.12501612305641174,0.05356293171644211,0.06853440403938293,0.20984883606433868,0.13337598741054535,0.02227943204343319,0.10380284488201141,0.10217397660017014,-0.16100260615348816,0.11856912076473236,-0.09119229763746262,0.10668859630823135,-0.07767894864082336,0.07463791966438293]],"b":[-0.04788471758365631]}]}