{"key":"burgers","name":"Burgers Equation","description":"Viscous Burgers equation \u2014 nonlinear advection-diffusion","latex_equation":"\\frac{\\partial u}{\\partial t} + u \\frac{\\partial u}{\\partial x} = \\nu \\frac{\\partial^2 u}{\\partial x^2}","latex_ic":"u(x, 0) = -\\sin(\\pi x)","latex_bc":"u(-1, t) = u(1, t) = 0","latex_domain":"x \\in [-1, 1], \\; t \\in [0, 1]","x_min":-1.0,"x_max":1.0,"t_min":0.0,"t_max":1.0,"y_min":-1.3,"y_max":1.3,"y_label":"u(x, t)","params":{"nu":0.003183098861837907},"layers":[{"W":[[0.821008026599884,0.4985785186290741],[-0.6456822156906128,0.45906269550323486],[-0.5342470407485962,-0.18639500439167023],[-0.8582538366317749,0.7009743452072144],[1.1748028993606567,-0.7304784059524536],[1.4659779071807861,1.1034846305847168],[1.223520040512085,-0.04789450019598007],[0.7977291345596313,0.045982759445905685],[2.7804923057556152,-0.019882984459400177],[-0.7688593864440918,0.3775734603404999],[-0.26569703221321106,-0.044714394956827164],[-0.6659830808639526,0.8426641225814819],[-1.5035181045532227,-0.05578415095806122],[-1.2371461391448975,-0.9140833020210266],[-0.08684777468442917,-2.8689663410186768],[1.4043927192687988,-0.5257832407951355],[1.9939486980438232,0.17581608891487122],[-0.3913547396659851,0.22972556948661804],[0.9752587676048279,1.0903161764144897],[-0.3657390773296356,0.21045927703380585]],"b":[-0.3555578589439392,-0.3237442970275879,0.48894691467285156,0.9414868354797363,0.7613093852996826,-0.7306905388832092,0.21113766729831696,-0.08916779607534409,0.03931298106908798,-0.42384204268455505,-0.8558824062347412,-0.3440468907356262,-0.2876122295856476,0.6816632747650146,0.45888713002204895,0.39093148708343506,-0.07209082692861557,0.23986591398715973,0.7105062007904053,-0.6138947010040283]},{"W":[[0.01187366433441639,-0.18083815276622772,-0.004343487787991762,-0.15352404117584229,-0.00014925916912034154,-0.1742994487285614,0.14862573146820068,-0.014945379458367825,-0.4292260408401489,-0.09964299947023392,0.24881209433078766,0.192276269197464,0.24089501798152924,-0.17134736478328705,-0.597161054611206,-0.20451971888542175,-0.31970271468162537,0.0527738519012928,0.06799749284982681,0.24406398832798004],[-0.5941102504730225,0.08330468088388443,0.32478708028793335,-0.06932944804430008,-0.2670663297176361,-0.6592797040939331,-0.393812358379364,-1.2241871356964111,-2.193681240081787,0.3107931613922119,0.06211462989449501,0.14984454214572906,0.354017436504364,0.52779620885849,-0.138676717877388,-0.6326969861984253,-0.7082032561302185,0.1847897171974182,-0.05856086686253548,-0.2919853627681732],[0.0007469510310329497,0.27977585792541504,-0.12069102376699448,-0.4250379800796509,-0.9406261444091797,0.5280016660690308,-0.6716751456260681,-0.3628707528114319,0.06378480792045593,0.6342542171478271,0.8695329427719116,0.2911405563354492,0.592187225818634,-0.7429918050765991,-0.04556608945131302,-0.42352789640426636,0.4097697138786316,-0.2218450903892517,-1.140043020248413,0.16469071805477142],[-0.083786241710186,-0.32789522409439087,0.007012601941823959,-0.21956874430179596,-0.027904916554689407,-0.362161248922348,0.15747693181037903,0.11245876550674438,0.5791768431663513,-0.24461786448955536,0.2444731444120407,-0.17951159179210663,-0.31856828927993774,0.5299345850944519,0.5139487385749817,0.39764338731765747,0.022268151864409447,-0.32232174277305603,-0.011282097548246384,-0.0731692984700203],[0.6812387704849243,-0.8893714547157288,0.07771030813455582,-0.17207300662994385,0.3811890482902527,0.42530882358551025,0.5810219645500183,0.8626581430435181,2.091197967529297,-0.5076735019683838,0.026595138013362885,-0.6211973428726196,-0.25196871161460876,-0.39632847905158997,0.24645909667015076,0.7415302395820618,1.1419508457183838,-0.0833294615149498,0.07833786308765411,-0.11817517876625061],[0.3069623112678528,-0.0771881639957428,-0.043729960918426514,-0.34557467699050903,0.10183915495872498,-0.02292548306286335,-0.1145872250199318,0.4218791127204895,0.1037333756685257,-0.14337058365345,-0.13636533915996552,0.010880152694880962,0.16413791477680206,0.022274808958172798,0.04171855002641678,-0.027636097744107246,-0.1351786106824875,-0.028935682028532028,0.26408475637435913,-0.1915614902973175],[0.6375294327735901,-0.031114548444747925,-0.06133430078625679,-0.18944048881530762,0.060447659343481064,0.25344380736351013,0.12064114212989807,0.19778120517730713,-0.15874800086021423,0.03332466259598732,0.008156497031450272,-0.00516438577324152,0.14419254660606384,0.11278899013996124,0.1984713077545166,-0.04765791445970535,0.06016089394688606,-0.12232663482427597,-0.045028191059827805,0.11278516799211502],[0.5324223041534424,-0.27765601873397827,-0.05533979460597038,-0.039281874895095825,0.15842226147651672,0.3789759576320648,0.14122195541858673,0.6165623664855957,1.3244593143463135,0.005068041384220123,0.223178893327713,-0.09410113841295242,-0.34890270233154297,-0.5992296934127808,-0.2988196909427643,0.6227778196334839,0.9333838820457458,-0.3718508780002594,0.011925609782338142,0.05623242259025574],[-0.0675082579255104,0.1803719401359558,-0.29483360052108765,-0.37891772389411926,-0.2377673089504242,0.03946350887417793,0.12715066969394684,0.44642022252082825,-0.17485812306404114,-0.1547812819480896,-0.12089790403842926,0.6034920811653137,0.15052853524684906,0.35692480206489563,0.9675762057304382,-0.005703098606318235,-0.15075089037418365,-0.4374191462993622,-0.28752732276916504,-0.09535357356071472],[0.1772647351026535,-0.7096313238143921,-0.1038341224193573,-0.10878624767065048,0.6116881966590881,0.035914190113544464,0.17717815935611725,0.4533419609069824,0.093004010617733,-0.450809508562088,-0.33201339840888977,-0.893474817276001,-0.10944635421037674,0.18142832815647125,0.8292415142059326,0.249010369181633,0.28155866265296936,-0.5847523808479309,0.1480095535516739,-0.003457920625805855],[0.5136778354644775,-1.0252776145935059,0.3271471858024597,0.14672017097473145,0.9296088218688965,0.9724555015563965,0.42422929406166077,-0.07489042729139328,0.2676171064376831,-0.767114520072937,-0.29210197925567627,-1.1642941236495972,-0.10675548017024994,-0.40367335081100464,1.4016590118408203,0.028098948299884796,0.5055144429206848,-0.048051316291093826,-0.2407950609922409,-0.509052038192749],[0.12338098883628845,0.05043226107954979,-0.4189545512199402,-0.386695921421051,-0.10610447824001312,0.4576001465320587,-0.3000650405883789,0.36033517122268677,0.30696821212768555,0.052948132157325745,0.08527573943138123,0.019396470859646797,-0.10674799978733063,-1.010138750076294,-0.09785838425159454,-0.22949913144111633,-0.12196508049964905,-0.20881995558738708,-0.08811522275209427,0.09590700268745422],[0.2483571469783783,0.13859005272388458,-0.0550629124045372,-0.0665934681892395,-0.27495449781417847,0.18202780187129974,-0.0851612389087677,0.043411221355199814,0.04064495116472244,0.11411245912313461,0.28776252269744873,0.288470596075058,-0.19525615870952606,0.1318419873714447,0.4601878225803375,0.017135901376605034,0.27596890926361084,0.2875148057937622,-0.16416411101818085,0.0827903151512146],[-0.045198339968919754,0.8155307173728943,0.23401197791099548,0.1496771275997162,-0.49499747157096863,-0.23982647061347961,-0.38186386227607727,-0.4262586534023285,-0.5981364250183105,0.26597893238067627,0.27945178747177124,0.585301399230957,-0.05715394392609596,-0.2872221767902374,-0.15763573348522186,-0.5760891437530518,-0.20984137058258057,0.29725009202957153,-0.29093506932258606,0.0009018955170176923],[0.08237624913454056,-0.1070079579949379,-0.12094616889953613,-0.21168090403079987,-0.29024624824523926,-0.10844288766384125,0.21351942420005798,-0.13467560708522797,0.024499859660863876,0.08291308581829071,0.13671302795410156,0.18377956748008728,0.16935215890407562,0.1459917426109314,-0.16647741198539734,0.05425788834691048,0.26068544387817383,-0.008957027457654476,-0.2580764591693878,0.22815409302711487],[-0.5491883754730225,-0.029697563499212265,-0.08446294814348221,0.31691089272499084,0.6588020324707031,-0.42466267943382263,0.1167721077799797,-0.760807991027832,-0.025712216272950172,-0.1900254189968109,0.08159788697957993,-0.07597169280052185,-0.29169681668281555,0.3003731667995453,-1.5021791458129883,0.6574414372444153,-0.7575474977493286,0.3906567096710205,0.6616964936256409,-0.24933798611164093],[0.6162668466567993,0.04163633659482002,-0.015582169406116009,0.17969530820846558,0.08920534700155258,0.4587208330631256,-0.20097637176513672,0.1183563619852066,-0.12587539851665497,-0.043893586844205856,-0.15916568040847778,-0.023435475304722786,0.15991654992103577,-0.40932056307792664,-0.0005939616821706295,-0.3372408449649811,-0.39839085936546326,-0.006499584764242172,0.21705102920532227,-0.09335298091173172],[-0.47914648056030273,0.14976832270622253,0.4856761693954468,0.21910622715950012,-0.22420340776443481,-0.8407645225524902,-0.5171859860420227,-0.3517967462539673,-0.15348398685455322,0.0821351557970047,-0.2015097737312317,-0.07441927492618561,0.46572357416152954,0.8053410053253174,1.1330204010009766,-0.3003770112991333,-0.243862584233284,0.26662319898605347,-0.08091641962528229,-0.45866769552230835],[-0.19191569089889526,-0.4341574013233185,-0.14747242629528046,0.15249976515769958,0.4556169807910919,0.13089139759540558,0.014412788674235344,-0.04128897935152054,-0.2246496081352234,-0.15481173992156982,0.005539131350815296,-0.4327509105205536,-0.07295840233564377,0.19390124082565308,0.16316500306129456,0.39601969718933105,-0.17536282539367676,-0.09726162254810333,0.022271184250712395,-0.042977120727300644],[-0.1228017807006836,-0.3763669431209564,-0.11394216865301132,0.05103317275643349,0.7080921530723572,0.01777128130197525,0.028532827273011208,0.40856173634529114,0.42769649624824524,-0.5959234237670898,-0.06636904925107956,-0.9558460712432861,-0.18080152571201324,0.08274774998426437,1.0104014873504639,0.4396902620792389,-0.234835684299469,-0.16010592877864838,-0.03385228291153908,-0.0952649861574173]],"b":[-0.07243368029594421,0.08045186847448349,-0.25166478753089905,-0.19912855327129364,0.09255222976207733,-0.10274139046669006,-0.23041123151779175,-0.24152955412864685,0.12244218587875366,0.36039119958877563,0.549732506275177,-0.01813989318907261,0.12388426810503006,-0.05825292691588402,-0.16543899476528168,0.14083518087863922,-0.06004541367292404,0.0888475701212883,0.0014951587654650211,0.0012166814412921667]},{"W":[[0.18693996965885162,0.2755949795246124,-0.15140441060066223,0.07473545521497726,-0.5465437173843384,-0.20834185183048248,0.08016078174114227,-0.5495542287826538,0.20759911835193634,0.07967273145914078,-0.242447629570961,-0.3378770649433136,0.15365809202194214,0.0949610024690628,-0.028307069092988968,-0.09043020009994507,0.05299526825547218,0.47724899649620056,-0.12348371744155884,-0.15633080899715424],[-0.25519561767578125,-0.10599198192358017,-0.027015114203095436,0.07001348584890366,0.3764660954475403,-0.25041478872299194,-0.17520666122436523,-0.02607664465904236,0.15884703397750854,0.09553354233503342,0.429458349943161,0.34170475602149963,0.14622953534126282,-0.23417824506759644,-0.21521387994289398,-0.2638079524040222,0.27240845561027527,-0.7265402674674988,0.25834009051322937,0.12269727140665054],[-0.02299736626446247,0.16376087069511414,-0.05160167068243027,0.11996044963598251,0.1594829112291336,-0.41823750734329224,0.05438193678855896,-0.14323744177818298,-0.0050872499123215675,0.09754353761672974,0.16926519572734833,-0.40692201256752014,0.03951173275709152,0.27445411682128906,0.14026059210300446,-0.08377504348754883,-0.2639889419078827,0.15516386926174164,-0.13215142488479614,0.20949344336986542],[-0.5498106479644775,-0.37461766600608826,-0.09065885096788406,0.279691606760025,0.1399981826543808,0.02777993679046631,0.09523002058267593,-0.2710292637348175,0.1291496902704239,-0.3803134262561798,-0.28446054458618164,-0.06900065392255783,0.05498158931732178,0.14044861495494843,-0.1223798617720604,-0.09211619198322296,0.04965488240122795,0.22610332071781158,0.2520327866077423,0.009001152589917183],[0.5311976075172424,0.5609764456748962,0.36512866616249084,-0.018365278840065002,-0.48911625146865845,-0.12402038276195526,-0.16340991854667664,-0.257079541683197,-0.3432454764842987,-0.8036699295043945,-0.5315670967102051,-0.5084050297737122,-0.04453279450535774,0.16367894411087036,0.35519179701805115,-0.005139309912919998,-0.3087802827358246,0.7171529531478882,-0.4090564250946045,-0.3954375088214874],[-0.005641462281346321,-1.3840839862823486,0.0106361648067832,0.09519708901643753,1.0973600149154663,-0.36819204688072205,-0.11557915806770325,1.7420806884765625,0.04277797043323517,0.2686547636985779,0.9484049677848816,0.6356026530265808,-0.20232784748077393,-0.820189893245697,-0.10916387289762497,-0.17727623879909515,0.09115967899560928,-1.194815993309021,0.3725917339324951,0.21602976322174072],[-0.008083568885922432,0.5080061554908752,-0.19197317957878113,-0.15912102162837982,-0.0009795413352549076,-0.2070372998714447,-0.07012663781642914,0.054815247654914856,0.2868185043334961,0.270635724067688,0.44099104404449463,0.2618379592895508,-0.20225173234939575,0.1662323921918869,0.14055709540843964,-0.13426528871059418,-0.013421502895653248,-0.4840918183326721,-0.10576409846544266,0.2444230616092682],[-0.08516310900449753,-0.015398986637592316,-0.2858026921749115,-0.23815509676933289,0.07211823761463165,-0.8797153234481812,-0.36089423298835754,0.3288276493549347,-0.5592796206474304,0.13873068988323212,-0.049011509865522385,-0.6298612356185913,-0.00937302503734827,0.13044603168964386,-0.17471660673618317,0.15273043513298035,-0.22634455561637878,-0.340812623500824,-0.13469824194908142,-0.10841581970453262],[0.14110805094242096,-0.2222461849451065,0.18928834795951843,-0.021686352789402008,-0.4251563549041748,-0.5098540782928467,-0.009521953761577606,0.16840657591819763,-0.05342177301645279,-0.03281223773956299,0.32558056712150574,-0.20772932469844818,0.22738465666770935,-0.12687323987483978,0.042739562690258026,0.1943788081407547,0.08285882323980331,-0.5947408080101013,-0.027307873591780663,0.2202870398759842],[0.2141709178686142,0.2386012226343155,-0.20000891387462616,0.05270419269800186,-0.3171898424625397,-0.2365809828042984,0.06111344322562218,-0.0464930534362793,0.028827661648392677,-0.2860124707221985,-0.5083070397377014,-0.20244313776493073,0.25231286883354187,0.14368416368961334,-0.1492004543542862,0.20157253742218018,-0.008848913013935089,-0.18620608747005463,-0.29897674918174744,-0.22646655142307281],[0.09833820164203644,0.002955011557787657,-0.2928785979747772,-0.18188422918319702,-0.25980228185653687,0.23531101644039154,-0.3117404580116272,-0.12261376529932022,-0.26843351125717163,0.013936835341155529,0.3508472442626953,0.48707589507102966,-0.2371961772441864,0.40398553013801575,-0.09723915159702301,0.47895073890686035,0.3946509063243866,0.28027838468551636,-0.07006557285785675,0.3407744765281677],[0.2845640480518341,-0.22151729464530945,-0.13306814432144165,-0.3577040433883667,0.05465473607182503,-0.5852104425430298,0.14215092360973358,0.337770015001297,-0.26733800768852234,0.2262381762266159,0.12237704545259476,0.30750831961631775,0.22549167275428772,-0.3976806700229645,0.25032567977905273,0.09267662465572357,0.06044146046042442,-0.7459657192230225,-0.05975652486085892,-0.05608821287751198],[0.015904031693935394,0.11516795307397842,0.009091777727007866,0.07370121031999588,-0.015381913632154465,-0.37517109513282776,-0.115126833319664,-0.025651805102825165,-0.49139663577079773,-0.11341939866542816,0.24101662635803223,-0.6426936388015747,-0.2476864457130432,-0.0032957622315734625,0.04740437865257263,0.45748811960220337,-0.06489559262990952,-0.3661041855812073,0.14533455669879913,0.12785276770591736],[-0.017535392194986343,0.5602187514305115,0.1306254267692566,0.5556261539459229,-0.41210657358169556,-0.11421190202236176,0.25737470388412476,-0.5894398093223572,0.20636780560016632,0.29025283455848694,0.2690318822860718,0.34654685854911804,-0.02687067538499832,0.0605170764029026,0.26252496242523193,-0.2536870539188385,-0.6001080274581909,0.20732948184013367,-0.11159590631723404,0.5207003355026245],[-0.1516943722963333,0.07041792571544647,-0.15902934968471527,-0.31596824526786804,-0.3157951533794403,0.0213348139077425,-0.006447815801948309,-0.40971049666404724,-0.3094610869884491,0.38249844312667847,0.38123202323913574,0.4208536446094513,-0.2805338501930237,0.08161967992782593,-0.07607466727495193,0.1869887262582779,-0.1899283230304718,0.08134839683771133,-0.056637778878211975,0.12487608939409256],[0.16032762825489044,-0.08418330550193787,0.08356913924217224,0.07913201302289963,-0.14655840396881104,-0.4032842814922333,0.11497042328119278,0.11944226175546646,-0.1185908392071724,0.2382107377052307,-0.034625083208084106,0.010846543125808239,0.1510755568742752,-0.13155622780323029,0.1572561264038086,-0.24105016887187958,-0.1271074414253235,0.03684413060545921,-0.21597227454185486,0.20994673669338226],[-0.2645345628261566,-0.018051275983452797,-0.24073529243469238,0.15342524647712708,0.12268847972154617,0.15436412394046783,0.04511136934161186,0.21329271793365479,0.22586186230182648,-0.05048752948641777,-0.14805865287780762,0.2638268768787384,-0.03817546367645264,0.0853692814707756,0.10252436250448227,-0.027538757771253586,0.10263852030038834,0.3136358857154846,0.022271515801548958,0.24883319437503815],[0.10789693146944046,0.1834278106689453,-0.1468002200126648,-0.13124226033687592,-0.19588564336299896,0.1876077950000763,0.20180357992649078,-0.2818279564380646,0.2167472541332245,0.021150382235646248,0.259130597114563,0.372217059135437,-0.2813120484352112,0.07971509546041489,-0.18045535683631897,0.1120636835694313,-0.12283239513635635,-0.04939950630068779,0.014067363925278187,-0.06062288209795952],[-0.08067058026790619,-0.26773256063461304,-0.29586803913116455,-0.3428076505661011,-0.11626030504703522,0.13701868057250977,-0.07792454212903976,0.0798473060131073,0.03117029368877411,0.5066419243812561,0.427371621131897,0.07987280189990997,-0.5532466173171997,0.4912245273590088,-0.18334496021270752,0.5566614866256714,0.10963331162929535,-0.021336963400244713,0.9156993627548218,0.4349684715270996],[-0.1642744392156601,0.08640280365943909,0.2474236935377121,-0.10391146689653397,-0.1776125729084015,0.83685302734375,0.3531062602996826,-0.36878466606140137,0.286554753780365,-0.013354193419218063,-0.033089205622673035,0.7667102217674255,0.11840790510177612,0.08776651322841644,0.020564865320920944,-0.25195446610450745,0.14409250020980835,-0.05595890060067177,0.016630057245492935,0.07992120832204819]],"b":[0.12412197887897491,0.12795785069465637,0.03738970682024956,0.20193666219711304,0.04645602032542229,0.16429883241653442,0.10927388072013855,0.06365679949522018,-0.1877041459083557,0.060060568153858185,0.11575540155172348,-0.11971133202314377,0.04121509566903114,-0.05859324708580971,0.19338814914226532,0.05483834818005562,-0.07762052863836288,-0.1017145961523056,0.0019909292459487915,-0.16451396048069]},{"W":[[0.17115047574043274,0.14622168242931366,0.28852370381355286,0.037584345787763596,0.0008805886027403176,0.039724331349134445,-0.19575656950473785,0.14187929034233093,-0.08078179508447647,-0.22386671602725983,-0.3024325370788574,0.3018794655799866,0.2809348702430725,0.1386629343032837,0.15538102388381958,0.044925983995199203,-0.03190121799707413,0.21649286150932312,-0.17050020396709442,-0.09448932856321335],[-0.08524280041456223,0.07021293044090271,-0.37358027696609497,0.20157457888126373,0.6083453893661499,-0.5506558418273926,-0.04072968289256096,-0.21676863729953766,0.004919672384858131,0.21397665143013,0.3760235607624054,-0.1567428559064865,-0.4390160143375397,-0.0711735263466835,0.0025325079914182425,-0.45713695883750916,0.10182951390743256,0.369900643825531,0.2138899266719818,0.0942469909787178],[-0.2698599100112915,0.025457600131630898,-0.2169562429189682,-0.03239968791604042,-0.11120056360960007,0.3075386583805084,-0.195170596241951,-0.34443971514701843,-0.12322518974542618,0.25692716240882874,0.050389111042022705,-0.15034271776676178,0.0965602695941925,0.12058600783348083,0.2241550087928772,-0.39493340253829956,-0.21256469190120697,-0.2722312808036804,0.3554491698741913,0.11007364839315414],[-0.19022274017333984,-0.13772015273571014,-0.11817526817321777,-0.05245940387248993,0.1537383645772934,0.5510952472686768,-0.011250118725001812,-0.09160318225622177,0.02779400534927845,0.2155589759349823,0.240531325340271,0.015851425006985664,0.05732421204447746,-0.07533718645572662,0.24948525428771973,-0.19259041547775269,-0.1743299961090088,-0.09187743067741394,0.3006523847579956,0.2694874703884125],[0.1025417298078537,-0.15205498039722443,0.2646186947822571,0.20667840540409088,-0.17006711661815643,-0.10587340593338013,-0.18064068257808685,0.25894781947135925,-0.1110953837633133,-0.0647892877459526,-0.10460468381643295,0.15839023888111115,0.17009319365024567,-0.216084286570549,0.1800459772348404,-0.021115785464644432,-0.10371008515357971,0.23663757741451263,-0.10023581981658936,-0.3297228515148163],[0.1367841213941574,-0.2654528319835663,-0.13170985877513885,0.019587397575378418,-0.05145271494984627,-0.2994813919067383,-0.11700880527496338,0.003214652184396982,-0.08008332550525665,-0.006495131179690361,-0.04754544422030449,-0.13670741021633148,-0.03952240198850632,0.048815466463565826,-0.026767969131469727,0.20830956101417542,-0.15338857471942902,0.1347046047449112,0.005751080345362425,0.08620476722717285],[-0.21478965878486633,-0.13871055841445923,-0.33011528849601746,-0.14750877022743225,0.21213865280151367,0.032204724848270416,0.04832087829709053,-0.2574528753757477,0.04022495448589325,0.07647428661584854,0.24792902171611786,-0.1682625710964203,-0.1504020094871521,-0.2401122897863388,0.061596762388944626,0.05533716827630997,0.10809776186943054,-0.2356807142496109,0.13942988216876984,0.02609216421842575],[-0.18769916892051697,0.2720907926559448,-0.02295849472284317,0.05904383957386017,-0.09924152493476868,-0.07231110334396362,0.03849775344133377,-0.006610541138797998,-0.02884753979742527,0.028296371921896935,0.3453398644924164,-0.08020339906215668,-0.22742047905921936,-0.13793495297431946,0.30142125487327576,-0.10874594002962112,-0.03817669302225113,-0.14715440571308136,0.07914797961711884,-0.14716503024101257],[-0.38132908940315247,0.13103632628917694,0.09681230038404465,0.13996484875679016,-0.33755001425743103,0.3364015221595764,-0.25527554750442505,0.2700170576572418,0.4635124206542969,0.4166749119758606,0.0025101457722485065,0.4132844805717468,0.13599856197834015,0.06764546036720276,-0.1600370556116104,0.2704868018627167,-0.17926454544067383,-0.4313260614871979,-0.35517963767051697,-0.09948620200157166],[-0.1898738443851471,-0.11734466254711151,-0.07513527572154999,-0.19814704358577728,0.1031051054596901,0.7119589447975159,0.13575157523155212,0.06176406517624855,-0.005636625923216343,-0.018526913598179817,0.22312527894973755,0.12948603928089142,-0.20978684723377228,0.08276578038930893,0.25853869318962097,-0.114354208111763,-0.24812254309654236,0.05829370394349098,0.20054958760738373,0.198015958070755],[-0.07364571839570999,-0.10873615741729736,-0.1004554033279419,0.2214217633008957,-0.0556509830057621,-0.04203205555677414,0.03295581787824631,0.14034754037857056,-0.0883626863360405,0.003549107350409031,-0.19186730682849884,-0.21709002554416656,0.004193666856735945,0.23360101878643036,-0.11860879510641098,0.1541758030653,-0.06779864430427551,0.32235631346702576,0.006595097482204437,0.04509952291846275],[0.04398636519908905,-0.34266993403434753,0.2824235260486603,-0.39140498638153076,0.34175845980644226,-1.20427668094635,0.35376062989234924,0.2773635983467102,0.7728721499443054,-0.032960787415504456,-0.21125833690166473,0.666759729385376,-0.020098138600587845,-0.1847941130399704,0.240421324968338,-0.04629834368824959,-0.0131478700786829,0.5057257413864136,-0.13914169371128082,-0.18082360923290253],[0.005709455348551273,-0.012140929698944092,-0.30135926604270935,-0.22903232276439667,-0.08061216026544571,0.04359937086701393,-0.02624557912349701,-0.40121957659721375,0.27524346113204956,0.1446375548839569,-0.09871752560138702,0.1446171998977661,-0.15211240947246552,0.07919489592313766,-0.09726522117853165,-0.026753000915050507,0.2738400399684906,0.18065038323402405,-0.083805613219738,0.32766783237457275],[-0.04342843219637871,0.23510676622390747,0.13557974994182587,0.1872922033071518,-0.10045236349105835,0.3052394986152649,-0.18869084119796753,-0.027417292818427086,-0.002808717079460621,0.1284307986497879,0.14096717536449432,-0.03252113237977028,-0.04869017377495766,-0.006342072505503893,0.2860753536224365,0.018726125359535217,0.1058824360370636,-0.1727169007062912,0.31707313656806946,0.01153834443539381],[0.17059653997421265,-0.11539490520954132,-0.17589284479618073,-0.3244342505931854,0.04565999284386635,-0.3500770330429077,0.1458517163991928,0.13996431231498718,0.41705289483070374,0.0669143870472908,-0.1509576439857483,0.34511685371398926,0.370391845703125,-0.18535111844539642,-0.21218889951705933,-0.10054052621126175,-0.21227526664733887,0.13041190803050995,-0.12075257301330566,-0.16257429122924805],[-0.1395592987537384,0.050767119973897934,-0.18651671707630157,0.23554986715316772,-0.08565019071102142,-0.06723334640264511,0.10651793330907822,-0.10472516715526581,0.17817802727222443,0.17493288218975067,0.37323567271232605,-0.24398896098136902,0.09067175537347794,0.14841337502002716,-0.0193160492926836,0.06340537220239639,0.17253200709819794,-0.003984422888606787,0.2817758619785309,-0.05164486914873123],[-0.16177009046077728,0.11912500858306885,0.05294492468237877,-0.14209148287773132,0.12383650243282318,-0.16311527788639069,0.2836965322494507,0.15450645983219147,0.02068956196308136,-0.05817268043756485,0.2853524386882782,0.00480947270989418,0.004470094107091427,0.03165619820356369,0.30829039216041565,-0.2462228387594223,-0.08952324837446213,0.19141796231269836,0.2120727002620697,0.19432362914085388],[0.5626826882362366,-1.3868943452835083,0.027485718950629234,0.2036951184272766,1.3176230192184448,-0.6392873525619507,-0.8905996084213257,-0.18989421427249908,-1.3345654010772705,0.41821253299713135,0.11045145243406296,-1.1403321027755737,-0.3755432963371277,-0.5267192125320435,-0.034076329320669174,-0.15996001660823822,0.8578376770019531,-0.42907097935676575,0.19485771656036377,-0.11867187172174454],[0.01895158924162388,0.28660836815834045,-0.3241806924343109,-0.15649643540382385,0.1017967015504837,0.2542921304702759,-0.1109987422823906,-0.037338364869356155,0.12748731672763824,-0.27739641070365906,0.08206024020910263,-0.09340962022542953,-0.2699515223503113,0.07147310674190521,-0.16570229828357697,0.09728376567363739,0.24700048565864563,-0.05198148638010025,0.11507172137498856,0.1709514558315277],[-0.7381808161735535,0.3231602907180786,-0.11929143965244293,-0.4049223065376282,-0.6442482471466064,0.6764782667160034,0.23615191876888275,-0.22850550711154938,0.6569275856018066,-0.1998416632413864,0.018538828939199448,0.694776177406311,0.29561835527420044,-0.03655069321393967,0.048025280237197876,0.36220604181289673,-0.3537489175796509,-0.7355748414993286,-0.10990238189697266,0.16955436766147614]],"b":[-0.11367341130971909,0.019680114462971687,0.004895851016044617,0.05172301083803177,-0.09313977509737015,0.11465449631214142,0.15083298087120056,-0.1452929675579071,-0.019188586622476578,-0.008801876567304134,0.06077025830745697,0.20260494947433472,0.04983430355787277,-0.04207593575119972,0.22948260605335236,-0.0675617903470993,-0.024489767849445343,0.044884730130434036,-0.18999245762825012,0.0016534109599888325]},{"W":[[-0.37552952766418457,0.23714779317378998,0.2542336881160736,0.20718072354793549,-0.2798851430416107,-0.14046555757522583,0.2399154007434845,0.29906338453292847,-0.3776402175426483,0.2874442934989929,-0.11742622405290604,-0.14540499448776245,0.1959797739982605,0.27006009221076965,-0.27586087584495544,0.26122018694877625,0.21766430139541626,0.8792590498924255,0.24097220599651337,-0.2504502534866333]],"b":[-0.044249556958675385]}]}