{"key":"burgers_shock","name":"Burgers Equation (Shock)","description":"Burgers equation at high Reynolds number \u2014 sharp shock formation","latex_equation":"\\frac{\\partial u}{\\partial t} + u \\frac{\\partial u}{\\partial x} = \\nu \\frac{\\partial^2 u}{\\partial x^2}, \\quad \\nu = 0.001/\\pi","latex_ic":"u(x, 0) = -\\sin(\\pi x)","latex_bc":"u(-1, t) = u(1, t) = 0","latex_domain":"x \\in [-1, 1], \\; t \\in [0, 1]","x_min":-1.0,"x_max":1.0,"t_min":0.0,"t_max":1.0,"y_min":-1.3,"y_max":1.3,"y_label":"u(x, t)","params":{"nu":0.0003183098861837907},"layers":[{"W":[[1.243704080581665,0.8708540797233582],[-0.6887462735176086,0.9848164916038513],[-0.3159370720386505,-0.017332756891846657],[-0.43822845816612244,0.5488989949226379],[0.9414240121841431,-0.5590022802352905],[1.729715347290039,0.4652339518070221],[0.9143800735473633,-0.0022252672351896763],[0.5654510855674744,0.13250276446342468],[1.261357307434082,0.4332262873649597],[-0.6322571635246277,0.05038505420088768],[-0.7548105120658875,-0.3090852200984955],[-0.5070353150367737,0.7022927403450012],[-0.7606480121612549,-0.5094716548919678],[-0.3761686086654663,-0.5941453576087952],[0.3030422031879425,-2.4532229900360107],[0.6841832995414734,-0.5276249647140503],[0.7469910979270935,-0.03345566242933273],[-0.3888663053512573,0.5208631157875061],[0.24694757163524628,0.9367166757583618],[0.049832526594400406,0.37709394097328186],[0.3096964955329895,-0.07493667304515839],[0.3487092852592468,0.8524975180625916],[0.5558401942253113,-0.260745108127594],[0.6685057282447815,0.4001395106315613],[0.7802233695983887,-0.5489778518676758],[-0.9525421857833862,-0.12478692084550858],[-0.9125159978866577,0.6507218480110168],[0.8763431310653687,0.6971368193626404],[0.7368873357772827,0.523615837097168],[0.6534039974212646,-0.7870333790779114],[0.09807432442903519,-1.05999755859375],[0.6244481205940247,-0.4383598864078522],[0.9653685688972473,-0.32831624150276184],[0.6453053951263428,-0.6171461939811707],[-0.6162980198860168,-0.596519947052002],[1.8045574426651,0.4466884434223175],[1.0956274271011353,-0.5305427312850952],[-0.82395339012146,-0.8636302947998047],[-1.1027917861938477,0.4735696613788605],[0.6157074570655823,0.9244058728218079]],"b":[-0.8547436594963074,-0.890365481376648,0.47117045521736145,-0.40845608711242676,0.5976566076278687,-0.39207151532173157,0.3498880863189697,-0.6134449243545532,-0.48882564902305603,0.23755811154842377,0.23860594630241394,-0.5997058153152466,0.5306578874588013,0.5446768403053284,-0.1441183090209961,-0.30222341418266296,0.7300394773483276,-0.3622739315032959,-0.6072826981544495,-0.955138623714447,-0.4733622074127197,0.21872134506702423,-0.019774721935391426,-0.5277968645095825,0.3270531892776489,-0.459272176027298,-0.7085388898849487,-0.7284747362136841,-0.6661555171012878,-0.6699432730674744,0.9065905809402466,0.22539179027080536,0.4906315207481384,-0.7157925963401794,-0.5997762680053711,-0.30812081694602966,0.27917662262916565,-1.0464941263198853,-0.6438941955566406,-0.7175891399383545]},{"W":[[0.1947716772556305,-0.07742714881896973,-0.11124482750892639,-0.04887373000383377,-0.3412107229232788,-0.022504648193717003,-0.6283523440361023,-0.02121991105377674,0.222144216299057,-0.03624573349952698,0.19234450161457062,0.0968531146645546,-0.2641371190547943,-0.0032389170955866575,0.5346101522445679,0.0014818826457485557,-1.2803057432174683,-0.13543710112571716,0.006437213160097599,0.14299553632736206,0.1671690195798874,-0.7357258200645447,0.07754895091056824,-0.010309415869414806,-0.09545600414276123,0.8581905364990234,0.3171997368335724,0.2654404044151306,0.2735639214515686,-0.007580213714390993,-0.32619407773017883,-0.1517929881811142,-0.43764156103134155,0.010823767632246017,0.8263999819755554,-0.0425780713558197,-0.011370006017386913,0.8406514525413513,0.3581215441226959,0.09792410582304001],[0.1377512663602829,0.0931563451886177,0.05627444013953209,-0.03198186308145523,-0.025052152574062347,-0.04123331606388092,-0.12623898684978485,0.09879335761070251,-0.004328676499426365,-0.02328057959675789,-0.02675519697368145,0.08967181295156479,0.12252878397703171,-0.03893967717885971,-0.1723872870206833,-0.08128717541694641,-0.16506828367710114,0.16869623959064484,0.22363866865634918,-0.1592307835817337,-0.002676899777725339,0.06360090523958206,-0.04818955063819885,-0.09498539566993713,-0.0048185293562710285,0.1153675839304924,0.14479829370975494,-0.037522416561841965,-0.05899448320269585,-0.028300777077674866,-0.0587618462741375,-0.16261379420757294,0.024530570954084396,0.09673280268907547,0.012722436338663101,-0.04106121137738228,-0.048334989696741104,0.008758156560361385,0.12126515060663223,0.06884772330522537],[-1.2339881658554077,-0.4571518898010254,0.3597261309623718,-0.20966430008411407,0.12535403668880463,-1.6460673809051514,-0.2532760798931122,-0.5038642287254333,-1.218725562095642,0.34365543723106384,1.504997730255127,-0.23535795509815216,0.8461512923240662,0.6392390131950378,0.0012636674800887704,0.1808300018310547,-0.0023072347976267338,-0.3574230968952179,-0.6511858701705933,-0.24926786124706268,-0.2719435691833496,-0.17466005682945251,-0.018882280215620995,-0.7722620368003845,0.05061906576156616,0.25281333923339844,-0.06146951764822006,-0.829413115978241,-0.6503206491470337,-0.2546345293521881,0.38249915838241577,0.29725950956344604,0.12186319380998611,-0.005457068793475628,0.17610712349414825,-1.2061774730682373,0.14771229028701782,-0.1334320604801178,-0.18265098333358765,-0.9545249938964844],[0.005432941019535065,-0.059257473796606064,-0.016077790409326553,-0.06937867403030396,-0.060814645141363144,-0.2178450971841812,-0.16518110036849976,0.02564975991845131,-0.119602270424366,0.15611347556114197,0.05034327134490013,-0.09533660858869553,0.03747785463929176,-0.04726838320493698,-0.05959584563970566,-0.2306516468524933,0.07068677246570587,-0.09197084605693817,0.04215139523148537,0.06967245042324066,0.09413027763366699,-0.14054101705551147,0.038867559283971786,-0.10789543390274048,0.004862683825194836,0.21283137798309326,-0.007924673147499561,-0.02885965257883072,-0.05010068416595459,-0.19182412326335907,0.08380645513534546,-0.20018506050109863,0.06137963384389877,0.06963371485471725,0.17479418218135834,-0.14245210587978363,-0.21713007986545563,0.07047095894813538,0.13733747601509094,-0.18888957798480988],[0.03742741793394089,-0.1023004949092865,-0.15781013667583466,-0.11607573926448822,-0.07197227329015732,0.004995673894882202,-0.1528819501399994,0.29086828231811523,0.23791083693504333,-0.20507937669754028,-0.09342080354690552,-0.12449178099632263,-0.23259012401103973,-0.17206236720085144,0.13332009315490723,0.1659134030342102,-0.12378835678100586,-0.073192298412323,-0.2097233384847641,0.04133603721857071,0.15724565088748932,-0.03118538297712803,0.0921873226761818,0.040590330958366394,-0.049037884920835495,0.13677942752838135,-0.041640251874923706,0.1005704402923584,0.0507194884121418,0.2358032763004303,0.13854116201400757,0.14260169863700867,-0.1329907923936844,0.26611676812171936,0.1622842699289322,0.0959157794713974,0.13212834298610687,0.16278642416000366,-0.027420567348599434,0.001531236688606441],[-0.20549838244915009,-0.03476659953594208,0.09501320868730545,0.12461002171039581,-0.16228193044662476,-0.3243356943130493,-0.18057295680046082,-0.14790751039981842,-0.21087275445461273,-0.009087021462619305,0.27502337098121643,0.049611128866672516,-0.031126055866479874,-0.06797193735837936,0.10222362726926804,-0.11102596670389175,-0.07184065133333206,0.10956037044525146,-0.1571197360754013,0.016234731301665306,0.008980450220406055,-0.07695044577121735,-0.12170923501253128,-0.17542384564876556,-0.19633890688419342,-0.021262528374791145,0.19763433933258057,-0.13719972968101501,-0.10612510144710541,0.040489569306373596,0.0539681538939476,-0.004588552750647068,0.06008514016866684,0.09983307868242264,-0.10779637843370438,-0.27648088335990906,0.0038781375624239445,0.033065542578697205,-0.029049532487988472,0.06960467994213104],[-0.40618032217025757,-0.1574404090642929,-0.11266280710697174,0.005251388065516949,0.021741380915045738,-0.3959316909313202,-0.06412449479103088,-0.18321602046489716,-0.4502829313278198,0.13119176030158997,0.5094208717346191,0.08069194108247757,0.18720895051956177,0.16649673879146576,-0.1378612369298935,-0.14257104694843292,-0.022530440241098404,0.0666956976056099,-0.22869008779525757,-0.1537475734949112,0.08064359426498413,-0.17772841453552246,-0.024651004001498222,-0.02639179304242134,-0.03006790764629841,0.23074010014533997,-0.11587876081466675,-0.2809484601020813,-0.0017435501795262098,-0.10402997583150864,0.07891629636287689,-0.10781534016132355,0.05268847942352295,0.034127239137887955,0.10146034508943558,-0.4530184268951416,-0.1796528398990631,0.0536898709833622,0.11608785390853882,-0.351533979177475],[-1.5684062242507935,-0.2672470211982727,0.26416972279548645,-0.23588751256465912,-0.0743318647146225,-1.4542934894561768,-0.2665663957595825,-0.4644416570663452,-1.0973008871078491,0.3670313358306885,0.9551670551300049,-0.39553123712539673,1.5391618013381958,1.516230821609497,0.31505286693573,-0.08626192063093185,-0.03596534952521324,-0.26610445976257324,-0.8337270617485046,-0.33118554949760437,-0.20618660748004913,-0.21049994230270386,-0.24821360409259796,-0.8498399257659912,0.15975794196128845,0.09031415730714798,-0.07543496042490005,-2.047724723815918,-0.7036770582199097,0.03862202540040016,0.8051585555076599,0.01291701104491949,-0.08529117703437805,0.03629271686077118,-0.12736891210079193,-0.970194935798645,-0.15324850380420685,-0.08268316835165024,0.05906746909022331,-1.1413607597351074],[0.030727574601769447,0.07505150139331818,-0.013432292267680168,0.021828660741448402,0.25467240810394287,0.03205849230289459,-0.01772417686879635,0.15697671473026276,0.213062584400177,-0.18921159207820892,-0.1284257024526596,-0.22825664281845093,-0.21888607740402222,-0.023274317383766174,0.006988419219851494,0.0748792216181755,0.037131574004888535,0.0588340237736702,0.06875335425138474,-0.13002914190292358,0.0030177421867847443,0.09774377942085266,0.1352134644985199,-0.05153225362300873,0.16379234194755554,-0.17200708389282227,-0.21501322090625763,-0.028147924691438675,0.16815151274204254,0.16631366312503815,0.16984306275844574,0.21190476417541504,0.2099664956331253,-0.002730255015194416,-0.15630216896533966,0.1876094937324524,0.026966141536831856,-0.187747523188591,-0.14512577652931213,0.09347185492515564],[-0.3053319752216339,-0.1555267721414566,-0.05091296508908272,-0.0264865905046463,-0.08707224577665329,-0.39298465847969055,0.03280097618699074,-0.10609535127878189,-0.08839379251003265,0.23277638852596283,0.3307425379753113,-0.009637653827667236,0.32330113649368286,0.3183319568634033,0.026634514331817627,0.009147504344582558,0.0365702286362648,0.08393218368291855,-0.33096349239349365,-0.09213268756866455,-0.07404310256242752,-0.1941295564174652,-0.0013294265372678638,-0.05753682553768158,0.1441672295331955,0.10332506895065308,-0.12294267863035202,-0.3473187983036041,-0.14261828362941742,-0.04321443662047386,0.17741024494171143,-0.15797744691371918,0.013340442441403866,-0.15172594785690308,-0.05326336249709129,-0.3823148310184479,0.17965680360794067,-0.13653914630413055,0.14851881563663483,-0.3323109745979309],[0.1326833963394165,0.5028876662254333,-0.010241453535854816,0.32996582984924316,-0.07918678969144821,-0.10106847435235977,0.053938351571559906,0.03826719895005226,0.06550794839859009,0.07338123768568039,0.01639804057776928,0.2447681874036789,-0.1072511076927185,0.02501997910439968,0.09988009184598923,-0.0740298256278038,-0.17585426568984985,0.2605293095111847,0.184520423412323,0.151879221200943,-0.10896094888448715,0.16041773557662964,-0.1359647512435913,0.07783739268779755,-0.05894201993942261,0.0006126350490376353,0.29892629384994507,0.22914937138557434,0.16066788136959076,-0.08411958068609238,-0.31316354870796204,-0.07406507432460785,-0.15429538488388062,0.06213245913386345,-0.0652289167046547,-0.07253961265087128,-0.12668003141880035,0.03965436667203903,0.20477652549743652,0.3150808811187744],[-0.3667738139629364,-0.06613889336585999,0.13952627778053284,-0.2833176851272583,-0.08439749479293823,-0.6671590209007263,-0.2425169050693512,-0.3264281749725342,-0.5747690796852112,0.03301135078072548,0.41139617562294006,-0.3392859995365143,0.3552067279815674,0.5218479633331299,0.14861418306827545,-0.06546160578727722,-0.07477226853370667,-0.07071542739868164,-0.3727079927921295,-0.17594560980796814,-0.0016194027848541737,-0.22817635536193848,-0.043293923139572144,-0.269985556602478,0.06527169793844223,0.11706193536520004,-0.15783438086509705,-0.44626861810684204,-0.39486807584762573,-0.04033400118350983,0.48099270462989807,0.16075851023197174,-0.16990745067596436,-0.10906431078910828,-0.03227546811103821,-0.606724202632904,0.0071118054911494255,-0.13382530212402344,0.14876607060432434,-0.456869512796402],[-0.18436181545257568,0.1315477192401886,-0.1409299373626709,0.03293997421860695,-0.14960594475269318,-0.3310374319553375,-0.17367587983608246,-0.046866245567798615,0.01224067248404026,0.21864305436611176,0.2581149935722351,-0.022793235257267952,-0.006041178945451975,0.187724769115448,0.05564559996128082,-0.015240207314491272,-0.02239837683737278,-0.040412336587905884,-0.12853997945785522,0.16372449696063995,-0.04692898690700531,-0.008890101686120033,-0.22432175278663635,-0.14508028328418732,-0.142450213432312,-0.05195688456296921,0.08177375793457031,0.0004503697855398059,-0.17943993210792542,0.03788048028945923,-0.12029574066400528,-0.24202434718608856,-0.027913978323340416,0.12468691170215607,-0.025743868201971054,-0.2899914085865021,-0.3196360468864441,-0.06687408685684204,-0.03494426608085632,-0.10652630031108856],[-0.04924304783344269,-0.1751571148633957,0.1569942831993103,0.1325065791606903,-0.1907723844051361,-0.1191365048289299,0.012403209693729877,-0.06529518216848373,-0.07480477541685104,-0.03312988579273224,0.19904081523418427,-0.07021645456552505,0.19975648820400238,0.07767576724290848,0.0610366053879261,0.11756778508424759,-0.06404559314250946,-0.06560450792312622,-0.14874033629894257,0.12362709641456604,-0.1343691051006317,-0.05966242775321007,-0.1858985871076584,0.02723078802227974,0.038323450833559036,0.04085299000144005,0.09958136081695557,-0.06645917892456055,0.05036844685673714,-0.14132314920425415,0.014196430332958698,0.02208819054067135,0.11737596243619919,0.06325314939022064,-0.0592213049530983,0.06358200311660767,-0.03523704782128334,0.008518816903233528,-0.10439221560955048,-0.10120807588100433],[0.052217330783605576,0.005143139977008104,-0.07363320887088776,0.08590996265411377,-0.09324243664741516,0.09961971640586853,-0.16531899571418762,-0.08629444241523743,-0.21538308262825012,-0.01088709756731987,0.11902429163455963,0.17908068001270294,0.09145573526620865,0.20449116826057434,0.054118119180202484,0.07829485833644867,0.10245195776224136,0.16414256393909454,-0.13268396258354187,0.14272227883338928,0.07690832763910294,-0.13545022904872894,-0.12083834409713745,-0.18977943062782288,0.010002678260207176,-0.11079049110412598,0.10523928701877594,-0.004944388289004564,-0.16506783664226532,0.018916631117463112,0.0033797326032072306,0.018350739032030106,0.05464543029665947,-0.1779492348432541,0.17972221970558167,0.0769563838839531,0.05158392712473869,-0.11109404265880585,-0.016942573711276054,-0.08371199667453766],[0.16355490684509277,0.8323453068733215,0.14289923012256622,0.7237518429756165,-1.4688042402267456,-0.13946788012981415,-0.15675215423107147,-0.19231118261814117,-0.24420754611492157,0.13086700439453125,0.159357950091362,0.5566997528076172,-0.36270833015441895,-0.4053754210472107,0.08864469826221466,-0.051474373787641525,-0.30779701471328735,0.4396641254425049,0.3696981966495514,0.14390818774700165,-0.004341029096394777,-0.03751075267791748,-0.2630085349082947,0.19549746811389923,-0.6112537980079651,0.08009093254804611,1.3101096153259277,0.22047901153564453,-0.051345862448215485,0.009039971977472305,-0.5023084878921509,-0.4830643832683563,-0.5873233675956726,-0.07841141521930695,0.2654772102832794,-0.21071362495422363,-0.47397494316101074,0.3197326362133026,0.5134767889976501,0.49707654118537903],[-0.00896347314119339,-0.04850457236170769,-0.02789047546684742,-0.051409825682640076,-0.1919470578432083,0.12735474109649658,0.012208476662635803,-0.16085489094257355,-0.0839313194155693,0.1846238374710083,0.06260553747415543,0.07921243458986282,-0.12290050834417343,-0.08458973467350006,-0.02471408061683178,-0.04635024815797806,-0.16468368470668793,0.06977187842130661,0.09672770649194717,-0.01911691389977932,0.004377787467092276,-0.13251979649066925,0.00897232722491026,0.059001367539167404,-0.1082192212343216,-0.13201195001602173,0.13522648811340332,0.06338672339916229,-0.07860736548900604,0.12239089608192444,-0.07444074749946594,0.046330034732818604,0.031793031841516495,-0.15998674929141998,0.17899230122566223,-0.10322990268468857,-0.10409444570541382,0.06544336676597595,-0.07780570536851883,0.21745947003364563],[-0.13258057832717896,0.3344593644142151,-0.15200278162956238,0.3259471356868744,-0.3761333227157593,-0.3314463496208191,-0.11247866600751877,0.0745876356959343,0.027813591063022614,-0.037446457892656326,0.030621500685811043,0.2831953465938568,0.11961447447538376,0.03561810776591301,0.041279468685388565,-0.05069943889975548,-0.00858566164970398,0.32568085193634033,0.030916079878807068,0.16240151226520538,0.08552490919828415,0.14383627474308014,-0.18191927671432495,-0.11580688506364822,-0.21407601237297058,0.06943700462579727,0.4560425281524658,-0.14554265141487122,0.07505882531404495,-0.056385330855846405,-0.08314672857522964,-0.19863693416118622,-0.46368831396102905,-0.07408835738897324,-0.09378697723150253,-0.10766579955816269,-0.2541787624359131,-0.0044814664870500565,0.3772628903388977,-0.10405268520116806],[0.227230966091156,-0.012584171257913113,-0.7134756445884705,-0.21693144738674164,-0.20936383306980133,-0.018844861537218094,-0.08882343024015427,0.6905099749565125,0.3484218120574951,-0.5746104717254639,-0.12372909486293793,-0.05832275375723839,-0.3984092175960541,0.0738658681511879,0.7155371308326721,0.9646177291870117,-0.061488207429647446,-0.10340065509080887,-0.24328863620758057,0.38583865761756897,0.680936336517334,-0.3772232234477997,0.7165825366973877,0.3337041139602661,-0.012523109093308449,0.266411155462265,0.3120083212852478,0.2314305603504181,0.3925166428089142,0.9764724969863892,-0.029504908248782158,0.34566473960876465,-0.08874122053384781,1.101939082145691,0.1414065957069397,-0.05501604825258255,0.040094003081321716,0.17195698618888855,0.2692961096763611,-0.18962213397026062],[0.11815987527370453,0.08411851525306702,0.026960810646414757,0.03978865221142769,0.18029218912124634,0.2788452208042145,0.1867651790380478,-0.03105243667960167,-0.06588700413703918,-0.008888894692063332,-0.0992722138762474,-0.0644863098859787,-0.08721479028463364,-0.053801726549863815,0.076846644282341,0.051318347454071045,0.011505289934575558,-0.10743480175733566,-0.0423591285943985,-0.08656705915927887,0.13964200019836426,0.13908034563064575,0.18682235479354858,0.037712398916482925,0.0814259797334671,0.003021640470251441,-0.20817068219184875,0.06572773307561874,-0.0015522502362728119,-0.08551336824893951,-0.1127886027097702,0.2070145159959793,0.19138094782829285,0.07293608784675598,0.0786157175898552,0.04075601324439049,0.017965704202651978,-0.03776967525482178,-0.09742657840251923,-0.0155985988676548],[-0.21834564208984375,0.07258568704128265,-0.09170419722795486,0.08642154186964035,0.06471709161996841,-0.22052372992038727,-0.12834280729293823,0.07885804027318954,-0.14775803685188293,0.042356085032224655,0.28515613079071045,-0.0043138121254742146,-0.03074474260210991,-0.043737493455410004,-0.038220468908548355,-0.12022148817777634,-0.13306924700737,0.13520750403404236,-0.03852718695998192,-0.03531716391444206,-0.12787094712257385,-0.07557552307844162,-0.13888484239578247,-0.09648647159337997,-0.24299269914627075,0.10210531204938889,-0.050925809890031815,-0.17580504715442657,-0.14502498507499695,0.039724256843328476,-0.10265833139419556,-0.16726498305797577,0.05119670554995537,0.0723990947008133,0.12930478155612946,-0.3330160677433014,-0.22894905507564545,-0.019546465948224068,0.21330033242702484,-0.04533041641116142],[0.04515546187758446,0.9292649626731873,-0.11204766482114792,1.0111546516418457,-1.8384130001068115,0.051369477063417435,-0.6461558938026428,-0.016778767108917236,-0.016008451581001282,0.17393426597118378,0.09431719779968262,1.1383789777755737,-0.08086709678173065,-0.4009113311767578,0.11295638233423233,-0.16775120794773102,-0.44115015864372253,1.1096899509429932,0.5235270857810974,0.3085559904575348,0.014427799731492996,0.09104500710964203,-0.3490247428417206,0.22368834912776947,-1.2121542692184448,0.35879939794540405,1.369940161705017,0.2273399382829666,0.20338866114616394,-0.046324122697114944,-0.5872262120246887,-0.9570783376693726,-1.2405160665512085,-0.1071004718542099,0.2061808854341507,-0.1563873142004013,-0.864580512046814,0.17536354064941406,1.4622254371643066,0.14414885640144348],[0.06809485703706741,-0.03445650637149811,-0.09389343857765198,-0.0009536771103739738,-0.02017367072403431,-0.060644734650850296,0.031500302255153656,-0.03937748074531555,-0.04253200441598892,-0.07935593277215958,-0.014483359642326832,-0.13850145041942596,-0.11828135699033737,-0.03346977382898331,-0.06785038858652115,0.09369443356990814,-0.01543783862143755,0.02284732274711132,0.21306778490543365,0.07382991909980774,-0.13586850464344025,0.08123985677957535,-0.09904846549034119,-0.07273417711257935,0.11256304383277893,-0.11223756521940231,0.007771794684231281,-0.07359050214290619,0.03459097072482109,-0.08449901640415192,0.06526615470647812,-0.012440567836165428,0.03216885030269623,-0.12740100920200348,-0.12239519506692886,0.1678006649017334,0.0978555977344513,-0.2337968498468399,-0.0613802932202816,-0.009452447295188904],[0.020648445934057236,0.26195526123046875,-0.3542499542236328,0.08092966675758362,-0.19999127089977264,0.005946764722466469,-0.038044556975364685,0.628650963306427,0.21941626071929932,-0.4083099663257599,0.054841138422489166,0.026053234934806824,-0.28275159001350403,-0.18079882860183716,0.4198206663131714,0.5256947875022888,-0.13445806503295898,-0.05473588779568672,-0.16646316647529602,0.059228502213954926,0.22326937317848206,0.01765470579266548,0.3115520477294922,0.4423185884952545,-0.13192005455493927,0.16409026086330414,0.06787069141864777,0.2452090084552765,0.4217393398284912,0.5998501777648926,-0.016215786337852478,0.12464895844459534,-0.07893668860197067,0.5314745903015137,0.036389511078596115,0.14814725518226624,-0.13133704662322998,0.11018572002649307,-0.03890236094594002,-0.0417696051299572],[-0.09322144836187363,-0.08132080733776093,-0.19212773442268372,-0.18964709341526031,0.003765916684642434,0.12787875533103943,0.15368211269378662,0.18671317398548126,-0.04378524050116539,-0.2636432945728302,0.028082819655537605,0.024430029094219208,-0.15110622346401215,0.11849761754274368,0.20244228839874268,0.1844756305217743,-0.0968712717294693,0.0503225177526474,-0.1353195458650589,0.14868788421154022,-0.007733460515737534,0.10128956288099289,0.001681752735748887,0.18921779096126556,0.007155796978622675,0.08574296534061432,0.05268312618136406,0.009957822039723396,0.009255126118659973,0.2461017519235611,-0.02846604399383068,-0.0686957910656929,-0.039522457867860794,0.2907903790473938,-0.0554201677441597,0.07311569899320602,-0.03603704646229744,0.09608053416013718,0.08681733906269073,-0.05216818302869797],[0.023734230548143387,-0.21207228302955627,-0.039237573742866516,-0.24739041924476624,0.3522806763648987,0.044477276504039764,0.28413477540016174,0.21958701312541962,0.2322016954421997,-0.08778473734855652,-0.325795441865921,0.04513038694858551,-0.15150736272335052,-0.20098283886909485,0.15672670304775238,-0.003795250318944454,0.08158575743436813,0.010550610721111298,-0.0780167430639267,-0.1220766007900238,0.0712411031126976,-0.003602710785344243,0.24716129899024963,-0.03520369529724121,0.2296941727399826,-0.17404519021511078,-0.2650284469127655,-0.05701817572116852,0.1340797245502472,0.06875245273113251,-0.08229732513427734,0.4065047800540924,0.25364941358566284,0.06130603328347206,-0.1260657161474228,0.2319735884666443,0.42541104555130005,0.060912106186151505,-0.3463631868362427,0.20717428624629974],[0.015779344365000725,0.6242459416389465,0.09092129021883011,0.7362174987792969,-0.6986942291259766,-0.04627556726336479,-0.33793866634368896,0.03709329664707184,-0.19759926199913025,0.08842773735523224,0.09201483428478241,0.5774921774864197,-0.014544721692800522,-0.14913074672222137,0.16504964232444763,0.04108521342277527,-0.13106359541416168,0.6337459683418274,0.339456170797348,0.11730055510997772,0.035072095692157745,0.07866193354129791,-0.3737703263759613,-0.11556117981672287,-0.5322898030281067,0.08182934671640396,0.5340374112129211,0.0230680163949728,0.0967554971575737,0.11550863832235336,-0.46430879831314087,-0.4401562511920929,-0.31575077772140503,-0.07256408035755157,-0.05425240099430084,-0.32708004117012024,-0.5240239500999451,0.042624589055776596,0.46514925360679626,0.129256010055542],[-0.18220722675323486,-0.09935469180345535,-0.00786364171653986,0.15822520852088928,-0.04449039325118065,-0.1803465336561203,0.04551757499575615,-0.07277677953243256,0.03924829512834549,0.1627524197101593,0.22265022993087769,-0.11270643025636673,0.19617991149425507,0.1916554719209671,-0.10367536544799805,0.08066955208778381,0.11330653727054596,0.01092011108994484,0.10857248306274414,-0.09205255657434464,-0.19113324582576752,-0.007962252013385296,0.0025013298727571964,-0.17898227274417877,0.07186850905418396,-0.11794242262840271,0.11307786405086517,0.08942309767007828,-0.01603449508547783,-0.1934017837047577,0.12116043269634247,-0.004360632039606571,0.0296517051756382,-0.03918317332863808,0.14129723608493805,-0.1426001489162445,-0.001975172432139516,0.05702352151274681,0.02497606724500656,0.09534001350402832],[-0.34114229679107666,-0.12262444943189621,0.09592100232839584,-0.05766169726848602,0.08299938589334488,-0.20724953711032867,-0.22688552737236023,-0.12970127165317535,-0.25699150562286377,0.11185666918754578,0.1699909120798111,-0.19011743366718292,0.18320968747138977,0.1971225142478943,-0.043420497328042984,0.1068531796336174,-0.07644414901733398,0.08437170088291168,-0.15852154791355133,-0.17659974098205566,-0.011268665082752705,0.035698529332876205,-0.14465273916721344,-0.280340313911438,0.16916905343532562,0.20071840286254883,-0.08954620361328125,-0.12838292121887207,-0.18243902921676636,-0.2234104871749878,0.16080880165100098,0.022800112143158913,-0.10243210941553116,-0.01510501466691494,-0.08292055130004883,-0.08499006927013397,0.1695374995470047,0.11750467121601105,0.06559409946203232,-0.1566113382577896],[-0.5518197417259216,-0.21763327717781067,0.06696223467588425,-0.20245710015296936,-0.10796615481376648,-0.26743191480636597,0.07535290718078613,-0.2496352195739746,-0.2172655314207077,0.15752770006656647,0.4408970773220062,-0.037846263498067856,0.44634148478507996,0.3173035681247711,0.11080673336982727,0.10228327661752701,-0.11495939642190933,-0.26092156767845154,-0.39896392822265625,-0.004933509975671768,-0.14541901648044586,0.006352601107209921,-0.04244865104556084,-0.16853225231170654,-0.08378441631793976,0.07504231482744217,0.06640621274709702,-0.46371009945869446,-0.19904962182044983,-0.02677435427904129,0.32350778579711914,0.1519721895456314,0.028705723583698273,-0.07443234324455261,0.10574785619974136,-0.37872314453125,-0.08092077821493149,-0.05231664702296257,-0.10219305753707886,-0.41894128918647766],[0.033706214278936386,0.13140064477920532,0.007100493181496859,0.12740828096866608,-0.23622746765613556,-0.11303228884935379,0.008041184395551682,0.1532663255929947,-0.11338876187801361,0.09271124005317688,-0.10850086063146591,0.0960591584444046,0.07789669185876846,0.03770364075899124,-0.09722211211919785,0.0717296376824379,-0.001834188704378903,0.11071412265300751,0.44313308596611023,-0.031125301495194435,-0.03353557735681534,-0.11467598378658295,-0.04254256933927536,0.08194318413734436,-0.07395254075527191,-0.037236977368593216,0.04634818062186241,0.1429036408662796,-0.09974750876426697,-0.04483998194336891,-0.08915121853351593,-0.169833242893219,-0.04123583808541298,0.00905949529260397,0.18926289677619934,0.03031369112432003,-0.1847851574420929,0.21638204157352448,0.11882489174604416,0.11843466758728027],[-0.10992813110351562,-0.20781409740447998,-0.15115317702293396,-0.1791154444217682,0.35434117913246155,-0.05984121188521385,0.03830503672361374,-0.10886436700820923,0.17753329873085022,0.07515852153301239,-0.055843330919742584,-0.10589644312858582,-0.06587880104780197,-0.11403245478868484,0.0634661391377449,0.08104953169822693,0.2872341573238373,-0.21268245577812195,-0.024862665683031082,0.05774129182100296,0.11794491857290268,-0.09211155772209167,0.22614923119544983,-0.12309370934963226,0.30608999729156494,-0.11091659963130951,-0.4183060824871063,0.03913964331150055,-0.04164467006921768,-0.1310022473335266,0.14376795291900635,0.1994515210390091,0.3362928628921509,-0.05065542086958885,0.0023327632807195187,0.07633509486913681,0.15039949119091034,-0.07598491758108139,-0.346698135137558,-0.2006112039089203],[0.40803608298301697,-0.03844870626926422,-0.15166722238063812,0.08486925810575485,-0.061030514538288116,0.3557959198951721,0.07761713862419128,0.12047496438026428,0.3236324191093445,-0.12176282703876495,-0.3506404161453247,0.11703520268201828,-0.414417564868927,-0.4711146950721741,-0.1346537321805954,-0.015619583427906036,-0.0696621835231781,0.11195788532495499,0.22768954932689667,0.12801414728164673,0.09305772930383682,0.1995479017496109,0.029747258871793747,0.2875133454799652,0.05521826818585396,-0.18452323973178864,-0.027680156752467155,0.3919917047023773,0.2770931124687195,-0.05278298631310463,-0.05276279151439667,0.08454655110836029,0.12079776078462601,0.1770264208316803,-0.17206941545009613,0.3864651918411255,0.10122448205947876,0.11712348461151123,-0.2104361355304718,0.37755468487739563],[-0.2399280071258545,-0.025244418531656265,-0.022397570312023163,-0.12310763448476791,-0.19492201507091522,-0.32351890206336975,0.0057099745608866215,0.04020332545042038,-0.26458823680877686,-0.00042677708552218974,0.17546981573104858,-0.1224527508020401,0.2239498794078827,0.25703752040863037,0.04738042503595352,-0.12167588621377945,-0.005029330030083656,0.06271129101514816,0.04034995660185814,-0.0773966833949089,-0.15027785301208496,0.015569469891488552,-0.03798310458660126,-0.13651448488235474,-0.09242383390665054,-0.034094128757715225,0.1654166877269745,-0.13239219784736633,0.06728833168745041,0.11557828634977341,0.05921420082449913,-0.012001685798168182,-0.073921337723732,0.08827313780784607,-0.10402988642454147,-0.1356787234544754,-0.04109834507107735,0.09741054475307465,0.0625094547867775,-0.16817402839660645],[-0.16665473580360413,1.491836667060852,-0.10146722942590714,0.9377557635307312,-1.8374409675598145,-0.5740836262702942,-0.5130839943885803,0.09186362475156784,-0.2825966775417328,0.38867220282554626,0.16113033890724182,1.1218392848968506,0.000792242877651006,-0.48806044459342957,-0.2985382676124573,-0.29717811942100525,-0.5999080538749695,0.9811109900474548,0.4417590796947479,0.3235173225402832,0.10268058627843857,0.016897231340408325,-0.3657729923725128,-0.11371324956417084,-0.7050923705101013,0.23543207347393036,1.9290904998779297,0.09133929014205933,0.11762397736310959,-0.007022648584097624,-0.9117069244384766,-0.6856905817985535,-0.9604686498641968,0.10486423224210739,0.15650513768196106,-0.3095059096813202,-0.550796389579773,0.20354780554771423,1.3065905570983887,0.17498478293418884],[0.15416580438613892,0.11414463073015213,0.09636902064085007,0.17649362981319427,0.020221130922436714,-0.02092045731842518,0.029907068237662315,0.05829368904232979,0.06340464949607849,-0.06214253231883049,0.06886038184165955,0.13130341470241547,-0.14712993800640106,-0.051958516240119934,-0.14254043996334076,-0.07959158718585968,0.06489910185337067,-0.013308119028806686,0.04428877308964729,-0.08003218472003937,-0.05892820656299591,0.31861430406570435,0.07390177249908447,0.1828865259885788,0.03635680675506592,-0.015055491589009762,0.10291081666946411,0.05824895575642586,-0.11995749920606613,-0.07611440867185593,-0.056372858583927155,0.01046695839613676,0.07891818881034851,0.08046868443489075,0.011256461963057518,0.06610698997974396,-0.06651407480239868,-0.23528708517551422,-0.12100127339363098,-0.05016195401549339],[0.09844565391540527,0.1033552810549736,0.1127905622124672,0.013787979260087013,-0.10810033231973648,-0.03199358657002449,-0.1270010620355606,0.07295899838209152,0.007436755578964949,0.02854662761092186,0.058550529181957245,0.1108282059431076,-0.0654023066163063,-0.12220971286296844,0.18887831270694733,-0.01360507681965828,-0.19534820318222046,0.11655507981777191,0.039697080850601196,0.026512201875448227,-0.05082456395030022,-0.2922612726688385,-0.18085554242134094,0.05590665712952614,-0.053330063819885254,0.24379974603652954,0.08870196342468262,0.04936794191598892,0.08481259644031525,0.13654576241970062,-0.148408904671669,0.021695666015148163,-0.055296797305345535,-0.08225157856941223,0.23540915548801422,-0.08523165434598923,-0.10203210264444351,0.1451985239982605,-0.007475162390619516,0.18671336770057678],[-0.07959237694740295,0.14802215993404388,-0.129983052611351,0.09236550331115723,-0.16056880354881287,0.0815541222691536,-0.17536373436450958,0.03617430850863457,0.014109217561781406,0.13676872849464417,0.04919373244047165,0.15968671441078186,-0.11667920649051666,-0.1526547372341156,0.16334109008312225,-0.14299260079860687,-0.1621985137462616,0.07135176658630371,0.22555050253868103,-0.020699895918369293,-0.13477839529514313,-0.11881908029317856,0.017235521227121353,0.06523486971855164,0.04173147678375244,0.07780010253190994,0.2334209680557251,-0.11569969356060028,0.06992331147193909,0.05156866833567619,-0.04843531921505928,-0.19678348302841187,-0.20944292843341827,0.024100588634610176,-0.005459444597363472,-0.13480225205421448,-0.23902788758277893,0.16075530648231506,0.24565090239048004,0.14712226390838623],[0.2637142837047577,0.08502550423145294,-0.14538796246051788,-0.005349160172045231,0.034974612295627594,0.37717029452323914,0.2269674390554428,-0.05243435129523277,0.2780079245567322,-0.24875938892364502,-0.3811749219894409,-0.09412235766649246,-0.17890091240406036,-0.22696258127689362,0.1598651111125946,-0.1108412891626358,0.13720133900642395,-0.1287575513124466,0.2763679027557373,-0.04183008894324303,0.04359735921025276,0.009417988359928131,0.18007996678352356,0.19659294188022614,-0.08119131624698639,-0.05877994745969772,-0.1518334150314331,0.2880691587924957,0.11518120020627975,0.03453613445162773,-0.16274777054786682,0.11545392870903015,-0.02662627585232258,0.14158222079277039,0.05386163666844368,0.49196657538414,0.1044539362192154,-0.15926393866539001,0.029063943773508072,0.13797606527805328],[-1.9754115343093872,-0.3445985019207001,0.29770490527153015,-0.033744119107723236,0.08275965601205826,-1.3901731967926025,-0.3790323734283447,-0.31245410442352295,-1.1563583612442017,0.245644211769104,1.0878965854644775,-0.26407307386398315,1.604721188545227,1.049216628074646,-0.028431696817278862,-0.09009138494729996,-0.06366226077079773,-0.11311477422714233,-0.5340239405632019,-0.21276803314685822,-0.22677366435527802,-0.13284249603748322,0.10902249813079834,-0.9350154399871826,0.14076165854930878,0.250747412443161,0.020215019583702087,-1.4428318738937378,-0.6191564202308655,0.09788450598716736,0.6152676343917847,0.17879407107830048,-0.0963832288980484,0.0171735230833292,0.19840730726718903,-1.2587554454803467,0.06745321303606033,-0.07061825692653656,0.1620062291622162,-0.8067291975021362]],"b":[-0.1851242482662201,0.10334383696317673,0.014739859849214554,-0.13616137206554413,-0.15707865357398987,0.07007110118865967,0.1070176288485527,0.09065822511911392,0.07302454859018326,-0.062263693660497665,-0.11083029955625534,0.1987001597881317,0.059627924114465714,-0.043138835579156876,0.02652851492166519,0.0059617203660309315,0.03320023790001869,-0.10836250334978104,-0.3318807780742645,0.12979425489902496,0.001243925653398037,-0.099908746778965,-0.03981196507811546,-0.1000187024474144,0.08460181951522827,0.11648699641227722,-0.09809469431638718,0.1889551430940628,0.017151769250631332,0.10259738564491272,0.10150927305221558,0.20026415586471558,-0.10781661421060562,0.12714934349060059,-0.15549342334270477,0.012373905628919601,0.0915362760424614,-0.10134346783161163,0.09138257801532745,0.25962355732917786]},{"W":[[-0.06312419474124908,-0.11646011471748352,-0.14291240274906158,-0.023469999432563782,-0.16737140715122223,-0.044746577739715576,0.057561829686164856,0.14488151669502258,0.10809808224439621,0.13447274267673492,0.06390228867530823,-0.054234687238931656,-0.10361361503601074,0.017498664557933807,0.1675156056880951,0.017390167340636253,0.007301114033907652,-0.0832887664437294,-0.09208540618419647,-0.1342480182647705,0.11713407188653946,-0.040883250534534454,-0.13875336945056915,-0.030099842697381973,-0.024038512259721756,-0.02490757778286934,0.07377592474222183,0.10982630401849747,-0.11793870478868484,-0.08056604862213135,-0.0014591646613553166,-0.16112655401229858,-0.1868032068014145,0.15604838728904724,0.007312699221074581,-0.14450255036354065,-0.04311943054199219,-0.11112019419670105,0.0945274606347084,-0.00991645734757185],[-0.12807071208953857,-0.21054744720458984,-0.013280038721859455,-0.07060504704713821,0.1428522914648056,-0.08047673106193542,-0.1902913600206375,-0.06846331059932709,0.13864628970623016,-0.10639847069978714,-0.12316666543483734,-0.1469728946685791,-0.07209077477455139,0.2092941701412201,0.014125735498964787,0.14487028121948242,-0.09199531376361847,-0.062171824276447296,0.06471612304449081,0.16145756840705872,-0.16831515729427338,0.0863194614648819,0.07363565266132355,0.2189635932445526,0.2593727111816406,-0.06139439344406128,0.17078827321529388,-0.1637420952320099,-0.03405015170574188,0.3024607300758362,-0.0023446630220860243,-0.025827273726463318,-0.01351715438067913,-0.10838153213262558,0.09328087419271469,-0.08197347819805145,-0.05783195421099663,0.024608932435512543,0.2131388932466507,-0.08859994262456894],[0.006843013223260641,-0.04300084337592125,0.07705062627792358,-0.0879051461815834,-0.15623648464679718,-0.03133402019739151,0.0622560977935791,0.0637160986661911,0.18048276007175446,-0.15300266444683075,-0.07316059619188309,-0.15462848544120789,-0.004921897780150175,0.06609126925468445,-0.05007385462522507,-0.3620947301387787,-0.17605240643024445,-0.42730391025543213,-0.1517334282398224,0.2158106416463852,-0.050073202699422836,-0.6840718984603882,0.0754157081246376,0.13706649839878082,-0.15756939351558685,0.20917044579982758,-0.3402312397956848,0.014428994618356228,0.16451092064380646,0.19670434296131134,-0.14327436685562134,0.4212477207183838,0.1181870549917221,-0.014983691275119781,-0.9832512140274048,-0.108865886926651,-0.08375152945518494,-0.062366828322410583,0.10178744047880173,0.04206707701086998],[-0.025424975901842117,-0.6864344477653503,-0.017705997452139854,-0.10482502728700638,0.0628618374466896,-0.6568881869316101,-0.5669597387313843,0.35497790575027466,0.3654811382293701,-0.37751972675323486,-0.21251721680164337,-0.30557093024253845,-1.0543043613433838,-0.1035878136754036,-0.1924864649772644,-2.059922218322754,-0.2629850506782532,-1.435571312904358,0.1503582000732422,0.11423904448747635,-0.4891434907913208,-2.2836971282958984,-0.07969307154417038,-0.010504821315407753,0.11423463374376297,0.9936996102333069,-1.7788883447647095,-0.0003355395747348666,-0.12974444031715393,0.09385467320680618,-0.8371899724006653,0.6746588945388794,0.787760853767395,-0.4276784658432007,-2.64981746673584,-0.2673330307006836,-0.0731789842247963,-0.31666749715805054,0.42787250876426697,-0.20111232995986938],[-0.3602176010608673,-0.3134826719760895,-0.034682344645261765,-0.03728334605693817,0.0741296261548996,-0.07482998073101044,0.021571354940533638,-0.08228258043527603,0.2037605196237564,0.15621636807918549,-0.27402371168136597,-0.055616892874240875,-0.20155519247055054,0.04849080368876457,-0.14769211411476135,-0.3387289047241211,-0.02806880697607994,-0.2606479823589325,0.1520313024520874,0.031046878546476364,1.7043628758983687e-05,-0.30130067467689514,0.26699337363243103,0.0832318663597107,-0.004562930203974247,0.2195851355791092,-0.43659859895706177,-0.15972188115119934,0.1784164011478424,-0.06317611783742905,-0.3084549009799957,0.12236236035823822,-0.008734648115932941,-0.056622281670570374,-0.42316174507141113,0.19572879374027252,-0.3640528619289398,-0.13485555350780487,0.13875934481620789,0.04018743336200714],[-0.07367893308401108,-0.003639151807874441,-0.04141142591834068,-0.007298615761101246,-0.10485570877790451,-0.10977746546268463,-0.05793122202157974,0.15233223140239716,0.00040758319664746523,0.08808976411819458,0.048951249569654465,-0.003558399388566613,-0.09466977417469025,-0.07058931887149811,-0.045184213668107986,0.005495812278240919,-0.2294522523880005,-0.10175653547048569,0.021664945408701897,0.16624005138874054,0.040461283177137375,0.0523359477519989,0.13854661583900452,0.06717486679553986,0.027713323011994362,-0.02949722297489643,-0.2182144820690155,-0.01308903843164444,0.018236424773931503,0.059873681515455246,-0.08502151817083359,0.16179786622524261,0.08448690176010132,-0.05252477899193764,-0.3025903105735779,-0.06453880667686462,-0.14246830344200134,0.021844511851668358,-0.10946696251630783,0.011268152855336666],[-0.12486597895622253,-0.08522732555866241,0.10478540509939194,-0.04607807472348213,-0.017715834081172943,-0.09207075834274292,0.027735520154237747,0.036508042365312576,-0.03272710740566254,-0.04399721696972847,-0.0025725332088768482,-0.0008306940435431898,-0.0858321413397789,-0.11926136165857315,-0.04924868792295456,-0.17566226422786713,0.047790445387363434,-0.10118609666824341,-0.08091191947460175,0.022607160732150078,0.07075274735689163,0.007060231175273657,0.12048204243183136,-0.09638166427612305,0.048733677715063095,-0.03436475247144699,-0.1507708728313446,-0.047812025994062424,0.07546588033437729,0.035481732338666916,0.06203223764896393,0.16687728464603424,-0.11315041035413742,-0.04985129460692406,-0.09977146983146667,-0.04518720880150795,-0.07869403809309006,-0.17772778868675232,0.0439952090382576,0.13263900578022003],[-0.06948729604482651,-0.08677814155817032,-0.06322808563709259,-0.08779963850975037,0.11825376749038696,-0.009407410398125648,0.07457254827022552,0.21276721358299255,0.06326783448457718,0.05315548554062843,-0.006681059021502733,0.11617764085531235,0.03037957288324833,-0.21345415711402893,-0.1794668734073639,-0.02873513288795948,0.010650317184627056,0.0490550622344017,-0.03436436504125595,-0.12501701712608337,-0.01018810085952282,0.027569064870476723,0.06364580243825912,0.02268725447356701,0.19166386127471924,-0.012404892593622208,0.08239208906888962,-0.1489616334438324,0.09232758730649948,0.04200819134712219,-0.07839030772447586,0.09574425220489502,-0.19353802502155304,0.1329691857099533,0.07420696318149567,0.14473997056484222,0.04219651594758034,0.0003878817951772362,0.06678258627653122,0.2027152180671692],[-0.07237576693296432,0.07300104945898056,-0.03422924131155014,-0.045305389910936356,0.030823538079857826,0.11189667135477066,-0.11302129179239273,-0.1102878749370575,0.1105094626545906,-0.061370767652988434,0.07026434689760208,-0.006831084378063679,0.03642699494957924,0.10916303843259811,-0.09070925414562225,-0.0751803070306778,0.08895520865917206,0.029127338901162148,-0.011573378928005695,-0.1382424682378769,0.11364506930112839,-0.05107758194208145,-0.01949634775519371,-0.10356815159320831,-0.044742994010448456,0.11336765438318253,0.009293120354413986,0.138194277882576,-0.020840313285589218,-0.03229936584830284,0.08630198985338211,-0.0288567915558815,-0.03475062549114227,0.03704479709267616,0.18038490414619446,-0.008176589384675026,0.12497453391551971,0.11650851368904114,0.05155892297625542,0.02532373182475567],[0.00938575528562069,0.06637471169233322,0.05198434740304947,0.13042707741260529,0.11381250619888306,-0.0423424057662487,0.1059713065624237,-0.2655959129333496,0.1302858144044876,-0.02894802950322628,0.1443737894296646,-0.14368779957294464,-0.15764248371124268,0.04589524120092392,-0.12202698737382889,0.039833370596170425,0.0991828516125679,-0.17022335529327393,0.0505015067756176,-0.0244468841701746,0.09840460866689682,-0.05438268929719925,0.10863487422466278,0.2154594212770462,0.1516864001750946,0.16901299357414246,0.019923552870750427,-0.22073069214820862,0.04859476163983345,-0.09129849821329117,0.021440112963318825,-0.1375296711921692,0.05466696247458458,-0.122560515999794,0.14345239102840424,0.2500390112400055,0.0864814892411232,0.10160975158214569,-0.041381701827049255,-0.12729230523109436],[-0.06876162439584732,-0.10306285321712494,0.07208091765642166,-0.03261928632855415,0.0936414897441864,-0.09616786241531372,-0.21945418417453766,-0.11039096117019653,0.1967792958021164,0.08902550488710403,0.04308101534843445,-0.09710884094238281,-0.22768065333366394,-0.09239744395017624,0.07603535801172256,-0.08263479918241501,0.0866033211350441,0.0027755803894251585,-0.06624474376440048,0.14249993860721588,-0.18660792708396912,-0.037913743406534195,-0.002874319441616535,-0.12065014243125916,0.000989700434729457,0.08633451163768768,-0.10784990340471268,0.094793900847435,-0.14939995110034943,-0.13531722128391266,-0.11556486785411835,-0.056750986725091934,0.014982220716774464,-0.0596371665596962,0.07005126029253006,-0.16247639060020447,-0.009731694124639034,-0.021060237661004066,0.12141963839530945,0.14556637406349182],[0.1852831244468689,-0.11830896884202957,-0.14792007207870483,-0.04494161531329155,-0.08059371262788773,0.05262003466486931,-0.008985285647213459,0.14781099557876587,0.07993356138467789,-0.026700381189584732,-0.009359100833535194,0.04625539854168892,-0.03644924983382225,0.0903984010219574,-0.15248827636241913,0.0751747265458107,-0.06180567666888237,-0.14189958572387695,-0.01358360331505537,0.07934880256652832,0.0923825353384018,-0.0008521673735231161,-0.012592262588441372,-0.03802863508462906,-0.07808123528957367,0.004685583990067244,-0.03167107328772545,0.13536657392978668,0.0920419991016388,-0.12692637741565704,0.006532315630465746,-0.09299571067094803,-0.026463573798537254,-0.1428273618221283,0.06340635567903519,-0.23263594508171082,0.18285852670669556,0.11793989688158035,-0.10290450602769852,-0.17075301706790924],[-0.02131088264286518,-0.05960904806852341,-0.06267208606004715,-0.13621225953102112,0.05433829873800278,-0.11032408475875854,-0.17048496007919312,-0.21768803894519806,0.12653550505638123,-0.03990752995014191,-0.1771581619977951,-0.1858202964067459,-0.013279993087053299,-0.13193978369235992,0.03864453732967377,-0.04170196130871773,-0.03815010190010071,-0.10142044723033905,0.00693270331248641,-0.08714387565851212,-0.12005677074193954,-0.10251208394765854,0.2000657021999359,-0.011975742876529694,0.0734652429819107,-0.01327182725071907,-0.08792804926633835,-0.15059931576251984,0.1251874715089798,0.13948087394237518,-0.026877326890826225,0.11156915128231049,0.2039349526166916,0.1090523824095726,0.04625093564391136,-0.11929988861083984,-0.19094015657901764,-0.14799140393733978,0.06449581682682037,-0.21107682585716248],[-0.1613769829273224,-0.13900126516819,-0.16793547570705414,0.03270384296774864,0.03952934220433235,-0.09378108382225037,0.13222956657409668,-0.07579850405454636,-0.07419315725564957,0.10527290403842926,0.0843760073184967,-0.011643383651971817,-0.1338144987821579,-0.1101977527141571,-0.04365811496973038,0.03386950120329857,0.004827575758099556,-0.130574032664299,-0.13402768969535828,-0.11168479174375534,-0.029775243252515793,0.014259878545999527,-0.036509644240140915,-0.09281761199235916,0.015348000451922417,-0.12812742590904236,-0.18247108161449432,-0.14313051104545593,-0.045001763850450516,0.16310036182403564,0.022999387234449387,0.08837633579969406,0.07323651760816574,0.046224117279052734,-0.12191745638847351,-0.09775535017251968,-0.13548584282398224,-0.17235995829105377,0.007465130649507046,-0.1506507396697998],[0.013477431610226631,-0.0185785423964262,0.22770127654075623,0.224519282579422,0.08531548082828522,0.10661400854587555,0.0523914210498333,0.11476867645978928,-0.1934661567211151,-0.022314755246043205,-0.04134080931544304,0.034447260200977325,-0.05300050228834152,0.07286705821752548,0.14161941409111023,-0.07781736552715302,0.05969150364398956,0.05183255299925804,-0.04092440754175186,-0.057618994265794754,0.26170676946640015,0.037093598395586014,-0.15244252979755402,-0.11631515622138977,0.052905675023794174,-0.05872344970703125,0.05270561948418617,0.01251234021037817,-0.02839644066989422,-0.054310526698827744,-0.03719746693968773,0.030234143137931824,-0.014253484085202217,0.16223129630088806,-0.03534245491027832,0.020573221147060394,0.15263673663139343,0.09051080793142319,-0.07436393946409225,0.08834424614906311],[-0.02881416492164135,-0.16374875605106354,0.13508717715740204,-0.01070256344974041,0.17872153222560883,0.14541547000408173,0.08012860268354416,0.27664586901664734,-0.11840463429689407,0.13711638748645782,0.14138776063919067,0.0314364917576313,-0.135520800948143,-0.10077624022960663,-0.10823318362236023,-0.062092505395412445,-0.16584382951259613,-0.004194506909698248,-0.04817136377096176,-0.030667511746287346,-0.0538167729973793,-0.07933809608221054,-0.10615064203739166,-0.06447629630565643,0.03533175215125084,0.08102705329656601,0.10648050904273987,-0.12893544137477875,0.05147490277886391,-0.05231025815010071,-0.1139688789844513,0.06468573957681656,-0.09832693636417389,-0.13934442400932312,-0.26005059480667114,-0.06733356416225433,0.11827778816223145,0.05985797569155693,-0.0730643942952156,-0.0014756901655346155],[-0.15953189134597778,-0.10806089639663696,-0.018598364666104317,0.12608587741851807,0.09337133914232254,-0.05423332378268242,0.1559913456439972,-0.07660877704620361,-0.17878137528896332,0.05095868185162544,-0.09972544759511948,0.10079514235258102,0.14426341652870178,-0.09721153974533081,-0.16041268408298492,0.031117552891373634,-0.18084323406219482,0.14683641493320465,-0.06679200381040573,0.06384903937578201,-0.07906053215265274,-0.10707572847604752,0.02258484624326229,0.06269709020853043,0.14930272102355957,0.10828178375959396,-0.016003239899873734,-0.023745745420455933,0.019614433869719505,-0.009404975920915604,-0.0005041515687480569,-0.10810182243585587,-0.15022853016853333,0.11822403222322464,-0.14309699833393097,0.21906405687332153,0.02260291948914528,0.028649374842643738,0.10324462503194809,-0.07237348705530167],[0.0022362228482961655,0.020325351506471634,0.09766144305467606,-0.16723938286304474,0.02304217778146267,-0.06635840237140656,0.040802765637636185,0.17502795159816742,-0.002324106637388468,0.04364059120416641,-0.0058997320011258125,0.1897253692150116,0.11203864961862564,0.05579601600766182,-0.06624022871255875,-0.06650059670209885,0.10492723435163498,0.16394945979118347,0.05279959365725517,-0.11803232133388519,0.13060446083545685,-0.007186021190136671,0.156403586268425,0.06048817187547684,-0.02406800352036953,-0.05647857114672661,0.1861708164215088,-0.04951491951942444,0.13097962737083435,-0.12782254815101624,-0.04763774201273918,-0.15863792598247528,-0.12091569602489471,0.08989094197750092,-0.01028131227940321,-0.12213926762342453,0.10288996249437332,0.08763006329536438,-0.02931062877178192,-0.07197755575180054],[0.00949594285339117,-0.05418875813484192,0.11137142777442932,-0.038408804684877396,-0.06799906492233276,-0.10317955166101456,-0.062168754637241364,0.15953460335731506,0.10043743252754211,0.0399378202855587,-0.0228857584297657,0.1875978410243988,0.04030855372548103,-0.0931253582239151,-0.05590371787548065,-0.01109833363443613,0.11622895300388336,0.08245021849870682,0.10142781585454941,-0.019161725416779518,0.13317707180976868,-0.06341791898012161,-0.06939581781625748,-0.10345260053873062,-0.18602317571640015,-0.12068670988082886,-0.14968828856945038,0.0014792898437008262,-0.0006073468830436468,-0.02211279422044754,-0.08374357223510742,0.13778743147850037,-0.07837500423192978,0.07557845115661621,0.12611691653728485,-0.1533021330833435,0.0064744227565824986,0.10876085609197617,0.13639624416828156,-0.009193145669996738],[0.10603586584329605,-0.14448143541812897,-0.13791443407535553,0.14733392000198364,0.09393391758203506,0.1376219540834427,0.010183836333453655,-0.12453904747962952,0.09956957399845123,0.06523659080266953,0.0495053306221962,-0.16855581104755402,-0.03596331551671028,-0.1527855098247528,0.034234482795000076,-0.01784820482134819,0.024395547807216644,0.09645432978868484,0.14634662866592407,-0.08704753965139389,0.16135938465595245,0.11967112123966217,-0.06703446805477142,0.21918736398220062,0.13069704174995422,-0.03468213602900505,-0.1273173987865448,-0.10061688721179962,-0.24563032388687134,0.04927907511591911,0.13416330516338348,-0.005350478459149599,0.2176034301519394,-0.1037520095705986,-0.011984938755631447,-0.08140146732330322,-0.006963225547224283,0.05606923624873161,0.10278341919183731,-0.023112595081329346],[-0.08857700228691101,0.02856569178402424,0.1889469027519226,0.024335984140634537,-0.20972482860088348,0.043275315314531326,0.029338514432311058,0.28887230157852173,0.07341296225786209,0.15510450303554535,-0.09231311082839966,0.2275422364473343,0.015750059857964516,0.2145339846611023,0.1357276737689972,-0.1319117397069931,-0.04613691195845604,-0.16840927302837372,-0.21519950032234192,0.051389556378126144,0.0016000813338905573,-0.06600414216518402,0.19216108322143555,-0.2314278483390808,-0.20380781590938568,0.014684585854411125,-0.032527580857276917,0.13936828076839447,0.26218169927597046,0.04185112193226814,-0.14676296710968018,0.0629693940281868,0.0398191399872303,0.07372470200061798,0.06493600457906723,-0.0489206500351429,0.07856404036283493,0.05363531410694122,0.05881741642951965,0.05191708356142044],[-0.04052823781967163,-0.1559266448020935,0.09529674798250198,0.1331394463777542,-0.08170811831951141,0.14079608023166656,0.039861369878053665,0.06933358311653137,0.016574863344430923,0.02983996458351612,0.06387805938720703,0.057288020849227905,0.09079139679670334,-0.11313425004482269,-0.08296086639165878,-0.06089326739311218,0.11242495477199554,0.03634434565901756,0.027365773916244507,-0.1553085595369339,-0.007440957706421614,-0.2606615126132965,-0.14157111942768097,-0.03798484429717064,-0.13465516269207,0.17380401492118835,-0.15615996718406677,0.08039812743663788,0.1265176683664322,-0.04473782703280449,0.017888085916638374,0.022934339940547943,0.05033693090081215,0.15504202246665955,-0.15704219043254852,-0.27810966968536377,0.14312005043029785,-0.005846220068633556,-0.028670737519860268,0.1395677626132965],[-0.15120451152324677,-0.12077892571687698,0.08492698520421982,0.11129198968410492,-0.1463424563407898,0.07078267633914948,-0.08594871312379837,-0.03710336983203888,0.07685817033052444,-0.012642032466828823,-0.15709993243217468,0.00410614674910903,0.02870006673038006,-0.10421566665172577,-0.14091697335243225,-0.2604106664657593,-0.11278070509433746,-0.23571191728115082,-0.029116591438651085,0.027272026985883713,-0.07741953432559967,-0.15407535433769226,-0.05255566164851189,-0.13476639986038208,-0.06529910117387772,-0.10863913595676422,-0.2686896026134491,0.1555124670267105,0.05069911479949951,-0.043544571846723557,-0.11769267916679382,0.34776607155799866,-0.10180366784334183,-0.0658557340502739,-0.5713529586791992,-0.027093173936009407,-0.0555143877863884,-0.26637884974479675,0.10822939872741699,-0.11572591960430145],[0.3798160254955292,0.03557238727807999,-0.0029262732714414597,0.03418588638305664,-0.03392177075147629,0.21524836122989655,-0.042784273624420166,0.024799296632409096,-0.17596955597400665,0.05997494235634804,0.22840295732021332,0.2147151529788971,0.06814245134592056,-0.06145666539669037,0.15854120254516602,0.2032640278339386,0.24784906208515167,-0.025781942531466484,-0.10070668905973434,-0.14859959483146667,0.23221825063228607,0.1870102882385254,-0.25506463646888733,-0.04389514774084091,-0.04141906276345253,-0.08225145936012268,0.21873457729816437,-0.05350311100482941,0.04043031483888626,-0.06261326372623444,0.1574280560016632,-0.23912516236305237,-0.05989152938127518,0.19299735128879547,0.32255974411964417,-0.10150819271802902,0.2969072163105011,0.2675735354423523,-0.03147648647427559,0.05323496088385582],[0.09492219239473343,0.12728947401046753,0.13790154457092285,-0.09558618068695068,-0.046894244849681854,-0.0680486410856247,0.04421360418200493,-0.15258541703224182,0.10932754725217819,-0.0006811252678744495,0.021259548142552376,0.09666471928358078,-0.05133720859885216,0.15468686819076538,0.15083280205726624,-0.11212802678346634,0.19410908222198486,0.15520957112312317,0.06562860310077667,-0.03190809115767479,0.02554597519338131,-0.10184593498706818,-0.07350893318653107,0.03586837276816368,0.04107193276286125,0.06172987073659897,-0.13262756168842316,0.1613408774137497,-0.03587619587779045,0.21234676241874695,0.12649716436862946,0.03029625490307808,0.125019371509552,0.12024931609630585,0.12348005175590515,-0.1756656914949417,0.15556548535823822,0.053515784442424774,0.06523881107568741,-0.012450299225747585],[0.15429572761058807,0.12245722860097885,-0.15390731394290924,0.1448497325181961,-0.11161106079816818,-0.09387074410915375,-0.12606538832187653,0.04559700936079025,-0.12294250726699829,-0.0673937276005745,-0.0744449570775032,0.03952402248978615,-0.1579360067844391,-0.15434817969799042,-0.06429535895586014,-0.029823018237948418,-0.0417761467397213,0.03352687135338783,-0.10387641191482544,-0.11650603264570236,-0.006980451755225658,-0.14706707000732422,0.13188928365707397,-0.12356551736593246,-0.028764473274350166,0.07420846074819565,-0.16484010219573975,0.12364676594734192,-0.07665767520666122,-0.04114936664700508,-0.08763907849788666,-0.007449595257639885,-0.04311710223555565,-0.14321254193782806,0.02044703997671604,-0.023471254855394363,0.16583038866519928,0.08690164983272552,0.14157037436962128,0.01663423515856266],[0.15212520956993103,0.1496749371290207,0.15012867748737335,-0.11787335574626923,-0.07199158519506454,-0.1425136923789978,0.02136344462633133,-0.015216761268675327,0.13401691615581512,0.04461488500237465,0.038865480571985245,-0.09042171388864517,-0.11624828726053238,-0.005073507782071829,-0.08268678933382034,-0.056483689695596695,0.1723199337720871,-0.0522296242415905,-0.09885268658399582,0.09799361228942871,0.06438508629798889,-0.10006924718618393,0.03362184390425682,0.015540709719061852,-0.1894209086894989,0.019296901300549507,0.052977271378040314,0.017412666231393814,0.15555498003959656,-0.1254427433013916,0.11958523839712143,-0.10505283623933792,-0.16863727569580078,0.10357748717069626,-0.03940214216709137,-0.028311768546700478,0.13825835287570953,-0.10811775922775269,-0.15865695476531982,0.059765078127384186],[0.1261238157749176,-0.1455390602350235,0.08240935206413269,-0.0746406689286232,0.04132184013724327,-0.1815514862537384,0.09429264068603516,0.058945730328559875,0.14643235504627228,0.045058634132146835,-0.2150462418794632,-0.04387463256716728,-0.21375444531440735,-0.18569064140319824,-0.1640472114086151,-0.11169946938753128,-0.06963468343019485,-0.3700912296772003,-0.09339801222085953,0.15358036756515503,-0.32932519912719727,-0.2885700762271881,0.2582779824733734,0.022880984470248222,-0.12067903578281403,0.23006518185138702,-0.22957739233970642,-0.09516368061304092,0.0530519001185894,-0.17221394181251526,-0.05775853618979454,0.36770325899124146,0.20290280878543854,0.021630100905895233,-0.44223347306251526,0.0688813254237175,-0.009676284156739712,-0.0728343203663826,0.09256831556558609,0.007675961125642061],[-0.011660597287118435,-0.07800676673650742,-0.12574763596057892,-0.15735375881195068,-0.15580639243125916,0.17535097897052765,0.007189492229372263,-0.13520871102809906,-0.033250920474529266,0.07488182932138443,-0.05519312247633934,-0.017039095982909203,-0.003306381404399872,0.013126261532306671,0.09112262725830078,0.03240298107266426,0.1615207940340042,0.13953278958797455,0.0835651308298111,-0.04208806902170181,-0.0878603383898735,-0.03427468240261078,-0.12480789422988892,0.002642069710418582,-0.06350907683372498,-0.06199386715888977,-0.08397476375102997,0.12539096176624298,0.11683601886034012,0.1607574075460434,-0.01335413008928299,-0.01172272302210331,-0.01209079660475254,-0.05577586591243744,-0.056369755417108536,0.028471678495407104,-0.05592832714319229,0.14321938157081604,0.025499233976006508,0.08204236626625061],[0.13187968730926514,0.09045670181512833,0.08767417073249817,0.04803848639130592,-0.10537729412317276,-0.0652570128440857,-0.010175000876188278,0.10101932287216187,0.16672952473163605,0.17432528734207153,-0.03740455210208893,0.0043194228783249855,-0.07466130703687668,0.13859732449054718,-0.04869285225868225,-0.03865766152739525,0.16679728031158447,0.07682672888040543,-0.07968509942293167,-0.09653163701295853,-0.14359715580940247,0.11946385353803635,-0.15698035061359406,0.11979278177022934,0.10170303285121918,0.01960625685751438,0.010039354674518108,0.13569757342338562,0.11839505285024643,0.16971369087696075,0.14673152565956116,-0.14840056002140045,0.04150460660457611,0.1306144744157791,-0.061700787395238876,0.0003367362078279257,-0.09178289026021957,-0.08694561570882797,0.0019743116572499275,0.018780184909701347],[-0.0718802660703659,-0.12268530577421188,0.09051027148962021,0.19295577704906464,-0.0072576384991407394,-0.10002077370882034,0.021444063633680344,-0.14232683181762695,-0.1843014657497406,-0.0873880535364151,0.07488269358873367,-0.1459481120109558,-0.04897570610046387,-0.12477447092533112,-0.21209391951560974,-0.08015720546245575,-0.02722317911684513,-0.05342685431241989,0.12224084138870239,0.06699821352958679,0.13384826481342316,0.08239326626062393,0.04618411511182785,0.11769622564315796,-0.08566692471504211,0.0712781473994255,0.03793059289455414,-0.08855188637971878,-0.03398462012410164,-0.13688500225543976,-0.13921184837818146,0.0688047856092453,0.05942271277308464,-0.0545089989900589,-0.008811414241790771,-0.046671342104673386,-0.07765638828277588,0.07293063402175903,-0.13866563141345978,0.02389218471944332],[0.2076256424188614,0.11652740836143494,0.07996883243322372,-0.14592936635017395,0.029277026653289795,-0.033815789967775345,-0.03631357476115227,0.16051381826400757,-0.06546789407730103,-0.09512583166360855,-0.09770182520151138,0.13307225704193115,0.03843379393219948,0.15725691616535187,0.045499660074710846,-0.10095303505659103,0.105499267578125,0.1965077817440033,0.10067865252494812,0.013976792804896832,-0.10172036290168762,-0.10043402761220932,0.07603965699672699,-0.1434520184993744,0.03413742780685425,-0.0292245801538229,0.10713706910610199,0.019939450547099113,-0.12626901268959045,-0.06358000636100769,0.1784304678440094,-0.03222470358014107,0.05490701273083687,-0.06826251745223999,0.21669752895832062,-0.11384139955043793,0.006286186631768942,0.07280780375003815,-0.08019477874040604,-0.05568559467792511],[-0.006905407179147005,-0.06466694176197052,0.04706338420510292,0.02521955966949463,-0.1519981473684311,0.1646280139684677,0.2687888741493225,0.1606246531009674,-0.05862527713179588,-0.028725944459438324,0.005082275252789259,0.289293110370636,0.14599254727363586,0.1266251504421234,0.1590355783700943,0.10428224503993988,0.0071656168438494205,-0.07946504652500153,-0.1298466920852661,0.037384625524282455,0.028741974383592606,0.06814348697662354,-0.07358318567276001,0.005396861582994461,-0.06045346334576607,-0.03651655092835426,0.07068565487861633,-0.08847328275442123,0.18825161457061768,0.2188986986875534,-0.1237700879573822,0.08833442628383636,-0.17075535655021667,0.07572117447853088,-0.02251284383237362,-0.31414881348609924,-0.022965924814343452,0.06380072236061096,-0.13553239405155182,0.03227396681904793],[0.03779064863920212,-0.004374257754534483,-0.030853452160954475,-0.12545187771320343,-0.13782140612602234,-0.01796010136604309,0.05910365283489227,0.17783692479133606,0.03969910740852356,0.11034487187862396,0.06473443657159805,-0.021069929003715515,-0.03901732340455055,0.14175182580947876,0.1491382122039795,0.032285816967487335,-0.11424561589956284,0.0984821617603302,-0.17123457789421082,0.08250557631254196,-0.0014248916413635015,0.021110886707901955,-0.14155134558677673,-0.11526322364807129,0.011871404945850372,0.14397335052490234,-0.0612601563334465,0.18015402555465698,0.011243506334722042,-0.04699186235666275,-0.07523677498102188,0.007142176385968924,-0.06945239007472992,0.09604623913764954,-0.08092202246189117,-0.1095850020647049,-0.16661863029003143,0.12337754666805267,-0.05742669478058815,-0.102030448615551],[0.050839535892009735,-0.03040838986635208,0.06514231115579605,-0.04131244868040085,0.05546770617365837,-0.04677550494670868,-0.07924047112464905,-0.025768974795937538,0.09380704164505005,0.18455687165260315,-0.029025733470916748,0.17754001915454865,0.18569114804267883,-0.01465399656444788,0.054452329874038696,-0.05766051262617111,0.08517365902662277,-0.042779043316841125,0.015214046463370323,0.006109040696173906,-0.14184515178203583,-0.1605157107114792,-0.1558045595884323,-0.14337411522865295,0.00860499870032072,0.04138370230793953,0.14960207045078278,-0.09132587909698486,0.025060167536139488,-0.07602982968091965,0.02299647219479084,0.011448458768427372,-0.17984023690223694,0.18958736956119537,-0.009858247824013233,0.04381367564201355,-0.012963986024260521,0.11407311260700226,0.10164062678813934,-0.02226364053785801],[-0.0071787661872804165,0.17868144810199738,-0.6424018144607544,-0.04377583786845207,0.004633587785065174,-0.1272852122783661,-0.5663748383522034,-0.654898464679718,0.1748531460762024,-0.43116527795791626,0.4120829105377197,-0.45042508840560913,-0.013744023628532887,-0.5333608984947205,-0.16053973138332367,0.09323623031377792,0.1736905723810196,-0.1323155015707016,0.20154844224452972,0.06238684058189392,-0.20130234956741333,-0.0709068775177002,0.0822407454252243,0.09994082152843475,0.20668268203735352,0.08370313793420792,0.09995939582586288,-0.18381811678409576,-0.27212950587272644,-0.5438447594642639,0.03810930624604225,0.09834863990545273,0.3749464154243469,-0.1301479935646057,-0.05826735496520996,0.13624384999275208,0.12742820382118225,-0.07225695252418518,0.6592681407928467,-0.6029717922210693],[-0.12990905344486237,0.06652230024337769,0.20098577439785004,0.1631823182106018,-0.35029536485671997,0.13992324471473694,0.22244739532470703,0.22539867460727692,0.058467961847782135,-0.1058124378323555,0.010877515189349651,0.03250778466463089,-0.039920102804899216,-0.073271743953228,0.08486928790807724,0.09246360510587692,0.09725433588027954,0.14610590040683746,-0.42216724157333374,-0.06254993379116058,-0.015202085487544537,0.01821439154446125,0.04463079944252968,-0.42620107531547546,-0.238003671169281,-0.15789681673049927,-0.15266335010528564,0.24583052098751068,0.0029904376715421677,-0.09211025387048721,-0.009158577769994736,-0.006529773119837046,0.08410628885030746,0.09022176265716553,-0.09795790910720825,0.23213325440883636,0.11945138871669769,0.09436403214931488,-0.24053581058979034,-0.06815976649522781],[-0.19142897427082062,-0.08555194735527039,-0.0043637375347316265,0.05689125508069992,0.1597852110862732,0.06864295154809952,-0.07339616864919662,-0.06850560009479523,0.10247892141342163,0.03680311143398285,0.014087256975471973,-0.04432206600904465,-0.040091950446367264,0.01135175209492445,-0.1606014519929886,0.03318488225340843,0.013840327970683575,-0.14771275222301483,-0.05094020068645477,-0.0055306763388216496,0.04185081645846367,-0.07480990141630173,0.20002588629722595,-0.13998781144618988,-0.081303671002388,-0.07732441276311874,-0.01032526046037674,0.021023141220211983,-0.03854404762387276,0.16560962796211243,-0.16689196228981018,0.14676110446453094,-0.09006829559803009,-0.03942059725522995,-0.2596939504146576,-0.07105725258588791,-0.16984432935714722,0.02002936229109764,-0.06687595695257187,0.11749053001403809],[-0.028473470360040665,-0.049241337925195694,0.06557106226682663,0.15097011625766754,-0.05619608983397484,0.10648170858621597,0.087918721139431,0.1669587343931198,0.08884839713573456,0.10127649456262589,-0.015066209249198437,0.008814554661512375,0.06269018352031708,0.05202973634004593,-0.021581050008535385,0.08475622534751892,-0.06561417132616043,0.11035246402025223,-0.019239194691181183,-0.12571226060390472,-0.06342895328998566,-0.13948671519756317,0.012579686008393764,-0.15539811551570892,-0.0716838613152504,-0.031697601079940796,-0.0919504165649414,0.012863361276686192,0.001646507647819817,0.06611359119415283,0.12307699769735336,-0.09726812690496445,0.03923812508583069,-0.004708196967840195,-0.06715159863233566,-0.14206360280513763,0.08049923926591873,0.04580006003379822,-0.03341056779026985,-0.050991497933864594],[0.0801510140299797,-0.027740759775042534,-1.995368242263794,-0.4805522859096527,-0.003970957826822996,-0.7786733508110046,-1.254509449005127,-2.187379837036133,0.421095609664917,-1.0001006126403809,0.2916358411312103,-1.3700199127197266,-0.6306830644607544,-0.9097914099693298,-0.5183111429214478,-0.04392159357666969,0.10786253213882446,-0.5717966556549072,-0.028312625363469124,0.34915751218795776,-0.5420199632644653,-0.07181811332702637,0.17873306572437286,0.10131402313709259,-0.0028517215978354216,0.4706285893917084,-0.22673280537128448,-0.35739338397979736,-0.6839044690132141,-0.9238395690917969,0.13473288714885712,0.10157112777233124,1.5797191858291626,-0.4846998453140259,-0.30938252806663513,0.3364983797073364,-0.06691212207078934,-0.06447000801563263,1.2433186769485474,-2.5067131519317627]],"b":[0.04283905774354935,-0.13095754384994507,0.11872262507677078,0.11793962866067886,-0.10472453385591507,0.1278017908334732,0.04402419924736023,-0.10369626432657242,0.12590079009532928,0.03615294024348259,0.07559017837047577,-0.0579482726752758,-0.06769958883523941,-0.06206752732396126,0.06486858427524567,0.045831214636564255,-0.0988863855600357,0.17178942263126373,0.0863189548254013,-0.08769027143716812,0.1359064280986786,-0.06021470949053764,0.12854254245758057,0.09651106595993042,-0.12553635239601135,-0.06845295429229736,-0.004866470582783222,0.058295778930187225,-0.11365365236997604,-0.09651926159858704,0.000647829263471067,-0.042504675686359406,0.04225267469882965,0.04827406629920006,0.03839615732431412,-0.04980706050992012,0.0859764888882637,0.0019334766548126936,0.05243943631649017,0.0468176044523716]},{"W":[[-0.0865669772028923,-0.09357640892267227,0.05116356536746025,-0.1510966271162033,0.06934139132499695,0.07533159106969833,0.037439655512571335,-0.041221100836992264,-0.0470399335026741,-0.1228780746459961,-0.1707630157470703,0.16333837807178497,-0.12880267202854156,-0.14975310862064362,-0.028904564678668976,0.07512804865837097,-0.024844611063599586,-0.10095096379518509,-0.018599381670355797,-0.01963844522833824,0.11255773156881332,0.16815835237503052,0.06450323760509491,0.033429957926273346,0.10983418673276901,-0.11603128910064697,0.0594504252076149,-0.09447219222784042,0.1422353833913803,-0.04267553612589836,0.06389907002449036,-0.13006404042243958,0.13015685975551605,-0.013149573467671871,0.12989802658557892,-0.14889420568943024,0.14984440803527832,-0.1293451339006424,-0.0788043662905693,-0.08999279141426086],[-0.019169881939888,-0.10401644557714462,-0.06344062834978104,0.10702988505363464,0.09994103014469147,0.161720871925354,0.11382687836885452,-0.15975403785705566,-0.1127646341919899,-0.1252717226743698,0.1386609524488449,-0.08522457629442215,-0.029230134561657906,-0.09342982620000839,-0.1272556334733963,-0.033479589968919754,-0.17823724448680878,-0.034665796905756,-0.036244094371795654,0.011252266354858875,-0.08569524437189102,-0.06486352533102036,0.13707663118839264,0.06478722393512726,0.1154152899980545,-0.14517554640769958,-0.1420741230249405,-0.03592436760663986,0.03167056292295456,0.10819996893405914,0.1714387685060501,-0.0058228326961398125,-0.10223958641290665,0.0017114619258791208,0.06917665153741837,0.13934515416622162,-0.09120555222034454,0.025173036381602287,-0.18405058979988098,0.33865758776664734],[0.14679954946041107,-0.055341485887765884,0.009675020352005959,-0.2659682035446167,0.15234263241291046,0.012663417495787144,0.024719849228858948,0.09520366787910461,0.03486364334821701,-0.09443878382444382,-0.06257634609937668,-0.039387017488479614,0.17697885632514954,-0.07360949367284775,-0.030678436160087585,-0.19942353665828705,0.07852648198604584,-0.07435895502567291,-0.10866636037826538,0.014356531202793121,-0.10934054106473923,-0.006624571513384581,-0.2132236212491989,0.0904434397816658,-0.05885852873325348,0.052617255598306656,0.11726478487253189,-0.1776173859834671,0.1654486507177353,0.15161652863025665,-0.12500230967998505,0.05609763413667679,0.017959561198949814,0.19635111093521118,0.18102434277534485,-0.15004658699035645,-0.19075000286102295,-0.1714879274368286,-0.05802283436059952,-0.15423141419887543],[-0.09549858421087265,0.09946607798337936,-0.09416334331035614,-0.19389629364013672,-0.1825597584247589,-0.0572345145046711,0.20450465381145477,0.03055036999285221,-0.05456708371639252,-0.007766751106828451,-0.14648690819740295,-0.11633571982383728,0.061803728342056274,0.120710089802742,0.13135497272014618,0.03310905396938324,-0.010490074753761292,-0.0957547277212143,0.11501394957304001,-0.13134367763996124,-0.0066314684227108955,-0.0582633912563324,0.1963212639093399,0.15038365125656128,-0.10075245797634125,-0.1978716254234314,-0.013890531845390797,-0.09167928248643875,-0.04825534671545029,-0.030229264870285988,0.1255681812763214,-0.10007654130458832,-0.11729676276445389,-0.215343177318573,-0.210343137383461,-0.011292560026049614,-0.04834233596920967,-0.0006477082497440279,-0.11182274669408798,-0.25451961159706116],[0.07928689569234848,0.0868649035692215,0.11009883880615234,0.08104962855577469,-0.15408110618591309,-0.055986519902944565,-0.07961013168096542,0.2012888342142105,0.0725407674908638,0.14601454138755798,-0.1453818827867508,-0.14613625407218933,0.11699984222650528,-0.13112439215183258,-0.06852588057518005,0.09644588828086853,-0.03434129059314728,-0.026882030069828033,0.03750584274530411,0.14834603667259216,-0.057877860963344574,-0.14448487758636475,0.11533383280038834,0.1965702325105667,-0.1591094434261322,-0.08703652769327164,-0.13931964337825775,-0.07237972319126129,0.03739757463335991,0.058509018272161484,0.09307123720645905,-0.18684157729148865,-0.015232001431286335,3.35099539370276e-05,-0.048120588064193726,-0.09241972863674164,-0.03556402027606964,0.1490863859653473,-0.13724488019943237,-0.25075650215148926],[0.08338464051485062,-0.09086642414331436,0.11006465554237366,-0.09997078031301498,-0.038547955453395844,-0.028678864240646362,0.1644405722618103,0.14027521014213562,-0.03795935586094856,0.036782655864953995,-0.08077246695756912,-0.1291644126176834,-0.07479850202798843,0.07995299249887466,-0.005091206636279821,0.15364739298820496,0.07903960347175598,-0.0035427375696599483,-0.1267518401145935,0.08174493908882141,-0.19323760271072388,0.012590870261192322,0.09479431062936783,0.04784827306866646,0.06757793575525284,-0.009830987080931664,-0.08631199598312378,-0.09012960642576218,-0.17535778880119324,0.05898558720946312,0.13000023365020752,-0.15416063368320465,0.08245061337947845,-0.10901124030351639,0.10588890314102173,-0.062011633068323135,0.16845674812793732,0.13244856894016266,0.060980379581451416,0.0944303572177887],[0.05974610149860382,0.07792022824287415,-0.22897212207317352,-0.1818779706954956,-0.026129141449928284,0.018817922100424767,-0.12360978871583939,0.16960351169109344,0.11928223818540573,0.06983591616153717,0.11316059529781342,0.024708710610866547,0.13157503306865692,-0.05304045230150223,0.09640933573246002,-0.032213907688856125,0.07589666545391083,-0.1568455547094345,0.15531694889068604,-0.025887317955493927,0.14772020280361176,-0.11221665143966675,-0.21022921800613403,-0.02249806933104992,-0.06964512914419174,0.05691150948405266,0.010238616727292538,-0.10950861871242523,0.1235484927892685,0.08088524639606476,-0.14930613338947296,-0.08929166942834854,0.050008129328489304,-0.05371209979057312,0.07467178255319595,-0.04356638714671135,-0.025797709822654724,-0.12671658396720886,-0.012250065803527832,-0.23768195509910583],[-0.06916816532611847,-0.06440571695566177,0.024637939408421516,0.20942692458629608,0.030812764540314674,-0.025447191670536995,0.09649445861577988,0.1658155620098114,-4.595105201588012e-05,-0.13080556690692902,0.009565867483615875,0.10450819134712219,-0.16727957129478455,-0.1725875288248062,0.052152737975120544,0.18154868483543396,-0.13426315784454346,0.005417683161795139,-0.04320177435874939,-0.1411726474761963,-0.0911792442202568,0.14460264146327972,0.09849231690168381,-0.14017847180366516,0.06348473578691483,-0.1140047237277031,0.0818902775645256,-0.1264103204011917,-0.0724082887172699,-0.0015432527288794518,0.013276539742946625,0.15519464015960693,-0.0627012774348259,0.06337445974349976,0.15272599458694458,0.029510164633393288,-0.02912275679409504,-0.009157349355518818,0.0002339270431548357,0.31055349111557007],[0.03160540759563446,-0.03724948316812515,0.22514063119888306,0.33010852336883545,0.10549016296863556,0.21989841759204865,0.08317308127880096,0.21438394486904144,-0.18652984499931335,0.20961414277553558,0.19245222210884094,-0.15993529558181763,-0.08161668479442596,0.1057448610663414,-0.1799725443124771,0.03206969425082207,0.1724528670310974,-0.05673810467123985,0.0554845966398716,0.01435155514627695,-0.10473944246768951,-0.20092029869556427,0.14831939339637756,-0.26873162388801575,-0.05808650702238083,-0.08535018563270569,-0.11900446563959122,0.08372117578983307,0.0011236483696848154,0.02855965495109558,0.170454740524292,-0.2573002278804779,-0.20567035675048828,-0.09640343487262726,-0.1830337941646576,0.24888834357261658,-0.1881076544523239,-0.04034736007452011,-0.015520600602030754,0.44396379590034485],[-0.019332928583025932,-0.15396834909915924,0.02446165308356285,0.14958903193473816,0.18323291838169098,-0.022458206862211227,0.06467884033918381,-0.11073852330446243,0.16174595057964325,-0.13945099711418152,-0.0863664373755455,0.16671036183834076,-0.008099122904241085,0.0809517502784729,-0.10976577550172806,0.13390809297561646,0.09411009401082993,0.050388213247060776,0.17280256748199463,-0.12385430186986923,0.011861374601721764,0.12094364315271378,0.06402570009231567,-0.13401666283607483,0.16059789061546326,0.016875779256224632,-0.05388392508029938,0.030456028878688812,-0.10784406960010529,-0.07708156853914261,0.007590716704726219,0.10541145503520966,0.06020650267601013,0.047818489372730255,-0.06577247381210327,-0.06493590027093887,0.0957014337182045,-0.1469472348690033,0.08643980324268341,0.28836578130722046],[0.10539942234754562,-0.11724085360765457,-0.06425238400697708,-0.22915028035640717,0.07445722073316574,-0.1211213693022728,-0.1004907563328743,-0.1729562133550644,0.09504080563783646,0.1257542222738266,0.10787325352430344,0.10147978365421295,-0.06564684212207794,-0.07696430385112762,-0.08946550637483597,0.1098647192120552,0.15198080241680145,6.463677709689364e-05,-0.15196013450622559,0.02239297516644001,-0.10543578118085861,-0.00636682054027915,-0.00875892024487257,0.03817238658666611,-0.1777840554714203,0.2029643952846527,-0.05996624007821083,0.06592760235071182,0.12107846885919571,0.02802921272814274,0.14285945892333984,0.042361512780189514,0.10972768068313599,-0.020959697663784027,0.08852644264698029,-0.08257393538951874,-0.04305848106741905,0.08526694774627686,0.033561285585165024,-0.20017337799072266],[-0.1535014510154724,0.04642939195036888,0.10749255120754242,-0.08080080896615982,0.0018058500718325377,0.09490064531564713,-0.11760567128658295,0.01932419463992119,-0.08197247982025146,-0.07029633224010468,0.07027238607406616,0.10832839459180832,-0.0037965974770486355,0.0916026160120964,-0.08716622740030289,0.0735684335231781,0.03953653573989868,-0.08498906344175339,0.015397933311760426,0.0660596415400505,-0.03863250091671944,0.07173683494329453,0.10307426750659943,0.17544682323932648,-0.027902847155928612,-0.07239340990781784,-0.022273212671279907,0.032561756670475006,-0.11162415891885757,-0.03424999490380287,-0.11383465677499771,-0.14099468290805817,-0.09522278606891632,0.05876197665929794,-0.1027340367436409,-0.05049354210495949,0.059148482978343964,0.14370369911193848,0.06604605168104172,-0.2728351354598999],[0.18412645161151886,-0.15579287707805634,-0.003951193764805794,0.1523418128490448,0.16939620673656464,-0.06854236125946045,-0.14760074019432068,0.1057615652680397,0.13777680695056915,-0.11184598505496979,0.0017906464636325836,-0.04310052469372749,0.07766811549663544,0.02866688184440136,0.06349699944257736,-0.0533502921462059,-0.20638716220855713,-0.06746427714824677,-0.0859152302145958,-0.0688195675611496,0.10786056518554688,-0.10342500358819962,-0.04564345255494118,-0.18703025579452515,-0.060674358159303665,-0.04791751131415367,-0.01470294501632452,-0.09433703869581223,0.05220179259777069,0.13228753209114075,0.07698556035757065,0.09637639671564102,-0.011789551936089993,0.04719676449894905,0.16500303149223328,-0.03112688846886158,0.07789189368486404,-0.16630733013153076,-0.09872488677501678,0.1082957535982132],[-0.15748117864131927,0.01153490785509348,0.37724605202674866,0.4874657690525055,0.3896839916706085,0.1454038769006729,0.11245603114366531,0.054050080478191376,-0.2702849209308624,-0.03950292244553566,0.18170107901096344,0.16797266900539398,0.02292936109006405,0.447714626789093,-0.0713515430688858,0.6346501111984253,0.37133675813674927,-0.19124966859817505,0.005905349738895893,-0.015623020008206367,-0.15874060988426208,0.31093618273735046,0.33581048250198364,-0.2408401072025299,0.11608026921749115,0.7625082731246948,0.0712495669722557,0.4529035687446594,-0.08618500828742981,0.1224825456738472,0.14727354049682617,-0.22740846872329712,-0.14747439324855804,-0.12194002419710159,0.14085529744625092,0.2707226574420929,-0.061520516872406006,0.1802636831998825,0.044056858867406845,0.44486188888549805],[0.05390644073486328,-0.1518634557723999,-0.03298964723944664,-0.18247844278812408,-0.12695255875587463,0.12482646852731705,0.021330170333385468,0.060381658375263214,-0.13912269473075867,0.001029578736051917,-0.0014896292705088854,0.11829967796802521,-0.09175217151641846,-0.05367835983633995,-0.07628268748521805,0.17021340131759644,0.1268724501132965,0.10534754395484924,0.09729160368442535,0.10881734639406204,0.1591377556324005,0.10530509799718857,0.03261982277035713,0.11414768546819687,-0.08941453695297241,0.15612463653087616,0.04189294949173927,-0.11393580585718155,-0.010804014280438423,-0.06385139375925064,-0.11031533777713776,0.14480458199977875,0.18625511229038239,-0.0219329372048378,0.06113533675670624,-0.12205580621957779,0.09162288159132004,-0.053076792508363724,-0.04478796198964119,-0.3095954656600952],[0.22489623725414276,-0.07621987164020538,-0.187631756067276,-0.10541226714849472,-0.34382331371307373,-0.036945074796676636,0.09471059590578079,0.030673321336507797,0.0352688692510128,-0.2403046041727066,-0.1407930552959442,0.11133792996406555,-0.30325964093208313,-0.16392603516578674,0.23423074185848236,0.17427195608615875,0.22173209488391876,0.14951108396053314,0.17490361630916595,-0.050243623554706573,0.10016237944364548,0.22692835330963135,-0.19772659242153168,0.14011317491531372,-0.11892782151699066,0.18414264917373657,0.10932600498199463,-0.05088483542203903,0.18729223310947418,0.18711349368095398,-0.15818899869918823,0.12755799293518066,0.2921905517578125,-0.07208115607500076,0.07573641091585159,-0.24643932282924652,0.12917031347751617,-0.029047632589936256,0.2494240254163742,-0.5310291051864624],[0.05483534559607506,0.09793795645236969,-0.026542339473962784,0.1891184151172638,0.147007554769516,0.05552475526928902,-0.06817176938056946,0.10163449496030807,-0.0429084375500679,0.04674646630883217,0.046905357390642166,0.1370546668767929,-0.1266186535358429,0.02897547371685505,-0.12203314900398254,0.010508106090128422,-0.00883509498089552,-0.08888131380081177,-0.0037215871270745993,0.03207935020327568,0.0820343866944313,0.11360811442136765,0.05442124605178833,-0.015255956910550594,0.11920556426048279,-0.13154633343219757,0.11755768954753876,-0.0347464494407177,0.10032271593809128,0.0581248514354229,-0.024941615760326385,0.12916579842567444,-0.1271255761384964,0.09188762307167053,0.08012492209672928,-0.00983266718685627,0.004460000433027744,-0.15672145783901215,-0.0843019112944603,0.26751595735549927],[0.07691695541143417,-0.15189918875694275,0.021150575950741768,0.018608910962939262,0.18152637779712677,-0.15703316032886505,-0.03661240637302399,-0.09265825152397156,-0.09638834744691849,-0.03264302760362625,-0.10550883412361145,0.18618685007095337,-0.016770269721746445,0.0680174008011818,-0.11590015888214111,0.021144036203622818,-0.15367059409618378,0.09828413277864456,0.16009972989559174,0.12388218194246292,-0.013753260485827923,0.15056197345256805,-0.1725425273180008,0.05304872244596481,-0.00251209270209074,-0.061569225043058395,-0.09900588542222977,-0.13167372345924377,0.004620454274117947,-0.06035206466913223,-0.08729620277881622,0.1465703248977661,-0.0694769099354744,0.06635886430740356,-0.018396634608507156,0.09192117303609848,0.019422706216573715,0.09774184972047806,0.06303945928812027,-0.16038957238197327],[0.07267032563686371,0.04725053906440735,-0.06332841515541077,0.24740129709243774,0.06503847241401672,-0.07860838621854782,0.03853822872042656,0.07319805026054382,-0.1038009449839592,-0.0029077965300530195,-0.04305356740951538,-0.05987132340669632,0.06805447489023209,0.24145083129405975,-0.13719604909420013,-0.07806513458490372,-0.03642157092690468,-0.05896677449345589,-0.04421841353178024,-0.06830893456935883,0.011931716464459896,-0.1878935694694519,0.1792551428079605,-0.04252064228057861,-0.0026632035151124,-0.13737942278385162,0.024715814739465714,0.13036303222179413,-0.22458487749099731,-0.05667739734053612,0.18634356558322906,-0.08348660916090012,-0.21274679899215698,-0.08484959602355957,-0.06374060362577438,0.14679820835590363,-0.19418859481811523,-0.05554622784256935,-0.01412875670939684,0.44978442788124084],[0.1144118383526802,-0.033468540757894516,0.04304412379860878,-0.2064039260149002,0.03907095640897751,0.16660144925117493,0.11588654667139053,-0.017201289534568787,0.10050486028194427,-0.1353531926870346,-0.04542722925543785,-0.0896267294883728,-0.14565037190914154,-0.0746280699968338,-0.09034424275159836,0.06799274682998657,0.07993774116039276,0.03489018231630325,-0.06487494707107544,0.15962818264961243,-0.020753072574734688,0.1465575098991394,0.14643020927906036,-0.09491435438394547,-0.1313749998807907,0.059361401945352554,0.13797029852867126,-0.1409885734319687,-0.015886876732110977,-0.01790107972919941,0.19475147128105164,0.08105500787496567,0.14166991412639618,0.025537235662341118,-0.07013338804244995,0.1448257714509964,-0.00790238007903099,0.01845676265656948,-0.050745684653520584,-0.3334548771381378],[-0.11694295704364777,0.022606773301959038,-0.0023765082005411386,-0.10021986812353134,-0.015355784446001053,0.08672545850276947,-0.05652016028761864,0.13849961757659912,-0.15887212753295898,0.033399421721696854,-0.15338094532489777,-0.217283234000206,-0.041868992149829865,0.15875889360904694,0.17205925285816193,0.09448369592428207,0.23968380689620972,-0.09123058617115021,0.052830394357442856,0.07536182552576065,-0.20284448564052582,-0.13166165351867676,0.1313267946243286,0.019943006336688995,-0.1612614393234253,-0.1680050641298294,0.10007697343826294,0.02473318576812744,-0.0026447565760463476,-0.19414645433425903,0.19581042230129242,-0.15936195850372314,0.07956299185752869,-0.07578188925981522,-0.01971888355910778,0.07959199696779251,-0.013587863184511662,-0.043167345225811005,0.09244386106729507,-0.13556881248950958],[0.03932560980319977,-0.0478593073785305,-0.041069094091653824,0.09776571393013,-0.015016636811196804,-0.10668933391571045,0.19630971550941467,-0.04751810431480408,0.10464759916067123,-0.01834847964346409,0.12482859939336777,-0.013699193485081196,-0.0366116538643837,0.06386659294366837,0.02824188955128193,-0.04124609753489494,0.14670808613300323,0.10725715756416321,-0.04737509787082672,0.16343215107917786,-0.03466524928808212,-0.09675808250904083,-0.048948563635349274,0.14945074915885925,-0.12001866102218628,0.04187539964914322,-0.18168333172798157,0.020298179239034653,-0.13248054683208466,0.03966231644153595,0.1675346940755844,0.016816649585962296,-0.02805565483868122,-0.22349588572978973,-0.10196627676486969,-0.10984409600496292,0.20229236781597137,-0.0745600014925003,0.03800802305340767,0.08068590611219406],[0.09665323048830032,-0.12768398225307465,-0.026628442108631134,-0.01264440082013607,0.15539146959781647,-0.06655804812908173,-0.04311612993478775,0.09412255138158798,0.08229353278875351,0.04219602793455124,-0.00529088918119669,0.15629704296588898,0.0764773041009903,-0.06656766682863235,-0.026449216529726982,-0.19271822273731232,-0.1020338237285614,0.05879697576165199,-0.11366599053144455,-0.11101429164409637,0.15498095750808716,-0.0009226035908795893,-0.04403600096702576,-0.038873281329870224,-0.027530817314982414,0.16933651268482208,0.02742684632539749,-0.08045189082622528,0.1080697774887085,-0.09985600411891937,-0.08306285738945007,0.04551397264003754,-0.10114668309688568,0.1470048576593399,-0.09690224379301071,-0.003254424314945936,-0.1516452580690384,0.09886002540588379,0.07987775653600693,-0.03993648290634155],[0.04629787057638168,-0.0319594070315361,0.19335146248340607,0.17772914469242096,-0.10897798836231232,0.20620910823345184,0.04445500671863556,-0.10999953746795654,0.028567645698785782,0.18081125617027283,0.0200694240629673,-0.22269751131534576,-0.07686176151037216,0.17193104326725006,-0.03793603926897049,-0.06006154417991638,-0.05795114487409592,-0.09725714474916458,-0.12079955637454987,0.03164571523666382,0.022897986695170403,0.11353563517332077,0.17593508958816528,0.01875772513449192,0.010525565594434738,0.03568613529205322,-0.13846735656261444,0.11247996240854263,-0.1050788015127182,0.09843210130929947,-0.03518875688314438,-0.04699878767132759,0.010191491805016994,0.018209023401141167,-0.01606634259223938,-0.11424736678600311,0.13652493059635162,0.1295795738697052,-0.09921576827764511,-0.10798240453004837],[-0.11044072359800339,-0.04306941479444504,0.008278989233076572,0.07477810978889465,-0.02849767543375492,-0.09398876130580902,0.020509866997599602,-0.1517285704612732,-0.12372322380542755,-0.029862752184271812,-0.10941038280725479,-0.02153274230659008,-0.1414729207754135,-0.0012672599405050278,-0.11515918374061584,0.04903579130768776,-0.06827166676521301,-0.1283765584230423,-0.09096946567296982,-0.10020875185728073,0.00909931119531393,0.010558873414993286,-0.10068315267562866,0.1111219972372055,0.12692439556121826,-0.14813131093978882,-0.03951719030737877,-0.12300415337085724,0.05430757626891136,0.1993434727191925,-0.0061326175928115845,-0.04509667679667473,0.11192425340414047,-0.12374307960271835,-0.05862143635749817,0.0867563784122467,0.11702535301446915,0.11806417256593704,-0.05268261954188347,0.27736353874206543],[-0.15614596009254456,-0.010069645009934902,-0.04335828125476837,0.0794721320271492,-0.10847844183444977,0.038923658430576324,0.07581450045108795,0.09811434894800186,-0.013851801864802837,0.17792673408985138,-0.16135051846504211,-0.13087232410907745,0.049658484756946564,0.04405663534998894,0.07102370262145996,-0.17112168669700623,0.15367591381072998,-0.14476846158504486,-0.16359969973564148,0.009512276388704777,-0.23183311522006989,-0.22996170818805695,-0.10480458289384842,0.1269502192735672,0.028983475640416145,-0.1264466792345047,-0.03626836836338043,-0.16858428716659546,-0.11115007102489471,-0.1385430246591568,-0.11128562688827515,0.07414788007736206,-0.05026385188102722,-0.07416144758462906,-0.1347890943288803,0.0668104887008667,-0.006536413915455341,-0.09902144968509674,0.06497692316770554,0.23114444315433502],[-0.12162622064352036,0.11710158735513687,-0.008858438581228256,-0.0010053727310150862,0.07536989450454712,-0.009997089393436909,0.13669686019420624,0.13950641453266144,-0.12095558643341064,-0.08206257224082947,-0.15137457847595215,-0.012343497946858406,-0.12638667225837708,-0.12869170308113098,-0.1077425554394722,-0.17121928930282593,-0.10773573815822601,0.14560438692569733,0.06461309641599655,0.14325419068336487,-0.12323316931724548,-0.1054687425494194,-0.017245996743440628,-0.006030447781085968,-0.12420026957988739,-0.03684508800506592,-0.12866605818271637,0.016341114416718483,0.16303808987140656,0.010914000682532787,0.13497993350028992,-0.13095858693122864,-0.017501477152109146,-0.11082136631011963,-0.020331770181655884,-0.10223115235567093,-0.08229809999465942,-0.14185430109500885,-0.08039747923612595,0.06680329889059067],[-0.021836543455719948,-0.159868985414505,0.13587439060211182,0.09576710313558578,-0.12824127078056335,0.024780984967947006,0.11291778087615967,-0.19791552424430847,-0.1427232325077057,0.08448216319084167,-0.03727828711271286,0.024872081354260445,-0.10217757523059845,0.027594562619924545,0.14115013182163239,0.006126072257757187,-0.020355822518467903,-0.1149224191904068,-0.027157627046108246,0.07831917703151703,-0.1679609715938568,-0.015140734612941742,0.16819778084754944,-0.015071365982294083,-0.08297707140445709,-0.08373221755027771,-0.07204941660165787,0.009306484833359718,-0.12483979016542435,0.0236223042011261,-0.01956610009074211,-0.02695130743086338,0.03858978673815727,0.07801690697669983,-0.0901111364364624,-0.16835995018482208,-0.058229710906744,-0.13696348667144775,-0.06792265921831131,0.146079421043396],[-0.14157460629940033,-0.0857059508562088,-0.024010801687836647,0.07220029085874557,0.029182003811001778,-0.03801983594894409,0.07269428670406342,0.01092975027859211,-0.019194871187210083,0.07739706337451935,0.04102623090147972,0.07225748896598816,-0.07910189777612686,0.138435959815979,0.12978437542915344,0.05069679021835327,0.05902520939707756,-0.04155720770359039,-0.11706019192934036,0.046472277492284775,0.04109560325741768,0.09079061448574066,0.08502928912639618,-0.06500441581010818,0.02849491313099861,-0.1503073275089264,0.12387101352214813,-0.022458968684077263,-0.10417266190052032,-0.06069408357143402,0.09678886830806732,-0.22640468180179596,-0.04956832155585289,0.07570206373929977,-0.014899015426635742,0.15938648581504822,-0.06459919363260269,-0.04365130886435509,-0.1258566975593567,0.1441793292760849],[-0.08780574798583984,0.10213781148195267,-0.01952132023870945,-0.24858549237251282,0.10496854037046432,-0.02500663325190544,-0.026573877781629562,-0.007082883734256029,0.11188629269599915,-0.12845872342586517,0.12807545065879822,-0.02473778836429119,0.10170099884271622,-0.10673289000988007,0.08696424961090088,-0.1160513386130333,-0.08943559229373932,-0.052818529307842255,-0.06229442358016968,-0.07657857239246368,-0.026135604828596115,0.02396826259791851,0.04569358378648758,0.014979655854403973,0.2323688417673111,-0.01342388428747654,-0.07544141262769699,-0.06748724728822708,0.0432593934237957,0.09916379302740097,0.1181793361902237,0.14613817632198334,-0.1483956277370453,-0.004575480241328478,0.01012745313346386,-0.18288077414035797,0.007884192280471325,0.0816119834780693,0.09080317616462708,-0.16645656526088715],[-0.0406561903655529,-0.0979018583893776,0.03882456198334694,0.18768388032913208,-0.09041211754083633,0.08508104830980301,-0.040833767503499985,-0.09005071967840195,-0.03570064902305603,-0.09613095223903656,0.023197053000330925,-0.20302045345306396,-0.0912979245185852,0.12423571944236755,0.17055948078632355,0.030832048505544662,-0.0422942116856575,-0.13497424125671387,-0.06431849300861359,-0.08355550467967987,0.07761894911527634,-0.11577536910772324,0.1642453819513321,0.05117913708090782,-0.12200959771871567,0.08692558109760284,0.06965719163417816,0.03240731358528137,-0.1197132095694542,-0.07955052703619003,0.09920340776443481,0.06856546550989151,-0.03735928609967232,-0.13702869415283203,-0.20239731669425964,0.0427899993956089,0.19833236932754517,0.1379701793193817,-0.09870415925979614,0.13091370463371277],[-0.08322002738714218,0.09515875577926636,0.04369756951928139,-0.24922439455986023,-0.01925724558532238,0.05986520275473595,-0.09593837708234787,0.24797388911247253,0.05211133137345314,0.16125601530075073,-0.020566103979945183,-0.09589100629091263,-0.06668264418840408,0.05143635720014572,-0.013677341863512993,0.1831362247467041,0.25357258319854736,-0.00404061796143651,-0.1577138453722,0.09107091277837753,0.10801100730895996,-0.024237822741270065,-0.10756545513868332,0.02904430776834488,0.021142883226275444,-0.07565385103225708,0.05250374972820282,0.06548433005809784,-0.06273428350687027,0.012642137706279755,-0.048539914190769196,0.13279102742671967,0.1018725037574768,-0.018645767122507095,-0.011397863738238811,0.0020038746297359467,0.17619501054286957,0.023937195539474487,-0.10062774270772934,-0.14733858406543732],[-0.08523949235677719,-0.028785204514861107,-0.08357425779104233,-0.04051806405186653,-0.020143669098615646,-0.0550704151391983,0.16117942333221436,0.1936812847852707,-0.1468265950679779,0.053242165595293045,-0.14340274035930634,-0.10587713122367859,0.052619703114032745,0.016558151692152023,0.08641516417264938,-0.0213389303535223,0.24621722102165222,-0.07502748817205429,0.012617908418178558,0.03142663836479187,0.07916735857725143,0.04184935241937637,0.14172975718975067,0.070419080555439,0.0435820072889328,-0.05816727876663208,0.04261372983455658,0.18698248267173767,-0.08324889093637466,-0.08712130039930344,0.14779117703437805,0.004545039031654596,-0.10079114139080048,0.0017511761980131269,-0.19115851819515228,-0.08637925982475281,0.12899664044380188,0.11024526506662369,-0.03885306790471077,0.09561104327440262],[0.1822148561477661,0.14344020187854767,-0.19813314080238342,-0.1909153163433075,0.016961120069026947,0.055547814816236496,-0.10353047400712967,0.11083196848630905,0.11149255931377411,-0.11601923406124115,-0.06898216158151627,0.22897934913635254,0.030298637226223946,0.07589229196310043,-0.1822267472743988,-0.08871165663003922,0.08868110179901123,-0.005274968687444925,0.09134150296449661,-0.12942297756671906,0.20803165435791016,-0.04886281117796898,-0.08380980789661407,-0.1070004403591156,0.00223372969776392,-0.11510718613862991,-0.11758793890476227,-0.061437297612428665,-0.04178357124328613,0.14635780453681946,-0.04583723843097687,0.1818496733903885,-0.05252081900835037,0.09330915659666061,0.19735805690288544,-0.1340353786945343,-0.14172351360321045,0.09911846369504929,-0.0055976370349526405,-0.1362641453742981],[0.04252294823527336,-0.0705668181180954,-0.029780661687254906,-0.10327619314193726,0.042154308408498764,-0.11380913108587265,-0.14838917553424835,-0.12286194413900375,0.07276690006256104,0.055291853845119476,-0.12011842429637909,-0.01992308907210827,-0.12447553873062134,0.041078418493270874,0.09000174701213837,-0.19784973561763763,-0.010670576244592667,0.03843912482261658,-0.06765706092119217,0.03203079104423523,0.1685590296983719,0.14956840872764587,-0.004298416897654533,-0.03080872818827629,-0.020563503727316856,-0.028942551463842392,0.015412670560181141,-0.06389609724283218,0.15209132432937622,-0.1397259682416916,-0.014700431376695633,0.02339324541389942,-0.025853145867586136,0.21442146599292755,0.037317439913749695,-0.05723389610648155,-0.10160847753286362,-0.2063782960176468,-0.11979246139526367,-0.025066128000617027],[-0.12818066775798798,0.07858960330486298,-0.02327183075249195,0.010187244974076748,0.0793212503194809,0.07715161144733429,0.12120499461889267,0.1982812136411667,-0.09099853038787842,0.1423652023077011,-0.15639369189739227,0.07179129123687744,-0.07825462520122528,0.009880454279482365,0.12278778105974197,0.0703318864107132,0.22744469344615936,-0.07386542111635208,-0.10821756720542908,0.15022948384284973,-0.13583870232105255,0.10315988212823868,0.20687907934188843,0.144459068775177,-0.12667477130889893,-0.059052836149930954,-0.1672257035970688,-0.05166694521903992,-0.06720388680696487,-0.12554046511650085,0.1292002648115158,0.023685771971940994,-0.01814660243690014,-0.09560742229223251,0.11707563698291779,-0.038204871118068695,0.19386771321296692,0.17076924443244934,-0.07578344643115997,-0.26110413670539856],[0.2546756863594055,