{"key":"convection_diffusion","name":"Convection-Diffusion","description":"Linear convection-diffusion \u2014 advection with viscous damping","latex_equation":"\\frac{\\partial u}{\\partial t} + c \\frac{\\partial u}{\\partial x} = \\nu \\frac{\\partial^2 u}{\\partial x^2}","latex_ic":"u(x, 0) = -\\sin(\\pi x)","latex_bc":"u(-1, t) = u(1, t) = 0","latex_domain":"x \\in [-1, 1], \\; t \\in [0, 1]","x_min":-1.0,"x_max":1.0,"t_min":0.0,"t_max":1.0,"y_min":-1.3,"y_max":1.3,"y_label":"u(x, t)","params":{"c":1.0,"nu":0.05},"layers":[{"W":[[0.5979214310646057,0.8824954032897949],[-0.4880145788192749,0.9212650656700134],[-0.5926408767700195,0.165812686085701],[-0.7212992310523987,0.29636967182159424],[0.7896744608879089,-0.8604196906089783],[0.7048152089118958,0.07594332098960876],[0.8838692307472229,-0.19276562333106995],[0.5535275340080261,-0.31182119250297546],[0.630214273929596,-0.24955160915851593],[-0.3377544581890106,0.5469380617141724],[-0.2455911636352539,0.0011074718786403537],[-0.6054285168647766,0.681027352809906],[-0.6465500593185425,-0.27592673897743225],[-0.5963039994239807,-1.376994013786316],[-0.43632614612579346,-1.2186368703842163],[0.6687440276145935,-1.0927878618240356],[0.7515854239463806,-0.08877872675657272],[-0.6405038237571716,0.7098148465156555],[0.46780872344970703,1.516229510307312],[0.3618968427181244,-0.27298879623413086]],"b":[0.6173375248908997,-0.09362702071666718,0.41049623489379883,0.7317042946815491,0.645926296710968,-0.7245185971260071,0.7778072357177734,-0.0657869204878807,0.3503243625164032,-0.35986119508743286,-0.8426656723022461,-0.23490352928638458,-0.7499967217445374,0.7488167881965637,-0.6039047837257385,0.26777544617652893,0.51169753074646,0.2025870531797409,0.8215742111206055,-0.5566643476486206]},{"W":[[0.12499895691871643,-0.047152161598205566,0.21542048454284668,0.04634034261107445,-0.0013654612703248858,-0.1712447851896286,0.20396718382835388,-0.30106982588768005,-0.13742616772651672,-0.13490186631679535,0.16240692138671875,0.19717800617218018,0.13539224863052368,-0.026486247777938843,-0.3627883791923523,-0.3398596942424774,-0.15146203339099884,0.28919684886932373,0.20106621086597443,0.10433688759803772],[0.006224811542779207,0.08522631973028183,0.6296607255935669,0.42077964544296265,0.09974517673254013,-0.9196606278419495,0.18761375546455383,-0.47985583543777466,-0.1179424449801445,0.08746084570884705,-0.029615307226777077,0.06288609653711319,-0.004753145854920149,1.1062588691711426,-0.1396206021308899,-0.3500986397266388,0.19686444103717804,0.3938489556312561,-0.00292034144513309,-0.4708201289176941],[-0.043272946029901505,0.9434027075767517,-0.13607530295848846,-0.22350239753723145,-0.33782702684402466,0.3561885952949524,-0.32835444808006287,-0.26006922125816345,-0.2695601284503937,0.13562807440757751,0.2485252320766449,0.41937223076820374,0.1108810231089592,-0.6029028296470642,-0.2548312842845917,-0.6302450895309448,0.02084779553115368,0.285100519657135,-0.10440885275602341,-0.23298336565494537],[0.0013724128948524594,0.0057349312119185925,-0.0028890674002468586,-0.21093915402889252,-0.2149101048707962,-0.04393523558974266,-0.06626664102077484,-0.1980983167886734,0.2147608995437622,0.027825696393847466,0.28982871770858765,0.11503629386425018,-0.16377918422222137,0.05556262284517288,-0.0875881165266037,-0.100344717502594,-0.1516411453485489,-0.1613142192363739,-0.0034251150209456682,0.03499089553952217],[0.004669328220188618,-0.034565992653369904,0.03121274709701538,-0.301781564950943,-0.10049030184745789,0.3977085053920746,0.0462038516998291,0.2266009896993637,0.1649504005908966,-0.1183561161160469,0.10096833109855652,-0.06136714294552803,0.04303896054625511,-0.6721041798591614,0.321909636259079,-0.15390674769878387,0.08691371977329254,0.1208055391907692,-0.012094797566533089,-0.04755600541830063],[0.11971119791269302,0.6882370710372925,0.1305105835199356,-0.18439659476280212,-0.05982210487127304,0.07351439446210861,-0.3221984803676605,0.09820819646120071,-0.1698150485754013,0.03530171886086464,-0.11035681515932083,0.12730732560157776,0.23133745789527893,-0.23094871640205383,-0.33067870140075684,-0.1481209695339203,-0.4035821259021759,0.4358329474925995,0.2742539346218109,-0.3220136761665344],[0.009120614267885685,-0.11791997402906418,-0.21903066337108612,-0.34503859281539917,0.23113660514354706,0.3668214678764343,0.10986781865358353,0.18086546659469604,0.005866626743227243,-0.029376305639743805,-0.025495151057839394,-0.24686278402805328,0.16855625808238983,0.10806451737880707,0.07294325530529022,0.14584586024284363,0.051227182149887085,-0.37427815794944763,-0.02107967995107174,0.22961634397506714],[-0.23424509167671204,-0.20744018256664276,-0.04146886244416237,-0.09399232268333435,-0.02082626149058342,0.14752748608589172,-0.1465451419353485,-0.05174104496836662,-0.03450184687972069,0.154750257730484,0.30596035718917847,0.07623884826898575,-0.11765411496162415,-0.5086145401000977,0.005752698052674532,0.3190779983997345,0.09570413827896118,-0.2061632126569748,-0.08313345909118652,0.10269828140735626],[-0.46332263946533203,-0.1467752307653427,-0.22592633962631226,-0.22516097128391266,-0.1893557459115982,0.2977234721183777,0.08033760637044907,0.23873716592788696,-0.2223965972661972,-0.1427069753408432,0.00047215240192599595,0.00767553923651576,0.31489717960357666,-0.15691380202770233,0.6414975523948669,0.2993984520435333,-0.08624039590358734,-0.407665878534317,-0.5816000699996948,-0.00187825842294842],[-0.1293778121471405,-0.34584999084472656,-0.4547312259674072,-0.4554205536842346,0.13430795073509216,0.2725229263305664,-0.15119993686676025,0.3466346561908722,-0.02663148008286953,0.033881742507219315,-0.0048264083452522755,-0.3698437213897705,0.16085344552993774,-0.5968345999717712,0.1947350651025772,0.01245088130235672,0.1265476644039154,-0.5364769101142883,-0.1787833720445633,0.3446281850337982],[0.0975705087184906,-0.5735004544258118,0.07882661372423172,-0.212428480386734,0.30300936102867126,0.19918298721313477,0.023084130138158798,0.19392019510269165,0.013215436600148678,-0.2493765652179718,0.14293144643306732,-0.49386346340179443,0.1361107975244522,0.4306669533252716,0.43585434556007385,0.253314733505249,-0.10683299601078033,-0.23892627656459808,0.04680808261036873,-0.12575122714042664],[-0.2329118400812149,-0.09803523868322372,-0.6120807528495789,-0.520866334438324,-0.03394172713160515,1.2054587602615356,-0.25136324763298035,0.4530074894428253,0.1942930519580841,-0.048798367381095886,0.04252072423696518,-0.22214674949645996,-0.07481424510478973,-1.0557829141616821,0.3051166832447052,0.052724193781614304,-0.1673211008310318,-0.29663407802581787,-0.2969058156013489,0.1678725630044937],[-0.05515184625983238,-0.16619336605072021,-0.34606847167015076,-0.34331825375556946,-0.17939725518226624,0.4932970404624939,-0.10571565479040146,0.16837675869464874,-0.06300737708806992,0.05884917452931404,0.3143552243709564,0.06219100207090378,-0.1332322508096695,-0.3040132224559784,0.26683828234672546,0.17753377556800842,0.1528128683567047,-0.05472081899642944,-0.18940873444080353,0.21914488077163696],[-0.19646964967250824,0.2589876651763916,0.4708836078643799,0.36383965611457825,-0.35496068000793457,-0.3745754361152649,-0.3151162266731262,-0.5483030080795288,-0.3606488108634949,0.10436105728149414,0.1487196683883667,0.30520108342170715,-0.0737384781241417,-0.16353881359100342,-0.07903656363487244,-0.4165814518928528,-0.19199219346046448,0.450844943523407,0.08042971789836884,-0.24044086039066315],[0.10505998134613037,0.11944427341222763,0.03020380437374115,-0.07103507220745087,-0.30593910813331604,-0.20133906602859497,0.27227485179901123,-0.2875002324581146,-0.11573447287082672,0.054588012397289276,0.0193483904004097,0.2972908616065979,0.1017700731754303,0.1762211173772812,-0.35872530937194824,-0.1670610010623932,0.19027572870254517,0.19805841147899628,-0.08003050833940506,0.1324445754289627],[0.09628523141145706,0.08559897541999817,-0.19574153423309326,0.02087223157286644,-0.10706467181444168,0.020173685625195503,-0.025895653292536736,-0.3055835962295532,-0.27407774329185486,0.09899038076400757,0.15924517810344696,0.323091596364975,-0.17222337424755096,0.13531534373760223,-0.44046664237976074,-0.27085819840431213,-0.0016836307477205992,0.38508832454681396,0.4223954975605011,-0.29377102851867676],[0.37985488772392273,0.09415913373231888,0.1791241317987442,0.36855918169021606,-0.13098633289337158,0.24241308867931366,-0.2039991170167923,-0.17031721770763397,0.13073286414146423,0.003041414776816964,-0.0726005956530571,0.062140095978975296,0.053236085921525955,-0.15237103402614594,-0.26072046160697937,-0.26644209027290344,-0.13888658583164215,0.3248872458934784,0.28646573424339294,-0.23843558132648468],[-0.14085301756858826,0.5568057298660278,-0.1484411358833313,-0.10768663883209229,-0.5361815690994263,0.009725573472678661,-0.5636512637138367,-0.16569876670837402,-0.32718169689178467,0.30000120401382446,0.2495313584804535,0.3106043040752411,0.6461300253868103,-0.33870911598205566,0.1036791056394577,-0.6554178595542908,-0.3033888638019562,0.28566086292266846,-0.7120615243911743,0.0034490451216697693],[0.09394687414169312,-0.5004521012306213,-0.25696077942848206,0.17130626738071442,0.6593784689903259,-0.053577907383441925,0.46579793095588684,0.11576829105615616,0.32054969668388367,-0.32742905616760254,-0.17720304429531097,-0.5009646415710449,-0.4193197190761566,0.28549298644065857,-0.017583154141902924,0.711144745349884,0.33665135502815247,-0.30011898279190063,-0.0005259732715785503,-0.010863968171179295],[-0.04279429093003273,0.16996462643146515,0.4398763179779053,0.546337902545929,0.1220984235405922,-1.0676296949386597,-0.1782974749803543,-0.1164630651473999,0.10879771411418915,-0.10856243968009949,-0.05222698673605919,-0.03358405455946922,-0.2142890840768814,1.0994961261749268,-0.1033281534910202,-0.16224725544452667,-0.14211617410182953,0.4726806581020355,0.12705348432064056,-0.3276306688785553]],"b":[0.03510142117738724,0.1901652216911316,0.07619234919548035,-0.2772682011127472,0.02129271626472473,-0.06682358682155609,-0.22158294916152954,-0.3184041976928711,0.024522829800844193,0.06538218259811401,0.14807377755641937,0.012148553505539894,0.03666546940803528,0.03876373544335365,-0.0795467346906662,0.17348723113536835,-0.08832559734582901,-0.3862168490886688,0.13829880952835083,0.12831708788871765]},{"W":[[0.12482652813196182,-0.0803278237581253,-0.17493925988674164,0.15053336322307587,-0.1751459836959839,-0.3649742603302002,0.07949928939342499,0.13472908735275269,0.2640368938446045,0.08499959856271744,0.04656913876533508,-0.06175766512751579,0.1535072922706604,-0.12568950653076172,0.014146263711154461,-0.06584864854812622,0.03756771236658096,0.18988008797168732,-0.11387576907873154,-0.1197279840707779],[-0.1580057293176651,-0.059189047664403915,-0.28878670930862427,-0.06635454297065735,0.5061173439025879,-0.19076761603355408,-0.17221970856189728,-0.3596224784851074,-0.1828610748052597,-0.051160555332899094,0.4063798487186432,-0.1546342968940735,-0.10608471184968948,0.0045303888618946075,-0.3191085457801819,-0.3111381530761719,0.015500056557357311,-0.975121259689331,0.5707998275756836,0.08130782842636108],[-0.20612941682338715,0.11229035258293152,-0.026756757870316505,0.13274891674518585,0.17778846621513367,-0.1355498880147934,0.25693249702453613,0.0351494625210762,0.13516932725906372,0.22688961029052734,0.09966988116502762,0.11625544726848602,0.1126258447766304,0.1935935914516449,0.13394774496555328,-0.16122601926326752,-0.4998394250869751,-0.015052772127091885,-0.047613538801670074,0.228206068277359],[-0.08439797163009644,0.0021584252826869488,-0.06730435788631439,0.1806873232126236,0.15780650079250336,-0.12639306485652924,0.08439028263092041,0.3827458322048187,0.23728615045547485,-0.24735835194587708,-0.09335527569055557,-0.004499985370784998,0.031678806990385056,0.10551320761442184,0.047124024480581284,-0.15954777598381042,0.12532834708690643,0.08064410835504532,0.06985855102539062,0.1896350234746933],[0.18556596338748932,0.5240177512168884,-0.024880772456526756,-0.1725248396396637,-0.26382550597190857,-0.14386232197284698,-0.31940731406211853,-0.18569301068782806,-0.294211208820343,-0.36363592743873596,-0.17955830693244934,-0.4376375675201416,-0.2939836084842682,0.28455063700675964,0.16528283059597015,-0.0076924338936805725,0.14535164833068848,0.2746281027793884,-0.2917381823062897,-0.06156768649816513],[0.018748324364423752,-0.04091675579547882,-0.29747146368026733,0.13089436292648315,0.022763749584555626,-0.2847192585468292,-0.10346446186304092,-0.19305941462516785,-0.008289609104394913,0.02444119192659855,0.4814010262489319,0.30325666069984436,-0.27022549510002136,0.17617212235927582,-0.21092963218688965,-0.31937524676322937,-0.28765302896499634,-0.4593469500541687,0.5865113735198975,0.14733926951885223],[-0.113584503531456,0.6147783398628235,-0.36813050508499146,-0.14926698803901672,-0.23441393673419952,-0.5107531547546387,-0.039626214653253555,-0.17905116081237793,0.07746794819831848,-0.2611713409423828,0.5040847063064575,-1.0717809200286865,-0.37056243419647217,0.2683851420879364,-0.03350333496928215,0.06435453146696091,0.01172726321965456,-0.17342284321784973,-0.0647176206111908,1.062462329864502],[-0.5915329456329346,0.00965217873454094,-0.3138384521007538,-0.1499890834093094,0.06323067098855972,0.03471603989601135,0.516928493976593,0.09361138194799423,-0.13308139145374298,0.3681410551071167,0.02627887763082981,0.2523516118526459,0.27671849727630615,0.3410027325153351,-0.2504120469093323,-0.29333972930908203,-0.4731798470020294,-0.046451762318611145,-0.003728538751602173,-0.06917751580476761],[0.15726663172245026,-0.21835465729236603,0.049854207783937454,0.23796296119689941,-0.1990472823381424,-0.4397057294845581,0.09036726504564285,0.1318226158618927,9.062980825547129e-05,-0.3111971914768219,0.21093705296516418,-0.3295901119709015,0.3083989918231964,-0.1868293285369873,0.04508452117443085,0.044065576046705246,-0.09759323298931122,-0.18646997213363647,-0.060058753937482834,0.18472395837306976],[-0.14184997975826263,0.03805605694651604,-0.2619715929031372,0.27447259426116943,0.043265510350465775,-0.20064222812652588,0.06943871825933456,0.25502273440361023,0.19276605546474457,-0.3234349489212036,-0.06406206637620926,-0.007633259519934654,0.342684805393219,0.03414974734187126,-0.12308614701032639,0.1172984167933464,-0.043277617543935776,-0.020483318716287613,-0.2569761574268341,-0.0981106236577034],[0.25854596495628357,0.1153816282749176,-0.06984679400920868,0.13340146839618683,-0.22114664316177368,0.1484818458557129,-0.1647445559501648,-0.11695881187915802,-0.3286072313785553,-0.11482184380292892,0.08641992509365082,0.03912707045674324,-0.07236923277378082,0.5025099515914917,0.12167542427778244,0.2500344216823578,0.41671979427337646,0.3548851013183594,-0.34374120831489563,0.24644368886947632],[0.10670693963766098,-0.15617068111896515,-0.2988138198852539,-0.35758161544799805,0.2699378728866577,-0.17142273485660553,0.035590820014476776,-0.12552966177463531,-0.28614553809165955,0.1304326206445694,-0.11135581135749817,0.21239814162254333,0.1523103564977646,-0.47651395201683044,0.08800672739744186,0.08660659939050674,-0.025882994756102562,-0.47652992606163025,0.24992875754833221,0.04585924372076988],[0.06093650683760643,1.4620507955551147,0.1087750643491745,0.17485195398330688,-0.549455463886261,-0.13322152197360992,-0.19635890424251556,-0.4779459238052368,-0.492413192987442,-1.8364756107330322,0.046869706362485886,-1.809851050376892,-0.6004075407981873,-0.014937945641577244,0.3135954737663269,0.27715519070625305,-0.18541035056114197,-0.27478912472724915,0.07711926847696304,1.158705234527588],[0.3039836883544922,0.9787866473197937,0.08409745246171951,0.28387778997421265,-0.4213723838329315,-0.3340493440628052,0.07002616673707962,-0.24395175278186798,-0.20098146796226501,-0.4324781894683838,0.019229041412472725,-0.7932718396186829,-0.3496745824813843,-0.25055304169654846,0.3391169011592865,-0.05761788412928581,0.039754144847393036,-0.032128892838954926,-0.27531954646110535,1.0282716751098633],[-0.3056338429450989,0.1739211082458496,-0.3069153130054474,-0.23726290464401245,-0.16840338706970215,-0.24630126357078552,0.22863000631332397,-0.24864107370376587,-0.06275451183319092,0.38798999786376953,0.3523726463317871,0.20089036226272583,-0.18574519455432892,0.0550382100045681,-0.1881248950958252,-0.22511322796344757,-0.47600290179252625,-0.07754764705896378,0.40659210085868835,0.22440633177757263],[0.1493610292673111,-0.04227066785097122,-0.0031335121020674706,0.18409496545791626,-0.15674544870853424,-0.3865760564804077,-0.001097867381758988,0.26311931014060974,-0.0812288224697113,0.004145563114434481,-0.17298875749111176,-0.10052026808261871,0.08612587302923203,-0.25159895420074463,0.20648157596588135,-0.203762486577034,0.00770718464627862,0.04057009890675545,-0.2660662829875946,0.19527952373027802],[-0.07053305208683014,0.04699550196528435,-0.27332350611686707,0.14725467562675476,-0.05103447288274765,-0.21589063107967377,0.041487403213977814,0.1762995570898056,0.2074996381998062,-0.10828135162591934,-0.09761638194322586,0.07984577119350433,0.044217199087142944,0.1236674040555954,0.14325131475925446,-0.08220981806516647,0.07603654265403748,0.16855354607105255,-0.00724276015534997,0.1765970140695572],[-0.08252543956041336,0.13788947463035583,-0.20356225967407227,-0.15018919110298157,-0.00899498537182808,0.14118818938732147,0.42559224367141724,-0.1700555384159088,0.12390375137329102,0.24363383650779724,0.3667929172515869,0.2823394238948822,-0.1239054799079895,0.09097672253847122,-0.2703973054885864,0.02475954033434391,-0.301618754863739,0.034201961010694504,0.23328861594200134,-0.12979502975940704],[0.03322513401508331,-0.16119270026683807,-0.03325314447283745,-0.3168001174926758,-0.08735063672065735,0.22066748142242432,0.08717264235019684,-0.2568395137786865,0.013761590234935284,0.4311108887195587,0.0906747356057167,0.05462753027677536,-0.3580426275730133,0.27676206827163696,-0.1208106204867363,0.2491227090358734,0.23033423721790314,0.1314803808927536,0.28082275390625,0.27201858162879944],[0.10158435255289078,-0.3015989661216736,0.3215225040912628,-0.246482715010643,-0.07068385928869247,0.5407778024673462,0.04097217321395874,-0.1462154984474182,-0.05156173184514046,-0.009388699196279049,-0.08214130252599716,0.48761701583862305,-0.06316308677196503,0.11509007960557938,-0.04950273782014847,0.05174903944134712,0.2964535355567932,0.07102873921394348,0.12409180402755737,-0.09988260269165039]],"b":[0.01487433910369873,0.20432378351688385,0.02791224978864193,0.0641341432929039,0.17656145989894867,0.2783554792404175,0.22583942115306854,-0.04483843222260475,-0.30323970317840576,-0.06700413674116135,-0.012834100052714348,0.07564777135848999,0.02539680339396,0.008000005967915058,0.2680198550224304,-0.024249184876680374,-0.09961841255426407,-0.06194286793470383,0.07768338173627853,0.014901169575750828]},{"W":[[0.22463135421276093,0.0917569100856781,0.12790805101394653,0.004218699410557747,-0.10585866868495941,0.060038723051548004,-0.3305513858795166,-0.07853317260742188,0.04106714949011803,-0.09255078434944153,-0.38689714670181274,0.2794271409511566,0.2203884869813919,-0.04525412619113922,0.19756460189819336,0.05458681657910347,-0.05727982148528099,0.058776576071977615,-0.15972207486629486,-0.035322513431310654],[-0.39959806203842163,0.21968986093997955,-0.24562153220176697,-0.1409013271331787,0.3961070775985718,0.1155475303530693,-0.16576850414276123,0.2242211550474167,-0.4748794734477997,-0.2537829577922821,0.462628573179245,-0.23462100327014923,-0.5827434062957764,-0.5585994720458984,0.0897204726934433,-0.5243275165557861,-0.3966052830219269,0.42228904366493225,0.3158518671989441,0.26876500248908997],[-0.3096582889556885,0.012076117098331451,0.028508294373750687,-0.13548362255096436,-0.032340776175260544,0.1560237854719162,-0.08544661104679108,0.08686336129903793,-0.4319000244140625,-0.05590542033314705,0.06791911274194717,-0.23682473599910736,-0.06879492849111557,0.017357468605041504,0.23248383402824402,-0.3256710171699524,-0.27702686190605164,0.0506281815469265,0.38010522723197937,0.10571574419736862],[-0.3100295066833496,0.06657727062702179,-0.11745759099721909,-0.07441777735948563,0.1479903757572174,0.2662407457828522,0.13390225172042847,0.1751565933227539,-0.16974659264087677,-0.17704229056835175,0.34207335114479065,-0.09476352483034134,-0.12622025609016418,-0.1533517986536026,0.2585820257663727,-0.15181981027126312,-0.1809394508600235,0.19419604539871216,0.31101131439208984,0.36987075209617615],[0.030612880364060402,-0.06993885338306427,-0.022997096180915833,0.15644784271717072,-0.3300383985042572,-0.03958962485194206,-0.21412163972854614,-0.29470887780189514,0.1407497674226761,-0.054593149572610855,-0.19082608819007874,0.21343013644218445,0.10684020817279816,-0.15301677584648132,0.13314153254032135,-0.024829979985952377,-0.0699111744761467,-0.06578250974416733,-0.08607394248247147,-0.18689723312854767],[0.1465674489736557,-0.21367523074150085,-0.206324502825737,0.052191946655511856,-0.2110225111246109,-0.24509002268314362,-0.12432263046503067,-0.31205233931541443,-0.016675781458616257,-0.010608227923512459,-0.08456242084503174,-0.11140850931406021,0.07591687887907028,0.04153688624501228,-0.10988331586122513,0.28464341163635254,-0.06750907003879547,-0.13995884358882904,0.0169745534658432,0.0923243835568428],[-0.23318801820278168,-0.030461344867944717,-0.05454213544726372,-0.15622350573539734,0.2002437561750412,0.04841618612408638,0.13556578755378723,0.17150463163852692,-0.0921994149684906,-0.1852903515100479,0.22912529110908508,-0.1559799462556839,-0.29333510994911194,-0.27146345376968384,0.1032247468829155,0.01306631974875927,0.0578295923769474,0.06981971859931946,0.12814609706401825,0.013818579725921154],[-0.21010828018188477,0.2640838623046875,0.1633366048336029,0.09347866475582123,0.04657469689846039,0.004589784890413284,0.03765839338302612,0.39687612652778625,-0.012576176784932613,-0.12959235906600952,0.42010122537612915,-0.184626504778862,-0.4470885694026947,-0.2659819722175598,0.35188764333724976,-0.12960118055343628,-0.08479279279708862,0.10518538951873779,0.03179630637168884,-0.1574639230966568],[-0.13109850883483887,0.07633830606937408,0.09892526268959045,0.2184208482503891,-0.27293330430984497,0.04106295108795166,-0.17926034331321716,-0.11137983947992325,0.2798807919025421,0.23162183165550232,0.010300452820956707,0.22910572588443756,0.2945210933685303,0.2076054960489273,-0.173645481467247,0.2660520076751709,0.0006332601187750697,-0.14960336685180664,-0.30659884214401245,-0.1167004331946373],[-0.2012379765510559,-0.06150694936513901,-0.13473039865493774,-0.18489477038383484,0.2328239530324936,0.1832946538925171,0.2914001941680908,0.3132442831993103,-0.2450093775987625,-0.2753564119338989,0.3522351086139679,-0.07478290796279907,-0.3454044461250305,0.047951631247997284,0.2620788514614105,-0.06251750141382217,-0.1527363508939743,0.2827339768409729,0.19500023126602173,0.2542237639427185],[-0.1394043117761612,0.04809609800577164,-0.2992548644542694,0.20011726021766663,-0.13959719240665436,0.029156185686588287,0.006207680329680443,-0.2503229081630707,0.034926094114780426,0.12638796865940094,-0.18668586015701294,-0.1448054313659668,0.16961009800434113,0.2830032408237457,-0.19856548309326172,0.158640056848526,-0.00422217883169651,-0.09579534083604813,0.03972918167710304,0.07445625215768814],[-0.15663869678974152,-0.1538219302892685,-0.0010214830981567502,-0.12955696880817413,0.3145413100719452,-0.1568448692560196,0.1470799595117569,0.3464001417160034,0.008477285504341125,0.028469271957874298,-0.03135073557496071,0.08852978050708771,-0.14614568650722504,-0.22888700664043427,0.2982786297798157,-0.15281201899051666,-0.03418798744678497,0.3623863160610199,-0.0666641891002655,-0.07046929001808167],[0.0041483184322714806,0.029774386435747147,0.1374853104352951,-0.18871094286441803,0.09090710431337357,-0.011504237540066242,-0.07418510317802429,0.01763865351676941,0.0525037944316864,0.00016716755635570735,-0.09286054968833923,0.12340690195560455,-0.13309182226657867,0.0015666537219658494,-0.03427530452609062,-0.06503012776374817,0.13614746928215027,0.34396612644195557,-0.0879000574350357,0.2324536293745041],[0.028997978195548058,0.1825731247663498,0.3291531503200531,0.2411821484565735,-0.05816758796572685,0.28559836745262146,-0.09922806173563004,0.26263925433158875,-0.2087954878807068,-0.05065266415476799,0.16518263518810272,-0.1839267462491989,-0.17729780077934265,-0.0885627493262291,0.3631792664527893,0.04548772796988487,0.1426161527633667,0.3558800220489502,0.2859051525592804,-0.012174738571047783],[0.06131980940699577,-0.048440225422382355,-0.38691675662994385,-0.19989171624183655,-0.06604539602994919,-0.1912066787481308,0.014312122948467731,-0.43255725502967834,0.11744017899036407,0.18931230902671814,-0.19357502460479736,0.2766917645931244,0.5767232179641724,0.054441194981336594,-0.29699423909187317,-0.04090519994497299,-0.030782027170062065,-0.28597715497016907,-0.11905013769865036,-0.12099721282720566],[-0.1513855755329132,-0.12421119958162308,-0.08247433602809906,0.27181699872016907,0.24515998363494873,-0.24948106706142426,0.23757529258728027,-0.19325175881385803,0.15840119123458862,0.16621078550815582,0.48167940974235535,-0.31298828125,0.2931554615497589,0.45467403531074524,-0.2298722267150879,0.17845912277698517,0.24221743643283844,-0.16793738305568695,0.15751530230045319,-0.05520156770944595],[-0.27574753761291504,0.1486586034297943,0.15083201229572296,-0.1569625437259674,0.25159579515457153,-0.08277136832475662,0.27100566029548645,0.4748570919036865,-0.07133429497480392,-0.21818293631076813,0.3145996034145355,-0.0735943540930748,-0.17719341814517975,0.011534111574292183,0.29131603240966797,-0.24050292372703552,-0.16557741165161133,0.24286018311977386,0.1524706333875656,0.25148531794548035],[-0.380929559469223,0.10410972684621811,0.06473305821418762,-0.1516270935535431,0.36485427618026733,0.21416246891021729,-0.5346612930297852,0.14398393034934998,-0.9614158272743225,-0.24977713823318481,0.2658842206001282,-0.5551730990409851,-0.6872653961181641,-0.6139631271362305,0.05340780317783356,-0.2182828187942505,-0.17745986580848694,0.05805617943406105,0.367035448551178,0.4861086905002594],[0.020041145384311676,0.27378374338150024,-0.023916516453027725,-0.11217981576919556,0.34528154134750366,0.30143508315086365,-0.08380421996116638,0.3882049322128296,-0.10203489661216736,-0.24523314833641052,0.17387637495994568,-0.021197933703660965,-0.3098149299621582,0.004429855849593878,-0.05980171263217926,0.025037340819835663,0.11355102807283401,0.3451407253742218,0.1248631700873375,0.10166678577661514],[-0.21100673079490662,-0.12615276873111725,-0.5799329280853271,-0.15497836470603943,-0.1795859932899475,0.05568693205714226,0.09066580981016159,-1.3304567337036133,-0.04116502404212952,0.12746506929397583,0.16896112263202667,0.23419807851314545,0.793950617313385,0.13164882361888885,0.033277008682489395,0.1796303689479828,-0.17009423673152924,-0.4812287390232086,-0.027138834819197655,0.2100038379430771]],"b":[-0.15613679587841034,0.1771305352449417,0.1367647796869278,0.131906196475029,-0.13927015662193298,0.07460955530405045,0.2102554440498352,-0.11944902688264847,-0.06295096129179001,0.03960462287068367,0.026844769716262817,0.26204606890678406,0.10439979285001755,-0.010017492808401585,0.15662702918052673,-0.08683756738901138,-0.0010259521659463644,0.05911665037274361,-0.13259294629096985,-0.01900957152247429]},{"W":[[-0.24452051520347595,0.6782979965209961,0.250918984413147,0.21998177468776703,-0.3374113142490387,-0.31206515431404114,0.29109108448028564,0.6250718832015991,-0.48792576789855957,0.384194940328598,-0.2216293215751648,0.11284632235765457,0.2017396092414856,0.4852045178413391,-0.4275166690349579,0.29300040006637573,0.3605392277240753,0.5728116035461426,0.39337989687919617,-0.3390502333641052]],"b":[-0.002062335843220353]}]}