{"key":"cubic_nls","name":"Cubic Nonlinear PDE","description":"Nonlinear dispersive equation \u2014 u_t + u_xx + u\u00b3 = 0","latex_equation":"\\frac{\\partial u}{\\partial t} + \\frac{\\partial^2 u}{\\partial x^2} + u^3 = 0","latex_ic":"u(x, 0) = \\mathrm{sech}(x)","latex_bc":"u(\\pm 5, t) = 0","latex_domain":"x \\in [-5, 5], \\; t \\in [0, 1]","x_min":-5.0,"x_max":5.0,"t_min":0.0,"t_max":1.0,"y_min":-0.5,"y_max":1.5,"y_label":"u(x, t)","params":{},"layers":[{"W":[[1.1768800020217896,0.33273813128471375],[-0.4292179346084595,0.49468865990638733],[-0.28264257311820984,0.056846726685762405],[-0.2914139926433563,0.3564041554927826],[0.5230926275253296,0.2510168254375458],[0.6802092790603638,0.030189577490091324],[0.7955889105796814,-0.05170903354883194],[0.618718683719635,-0.031845785677433014],[0.7754401564598083,-0.09237482398748398],[-0.41581788659095764,0.41401442885398865],[-0.6022062301635742,0.17984141409397125],[-0.25815349817276,0.5571338534355164],[-0.7620073556900024,-0.27278417348861694],[-0.28842398524284363,-0.7105932831764221],[0.2345481961965561,-0.48261427879333496],[1.0832123756408691,-0.6561601161956787],[0.507468581199646,0.14197246730327606],[-0.0885763019323349,0.5303852558135986],[0.16705158352851868,0.6924519538879395],[0.039457760751247406,-0.2807934880256653],[0.32579007744789124,-0.04593862220644951],[0.766754686832428,0.9428520798683167],[0.44708728790283203,-0.23435302078723907],[0.49025294184684753,0.24107596278190613],[0.5219725966453552,-1.0793087482452393],[-0.6386439204216003,-0.6449731588363647],[-0.6557326912879944,0.2976353168487549],[0.31534305214881897,0.3217324912548065],[0.3223600387573242,0.0009600244811736047],[0.7248649597167969,-0.7030008435249329],[-0.007885925471782684,-0.5889728665351868],[0.2954804003238678,-0.159171000123024]],"b":[0.00712937256321311,-0.2370835244655609,0.6294243931770325,-0.5015214085578918,-0.7659315466880798,-0.48152831196784973,0.6526346802711487,0.29674309492111206,0.6956606507301331,-0.8564336895942688,-0.7038577795028687,-0.6812757253646851,-0.4387872517108917,0.49217337369918823,0.48931825160980225,0.6362749934196472,-0.5370588898658752,-0.6286777853965759,0.3384280502796173,-0.21934927999973297,0.5501236915588379,0.07188504934310913,0.4776100218296051,-0.6963655352592468,-0.017662521451711655,0.4881734848022461,0.32015159726142883,-0.26512694358825684,0.39264431595802307,0.7436460852622986,-0.47051551938056946,-0.4780654013156891]},{"W":[[0.1630164235830307,-0.05753199756145477,-0.061859797686338425,-0.19962795078754425,-0.16992832720279694,-0.041698768734931946,0.021925518289208412,-0.10020853579044342,0.05055083706974983,-0.16213946044445038,-0.1927630454301834,-0.15541017055511475,-0.167912095785141,-0.04777064919471741,0.1640331745147705,-0.032190822064876556,-0.03198670223355293,-0.31664010882377625,-0.14257295429706573,-0.040487777441740036,0.04466218128800392,-0.22024762630462646,-0.054935988038778305,-0.20886947214603424,-0.047555189579725266,-0.03981746360659599,0.029048889875411987,-0.1839066445827484,-0.100592702627182,-0.15424521267414093,-0.05355848744511604,-0.15650293231010437],[0.12977108359336853,-0.02321183867752552,0.20229044556617737,0.04963579773902893,-0.10246957093477249,0.16561037302017212,-0.09896517544984818,-0.09883347898721695,-0.19898778200149536,-0.17651110887527466,0.07445407658815384,-0.04453536868095398,0.09445423632860184,-0.1849917769432068,0.18249261379241943,-0.1108640730381012,0.014476073905825615,0.010181285440921783,0.14605514705181122,0.18545587360858917,0.19874443113803864,-0.06251686811447144,0.02599804662168026,-0.0203508622944355,-0.016321560367941856,-0.07711808383464813,0.1397540420293808,-0.0854630395770073,0.12029894441366196,0.0773092657327652,0.08439835906028748,-0.11662360280752182],[0.141870379447937,-0.026730095967650414,-0.018668226897716522,-0.22197815775871277,0.04541977122426033,-0.08854293078184128,-0.03275215998291969,0.19208957254886627,0.09136190265417099,-0.1372969150543213,-0.12934106588363647,-0.0902162715792656,0.09255194664001465,0.06754318624734879,-0.05927379056811333,-0.02109351009130478,-0.19600564241409302,-0.06094275414943695,0.0943107083439827,-0.1002197191119194,0.060587700456380844,-0.06047966703772545,0.08967384696006775,-0.15176014602184296,0.0913907065987587,0.09805602580308914,0.045710500329732895,-0.13062947988510132,-0.03302114084362984,0.07327646017074585,0.025585293769836426,-0.021167907863855362],[0.45473968982696533,0.41032832860946655,0.06251022964715958,0.3066016435623169,0.16332004964351654,0.09343195706605911,0.10598607361316681,0.13911068439483643,-0.1117875948548317,0.23630720376968384,0.20553284883499146,0.5317333340644836,-0.08435425907373428,-0.2679732143878937,-0.6144716143608093,-0.14501965045928955,0.11655831336975098,0.4057697057723999,0.00619383342564106,-0.0002699666074477136,-0.3432285785675049,-0.015256548300385475,-0.1422487497329712,0.4172058403491974,-0.16255278885364532,-0.35983991622924805,0.1703982800245285,0.058300431817770004,-0.30758172273635864,0.0633593276143074,-0.10076849907636642,-0.12758980691432953],[-0.3400034010410309,0.17943842709064484,0.09669002890586853,0.1554560512304306,-0.00933355838060379,-0.03929157927632332,-0.29786616563796997,0.034108251333236694,-0.0732073113322258,0.280014306306839,0.22439990937709808,0.14571179449558258,0.10351147502660751,-0.16666720807552338,-0.215983048081398,-0.1251152902841568,0.19689588248729706,-0.010188409127295017,-0.026482082903385162,-0.0732857882976532,-0.12308964133262634,-0.12092608213424683,-0.20827987790107727,0.1942208856344223,0.02021821029484272,0.1855924427509308,-0.1263037919998169,-0.10103532671928406,-0.13758918642997742,-0.09614990651607513,-0.03272806107997894,-0.13002248108386993],[0.08863130956888199,-0.1366182267665863,0.016335610300302505,0.07398799061775208,0.13693861663341522,-0.1654771864414215,0.17988555133342743,-0.05393461883068085,0.12209243327379227,0.15269672870635986,-0.037157297134399414,0.00828422699123621,-0.04718225076794624,-0.1851378083229065,0.04462907090783119,-0.2833910882472992,0.08647013455629349,0.18497401475906372,0.17826102674007416,-0.05960530787706375,-0.1697598397731781,-0.028219478204846382,0.12261258810758591,-0.20316071808338165,-0.028727896511554718,-0.17868536710739136,-0.03990384191274643,-0.09490054845809937,-0.093089260160923,-0.146806001663208,-0.18889595568180084,0.19792649149894714],[0.1764470636844635,-0.09597773104906082,-0.08110365271568298,-0.17272616922855377,-0.14930272102355957,-0.20200005173683167,0.1520906686782837,-0.019118618220090866,-0.023465359583497047,-0.08037003874778748,-0.12092072516679764,-0.1517350673675537,-0.043439775705337524,0.022334955632686615,-0.022156301885843277,-0.03154739737510681,-0.17520791292190552,0.05099828168749809,-0.06108352169394493,0.09476273506879807,-0.03235051780939102,-0.05716536194086075,0.26049089431762695,0.029802218079566956,-0.1253228634595871,0.04417048767209053,0.12172714620828629,-0.011960442177951336,0.14582045376300812,0.24784241616725922,0.0005783840315416455,0.08254393935203552],[-0.2908044457435608,-0.20358163118362427,0.1333795040845871,0.04164808616042137,-0.07100324332714081,-0.1867843121290207,-0.2917408347129822,-0.4024442434310913,-0.310595840215683,0.027833662927150726,0.24070250988006592,-0.0838441476225853,-0.043436914682388306,0.25355064868927,0.30441516637802124,0.012156718410551548,-0.10271791368722916,-0.1268296241760254,-0.05230867862701416,0.0344354622066021,-0.08092726767063141,0.2110380381345749,-0.1853821724653244,-0.2491760402917862,-0.04050121828913689,0.21322791278362274,0.07581841200590134,-0.38789916038513184,-0.20302070677280426,0.18708422780036926,0.04634319245815277,0.11163786053657532],[0.1155296191573143,0.043863553553819656,-0.24288062751293182,-0.02590511366724968,0.10772773623466492,-0.04536339268088341,-0.032343022525310516,0.22104093432426453,0.010527180507779121,-0.14915978908538818,-0.20338276028633118,-0.030342185869812965,0.06065046042203903,0.025550303980708122,0.023459898307919502,-0.17296826839447021,-0.19333501160144806,-0.020487328991293907,0.13592208921909332,0.09079091995954514,-0.07921085506677628,-0.10029654204845428,-0.07332736998796463,-0.12346655130386353,0.06814446300268173,0.03784602880477905,0.1050025001168251,-0.17608784139156342,0.13863860070705414,-0.14008265733718872,0.03128668665885925,0.20666509866714478],[0.12629826366901398,0.3459313213825226,-0.344690203666687,0.023098651319742203,0.22075900435447693,-0.010591037571430206,-0.02443435974419117,-0.07041846960783005,0.12625624239444733,0.1581476479768753,0.10370223224163055,0.02927256003022194,-0.16222542524337769,-0.3563532829284668,-0.13912969827651978,-0.2486228495836258,0.07694979012012482,0.4085177779197693,0.08098619431257248,-0.0375216007232666,-0.03459332883358002,-0.13776354491710663,-0.237403005361557,0.1253720074892044,-0.09469254314899445,-0.17279644310474396,0.05662566423416138,0.16467666625976562,0.17767958343029022,-0.16975495219230652,0.09749874472618103,0.07106778025627136],[-0.03792939335107803,0.0008057062514126301,-0.2367590069770813,-0.16939708590507507,-0.015788376331329346,-0.09165739268064499,-0.057310983538627625,0.16273820400238037,0.2190619260072708,-0.04470541700720787,-0.10384184867143631,-0.21669477224349976,-0.10566457360982895,0.0026880980003625154,0.0791255533695221,-0.05848652124404907,-0.08883858472108841,0.050846587866544724,-0.14168022572994232,0.1240989938378334,-0.011614985764026642,-0.0042066122405231,0.0211415383964777,-0.011848670430481434,-0.02666754275560379,0.07261279225349426,-0.027114251628518105,0.15779158473014832,0.22906944155693054,-0.09358667582273483,-0.1399574875831604,0.2267947942018509],[0.21413473784923553,-0.22500096261501312,-0.0305761881172657,-0.26146790385246277,-0.18478259444236755,-0.016043905168771744,0.1729998141527176,0.1286277174949646,0.08033175766468048,0.07761417329311371,-0.09233511239290237,-0.18213029205799103,-0.10576502978801727,0.021475166082382202,0.12216760218143463,-0.13442042469978333,0.02895435318350792,-0.20906996726989746,-0.16228465735912323,-0.07410052418708801,0.24564146995544434,0.15212607383728027,0.25574877858161926,0.04500158876180649,0.13842545449733734,-0.14785681664943695,-0.1127118244767189,0.11191119998693466,-0.0035231774672865868,-0.09465985745191574,-0.03486273065209389,0.057140517979860306],[0.04995327442884445,-0.07641102373600006,-0.1651950180530548,0.04618973284959793,-0.08252158015966415,-0.07021265476942062,0.040603768080472946,-0.07608556747436523,0.11119932681322098,0.24986949563026428,0.11923841387033463,0.07400131970643997,0.11432453989982605,0.021887103095650673,-0.022787949070334435,0.012264998629689217,0.10224180668592453,0.1492149978876114,-0.08704105019569397,-0.045643627643585205,-0.10772188007831573,-0.16558271646499634,-0.005415571387857199,0.16330355405807495,0.21578224003314972,0.12160106748342514,-0.1659540832042694,-0.14260034263134003,-0.09880544990301132,-0.024420758709311485,0.04499901458621025,-0.0993439182639122],[0.024676142260432243,-0.11032702773809433,-0.10370784997940063,-0.12453562021255493,0.20267044007778168,-0.10907115787267685,0.0921591967344284,-0.00874623004347086,-0.06475863605737686,0.1318165361881256,0.0035844275262206793,0.15933386981487274,0.14079034328460693,-0.2399432212114334,0.0395054891705513,0.0605737566947937,0.10033518821001053,0.10499826818704605,0.05233436077833176,-0.12766949832439423,-0.012560554780066013,0.2582053244113922,0.10842103511095047,0.08236812800168991,-0.12224892526865005,0.031106283888220787,-0.144962877035141,0.22586259245872498,-0.1014455035328865,-0.0024360259994864464,-0.0677177682518959,0.03952596336603165],[0.2284269481897354,0.015978652983903885,0.050143975764513016,0.1445491909980774,0.09803277999162674,-0.0913291871547699,0.002834836719557643,0.09541485458612442,-0.0053170593455433846,0.08649543672800064,-0.05128764733672142,-0.12816861271858215,0.05575442314147949,0.05955823138356209,0.07074124366044998,0.1689673811197281,0.07831884175539017,0.17959436774253845,0.019511543214321136,-0.18163663148880005,-0.14283940196037292,-0.1757795512676239,-0.16093172132968903,-0.15326818823814392,-0.14505313336849213,-0.19332580268383026,-0.08780694752931595,-0.218594029545784,-0.11727117747068405,0.04919174686074257,0.13713054358959198,-0.03406341373920441],[-0.004139817785471678,0.0827140286564827,-0.13564790785312653,-0.10712110996246338,0.08716674149036407,-0.1847425103187561,0.09137758612632751,0.20583781599998474,0.10247624665498734,0.010728307999670506,-0.14553099870681763,-0.02670641429722309,-0.033044055104255676,0.022105112671852112,0.0435483455657959,0.13026991486549377,-0.16527073085308075,-0.0040534078143537045,-0.06682755798101425,-0.1351141780614853,-0.010363235138356686,-0.1867683380842209,0.1616431325674057,-0.025177614763379097,-0.09527035057544708,0.01783948764204979,-0.1673184335231781,-0.0664469450712204,-0.019822189584374428,-0.16310876607894897,-0.12593449652194977,-0.002681533806025982],[0.11403573304414749,0.4435071051120758,0.2755592465400696,-0.01661074347794056,-0.17642655968666077,0.21372999250888824,0.06273682415485382,0.0084029920399189,0.02203577198088169,-0.13364200294017792,-0.0676264539361,0.2631981372833252,-0.06403187662363052,0.01661658100783825,-0.3347032964229584,-0.14326775074005127,0.037579454481601715,-0.028438065201044083,0.06009242311120033,-0.06902115046977997,-0.1556650847196579,0.0760817676782608,-0.13531479239463806,-0.024769127368927002,-0.02798149175941944,0.3309749364852905,0.12099766731262207,-0.05594554543495178,-0.1549868881702423,-0.1827525496482849,-0.24773262441158295,-0.20575374364852905],[0.03938242420554161,-0.16869132220745087,0.17122365534305573,0.1048177033662796,-0.2374737560749054,-0.1339559257030487,0.07468199729919434,-0.04062213376164436,0.0002711130364332348,-0.06831002980470657,0.13995394110679626,-0.1310855597257614,0.16162961721420288,0.14800234138965607,0.03033922053873539,0.17300991714000702,-0.1002073809504509,-0.22277949750423431,-0.05059359595179558,0.18711987137794495,-0.18100591003894806,-0.05290640518069267,-0.16715127229690552,-0.002161458134651184,0.021024145185947418,0.06248726323246956,0.09320828318595886,-0.11511549353599548,0.05977358669042587,-0.10337793827056885,0.018172478303313255,0.04593737795948982],[0.02151700295507908,-0.024602102115750313,-0.004098931327462196,0.07086091488599777,-0.0374726727604866,-0.02093241922557354,-0.20965416729450226,-0.064140684902668,0.07907441258430481,-0.032743826508522034,-0.0781257152557373,0.0030565299093723297,0.0023711356334388256,0.131252259016037,-0.122459776699543,-0.059979844838380814,-0.15002888441085815,-0.07796050608158112,0.0858181044459343,0.1710987538099289,0.08475031703710556,0.05006689205765724,0.052552077919244766,0.12578462064266205,0.14575175940990448,0.207735076546669,-0.20419126749038696,0.18837563693523407,0.13847553730010986,-0.045423995703458786,-0.09374452382326126,-0.21370992064476013],[0.05686146393418312,-0.19894468784332275,0.03888484090566635,0.0034484760835766792,-0.1845574975013733,-0.01851777732372284,0.042142804712057114,0.12615394592285156,0.16066430509090424,-0.20914536714553833,0.12443993985652924,0.09481572359800339,0.04750866815447807,-0.13364318013191223,-0.037456825375556946,-0.043535422533750534,-0.10991010814905167,0.03190405294299126,0.05635042488574982,0.18766508996486664,-0.04837098345160484,-0.007964766584336758,0.11254039406776428,-0.21751613914966583,-0.17213217914104462,-0.11946379393339157,0.10987049341201782,-0.20890112221240997,-0.13663795590400696,0.12469147890806198,0.13628606498241425,0.16996093094348907],[-0.09125486016273499,-0.10762575268745422,0.1425171047449112,0.1473676860332489,0.09619887918233871,0.060370735824108124,0.04299880936741829,0.1812470406293869,-0.13315559923648834,-0.10359790176153183,0.10498695820569992,-0.12255997955799103,-0.12771832942962646,0.105704665184021,0.07047587633132935,0.09602245688438416,-0.038707394152879715,0.029719246551394463,0.19592483341693878,-0.14856582880020142,0.05695611238479614,0.21791087090969086,-0.11624930799007416,0.20321720838546753,-0.15516425669193268,-0.06236959621310234,-0.010667779482901096,-0.05739087611436844,-0.12344148010015488,0.1317446380853653,0.02026974782347679,-0.21423757076263428],[-0.15158861875534058,0.14215777814388275,0.0807318389415741,0.016896208748221397,-0.07222692668437958,-0.005978344473987818,-0.09381116926670074,-0.03821057826280594,-0.19015902280807495,0.017157897353172302,0.045494869351387024,-0.07406341284513474,0.056841012090444565,-0.02559812366962433,0.10565261542797089,0.2083897590637207,-0.045943733304739,-0.2636634111404419,0.10766322910785675,0.0642872303724289,-0.06747838854789734,0.2337900847196579,-0.06305381655693054,0.1660640835762024,0.11601833254098892,-0.07977714389562607,0.07525284588336945,-0.16145168244838715,-0.08752986043691635,0.10460440814495087,-0.11208322644233704,0.17524798214435577],[-0.07160642743110657,0.08723536878824234,-0.1765919029712677,0.13468970358371735,-0.12001165002584457,-0.23209521174430847,0.03710431605577469,0.056351713836193085,0.1673973947763443,-0.07007033377885818,-0.06907530128955841,0.06529809534549713,0.07629714161157608,0.10178713500499725,0.0530841089785099,-0.11737459897994995,0.001952523016370833,0.15434765815734863,-0.09115177392959595,0.1599542498588562,0.012480482459068298,0.03848937526345253,-0.12498778104782104,-0.16345670819282532,-0.06080538034439087,0.04246315732598305,0.14249902963638306,-0.1849842518568039,0.021971674636006355,-0.12212081253528595,0.15038689970970154,-0.009049566462635994],[-0.17422674596309662,-0.14387087523937225,-0.23315460979938507,-0.006069590337574482,-0.17491590976715088,-0.09108921885490417,0.08082845062017441,-0.0475471131503582,0.0970412939786911,-0.23347535729408264,-0.1684887409210205,-0.2591562271118164,-0.0684262067079544,0.004268436226993799,0.051806315779685974,-0.006588869262486696,0.005871616769582033,0.061938416212797165,0.024196714162826538,-0.037177324295043945,-0.14746162295341492,-0.01328702550381422,-0.01573539339005947,0.00016543775564059615,0.12414165586233139,0.10664854198694229,0.17232538759708405,0.10567907989025116,0.05341661721467972,-0.07646775245666504,0.18215540051460266,-0.022332455962896347],[-0.24481722712516785,-0.02363201230764389,0.2980068325996399,-0.1723044514656067,-0.1862020492553711,-0.28651636838912964,0.05464525148272514,0.19252581894397736,0.1352824717760086,-0.22348196804523468,-0.20334935188293457,-0.37646394968032837,0.07866913825273514,0.5359690189361572,0.3881855309009552,0.027242086827754974,-0.15060877799987793,-0.49046796560287476,-0.18540987372398376,0.40023478865623474,0.14526119828224182,0.07056571543216705,0.29470086097717285,-0.37353214621543884,-0.1824137568473816,0.29322436451911926,-0.005929367616772652,-0.3830854296684265,-0.00810073409229517,0.16035087406635284,0.3817916810512543,-0.07454010099172592],[-0.08808152377605438,-0.04100073501467705,-0.05742249637842178,-0.019594015553593636,0.21908237040042877,0.10276283323764801,0.12005209177732468,-0.03998415544629097,-0.00803035032004118,0.10990966856479645,-0.13088460266590118,0.11160522699356079,-0.004744381178170443,-0.2791617214679718,-0.176144078373909,0.09784914553165436,0.18482647836208344,0.23087188601493835,0.10829142481088638,-0.07608912885189056,-0.028516169637441635,0.15319646894931793,-0.0712168961763382,0.038083288818597794,-0.1381947100162506,0.0510018914937973,-0.1190609335899353,0.11085809022188187,0.171617791056633,-0.11612561345100403,-0.036385565996170044,0.12514354288578033],[-0.04240687936544418,-0.038310933858156204,0.27918967604637146,-0.13671188056468964,-0.36900392174720764,-0.38376155495643616,0.02431744895875454,-0.09212001413106918,-0.016611171886324883,0.01325492188334465,-0.02953500859439373,-0.1776604950428009,-0.18122200667858124,-0.04988978058099747,-0.0407218337059021,-0.04135341942310333,-0.4542001187801361,-0.1373257339000702,-0.10054474323987961,-0.17986591160297394,-0.11655324697494507,0.037477560341358185,-0.09200950711965561,-0.38186582922935486,0.019019514322280884,0.12283044308423996,0.2100105732679367,-0.2099355310201645,-0.10779204964637756,-0.008204684592783451,0.10539562255144119,-0.09542333334684372],[-0.13521957397460938,0.01698124408721924,-0.10125242173671722,-0.054164089262485504,0.010490111075341702,0.2268095761537552,0.017048204317688942,-0.0006863832823000848,-0.010185625404119492,-0.04745963215827942,0.08612149953842163,0.06791118532419205,0.05809013172984123,-0.12947368621826172,0.1570086032152176,0.04426813870668411,0.00519290566444397,0.119819775223732,0.1683880090713501,0.13342899084091187,0.09052488952875137,-0.013727874495089054,0.11021284013986588,0.2383042275905609,-0.16095511615276337,-0.028408154845237732,-0.14335568249225616,0.10495785623788834,0.10662011802196503,0.015379361808300018,-0.0562438890337944,0.07199692726135254],[-0.15416455268859863,-0.13968326151371002,0.15389582514762878,-0.06791921705007553,-0.17360758781433105,-0.21315819025039673,-0.037951644510030746,-0.26477858424186707,0.057821813970804214,-0.04893256723880768,-0.06170765683054924,0.03178735822439194,-0.018364958465099335,-0.044993121176958084,-0.05502645671367645,-0.17391666769981384,-0.30515536665916443,-0.06819869577884674,-0.07170959562063217,-0.08547977358102798,-0.15959465503692627,-0.205680251121521,-0.043567631393671036,-0.10746952891349792,-0.2479642927646637,0.1359831690788269,0.1488702893257141,-0.022579818964004517,-0.2194950133562088,-0.13482367992401123,-0.08573638647794724,-0.14474184811115265],[0.01823374629020691,-0.0347118079662323,0.14959058165550232,-0.10815675556659698,-0.2124362736940384,-0.4266929626464844,0.05445963516831398,-0.2036396861076355,-0.07774601876735687,-0.10736756026744843,0.028947096318006516,0.14397448301315308,0.13853366672992706,-0.014045343734323978,0.04887963831424713,-0.34985867142677307,-0.48787721991539,0.013528833165764809,-0.08770153671503067,0.06416449695825577,-0.10542121529579163,-0.25717347860336304,-0.06348331272602081,-0.240790456533432,0.045109719038009644,0.0026980503462255,0.25563356280326843,-0.1983620822429657,-0.1589633971452713,-0.4199826717376709,0.21765941381454468,-0.08792532980442047],[-0.10277055203914642,-0.04166865721344948,-0.06313414126634598,-0.09729620814323425,-0.14254844188690186,0.11858604848384857,0.10080394893884659,0.11718960106372833,-0.1758023500442505,0.1772671788930893,-0.04741307348012924,0.15372276306152344,0.20906193554401398,0.14812421798706055,0.061716776341199875,0.08259867131710052,0.00821127463132143,0.0859760195016861,-0.11435546725988388,0.09842218458652496,-0.12904106080532074,-0.12002439796924591,-0.201185405254364,-0.036569997668266296,-0.035864561796188354,-0.02102150395512581,-0.1306835412979126,-0.21029479801654816,-0.055329613387584686,0.08643592894077301,0.19709664583206177,0.12707139551639557],[-0.06054709851741791,-0.1643308401107788,0.07096386700868607,0.10792231559753418,-0.22651925683021545,-0.008986341767013073,0.19630733132362366,0.019989408552646637,-0.05837784335017204,0.13617561757564545,0.04453055188059807,0.12133478373289108,-0.14507845044136047,0.12744708359241486,-0.15369217097759247,0.12601974606513977,-0.1471880078315735,0.10179170966148376,0.03703206405043602,0.0425679087638855,-0.041387371718883514,0.03794524818658829,-0.0689510777592659,-0.24752521514892578,-0.10016953945159912,0.14083202183246613,-0.009832705371081829,0.01237699668854475,-0.07133755087852478,0.09771177917718887,0.10919450223445892,0.04100856930017471]],"b":[-0.06171036511659622,-0.1876946985721588,-0.030654573813080788,-0.08730475604534149,0.07408424466848373,-0.18395307660102844,0.0687561184167862,0.1682141125202179,0.17297889292240143,0.08622229099273682,-0.14927233755588531,0.1808045506477356,0.007099463138729334,-0.15629304945468903,0.23957057297229767,-0.04525420069694519,0.03795716539025307,0.13346031308174133,-0.11158676445484161,-0.13727882504463196,0.00834380742162466,-0.04508215934038162,0.020103543996810913,-0.20309007167816162,-0.1809908002614975,-0.12074476480484009,0.0016096052713692188,-0.1406673938035965,0.07571723312139511,0.06709398329257965,-0.11617044359445572,0.1455884575843811]},{"W":[[0.06438598036766052,0.013126797042787075,-0.13674603402614594,-0.010458793491125107,0.1426694244146347,0.30344870686531067,-0.10650594532489777,0.1368817836046219,0.024556035175919533,0.14284648001194,0.21371307969093323,0.18130536377429962,-0.11450525373220444,0.20130956172943115,-0.27438756823539734,0.04248438775539398,-0.21722637116909027,-0.09094277769327164,-0.026482531800866127,-0.1685018539428711,-0.07932033389806747,0.028284132480621338,0.17746616899967194,0.1398826688528061,-0.009778941981494427,0.11566179990768433,0.11652389168739319,0.04140569269657135,-8.104734297376126e-05,0.0385921448469162,-0.09891965240240097,-0.1959051489830017],[0.10014143586158752,0.03979267179965973,0.005392484832555056,-0.057138312608003616,0.0679730698466301,0.3987368941307068,-0.006176027934998274,0.15387022495269775,0.2521311044692993,-0.09340454638004303,-0.17723385989665985,-0.16858403384685516,-0.08045481145381927,-0.12892168760299683,0.04983598366379738,-0.016170617192983627,-0.011970817111432552,0.01933777891099453,-0.10254637897014618,0.36161988973617554,-0.1577371507883072,-0.3209158480167389,0.17496342957019806,-0.05169813707470894,0.2651654779911041,0.01698676310479641,0.29975682497024536,-0.21894122660160065,0.26742199063301086,0.2968845069408417,-0.052172619849443436,0.25475162267684937],[0.1936672329902649,0.04785310477018356,0.11988725513219833,-0.13413174450397491,-0.2137831449508667,0.08491520583629608,0.11270754039287567,-0.17258602380752563,0.07360555976629257,-0.17083030939102173,0.20454205572605133,0.23105886578559875,0.041968315839767456,-0.12976635992527008,0.04707074165344238,0.09383009374141693,-0.025964539498090744,0.053908538073301315,0.08289514482021332,-0.038634203374385834,-0.0438971072435379,0.049003392457962036,0.029500816017389297,0.15211288630962372,-0.054978080093860626,-0.0012852163054049015,0.03319430351257324,-0.05306567624211311,0.13151001930236816,0.01370102446526289,-0.13801099359989166,-0.016800086945295334],[-0.11837398260831833,0.019938845187425613,-0.024035055190324783,-0.05364928022027016,0.03519211709499359,-0.1997927576303482,-0.08581041544675827,0.2337038367986679,-0.0934389978647232,0.16275691986083984,-0.03950664401054382,-0.21726997196674347,0.012597184628248215,0.10509230941534042,0.010257774963974953,-0.14822323620319366,0.27018624544143677,0.1890346109867096,-0.13286073505878448,0.05802004784345627,0.04682552441954613,-0.08671656250953674,-0.009556489065289497,0.025321301072835922,-0.01903887279331684,0.04222060739994049,-0.16054382920265198,0.09287182241678238,0.1511465460062027,0.06830769032239914,-0.033700622618198395,0.11215563863515854],[-0.07940585911273956,0.11342011392116547,-0.003330065170302987,-0.057771045714616776,-0.19848810136318207,0.322679340839386,0.15387439727783203,-0.235829696059227,0.12337061017751694,0.13235707581043243,0.2468918263912201,0.15318706631660461,0.19243139028549194,-0.024929696694016457,0.00976446270942688,0.1866244375705719,-0.24714551866054535,-0.2115326076745987,0.01862044259905815,0.11228680610656738,-0.14417624473571777,-0.045838143676519394,-0.005494234152138233,0.08626838773488998,-0.15930943191051483,0.11010919511318207,0.14040732383728027,-0.09291011095046997,-0.0068597798235714436,0.031210465356707573,0.08532072603702545,0.12938012182712555],[0.22997325658798218,0.566516637802124,0.20540602505207062,-0.31934231519699097,-0.047230497002601624,-0.15806594491004944,-0.0620744489133358,0.0776415765285492,-0.03663593530654907,-0.031766172498464584,0.05499672889709473,0.010614905506372452,-0.07269088923931122,-0.29105454683303833,-0.12351348996162415,0.20958547294139862,-0.06895685940980911,0.1891666203737259,-0.05867316573858261,0.4101960361003876,0.03603512421250343,0.18437838554382324,-0.016957055777311325,0.17837144434452057,0.4756556451320648,-0.08626867085695267,0.24876995384693146,-0.15408103168010712,0.07993017137050629,-0.01777619682252407,0.1456374228000641,0.1003531739115715],[0.09115489572286606,-0.05158855766057968,-0.025399666279554367,0.03518103063106537,-0.21968865394592285,0.11852600425481796,0.08043471723794937,-0.14536170661449432,0.1173630952835083,0.023178311064839363,0.1524679958820343,0.04816555231809616,-0.14424464106559753,0.09280061721801758,-0.01727147027850151,-0.004627968650311232,-0.13832460343837738,0.04879649356007576,-0.22777459025382996,0.15585334599018097,0.0736958310008049,-0.2406742125749588,-0.07336984574794769,-0.1158219426870346,0.22053636610507965,0.15274815261363983,0.03887588158249855,0.12522077560424805,-0.007844174280762672,-0.15874876081943512,0.05331069231033325,0.08771472424268723],[0.7016372680664062,0.07678855955600739,0.4740772843360901,-0.768020749092102,0.2327980250120163,-1.4844889640808105,0.4723007380962372,0.14060968160629272,0.25127899646759033,-1.1904510259628296,-0.09078715741634369,0.03257343918085098,-0.09555289149284363,-0.42574068903923035,-0.15484437346458435,0.30360493063926697,-0.006878227926790714,0.2939540445804596,0.11171242594718933,0.20711705088615417,0.016143394634127617,0.699259340763092,-0.10281509160995483,-0.09801165014505386,1.1537598371505737,-0.356016606092453,-0.12941817939281464,-0.0857277512550354,-0.25336286425590515,-0.2221716195344925,0.055191148072481155,0.09695757925510406],[-0.08566273003816605,0.14914439618587494,0.0025270411279052496,0.03103000484406948,0.03788971155881882,-0.2882143259048462,-0.042958613485097885,0.03655318170785904,-0.12163355201482773,0.043562985956668854,-0.032318055629730225,0.0415198989212513,-0.005974555853754282,0.10141873359680176,0.05697827413678169,-0.10860525816679001,0.17267782986164093,-0.078341044485569,0.031367938965559006,-0.046242840588092804,-0.03858981281518936,-0.13681967556476593,0.19421447813510895,0.11373232305049896,0.12737907469272614,0.15279439091682434,-0.17278903722763062,0.00013218479580245912,0.12439954280853271,0.09700529277324677,-0.1818331480026245,0.11005996912717819],[-0.1921907514333725,0.05713209882378578,-0.12424302846193314,-0.031605079770088196,-0.11107173562049866,-0.2283414900302887,-0.05419233813881874,0.15244701504707336,-0.1646333485841751,0.004815410822629929,-0.06000032275915146,-0.2262142151594162,0.19199854135513306,0.1813584864139557,0.11045663058757782,-0.25550514459609985,0.06859200447797775,0.07893260568380356,0.1929909884929657,-0.3962917923927307,-0.22176828980445862,0.1852199286222458,-0.012112644501030445,-0.09416989982128143,-0.1931390017271042,-0.10129892081022263,0.12444266676902771,-0.010394664481282234,0.09020992368459702,0.16650308668613434,0.07506614178419113,0.018371060490608215],[0.013262535445392132,0.2998422682285309,-0.11742763221263885,0.15751563012599945,-0.004365752916783094,0.007335499860346317,0.008978030644357204,-0.049983441829681396,-0.043121643364429474,0.20232421159744263,-0.2165946215391159,-0.1297171264886856,-0.08592110127210617,-0.08112407475709915,0.39132267236709595,0.14580987393856049,0.10294651985168457,0.20915855467319489,-0.1496916264295578,0.05570055916905403,-0.04136690869927406,-0.2185799479484558,-0.14142926037311554,-0.22701936960220337,-0.1522790640592575,0.054383762180805206,0.10329840332269669,0.1312384307384491,0.15600399672985077,-0.06587713211774826,-0.037927333265542984,-0.03793535381555557],[0.19187678396701813,-0.047083377838134766,0.14619696140289307,-0.12983685731887817,0.024475818499922752,0.147344708442688,0.02489442192018032,0.16071975231170654,0.20105496048927307,0.12908802926540375,0.11572392284870148,0.13441552221775055,0.10540981590747833,0.05529576167464256,0.047917138785123825,0.05009036883711815,0.11443375051021576,0.0699436217546463,0.12482717633247375,0.6517685055732727,-0.005371819715946913,-0.11004028469324112,0.03508995473384857,0.1616065502166748,0.17286653816699982,-0.05820770561695099,0.1522783488035202,0.1002342626452446,-0.07559294998645782,-0.030253225937485695,0.011137358844280243,-0.10734093189239502],[-0.015540271997451782,0.2876714766025543,-0.14665672183036804,-0.14531268179416656,-0.1155150756239891,0.5925728678703308,0.15765997767448425,0.14477302134037018,-0.08954917639493942,0.036184344440698624,0.16663169860839844,0.07418046146631241,-0.3755607306957245,-0.02827712520956993,-1.0580005645751953,-0.22690768539905548,0.07970421016216278,-0.01682402193546295,0.1892842799425125,0.4728957712650299,0.06972572207450867,-0.08035300672054291,-0.05335012078285217,0.027346039190888405,0.25884997844696045,0.1725648194551468,0.21586881577968597,-0.026548907160758972,0.08563195168972015,0.035768359899520874,-0.1442839354276657,0.03607528656721115],[0.16989333927631378,0.2377711981534958,0.06444752216339111,-0.24609403312206268,-0.116011843085289,-0.32702770829200745,0.14681924879550934,0.08950583636760712,-0.20786315202713013,-0.26645106077194214,0.22505517303943634,0.041202280670404434,-0.12030413746833801,-0.096342071890831,-0.4294098913669586,0.052436165511608124,-0.0874423235654831,0.18791885673999786,0.0639084056019783,0.32730424404144287,0.005923104472458363,0.27492964267730713,0.03742440417408943,0.3961822986602783,0.5012564659118652,-0.18947076797485352,0.08209475129842758,-0.1126692071557045,0.054997965693473816,-0.027455667033791542,-0.05137091130018234,0.13583406805992126],[-0.2144479751586914,0.12283366173505783,-0.20503200590610504,-0.000253556965617463,0.06563595682382584,0.0678929015994072,-0.12872830033302307,0.11678529530763626,0.043327316641807556,0.13894014060497284,-0.007608655374497175,0.009913823567330837,-0.07099726796150208,-0.0896565243601799,0.20309364795684814,-0.18357884883880615,-0.003154244041070342,-0.012605301104485989,0.20346686244010925,-0.18783162534236908,-0.1338450014591217,0.020497705787420273,0.05866942182183266,0.06660648435354233,0.08378031849861145,-0.055010806769132614,0.08822356164455414,-0.13931407034397125,0.03688229247927666,0.09161635488271713,0.11753205955028534,-0.11863859742879868],[-0.006706387270241976,0.19654624164104462,-0.1196507066488266,-0.12855249643325806,-0.1936255395412445,0.09939083456993103,0.1299893856048584,0.016427064314484596,-0.010476584546267986,0.08063478022813797,-0.10058505833148956,0.04718603193759918,-0.01782470941543579,-0.11074622720479965,0.13442407548427582,-0.14008739590644836,0.0030396997462958097,-0.1649247407913208,0.013124300166964531,-0.02357815019786358,0.01525936834514141,-0.15192724764347076,0.1427152454853058,-0.141671285033226,0.13343915343284607,-0.14193566143512726,0.13283394277095795,-0.09329692274332047,0.04361832141876221,0.007998383603990078,0.14336149394512177,0.0745064988732338],[-0.10062224417924881,0.43397632241249084,-0.07531514763832092,0.1262008249759674,0.014825006946921349,-0.22789187729358673,-0.05342495068907738,0.044015806168317795,-0.14517351984977722,0.08628677576780319,0.06417497247457504,0.12218804657459259,-0.004580055829137564,-0.19392672181129456,0.1956569403409958,-0.0007940116920508444,0.005957675166428089,0.02899813838303089,0.15679222345352173,0.13567803800106049,0.04937070235610008,0.12091843783855438,-0.14831925928592682,-0.022280320525169373,-0.07551100850105286,0.04828689247369766,-0.12069059163331985,-0.10143566876649857,0.13976162672042847,0.1517399102449417,-0.15056489408016205,-0.04793597757816315],[0.06877109408378601,0.17528557777404785,-0.010619070380926132,-0.03601031377911568,-0.150365948677063,0.23064082860946655,0.21284915506839752,-0.12679904699325562,0.10277200490236282,0.1261863261461258,0.19331087172031403,0.01806195266544819,0.019671645015478134,0.12424959242343903,0.05838745832443237,0.19915828108787537,-0.08385967463254929,0.03739726170897484,0.12097195535898209,-0.07606220990419388,-0.01068867463618517,-0.10527940839529037,0.1347954422235489,-0.05578935518860817,0.016223175451159477,0.0880640372633934,-0.11597590148448944,-0.15448231995105743,-0.07365629076957703,0.14866769313812256,0.14567506313323975,-0.10975804924964905],[0.04661603644490242,-0.15293283760547638,-0.11442738771438599,0.1956387311220169,0.0634903758764267,0.0822698101401329,0.010367299430072308,0.014415144920349121,0.02533533424139023,-0.048381783068180084,-0.07255888730287552,0.12793377041816711,0.09978776425123215,0.07461293786764145,-0.08300575613975525,0.07723410427570343,0.06935393065214157,0.07952485978603363,0.024608979001641273,0.17918962240219116,-0.06760445982217789,0.06373957544565201,0.20017914474010468,0.1694648265838623,-0.11293154209852219,0.1379835605621338,0.1042880117893219,-0.018331238999962807,0.16006827354431152,-0.04288601502776146,0.19546334445476532,0.19760732352733612],[-0.1832176297903061,-0.2102486938238144,-0.17207588255405426,-0.011817804537713528,-0.1334521323442459,-0.1391345113515854,0.04649299010634422,0.14889772236347198,0.09479488432407379,0.07784201204776764,0.049962300807237625,-0.12658433616161346,-0.19597017765045166,0.040141407400369644,0.1737426221370697,-0.002345713321119547,0.030311694368720055,-0.12232434749603271,-0.0420694500207901,-0.180576890707016,0.2011307179927826,-0.016270272433757782,-0.1889478862285614,0.029584785923361778,0.001013043336570263,0.024903973564505577,0.005590430926531553,0.11840581893920898,-0.1984086036682129,-0.1879572570323944,-0.07553455233573914,-0.19063371419906616],[-0.1735125482082367,0.1426606923341751,0.022950362414121628,-0.163540780544281,-0.041578713804483414,-0.32944372296333313,0.1729007363319397,-0.01151233073323965,-0.09885060042142868,-0.16929814219474792,0.07544875144958496,-0.04007810726761818,-0.09184161573648453,-0.05003596469759941,-0.06844523549079895,0.07051798701286316,0.1772933304309845,-0.06337679177522659,0.008215733803808689,-0.145360067486763,-0.01369620393961668,0.14014455676078796,-0.02912493422627449,0.1717400699853897,0.024371452629566193,-0.07367835938930511,-0.1592346578836441,0.1545718014240265,-0.15119341015815735,0.036875851452350616,-0.027938561514019966,0.03779047355055809],[0.17495933175086975,0.1313129961490631,0.13279783725738525,-0.06397818773984909,-0.07887952029705048,0.23785287141799927,0.07972143590450287,-0.05259295552968979,-0.025380412116646767,-0.10869677364826202,0.08870130032300949,0.01173326000571251,0.005761394277215004,0.0007285429164767265,0.16849930584430695,-0.10127288103103638,-0.03303530439734459,0.1312183141708374,0.09903008490800858,0.01692129485309124,-0.20930534601211548,0.13414601981639862,0.1253647357225418,0.01807352900505066,0.19319221377372742,-0.1685687154531479,0.1515006572008133,-0.15296602249145508,0.15718351304531097,0.17226824164390564,0.06540888547897339,0.18273115158081055],[-0.1540038287639618,-0.019522283226251602,-0.19755826890468597,0.18098032474517822,0.14907565712928772,-0.3245074450969696,0.01618717424571514,0.2523648738861084,-0.20697954297065735,0.18714870512485504,-0.061806224286556244,-0.049874428659677505,0.17141899466514587,0.12567441165447235,0.18827323615550995,0.065048448741436,0.20115883648395538,0.08702071011066437,-0.11865309625864029,-0.1489456444978714,-0.11371281743049622,0.20163960754871368,0.04116819053888321,-0.04455268755555153,-0.14841145277023315,-0.12100996822118759,0.11195100098848343,0.06313318014144897,0.10039927065372467,-0.06967887282371521,-0.062475841492414474,0.0026301194448024035],[0.1203700378537178,-0.29293832182884216,0.08434603363275528,0.16105668246746063,-0.1729387640953064,0.15821883082389832,-0.034468814730644226,-0.12154065817594528,0.11980053037405014,-0.013101117685437202,0.16662029922008514,-0.1071503758430481,0.14230279624462128,-0.15055352449417114,-0.09623076021671295,0.020317766815423965,0.09722717851400375,0.07252050191164017,-0.23758409917354584,0.04916299134492874,-0.16439467668533325,0.14504863321781158,-0.15589062869548798,-0.06141233071684837,0.057085853070020676,-0.17587152123451233,-0.14494988322257996,0.034742582589387894,0.0230881255120039,-0.016231907531619072,0.21446366608142853,-0.12366737425327301],[-0.1433919370174408,-0.23119992017745972,-0.05219024792313576,-0.08687679469585419,0.143446147441864,-0.1505836695432663,0.023540489375591278,-0.03405989706516266,0.1524016112089157,0.13778112828731537,-0.14578163623809814,-0.06866513192653656,-0.12354617565870285,0.07991495728492737,-0.15852424502372742,-0.054117970168590546,0.1997300237417221,-0.14977538585662842,0.14635276794433594,-0.019659362733364105,0.14293980598449707,-0.1899358630180359,0.10222967714071274,0.06032996624708176,-0.020296933129429817,0.10687403380870819,-0.18566302955150604,-0.12481339275836945,0.14542610943317413,-0.11711239069700241,-0.10684717446565628,-0.026821386069059372],[-0.07479754090309143,-0.09506851434707642,-0.15419042110443115,0.13807497918605804,-0.16683223843574524,0.13891740143299103,0.06616480648517609,0.007515330798923969,0.04284382238984108,0.013853958807885647,-0.048852816224098206,-0.02303057350218296,-0.004634799901396036,-0.10490646213293076,-0.11583706736564636,0.14634978771209717,-0.08198950439691544,0.032939326018095016,0.09936029464006424,-0.12506666779518127,-0.11780333518981934,-0.04000168666243553,-0.10381323099136353,0.033281899988651276,-0.24944113194942474,-0.02399330586194992,0.09451223164796829,0.16511987149715424,0.048281311988830566,0.06737841665744781,0.15089227259159088,0.04222847893834114],[0.002207048237323761,-0.2150871902704239,-0.15463852882385254,-0.03574007749557495,-0.002625485183671117,-0.04789508506655693,-0.04009130969643593,0.1014452800154686,0.11319660395383835,-0.0759747102856636,-0.19626934826374054,-0.1230904832482338,-0.11671037971973419,0.1229126825928688,-0.08877739310264587,-0.021195005625486374,-0.008701457642018795,-0.09594964236021042,0.06875800341367722,-0.07916922122240067,0.03237002715468407,-0.12105272710323334,-0.036884091794490814,0.026525912806391716,-0.011480316519737244,-0.05063069611787796,0.02356446534395218,-0.03095025010406971,-0.1267167031764984,-0.15630578994750977,-0.07740982621908188,-0.17581184208393097],[0.22927014529705048,-0.360294371843338,-0.04353469982743263,0.01936209201812744,0.015169582329690456,0.05919184163212776,0.15653501451015472,-0.13394881784915924,0.06227892264723778,-0.07706763595342636,-0.13451895117759705,-0.028401004150509834,0.1005677804350853,-0.012345087714493275,0.2606339752674103,0.2034769356250763,-0.10225558280944824,-0.06295353919267654,-0.09806548804044724,0.02700979821383953,-0.0885360911488533,-0.1687668412923813,0.09209218621253967,0.12499508261680603,0.07044067978858948,-0.1532905250787735,-0.1098780557513237,-0.1074981838464737,0.07708606868982315,0.009522228501737118,0.08746419847011566,0.2137393057346344],[0.024216068908572197,0.05411773547530174,-0.07032005488872528,0.14723892509937286,0.13040471076965332,-0.3073718547821045,-0.16384078562259674,0.0832369402050972,0.058994270861148834,0.08765649050474167,-0.16003373265266418,-0.24681125581264496,-0.007677645888179541,-0.017353428527712822,0.13042005896568298,-0.09387680888175964,0.18908286094665527,0.042821913957595825,0.13251140713691711,-0.18472900986671448,0.09893239289522171,0.08405257016420364,-0.10980609059333801,0.06217915937304497,-0.21167072653770447,0.11535055190324783,0.022229086607694626,0.02356376126408577,0.06145303323864937,0.00850667990744114,0.05218232795596123,0.11998602002859116],[-0.1815292239189148,0.17358753085136414,-0.031153380870819092,-0.07117909938097,0.08834334462881088,-0.026378633454442024,-0.11189323663711548,-0.05378904193639755,0.11840597540140152,-0.07685520499944687,0.007363269105553627,-0.07353850454092026,0.02892117202281952,0.11933388561010361,-0.036990199238061905,-0.08383016288280487,0.13189367949962616,0.050546713173389435,-0.0036008257884532213,-0.2337529957294464,0.1896395981311798,-0.0792955681681633,-0.04731167480349541,-0.10273882001638412,-0.03298911079764366,0.07437299191951752,-0.014806416817009449,0.13613657653331757,-0.004419464152306318,-0.032158009707927704,0.06453831493854523,0.002334522781893611],[-0.016932474449276924,-0.5047644972801208,0.14366264641284943,0.06422794610261917,0.0688517764210701,0.1585320085287094,0.053498223423957825,-0.0026146890595555305,0.0951710194349289,-0.06833718717098236,0.1973077654838562,0.21089518070220947,0.12321004271507263,0.02149406634271145,0.2399684339761734,-0.08709462732076645,0.0498560294508934,0.059684231877326965,-0.009103457443416119,-0.01184678915888071,-0.14582176506519318,0.3026524782180786,-0.146398663520813,0.05848853662610054,0.011715012602508068,-0.16248376667499542,0.00444685947149992,-0.029873842373490334,0.05856914445757866,-0.19507049024105072,0.15050244331359863,0.08720467984676361],[0.028282858431339264,0.016349103301763535,0.03832731768488884,-0.2314290851354599,0.08158440887928009,0.12176251411437988,-0.0062990328297019005,-0.22002799808979034,-0.14931516349315643,-0.22252719104290009,0.17666201293468475,0.1388292908668518,0.07278653234243393,0.2100348025560379,-0.0800192803144455,-0.09713730961084366,-0.00967990793287754,-0.15606608986854553,0.06248849630355835,0.07970330119132996,0.27496567368507385,0.10074209421873093,-0.262227326631546,-0.08487395942211151,0.11684294044971466,0.18685859441757202,-0.02149602584540844,0.014137642458081245,-0.2579985558986664,-0.20110322535037994,0.01946028508245945,-0.12687146663665771]],"b":[0.09812577068805695,0.0627831444144249,-0.07388024777173996,0.11456634849309921,-0.026255270466208458,-0.3209216892719269,-0.03697066381573677,-0.18625417351722717,-0.004534048028290272,0.030861759558320045,-0.04285813122987747,0.04502539336681366,-0.38829243183135986,-0.402402400970459,-0.12861789762973785,-0.06934245675802231,0.0026712396647781134,-0.028512999415397644,0.06704011559486389,-0.1428922861814499,0.04281292110681534,0.019138742238283157,0.06259848922491074,0.1925816684961319,0.07417125999927521,-0.05773308128118515,-0.13739027082920074,-0.030399492010474205,-0.09094715118408203,0.08788325637578964,0.0324617400765419,0.1516697257757187]},{"W":[[0.09986715763807297,-0.07341355085372925,-0.0327644906938076,0.06870859861373901,-0.11188245564699173,0.13682101666927338,-0.13837657868862152,0.13186876475811005,-0.03699483349919319,-0.12390878796577454,-0.02947824075818062,0.13583393394947052,0.18200117349624634,0.10627761483192444,-0.023891163989901543,-0.031236587092280388,-0.051415443420410156,-0.06810206919908524,-0.037633560597896576,0.18823574483394623,0.1577993929386139,-0.18218348920345306,0.03979695960879326,-0.1528674066066742,0.0176081620156765,-0.18654556572437286,0.05753731727600098,-0.13251696527004242,0.22267712652683258,0.07688117772340775,-0.14532610774040222,-0.16112568974494934],[0.009487329982221127,-0.11705752462148666,-0.018922407180070877,-0.10878170281648636,0.008282621391117573,-0.24205851554870605,-0.1006784439086914,-0.12277010083198547,0.08967597782611847,0.04028605669736862,-0.14738133549690247,-0.14651522040367126,-0.17894475162029266,-0.22201210260391235,0.03053029626607895,0.009879686869680882,0.01813345029950142,-0.11315479129552841,-0.04021957889199257,-0.09274351596832275,-0.058145951479673386,-0.07748249173164368,0.1971638947725296,-0.027704767882823944,0.10305394232273102,-0.06779148429632187,-0.012961787171661854,-0.19115883111953735,0.20415416359901428,0.23172993957996368,-0.011236910708248615,0.11829555779695511],[0.2704842686653137,0.1000642329454422,0.0646025612950325,-0.16934746503829956,-0.09763729572296143,-0.18515975773334503,0.05569630116224289,-0.3318513035774231,-0.0006118866731412709,-0.04007291421294212,-0.10508014261722565,-0.04315473884344101,0.05304358899593353,-0.16848218441009521,0.14198383688926697,-0.11113061755895615,0.033117637038230896,0.15020176768302917,0.136088028550148,-0.022881172597408295,-0.12417465448379517,-0.11784189939498901,0.03353571891784668,-0.05568375065922737,0.16142864525318146,-0.04079427942633629,-0.14125625789165497,-0.33158695697784424,-0.0437198206782341,0.13832712173461914,-0.29162463545799255,-0.17721740901470184],[0.02753295935690403,-0.23176701366901398,-0.1668500155210495,-0.16678573191165924,-0.10402151197195053,0.08438562601804733,0.08319436758756638,0.018390381708741188,-0.023188095539808273,0.07979512959718704,-0.019729092717170715,-0.174345925450325,-0.13573746383190155,-0.10797835141420364,-0.010780069045722485,-0.22542937099933624,-0.037337880581617355,-0.0866781547665596,0.1366349309682846,0.20579101145267487,0.16801513731479645,-0.06414591521024704,-0.04680921509861946,0.12366145849227905,-0.14392191171646118,-0.08840889483690262,-0.0003442669694777578,-0.02306845597922802,-0.12847304344177246,0.062423866242170334,0.24466575682163239,-0.07009551674127579],[-0.01733986660838127,-0.06876137107610703,-0.09248340874910355,0.02564212493598461,0.10452298074960709,0.003951445687562227,-0.12640710175037384,-0.15405888855457306,0.35604768991470337,0.1115674301981926,0.26360729336738586,-0.07940470427274704,-0.1716657280921936,-0.07512415945529938,-0.05902201309800148,0.05018417164683342,0.22836530208587646,0.07731089740991592,-0.0763159766793251,0.029164686799049377,0.05483951419591904,0.0408969521522522,0.04996005445718765,-0.08385543525218964,0.08713637292385101,-0.19716748595237732,0.02054029516875744,-0.03371332585811615,0.22023768723011017,0.2918657660484314,-0.1213204562664032,0.14044277369976044],[-0.13408398628234863,0.19266031682491302,0.19060908257961273,-0.02693783864378929,-0.07828827202320099,0.021738333627581596,-0.03184094280004501,0.04515586420893669,-0.20367389917373657,0.003180603263899684,-0.08066403865814209,-0.08203843235969543,-0.08517241477966309,-0.025953473523259163,-0.17527879774570465,-0.05765391141176224,0.016206180676817894,0.1516946405172348,0.17553772032260895,-0.16797368228435516,0.045946329832077026,-0.04970192536711693,-0.17121775448322296,-0.08113151788711548,-0.12131865322589874,-0.13366785645484924,-0.1612299233675003,-0.14790603518486023,0.09438484162092209,0.14494553208351135,-0.1707116663455963,-0.10091497004032135],[-0.09092802554368973,-0.12738089263439178,-0.14821535348892212,0.15158036351203918,-0.021664028987288475,-0.07695233821868896,0.10562990605831146,-0.19194959104061127,0.014930824749171734,0.07883668690919876,-0.056178830564022064,0.11347383260726929,0.19105733931064606,-0.08661699295043945,-0.12251370400190353,0.06402917206287384,-0.13663901388645172,0.09614719450473785,-0.08666571229696274,0.10654360055923462,-0.12812107801437378,-0.16480503976345062,0.07150191068649292,-0.027057619765400887,0.21512357890605927,0.10233695060014725,-0.0005295420996844769,-0.009211840108036995,0.09112215787172318,-0.05476822704076767,-0.013606557622551918,-0.18582071363925934],[-0.12787356972694397,0.05844714492559433,-0.17961978912353516,0.15483619272708893,-0.04292697831988335,-0.08675829321146011,0.1480548083782196,-0.209139883518219,0.03258970007300377,0.07712823152542114,0.09388075023889542,-0.20239046216011047,0.0008150571375153959,-0.18019843101501465,0.030832430347800255,0.0723082572221756,0.02476699836552143,-0.059935443103313446,-0.03773243725299835,0.20089004933834076,0.13799364864826202,-0.0514334961771965,-0.0609445795416832,-0.07329243421554565,0.20453782379627228,0.13919498026371002,0.13629810512065887,-0.14846917986869812,0.20267817378044128,0.04098675772547722,0.15336336195468903,0.1517927348613739],[0.0383298322558403,-0.002682153834030032,0.21886995434761047,-0.09898210316896439,0.18366917967796326,-0.07638954371213913,-0.052901338785886765,-0.14958903193473816,-0.11839855462312698,0.04976169764995575,-0.13011005520820618,-0.09292712062597275,0.17001120746135712,0.10111580044031143,-0.010577665641903877,-0.08901256322860718,-0.08161186426877975,-0.015241524204611778,0.12236153334379196,-0.1124897375702858,-0.1033746749162674,-0.05842950940132141,-0.11519129574298859,0.08021969348192215,0.11320041120052338,0.023305274546146393,-0.10496682673692703,0.1574540138244629,-0.01582081988453865,-0.09118407964706421,-0.09877768903970718,-0.030472135171294212],[0.06579580157995224,0.10715410858392715,0.16338877379894257,-0.020245511084794998,0.2077760249376297,-0.03691040724515915,-0.0837981328368187,-0.08211713284254074,-0.19240598380565643,-0.14549431204795837,-0.16850464046001434,-0.04612870141863823,-0.031041627749800682,-0.07996807992458344,-0.11797568947076797,0.18201395869255066,-0.0708332285284996,0.11993912607431412,0.14293983578681946,-0.14909644424915314,-0.05987275764346123,0.14399735629558563,0.14262625575065613,-0.03427506983280182,0.12009553611278534,-0.11859670281410217,-0.11815287172794342,0.12076178938150406,-0.057367317378520966,0.22510232031345367,-0.0025995150208473206,-0.070862777531147],[0.15471947193145752,0.21074022352695465,0.060413409024477005,-0.11510208249092102,0.06070372834801674,-0.028960732743144035,0.13009949028491974,-0.001948807155713439,0.02664519101381302,0.07663856446743011,0.047539953142404556,-0.1249103993177414,0.1483958661556244,0.10748680680990219,-0.1084078997373581,0.16961896419525146,0.03269592672586441,0.003950174897909164,-0.10145982354879379,-0.06912629306316376,-0.21347510814666748,0.15751542150974274,0.09942523390054703,-0.08969130367040634,0.14989472925662994,-0.054438065737485886,0.016132621094584465,-0.13983690738677979,-0.05363776534795761,0.0924125388264656,0.04840846359729767,-0.008005511946976185],[-0.09163860976696014,0.12449657171964645,0.12476363033056259,0.06950689852237701,-0.1756613552570343,0.09746092557907104,-0.025942539796233177,0.30323317646980286,0.0654366984963417,-0.01221606507897377,-0.030791958793997765,0.10654357075691223,0.04242739826440811,0.2220710963010788,0.08680760860443115,-0.11599331349134445,-0.020308364182710648,-0.1603921353816986,-0.14811135828495026,0.03622176870703697,0.06119368225336075,-0.009452037513256073,0.1684655100107193,-0.1623804122209549,-0.06916343420743942,-0.08155466616153717,0.01035651471465826,-0.008842828683555126,0.1685144603252411,-0.13820691406726837,-0.1879808008670807,0.020185183733701706],[0.13133135437965393,0.08496396243572235,0.14231786131858826,0.01023761834949255,0.24763186275959015,0.12630757689476013,0.14554551243782043,-0.060898736119270325,-0.19010886549949646,-0.12306121736764908,0.042221058160066605,0.08870150148868561,-0.07024694979190826,0.11555623263120651,0.02296455018222332,0.0326848104596138,-0.014079738408327103,0.03391508385539055,0.19005168974399567,-0.026899132877588272,0.06394648551940918,-0.10034715384244919,-0.13506050407886505,0.012434612959623337,0.11877428740262985,0.12264920771121979,0.025913195684552193,-0.18974879384040833,-0.05402509123086929,-0.08318693935871124,-0.15082241594791412,0.03477420657873154],[-0.0706343725323677,0.13080699741840363,-0.14034314453601837,0.028654644265770912,0.20481906831264496,-0.30682289600372314,0.11029322445392609,-0.30454355478286743,0.1356605440378189,0.21192026138305664,-0.03259281441569328,-0.184474915266037,0.041541215032339096,-0.13546384871006012,-0.015637805685400963,0.05898667871952057,-0.0053654820658266544,0.008252181112766266,0.12258453667163849,0.10463039577007294,-0.11910218000411987,-0.03885473683476448,-0.13235893845558167,-0.11196152865886688,0.12693101167678833,0.03902648016810417,-0.05577703192830086,-0.07253074645996094,0.03984381631016731,0.094516821205616,-0.24858656525611877,-0.16982810199260712],[0.07099900394678116,-0.17009131610393524,-0.04323285073041916,-0.018646594136953354,-0.19093984365463257,-0.12958236038684845,-0.14199402928352356,-0.11536021530628204,0.042389992624521255,-0.11291880905628204,-0.14180512726306915,0.14192968606948853,0.013772621750831604,-0.07584229856729507,-0.0034423330798745155,0.09910395741462708,-0.11968117207288742,-0.14349588751792908,-0.15520024299621582,0.03470645472407341,0.040804196149110794,-0.1968841850757599,0.17274890840053558,-0.12567633390426636,0.16601300239562988,-0.13373935222625732,-0.004778172820806503,0.04982338845729828,-0.021728722378611565,0.13807950913906097,-0.0953144058585167,-0.01587810181081295],[-0.12776584923267365,0.12759731709957123,0.21375462412834167,0.1606799215078354,0.07275345921516418,0.03105764277279377,0.18076559901237488,0.12116663157939911,0.1273859441280365,-0.12920722365379333,-0.10021288692951202,-0.10956968367099762,0.2629224359989166,0.11213856935501099,-0.12962095439434052,0.07462960481643677,-0.10849934071302414,0.04291420429944992,0.08804476261138916,-0.13947375118732452,-0.014662124216556549,-0.02785453200340271,0.0019064838998019695,-0.3094375431537628,0.01888437569141388,0.1497170478105545,0.13267430663108826,0.05587570741772652,0.08045046776533127,0.1250547170639038,0.00712600676342845,0.04931812360882759],[-0.586595356464386,0.20052535831928253,0.13271330296993256,-0.03457580506801605,-0.14035318791866302,0.17218650877475739,0.014682215638458729,0.40460067987442017,0.0460282564163208,0.052951596677303314,0.15708734095096588,0.30401381850242615,-0.24203172326087952,0.25629955530166626,0.14254824817180634,-0.0042310357093811035,0.24303480982780457,0.024681977927684784,0.1571759730577469,-0.0645914077758789,0.02704775519669056,-0.0254154521971941,0.020428741350769997,0.4011542797088623,-0.198582261800766,0.06117608770728111,-0.25501498579978943,0.354262113571167,-0.0022747910115867853,-0.03612028807401657,0.34034866094589233,-0.014862282201647758],[0.20008593797683716,0.115455761551857,0.12466941773891449,-0.10645835846662521,0.2889783978462219,0.0330844409763813,0.11890122294425964,-0.07821660488843918,0.03367896005511284,0.1412798911333084,-0.11629173904657364,0.13871873915195465,-0.12982867658138275,-0.17229895293712616,-0.128135547041893,0.025012392550706863,-0.12644395232200623,-0.011940560303628445,-0.07797329127788544,0.036391519010066986,-0.19728399813175201,-0.0682293251156807,-0.017808541655540466,0.00962907075881958,-0.1110275536775589,0.12252788990736008,-0.09793569147586823,-0.1997886300086975,-0.04819002375006676,-0.04454013332724571,0.08340634405612946,-0.12043583393096924],[0.026774266734719276,0.12822234630584717,-0.14700639247894287,0.1428525298833847,-0.0062304832972586155,-0.06732390820980072,-0.13686256110668182,-0.17433728277683258,-0.036254726350307465,-0.1588042974472046,0.06663056463003159,-0.06362216919660568,0.12915557622909546,0.04253148287534714,0.1862843930721283,0.0757971853017807,0.11042644828557968,0.19617977738380432,0.18245096504688263,-0.17783549427986145,-0.10273341089487076,-0.13197727501392365,-0.001380668138153851,-0.16514542698860168,0.13987238705158234,0.08465699851512909,0.012752387672662735,-0.16446314752101898,-0.16977538168430328,0.12849737703800201,-0.15472771227359772,-0.11045679450035095],[0.14721404016017914,-0.16515673696994781,-0.13223060965538025,0.13640005886554718,0.017769664525985718,-0.2059510052204132,0.06083419546484947,0.06442921608686447,-0.16147075593471527,0.06074242293834686,0.05018433928489685,-0.01976124383509159,0.14122304320335388,-0.1555304378271103,0.0895741656422615,-0.14622129499912262,-0.13358640670776367,0.0902867540717125,-0.117366261780262,0.06448426097631454,0.1376216560602188,-0.23029954731464386,-0.12483430653810501,0.09306704252958298,0.14647376537322998,-0.017119646072387695,0.15994137525558472,0.062328580766916275,0.0934653952717781,-0.10395167022943497,0.20847155153751373,0.09640410542488098],[0.02371349185705185,0.07500016689300537,-0.1673348993062973,0.03883935883641243,-0.1791519820690155,0.0021000290289521217,0.06108258292078972,0.18650636076927185,0.03655586019158363,-0.12451612949371338,-0.12597709894180298,0.04457418993115425,0.018005376681685448,-0.06268984824419022,0.16414909064769745,-0.006378449033945799,-0.13521656394004822,0.03286297246813774,0.03890257328748703,-0.04174451157450676,0.15076883137226105,-0.15765082836151123,0.07639969140291214,0.1719333827495575,0.1090482771396637,0.04095751419663429,-0.021192476153373718,0.035453446209430695,0.09273581951856613,-0.0157061368227005,-0.020688867196440697,0.029993167147040367],[-0.0443115234375,-0.15916767716407776,-0.20501795411109924,-0.13982240855693817,-0.17473077774047852,0.1142142191529274,0.03423067927360535,-0.15575823187828064,-0.06789223849773407,0.07117749005556107,-0.0541948601603508,-0.03413666784763336,-0.05047689005732536,-0.02503362111747265,0.02098700776696205,-0.023485621437430382,0.12786053121089935,0.07485204935073853,0.11967359483242035,0.03348737582564354,-0.03040703758597374,-0.054557304829359055,-0.09504017978906631,0.09749877452850342,-0.026620391756296158,-0.0715053603053093,-0.13339351117610931,0.10172147303819656,0.1391194611787796,0.12776996195316315,-0.012456211261451244,0.05761140212416649],[0.0722675770521164,-0.028576936572790146,-0.08030373603105545,0.12081503123044968,-0.11339341104030609,0.24110376834869385,0.06977774202823639,0.09239204227924347,0.3253059983253479,0.06139041483402252,0.06819070130586624,0.1008991003036499,0.11303219199180603,0.005090495105832815,-0.0148621229454875,0.1992015242576599,0.11290634423494339,0.15090011060237885,-0.021801462396979332,-0.0877804309129715,-0.16497358679771423,0.1996152549982071,-0.14753596484661102,-0.39130496978759766,0.2247261106967926,0.006623683962970972,-0.0985264852643013,-0.1356450915336609,-0.1406792551279068,0.09713096171617508,-0.41272979974746704,0.12719838321208954],[0.1505504697561264,-0.000685972860082984,-0.014284152537584305,0.187017023563385,-0.011091679334640503,0.17918312549591064,0.07922253012657166,-0.028098108246922493,0.16027988493442535,0.12322361022233963,-0.09492064267396927,0.08586619794368744,-0.18894211947917938,-0.12193535268306732,0.024901313707232475,-0.08758029341697693,0.021559417247772217,-0.1401980221271515,0.035260092467069626,0.20193549990653992,0.03403342887759209,-0.13193866610527039,0.009039628319442272,-0.3294466435909271,-0.015969498082995415,-0.094405896961689,0.16746260225772858,-0.3571678698062897,0.03012455441057682,0.12495354562997818,-0.3080892860889435,-0.05151207745075226],[0.16213732957839966,-0.11797425150871277,0.05653250962495804,0.0733078271150589,0.07897735387086868,-0.030772428959608078,-0.02811930514872074,0.0006062121829017997,-0.05822659283876419,0.1475479006767273,0.25060415267944336,-0.1368933618068695,-0.1537134349346161,-0.2720125913619995,-0.13500867784023285,-0.08437920361757278,0.19003918766975403,-0.04083014652132988,-0.024107053875923157,-0.08875421434640884,-0.08032796531915665,0.03584215044975281,-0.14569701254367828,-0.03220093995332718,0.1896216720342636,0.12585338950157166,0.10457835346460342,-0.3024032413959503,0.0776677131652832,0.0865958034992218,-0.16109822690486908,0.13177134096622467],[-0.12468908727169037,-0.165560781955719,-0.2542128264904022,0.167552649974823,-0.10262388736009598,0.09635863453149796,-0.020360231399536133,-0.2410183548927307,0.11059053242206573,0.24825163185596466,0.18551494181156158,0.052849091589450836,-0.24223241209983826,-0.18204161524772644,0.16866736114025116,-0.13407927751541138,0.11519868671894073,-0.12117519974708557,0.07393786311149597,0.02929139882326126,-0.1326408088207245,-0.11969809234142303,0.24640530347824097,0.0753566175699234,0.11704698950052261,-0.08150560408830643,0.14394384622573853,-0.022410761564970016,0.049804240465164185,0.049394942820072174,-0.008839272893965244,-0.10463060438632965],[-0.026418885216116905,-0.062204115092754364,-0.10896840691566467,0.09094996005296707,-0.2799471616744995,0.11963783204555511,0.15387600660324097,0.11092093586921692,0.011218423023819923,-0.16584733128547668,0.05325199291110039,0.15595592558383942,0.18370778858661652,0.07661565393209457,0.031646739691495895,0.1444624811410904,0.010459890589118004,-0.11383563280105591,-0.20662719011306763,0.10568574070930481,0.11248943209648132,0.11618772149085999,-0.09224957972764969,0.06920956820249557,0.0007030685083009303,-0.12200900167226791,0.1082875058054924,-0.15135838091373444,0.1498958021402359,0.04884923994541168,-0.08960282057523727,0.11871117353439331],[-0.08095065504312515,0.06593400985002518,-0.009497367776930332,-0.18610931932926178,0.05605069920420647,0.1070384532213211,-0.023199645802378654,-0.10921722650527954,-0.013775574043393135,0.006641319487243891,-0.05065245181322098,-0.17215517163276672,-0.12982386350631714,-0.06974877417087555,0.06990308314561844,0.18870602548122406,-1.1687357982737012e-05,0.10707280784845352,0.1376403123140335,-0.12022297084331512,-0.11453521251678467,0.16616378724575043,0.09587958455085754,0.08059460669755936,-0.165328249335289,0.13592518866062164,-0.16702008247375488,0.10523072630167007,-0.020682910457253456,0.08577195554971695,-0.16750964522361755,-0.06512688100337982],[0.04360229894518852,0.08362110704183578,-0.11612974852323532,0.18224544823169708,-0.14209720492362976,-0.15585240721702576,-0.09346086531877518,0.017882749438285828,0.01055624894797802,0.13054914772510529,-0.06904631108045578,-0.0432867556810379,-0.19912290573120117,0.1460774689912796,-0.023157574236392975,-0.1706213802099228,0.021929709240794182,-0.07236727327108383,0.024608006700873375,0.02681570127606392,0.15541109442710876,-0.12273867428302765,-0.00045560693251900375,-0.023633688688278198,0.059750765562057495,0.12331836670637131,0.01449654158204794,0.13461029529571533,0.2065344899892807,-0.08469058573246002,0.003965761978179216,-0.09334875643253326],[0.058921199291944504,-0.12035034596920013,-0.03670820966362953,0.043796587735414505,-0.20541110634803772,-0.23363006114959717,-0.20888544619083405,-0.2068042755126953,0.12489435076713562,0.06698020547628403,0.189632385969162,-0.18082933127880096,-0.12484234571456909,-0.26848506927490234,0.021280867978930473,0.01886373572051525,-0.09448309242725372,0.08444362133741379,-0.07048863172531128,0.2004615217447281,0.002117919037118554,0.02077929861843586,0.22443366050720215,-0.04324732720851898,0.028696957975625992,0.09099698811769485,-0.12358831614255905,0.09016992896795273,-0.027679443359375,0.23611344397068024,-0.10961025953292847,-0.08720950037240982],[0.11371272802352905,-0.040509048849344254,0.19906720519065857,0.09542858600616455,0.2559220790863037,-0.16495606303215027,0.013928950764238834,-0.11087559163570404,-0.04385474696755409,-0.17071901261806488,0.0611664354801178,-0.04776482284069061,-0.13402336835861206,-0.2256288379430771,0.08484264463186264,-0.04221554473042488,0.10848858952522278,0.08980411291122437,0.08294236660003662,-0.06472314149141312,-0.07490165531635284,-0.013414652086794376,-0.18928107619285583,0.17536811530590057,-0.1446278989315033,0.14280904829502106,-0.08106623589992523,0.12264095991849899,0.09781858325004578,-0.07632208615541458,0.16028591990470886,0.016933299601078033],[-0.22517703473567963,0.16040410101413727,0.17122651636600494,0.15930449962615967,-0.12101999670267105,0.29647234082221985,0.127256840467453,0.21882306039333344,0.08417618274688721,-0.11803963780403137,0.1428530067205429,0.23433633148670197,-0.044042833149433136,0.013586699962615967,0.1418077051639557,0.22633104026317596,0.0934910774230957,0.16193920373916626,-0.04541643708944321,-0.10202237218618393,-0.13253362476825714,0.19577911496162415,0.020112192258238792,-0.08790198713541031,-0.06589458137750626,-0.15117008984088898,-0.23811621963977814,0.2117803692817688,-0.1321306824684143,-0.008640596643090248,-0.03877769783139229,-0.06122708320617676]],"b":[-0.013490291312336922,0.15386268496513367,-0.03481736034154892,0.1396392583847046,0.10643898695707321,0.0888548269867897,-0.17079919576644897,-0.059087250381708145,-0.12164870649576187,-0.03223271667957306,-0.03821032866835594,0.02324276603758335,0.14774028956890106,0.09543214738368988,-0.12888644635677338,-0.15319573879241943,0.03782058507204056,0.02227931283414364,0.04121026024222374,-0.09966938942670822,-0.035337939858436584,0.04628169536590576,-0.17849434912204742,0.16168652474880219,0.12551064789295197,-0.09174828231334686,-0.07081262767314911,-0.033219825476408005,0.024936212226748466,-0.03219820559024811,0.19306641817092896,-0.16279131174087524]},{"W":[[-0.20564262568950653,-0.10577113926410675,0.09813286364078522,0.005075639579445124,-0.038815777748823166,0.16746965050697327,-0.15567168593406677,0.04378821700811386,-0.07973315566778183,-0.01203069370239973,-0.14088796079158783,-0.16930322349071503,-0.1200309470295906,0.12220872938632965,-0.15631067752838135,0.0812777653336525,-0.07000970840454102,0.04212738946080208,0.047256313264369965,0.11494504660367966,-0.07905127853155136,0.1037464514374733,0.031145408749580383,0.07750284671783447,0.15427762269973755,0.008524174802005291,-0.123680479824543,0.006116106174886227,0.03043469600379467,0.07016672939062119,0.044761255383491516,0.12600372731685638],[-0.13551196455955505,0.07957544177770615,-0.044719237834215164,-0.15203483402729034,-0.0875140056014061,-0.1495043933391571,0.05177472531795502,-0.11182677745819092,-0.009412207640707493,0.09307806193828583,-0.06645623594522476,0.007364045362919569,-0.022351106628775597,0.04685139283537865,0.04203951358795166,-0.0779726430773735,0.07855545729398727,0.030049530789256096,-0.11062634736299515,-0.06545393913984299,0.013200918212532997,0.010662638582289219,0.016630811616778374,-0.1673937439918518,0.0913374125957489,0.001289420877583325,-0.18040384352207184,0.018284358084201813,-0.08499059081077576,-0.08616604655981064,-0.10046565532684326,-0.10937535762786865],[0.09822908043861389,-0.14113375544548035,0.21478377282619476,-0.15527045726776123,-0.01042686216533184,-0.06246668100357056,-0.09671197831630707,0.05471676215529442,0.10732099413871765,-0.13090677559375763,-0.05960812047123909,0.06021140143275261,0.0022736024111509323,0.09106118232011795,0.024749474599957466,-0.09004907310009003,-0.06767227500677109,0.13301628828048706,-0.034411728382110596,-0.14642155170440674,-0.10120735317468643,-0.07306220382452011,0.16798894107341766,0.13829809427261353,0.1429075300693512,-0.02846280299127102,-0.18115313351154327,0.17722102999687195,-0.05574114993214607,-0.06256509572267532,0.18008920550346375,-0.05620800331234932],[0.014620589092373848,-0.15670156478881836,0.09464042633771896,0.07050018757581711,-0.12701591849327087,0.0982927456498146,0.0036774035543203354,-0.11343908309936523,0.15641818940639496,0.031213561072945595,0.07065702229738235,-0.0815960168838501,-0.06760521233081818,-0.08097455650568008,-0.006775837391614914,0.04469927027821541,-0.09492292255163193,0.20451149344444275,0.10223659127950668,-0.07869046181440353,0.08208920061588287,-0.07053447514772415,0.09060197323560715,0.16326871514320374,-0.12947216629981995,-0.15767645835876465,-0.02346661128103733,0.0529521107673645,-0.19188913702964783,-0.15156592428684235,-0.025688717141747475,0.005499229766428471],[0.09383578598499298,0.032476842403411865,0.01951894536614418,0.045226357877254486,0.013098190538585186,-0.026121554896235466,0.07826855033636093,0.14167435467243195,-0.08203903585672379,-0.09442997723817825,0.022052263841032982,-0.12011510878801346,0.09488169848918915,0.05324745923280716,0.11827697604894638,-0.07405686378479004,-0.04046199098229408,-0.17754653096199036,-0.1854320466518402,0.20879440009593964,-0.15722684562206268,-0.14408515393733978,-0.12497201561927795,0.0431106798350811,0.038540467619895935,-0.03208059072494507,0.015056826174259186,-0.09097014367580414,0.18118947744369507,0.1821192055940628,0.09137124568223953,-0.05698424205183983],[0.07339727133512497,-0.2248985469341278,0.07711466401815414,-0.14523406326770782,0.05369964614510536,-0.13978184759616852,0.03732014074921608,-0.19888031482696533,0.12829238176345825,0.08258172124624252,0.23712658882141113,-0.13583609461784363,0.1539531648159027,-0.10919073224067688,-0.21838608384132385,0.13606727123260498,0.0014199366560205817,-0.05803194269537926,-0.12930412590503693,-0.08598357439041138,0.028453746810555458,0.09360121190547943,0.2123579978942871,-0.5044406652450562,-0.17606358230113983,-0.24372953176498413,0.13802078366279602,-0.051824335008859634,-0.08782071620225906,-0.20773975551128387,-0.13513287901878357,0.09847722202539444],[0.026388129219412804,0.03510509431362152,-0.01658734120428562,0.05094517394900322,-0.03875509276986122,-0.030979648232460022,0.094523124396801,0.15503327548503876,0.15865901112556458,-0.1627737581729889,-0.2129315286874771,-0.020262185484170914,-0.03269387036561966,0.06816834956407547,0.28381937742233276,0.0500962920486927,-0.1781049221754074,-0.06112150102853775,0.08494545519351959,0.11406497657299042,-0.11930441856384277,0.01959407515823841,-0.23664790391921997,-0.023598238825798035,0.12547481060028076,-0.019771168008446693,0.14654812216758728,-0.20274324715137482,0.18855494260787964,0.11244619637727737,0.1309635490179062,-0.016729384660720825],[0.12964899837970734,-0.12221189588308334,-0.1660718023777008,-0.11461623013019562,0.09767042100429535,-0.05618593841791153,-0.015228506177663803,-0.1667545735836029,0.02284984476864338,-0.08953014761209488,-0.13548371195793152,0.08043340593576431,-0.18103034794330597,-0.07479400932788849,-0.07606086134910583,0.1490461528301239,-0.14843183755874634,-0.05833237245678902,0.06240571290254593,-0.1206379234790802,0.14756417274475098,0.11294952034950256,-0.04610887169837952,0.058024127036333084,-0.005859715864062309,0.19782711565494537,0.22707614302635193,-0.20567816495895386,-0.11410047113895416,-0.14926046133041382,-0.14724619686603546,-0.05855536460876465],[-0.15235817432403564,0.13977035880088806,-0.06644756346940994,-0.1516370177268982,-0.10419885814189911,-0.09008274972438812,0.1705356389284134,0.010767139494419098,-0.02602546289563179,-0.06514063477516174,-0.11702137440443039,-0.09133633971214294,0.11848470568656921,0.16616065800189972,0.0443587601184845,-0.014305581338703632,-0.06853872537612915,-0.03185613080859184,0.19869649410247803,-0.18962612748146057,0.02771039865911007,-0.0051947967149317265,0.148606076836586,0.21335740387439728,0.028850747272372246,-0.20064057409763336,-0.043859075754880905,-0.07352174073457718,-0.0481220968067646,0.02705593965947628,0.1284513920545578,-0.0168707687407732],[-0.11804984509944916,-0.3015027344226837,-0.25137919187545776,0.006300198379904032,-0.279511958360672,0.07055716961622238,-0.1820538341999054,-0.2198609858751297,0.1122540533542633,0.14052169024944305,0.1753656268119812,0.20839926600456238,-0.08399439603090286,-0.11495575308799744,-0.3045114576816559,0.12930643558502197,0.15680113434791565,0.19358059763908386,-0.12913267314434052,-0.13098540902137756,0.16852699220180511,-0.20427745580673218,-0.09751763939857483,-0.07517282664775848,-0.19276213645935059,-0.16622759401798248,0.1010085716843605,0.16894623637199402,-0.06981156021356583,-0.25207453966140747,0.09217050671577454,0.23635366559028625],[-0.20216764509677887,-0.002212480641901493,-0.10059598088264465,-0.11210604012012482,0.08117622137069702,0.09754674881696701,0.06095115467905998,-0.1836112141609192,-0.05121874436736107,0.056116633117198944,0.008652249351143837,-0.06994932889938354,-0.07394495606422424,0.20235636830329895,-0.22247008979320526,-0.1589849442243576,0.18722942471504211,-0.06298480182886124,0.13414089381694794,-0.13887035846710205,-0.01623193547129631,-0.07891914993524551,0.1594049632549286,0.16805489361286163,0.030701525509357452,-0.04440535604953766,-0.11997966468334198,-0.03829692676663399,-0.08900246024131775,0.03614681586623192,-0.02325751818716526,0.16987089812755585],[0.08047334104776382,0.006864326540380716,-0.13086774945259094,0.07934044301509857,-0.1754300743341446,0.029346855357289314,0.07815856486558914,0.052568305283784866,0.12075044959783554,0.07269667088985443,-0.07122096419334412,-0.10588674992322922,-0.19359607994556427,0.06023389473557472,0.18020357191562653,-0.12770739197731018,0.03295537084341049,-0.12447939813137054,0.13700319826602936,-0.03811660781502724,0.1585337221622467,0.1268966943025589,0.08066806197166443,0.04578942432999611,0.0023684047628194094,0.12671399116516113,-0.11220799386501312,-0.08125544339418411,0.022196892648935318,0.11637802422046661,-0.08003325760364532,0.044489212334156036],[0.2018038034439087,0.0772375613451004,0.05379527434706688,-0.002167286118492484,0.07418940216302872,-0.07745186239480972,0.16242240369319916,0.013132011517882347,-0.01309503335505724,-0.15266826748847961,0.12981300055980682,-0.002744131488725543,0.10457931458950043,-0.156576007604599,-0.06499488651752472,-0.018544092774391174,-0.18347720801830292,-0.03043532557785511,-0.02736077457666397,-0.027938172221183777,0.12199851870536804,0.11497975140810013,-0.16804350912570953,-0.1888110637664795,0.06209792569279671,-0.050174325704574585,0.09031170606613159,-0.09929469972848892,0.06382546573877335,-0.07190608978271484,-0.028294779360294342,-0.106727734208107],[-0.16056835651397705,-0.10935135185718536,0.07355937361717224,0.08696874231100082,-0.020152276381850243,0.017494158819317818,0.129425048828125,0.11492564529180527,-0.013534728437662125,-0.1370839923620224,0.09236478805541992,0.03516434133052826,-0.10669434070587158,-0.12344500422477722,-0.07868997752666473,0.17897622287273407,-0.13092482089996338,-0.009237950667738914,-0.033685352653265,-0.19530844688415527,-0.13295502960681915,0.12109751254320145,0.1634361892938614,-0.16595101356506348,0.017100581899285316,-0.21157574653625488,0.022057699039578438,-0.06853064149618149,-0.13065586984157562,-0.11725160479545593,0.04276479035615921,0.1673290878534317],[0.01447373814880848,0.016267698258161545,0.0747581198811531,0.004333662800490856,0.0004998681833967566,0.014720725826919079,-0.016708211973309517,0.108152374625206,0.06872391700744629,-0.11823458969593048,0.15000340342521667,0.14963111281394958,-0.056340571492910385,0.09917104989290237,0.06742426007986069,0.12073276937007904,-0.14795811474323273,0.06662554293870926,0.13758093118667603,-0.12048482149839401,-0.12196265161037445,-0.05015767365694046,-0.08461231738328934,-0.009171199053525925,0.01393305603414774,0.032776251435279846,0.19664818048477173,-0.039596084505319595,-0.015001071617007256,-0.13791634142398834,-0.0009156906162388623,-0.18447044491767883],[0.11961294710636139,-0.027524400502443314,-0.17682628333568573,0.06475602090358734,-0.030841447412967682,0.11183729022741318,0.09426791220903397,-0.14756262302398682,-0.1513967365026474,-0.11826831847429276,-0.1298648864030838,0.11194217205047607,-0.13521216809749603,-0.20138244330883026,0.12266846746206284,0.15442532300949097,-0.07433191686868668,-0.26776766777038574,-0.009212595410645008,0.11744599044322968,0.17143896222114563,-0.017217498272657394,0.19281986355781555,-0.17251083254814148,0.0756835788488388,-0.07002034783363342,-0.024159954860806465,0.06687718629837036,-0.014302671886980534,0.11122270673513412,-0.20946772396564484,0.1116054505109787],[0.3145071268081665,-0.00597296142950654,0.056386109441518784,-0.13604751229286194,-0.09154575318098068,0.05366601422429085,0.08024989813566208,-0.10088180750608444,0.07396820187568665,-0.11975148320198059,-0.061102334409952164,0.11401332169771194,-0.16595770418643951,-0.22816307842731476,0.11520140618085861,0.10676900297403336,0.0650274008512497,-0.13419078290462494,-0.14691179990768433,-0.13200773298740387,0.21614745259284973,-0.196270152926445,0.1656983196735382,0.2375461459159851,0.04855950176715851,-0.05636582896113396,0.04970641806721687,-0.19161969423294067,0.14219330251216888,-0.15899498760700226,-0.27679046988487244,-0.11782322824001312],[0.19744755327701569,0.11520139127969742,0.10187792032957077,0.1670282483100891,-0.09592103958129883,-0.11143307387828827,-0.09614675492048264,0.07253381609916687,0.08205988258123398,0.05042971670627594,-0.18065626919269562,0.021429799497127533,-0.10917767137289047,-0.06676715612411499,0.04904155433177948,0.015772374346852303,-0.21765458583831787,0.1261017769575119,-0.10414315015077591,0.09873735159635544,0.10400322824716568,0.07007322460412979,0.08488991856575012,0.1168433278799057,0.12143798172473907,0.08372492343187332,0.14914672076702118,-0.130962535738945,-0.07051677256822586,0.10760577023029327,0.064963698387146,-0.0637580081820488],[-0.058734457939863205,0.03719566389918327,0.06182722747325897,-0.006322495173662901,0.009038906544446945,0.061036042869091034,-0.16990773379802704,-0.016865745186805725,-0.06970175355672836,-0.0998680591583252,0.08598802238702774,0.2072603404521942,0.001237761927768588,0.06244488060474396,-0.05133804306387901,0.05837157368659973,-0.05422339215874672,-0.18405383825302124,0.008898410946130753,0.08853296935558319,0.009077961556613445,0.06775876134634018,0.1017850786447525,0.043073974549770355,-0.060029152780771255,0.06054418161511421,0.06604181975126266,-0.027174552902579308,-0.08302747458219528,-0.004025686532258987,-0.19774281978607178,-0.15820416808128357],[-0.21183785796165466,0.1285449117422104,-0.07448767870664597,-0.04496607556939125,0.03571244329214096,0.1623338758945465,0.07542218267917633,-0.1402575522661209,0.1734936237335205,-0.1739664375782013,0.07455874234437943,0.14480629563331604,0.17318642139434814,-0.006700809113681316,-0.20580953359603882,0.0789995789527893,0.16341543197631836,-0.046427249908447266,-0.0035692346282303333,-0.1394663006067276,0.0653051882982254,0.03080664947628975,0.13142427802085876,-0.06457285583019257,-0.14627262949943542,-0.13018028438091278,-0.17930732667446136,0.009000586345791817,0.028431639075279236,-0.1705148071050644,-0.012237388640642166,-0.12432946264743805],[-0.17445284128189087,-0.060619816184043884,-0.01160886138677597,-0.0833875983953476,0.11795546859502792,0.10427854210138321,0.13939563930034637,0.058015961199998856,-0.004086066037416458,-0.08829877525568008,0.09891137480735779,-0.14176316559314728,0.1406145542860031,-0.13331730663776398,-0.17196249961853027,0.000583904969971627,-0.041405607014894485,0.0751037672162056,0.16431079804897308,0.07098454236984253,0.18295389413833618,-0.033524516969919205,-0.10795094817876816,0.11258004605770111,0.04541075602173805,-0.12061495333909988,-0.0631023645401001,0.19261005520820618,-0.11826243996620178,0.091999351978302,0.11207720637321472,0.11680952459573746],[-0.0034703542478382587,-0.06302037090063095,0.10072868317365646,-0.09893142431974411,-0.09311165660619736,0.17307648062705994,0.1355864554643631,-0.14108522236347198,0.14012925326824188,0.0070161959156394005,0.06925580650568008,0.1538006216287613,0.015071770176291466,-0.023311356082558632,0.047571126371622086,-0.056901030242443085,-0.0010774699039757252,-0.024383146315813065,0.19521546363830566,0.054446905851364136,-0.02903384529054165,-0.001765107037499547,0.03176887705922127,-0.03804052621126175,0.08118592202663422,-0.19171589612960815,-0.046287912875413895,0.010153400711715221,-0.10312923789024353,0.13814611732959747,0.05507884919643402,0.12656570971012115],[-0.18969376385211945,0.050423767417669296,0.09322813153266907,0.079917311668396,-0.014041653834283352,-0.03139033913612366,-0.14034295082092285,0.10103435069322586,0.12467087805271149,0.07336193323135376,0.10353180021047592,0.07267279922962189,0.18819016218185425,0.10186192393302917,-0.0032133720815181732,0.029396509751677513,-0.07514375448226929,0.10882909595966339,0.07651778310537338,-0.1649995744228363,-0.06557601690292358,-0.09319169074296951,-0.12569792568683624,0.1885857880115509,0.20254427194595337,-0.07608842849731445,-0.005063042510300875,0.00656796433031559,0.006179777439683676,-0.045173224061727524,-0.05829235538840294,-0.041133031249046326],[0.2729409635066986,-0.020768510177731514,-0.14017176628112793,0.03075561299920082,-0.2667565643787384,0.020919885486364365,0.10129664838314056,0.006955626420676708,0.005808135494589806,-0.14405114948749542,-0.0006789287435822189,0.1630098670721054,-0.1315331608057022,-0.11524052172899246,0.1862880289554596,0.10020358115434647,0.07377712428569794,-0.2296573966741562,0.11545094102621078,-0.0411781370639801,0.08620980381965637,0.1052607074379921,-0.08229832351207733,0.049258749932050705,-0.23522639274597168,0.16708824038505554,0.12326527386903763,-0.04145529493689537,-0.04056207463145256,0.05049353465437889,-0.19673538208007812,0.008424852043390274],[0.07688818126916885,-0.10935520380735397,0.00044939524377696216,0.02842036262154579,0.06823164969682693,0.012963829562067986,0.14974607527256012,-0.055613696575164795,0.05172464996576309,0.09409108757972717,-0.012998659163713455,0.0837131142616272,0.14260312914848328,0.12344436347484589,-0.10896565765142441,0.12773221731185913,-0.06870226562023163,0.12353109568357468,0.06187915802001953,0.09754842519760132,-0.15977758169174194,0.040379319339990616,-0.11175461113452911,0.17343629896640778,0.12430042773485184,-0.19065730273723602,-0.07117185741662979,0.09369002282619476,0.04405154660344124,0.13908721506595612,0.11867500841617584,0.06675520539283752],[0.028098685666918755,-0.15740390121936798,0.15079885721206665,-0.04201531782746315,0.1281733363866806,0.06226346269249916,-0.017288051545619965,0.11244561523199081,-0.11084180325269699,0.027274319902062416,0.10760854929685593,-0.08117642998695374,0.08095012605190277,-0.13941717147827148,-0.16910338401794434,0.0660586953163147,0.13114629685878754,-0.11580076068639755,0.08494272828102112,-0.01801903359591961,0.17536374926567078,-0.16447892785072327,-0.028646865859627724,-0.03197052329778671,-0.06976678222417831,-0.07898635417222977,-0.2133149355649948,0.1908768117427826,-0.08815279603004456,0.04347095638513565,-0.0985812097787857,0.04561111330986023],[-0.05636557564139366,0.15051110088825226,0.11559835821390152,0.17510434985160828,-0.07111113518476486,0.08540141582489014,-0.1292235255241394,0.09950676560401917,-0.006612572818994522,-0.1489384025335312,-0.205243319272995,-0.16292554140090942,0.017164424061775208,-0.10367169231176376,0.0137307308614254,0.18644443154335022,-0.1031775176525116,0.015469538047909737,-0.06926517188549042,0.15802164375782013,0.054212503135204315,0.11505614221096039,0.018941635265946388,-0.0902930498123169,0.13731828331947327,0.03586212545633316,-0.0550554059445858,-0.004401239100843668,-0.004007370676845312,-0.11093782633543015,0.03486478328704834,-0.100255586206913],[-0.11790651828050613,-0.12940554320812225,-0.06427890062332153,-0.10126984119415283,-0.017667504027485847,0.17769591510295868,-0.12199413031339645,-0.11696745455265045,-0.10373509675264359,-0.0037354598753154278,0.07361406087875366,-0.1320265531539917,0.11351998895406723,-0.1412360668182373,0.06483262777328491,0.06346806138753891,0.007515627425163984,-0.004677418153733015,0.09720340371131897,0.09778115898370743,-0.12996947765350342,-0.0697881430387497,0.20061928033828735,-0.20628812909126282,-0.15980204939842224,-0.12955674529075623,-0.01454016100615263,0.008223218843340874,-0.17114494740962982,-0.15762145817279816,0.03311099484562874,0.1716855764389038],[0.26163920760154724,-0.04716980457305908,0.006302494555711746,-0.1292983740568161,0.05700748413801193,0.16766464710235596,0.08146445453166962,-0.0654955804347992,0.12652727961540222,-0.194773331284523,-0.030537685379385948,0.0025821691378951073,-0.19554482400417328,-0.1541357785463333,-0.05908140167593956,0.07635558396577835,-0.033788617700338364,0.0033648202661424875,-0.06753793358802795,0.1695239394903183,0.04243249073624611,0.12524551153182983,0.18590328097343445,-0.07112794369459152,-0.17150934040546417,0.1587756872177124,0.2457396239042282,-0.2027246654033661,0.027701029554009438,-0.055555421859025955,0.11153075844049454,0.1199202761054039],[0.06608837097883224,0.10093241184949875,0.008758779615163803,0.15658797323703766,-0.05225623399019241,0.019878465682268143,-0.056938134133815765,-0.1435072124004364,-0.07915382832288742,0.004821691196411848,-0.012557066977024078,-0.14185994863510132,0.00246041058562696,0.05988052114844322,-0.2115207016468048,0.09075836092233658,-0.14929519593715668,0.05756665766239166,-0.137379452586174,-0.1817353367805481,-0.03568990156054497,0.16472052037715912,0.17741741240024567,0.16087965667247772,0.20276519656181335,-0.15860548615455627,0.056852541863918304,0.15797942876815796,-0.21023331582546234,-0.16205506026744843,0.09327434748411179,0.051696065813302994],[-0.038785215467214584,-0.16092266142368317,0.08280478417873383,0.030729368329048157,-0.035271745175123215,-0.17777210474014282,0.15576311945915222,-0.11036200076341629,0.07621823251247406,-0.0006307273870334029,-0.007935564033687115,0.11791718006134033,-0.0655888020992279,-0.09443870186805725,0.2111472487449646,-0.11057314276695251,0.048266638070344925,-0.10516223311424255,-0.08466752618551254,0.1453751027584076,0.035748451948165894,-0.18059483170509338,0.16928954422473907,-0.16720819473266602,0.0929596796631813,-0.004704346414655447,0.2338128685951233,0.0023061553947627544,0.015913471579551697,0.0838625505566597,-0.037183139473199844,-0.12022846937179565],[0.0464230552315712,0.09945155680179596,0.009277998469769955,0.16090935468673706,0.023924576118588448,-0.0712684914469719,-0.11749769747257233,0.09204690903425217,-0.07158869504928589,0.023757746443152428,-0.14566868543624878,-0.017665306106209755,-0.08818262815475464,0.09950604289770126,0.07619082927703857,0.05263563618063927,-0.03166329115629196,-0.0976160317659378,-0.05879873037338257,-0.13703632354736328,0.143498957157135,-0.0893867164850235,0.053940340876579285,0.29939141869544983,0.11290714889764786,-0.2253844439983368,-0.06401199847459793,-0.01697799749672413,0.08094937354326248,-0.05136237293481827,0.02863248996436596,0.1929384171962738]],"b":[0.053815409541130066,0.06246940419077873,-0.048955779522657394,0.1108175739645958,0.024480557069182396,-0.04890652000904083,0.03322353586554527,-0.1438121795654297,0.022472461685538292,0.08895496279001236,-0.15596815943717957,-0.10072726756334305,0.09899676591157913,0.008077707141637802,-0.0037666140124201775,0.006332074292004108,-0.09205367416143417,0.14039863646030426,-0.036857232451438904,-0.06840323656797409,0.10158101469278336,-0.14144110679626465,-0.02651974931359291,0.024946795776486397,-0.04209922254085541,0.1025242730975151,-0.16240379214286804,-0.06471911072731018,-0.08145005255937576,0.1669774204492569,0.06186166778206825,-0.11352069675922394]},{"W":[[0.07257787138223648,-0.0009589649271219969,0.17761653661727905,0.127486452460289,-0.1355467140674591,0.1816624402999878,-0.07898912578821182,-0.09328658133745193,0.07739686220884323,0.2531660795211792,0.09289002418518066,-0.18974530696868896,-0.05642739310860634,0.16165310144424438,-0.005488361697643995,-0.1309320032596588,-0.1904887706041336,-0.12816989421844482,-0.07099370658397675,0.062093619257211685,0.10434045642614365,0.1505110114812851,0.15489859879016876,-0.04726826772093773,0.09179425239562988,0.14022129774093628,-0.16812650859355927,0.1131313219666481,-0.16811928153038025,0.15218277275562286,-0.09392587095499039,0.2030099630355835]],"b":[0.011207756586372852]}]}