{"key":"heat","name":"Heat Equation","description":"Linear diffusion equation \u2014 thermal conduction","latex_equation":"\\frac{\\partial u}{\\partial t} = \\alpha \\frac{\\partial^2 u}{\\partial x^2}","latex_ic":"u(x, 0) = \\sin(\\pi x)","latex_bc":"u(-1, t) = u(1, t) = 0","latex_domain":"x \\in [-1, 1], \\; t \\in [0, 1]","x_min":-1.0,"x_max":1.0,"t_min":0.0,"t_max":1.0,"y_min":-1.2,"y_max":1.2,"y_label":"Temperature u(x, t)","params":{"alpha":0.05},"layers":[{"W":[[0.6886464953422546,0.7818029522895813],[0.05879461392760277,0.6564316749572754],[-0.4557357132434845,0.06599229574203491],[-0.4599721133708954,0.6011818051338196],[0.6366180777549744,-0.350134938955307],[0.7909420132637024,0.025884637609124184],[0.6103840470314026,0.19641752541065216],[0.48015257716178894,-0.04961976781487465],[0.726389467716217,0.1862953007221222],[-0.4908996820449829,0.1740155667066574],[-0.376051664352417,-0.255281925201416],[-0.38867220282554626,0.412124902009964],[-0.6473062634468079,-0.3843008875846863],[0.08301173150539398,-0.2504546046257019],[-0.14850382506847382,-0.6138215065002441],[0.7299357652664185,-0.5526745319366455],[0.6916894912719727,0.23198983073234558],[-0.3572770953178406,0.6905268430709839],[0.3145494759082794,0.9200502038002014],[0.14697523415088654,-0.30557021498680115]],"b":[0.19891811907291412,-0.36909157037734985,0.4498022496700287,0.7915398478507996,0.373873233795166,-0.4965513050556183,0.3769230544567108,-0.007437697611749172,0.41391482949256897,-0.47619450092315674,-0.6694558262825012,-0.1579759567975998,-0.8573927879333496,0.4799962341785431,0.19795697927474976,0.004915796685963869,0.13037438690662384,0.3578035533428192,0.541166365146637,-0.530863881111145]},{"W":[[0.05872619152069092,-0.23621734976768494,0.132225900888443,-0.04268372431397438,0.06490717083215714,-0.13447706401348114,0.1916772723197937,-0.16630472242832184,-0.1232302337884903,-0.12392514199018478,0.2001522332429886,0.08689607679843903,0.20977504551410675,-0.1620585322380066,-0.13417254388332367,-0.18998223543167114,-0.13975580036640167,0.08024778962135315,0.07114120572805405,0.16436749696731567],[-0.1022844985127449,-0.16854804754257202,0.05500325933098793,-0.11289364844560623,0.17939135432243347,0.10087695717811584,0.17557139694690704,-0.07135788351297379,-0.07383248955011368,0.01072933804243803,-0.0026925820857286453,-0.11616621166467667,0.08112765848636627,0.13501186668872833,-0.34027305245399475,-0.08755721896886826,0.24336381256580353,-0.21938224136829376,-0.02432628720998764,-0.2239573448896408],[-0.38745230436325073,-0.38725489377975464,-0.1384718418121338,-0.3100946843624115,0.13593409955501556,-0.09825676679611206,-0.264887273311615,-0.013770649209618568,-0.29653847217559814,-0.26750385761260986,0.25948628783226013,-0.22950075566768646,0.19611306488513947,-0.09023196250200272,0.2786414325237274,0.11342409998178482,-0.06663143634796143,-0.6492010951042175,-0.3302779197692871,-0.030665859580039978],[-0.0526847243309021,-0.26878365874290466,-0.1335991621017456,-0.24462592601776123,-0.10472852736711502,-0.06010240688920021,-0.07741789519786835,-0.096317820250988,0.17795507609844208,-0.08095806837081909,0.19957582652568817,-0.03431335464119911,-0.17855128645896912,0.12935808300971985,0.07759201526641846,-0.05781837925314903,-0.1967122107744217,-0.42660239338874817,0.03871078044176102,0.0201160479336977],[0.04553695768117905,-0.15526628494262695,0.1018076092004776,-0.2065984010696411,-0.04540381208062172,0.09535251557826996,0.10576508194208145,0.19770729541778564,0.1887456625699997,-0.17102296650409698,0.06438330560922623,-0.09259359538555145,-0.01758912391960621,-0.22296391427516937,0.13403061032295227,-0.17243359982967377,0.10170377790927887,-0.02761107310652733,0.07295147329568863,-0.0891055315732956],[0.20981810986995697,0.05977232754230499,-0.13618844747543335,-0.30001118779182434,0.1036771684885025,0.2227569967508316,-0.09337793290615082,0.3104391396045685,0.05471523478627205,-0.1573253571987152,-0.11541585624217987,-0.07961662113666534,0.12534309923648834,-0.1191226914525032,-0.3089756667613983,-0.08138412982225418,-0.14026153087615967,-0.008957219310104847,0.1898490935564041,-0.15444152057170868],[-0.0006244648830033839,0.041417721658945084,-0.018847491592168808,-0.1269984245300293,0.10840443521738052,0.17155149579048157,0.06254123896360397,-0.02209186740219593,-0.08359865099191666,0.029985127970576286,-0.02223791740834713,-0.07318409532308578,0.16828596591949463,0.14409010112285614,-0.007929675281047821,-0.06757250428199768,-0.020662609487771988,-0.10364268720149994,0.026439925655722618,0.09753420948982239],[-0.19249092042446136,-0.14585626125335693,0.18762065470218658,0.0782909169793129,0.031008023768663406,-0.1786850392818451,-0.13006187975406647,-0.21489542722702026,-0.047051943838596344,0.10245887190103531,0.19246552884578705,0.07615360617637634,-0.1433725208044052,-0.1713307648897171,0.0843120738863945,0.29635000228881836,0.05858242139220238,-0.1329333335161209,-0.00628319289535284,-0.04589252173900604],[-0.19611585140228271,0.28698602318763733,-0.15005844831466675,-0.058756060898303986,-0.24543987214565277,0.15923769772052765,0.12221924960613251,0.046646758913993835,-0.1966058909893036,-0.1799968183040619,-0.11459415405988693,0.20551803708076477,0.18948902189731598,0.12044553458690643,0.03217339888215065,0.012147294357419014,-0.03355139493942261,-0.07253079116344452,-0.2854853868484497,-0.15946996212005615],[0.1683739721775055,-0.0008058091625571251,-0.05658498778939247,-0.24985645711421967,-0.2693057358264923,-0.0938744768500328,-0.4360356032848358,-0.16838030517101288,-0.34369874000549316,0.44041183590888977,0.16061338782310486,0.04826744273304939,0.20266331732273102,-0.16712406277656555,-0.11196815222501755,-0.27394434809684753,-0.033352453261613846,-0.02105219103395939,-0.05897245183587074,0.22374080121517181],[0.12187039852142334,-0.10816958546638489,0.11622251570224762,-0.11613506823778152,0.06869110465049744,0.26513582468032837,-0.037241339683532715,0.019170891493558884,-0.0677151307463646,-0.19089099764823914,0.09593307226896286,-0.20973408222198486,0.1277398020029068,0.11339253932237625,0.09994998574256897,-0.07726224511861801,-0.204019695520401,0.05265241488814354,0.15553955733776093,-0.21942204236984253],[-0.09049449115991592,-0.24041077494621277,0.32840409874916077,0.10710226744413376,-0.07678359001874924,-0.6666346192359924,-0.21851091086864471,-0.11118500679731369,0.19563548266887665,0.04254555702209473,-0.01311219297349453,0.09925232827663422,-0.18136686086654663,-0.040671784430742264,0.3312935531139374,-0.1068611666560173,-0.181910902261734,0.20154263079166412,-0.0831894502043724,-0.2192789763212204],[0.026202082633972168,0.0343598909676075,0.0044091371819376945,-0.06829430162906647,-0.19431716203689575,0.05904313549399376,-0.11625794321298599,-0.04766424000263214,-0.0811796486377716,0.094821035861969,0.27484285831451416,0.17869402468204498,-0.12873151898384094,0.09345424175262451,0.32805585861206055,0.09458529949188232,0.15055204927921295,0.36304375529289246,-0.10128583759069443,0.05745590850710869],[-0.3486648201942444,-0.13296997547149658,0.34936919808387756,0.33554673194885254,-0.2569233179092407,-0.40608733892440796,-0.3183864951133728,-0.4218790829181671,-0.34781453013420105,-0.030237166211009026,0.14635303616523743,0.10624547302722931,-0.055500540882349014,0.009744499810039997,0.310634970664978,-0.28828179836273193,-0.20913636684417725,0.338813841342926,-0.013776397332549095,-0.19399981200695038],[-0.014508557505905628,-0.34040367603302,-0.07808933407068253,-0.19408215582370758,-0.17249511182308197,-0.1967642605304718,0.2200525999069214,-0.11438794434070587,-0.1430516541004181,0.03800877183675766,0.05826540291309357,0.09108444303274155,0.16664773225784302,0.1676217019557953,0.0229055006057024,0.010055378079414368,0.13692277669906616,-0.07567042112350464,-0.14928196370601654,0.21069376170635223],[-0.04831549897789955,0.2346622794866562,-0.18654927611351013,0.11437886208295822,0.0884062722325325,0.041621919721364975,0.0590294785797596,-0.1419188380241394,-0.20724156498908997,-0.02312716655433178,0.16203883290290833,0.1664910614490509,-0.16730637848377228,-0.05223814770579338,-0.6386436820030212,-0.15726512670516968,0.046058639883995056,0.4622136950492859,0.2940022349357605,-0.2736274302005768],[0.19274628162384033,-0.1390307992696762,0.17983131110668182,0.24870552122592926,0.03267848119139671,0.0785316675901413,-0.1792202889919281,-0.14046350121498108,0.15207260847091675,-0.04353044554591179,-0.041036080569028854,-0.09450197964906693,0.14755448698997498,0.17177647352218628,0.19035901129245758,-0.07091175764799118,-0.1652255654335022,0.10438122600317001,0.06318454444408417,-0.129033163189888],[-0.1451430320739746,0.08933845907449722,0.13722717761993408,0.09363597631454468,-0.22921304404735565,-0.3936745822429657,-0.3672470450401306,-0.2901950776576996,-0.2783520519733429,0.2560359239578247,0.028915775939822197,0.0762324258685112,0.3548053205013275,-0.06115441396832466,0.2431926429271698,-0.3103580176830292,-0.239915132522583,0.28238043189048767,-0.2423831969499588,-0.17060185968875885],[-0.022219181060791016,-0.16943693161010742,-0.317250519990921,0.056792959570884705,0.24193912744522095,0.26548877358436584,-0.012667747214436531,-0.07237787544727325,-0.06583945453166962,-0.014307123608887196,0.07491123676300049,-0.13953855633735657,-0.11414264142513275,0.08603820949792862,-0.3181785047054291,0.18218624591827393,-0.06533626466989517,-0.134843647480011,-0.01972167380154133,0.062410250306129456],[-0.08093898743391037,0.20229721069335938,-0.032952092587947845,0.1697867214679718,0.2843368947505951,-0.07197045534849167,-0.08304032683372498,0.2638537585735321,0.2411646693944931,-0.256814569234848,-0.0990772470831871,-0.27837321162223816,-0.28054773807525635,0.05229920893907547,-0.06305678188800812,0.07291015237569809,-0.020374532788991928,0.11689503490924835,0.12393158674240112,-0.15367372334003448]],"b":[0.00043721203110180795,0.07432325184345245,0.09124115109443665,-0.19366371631622314,0.05678453668951988,-0.14623141288757324,-0.21030592918395996,-0.16468319296836853,0.1544606238603592,0.041880883276462555,0.19602958858013153,0.2196919023990631,0.13339753448963165,0.11731405556201935,-0.11050809174776077,0.13925701379776,-0.10322027653455734,-0.19528432190418243,-0.07659560441970825,0.08211362361907959]},{"W":[[0.15535868704319,-0.14074140787124634,-0.08842336386442184,0.05183197930455208,-0.1640266627073288,-0.18451820313930511,0.12773600220680237,0.014777402393519878,0.22833304107189178,0.2341337651014328,0.04586503282189369,0.08277666568756104,0.07378587126731873,0.1371898204088211,0.002663517137989402,0.09740718454122543,0.0831083282828331,0.2973591685295105,-0.05273325741291046,-0.11534613370895386],[-0.24243663251399994,0.09891914576292038,-0.03662371635437012,0.12768492102622986,0.31371092796325684,0.27356627583503723,-0.15573517978191376,-0.26037296652793884,-0.18197599053382874,-0.1900271624326706,0.08404029905796051,-0.35188373923301697,-0.1309899240732193,-0.39568009972572327,-0.18504628539085388,-0.41405948996543884,0.19902238249778748,-0.48360660672187805,0.2739448547363281,0.0608983039855957],[-0.03872612863779068,0.1717086285352707,-0.007503787986934185,0.153878852725029,0.20853428542613983,-0.019630106166005135,0.17477476596832275,-0.03083183243870735,0.011727686040103436,-0.22286617755889893,0.06571020931005478,-0.39875054359436035,-0.18077880144119263,0.4343772530555725,0.14066682755947113,-0.083260677754879,-0.34185025095939636,0.21195368468761444,-0.0195787250995636,0.22054347395896912],[-0.11861728131771088,-0.05534213036298752,-0.04682476446032524,0.04219941422343254,0.20406801998615265,0.07444792985916138,0.1641988456249237,0.16574430465698242,0.14528924226760864,-0.21303690969944,-0.06951992213726044,-0.08003225922584534,-0.14528001844882965,0.23724769055843353,-0.0425717867910862,-0.1563975065946579,0.023083986714482307,0.12296430766582489,0.14454157650470734,0.22422043979167938],[0.12752920389175415,0.26975715160369873,-0.009755285456776619,-0.21212629973888397,-0.1308233141899109,-0.0839640349149704,-0.21166262030601501,-0.14481016993522644,-0.20257368683815002,-0.21525265276432037,-0.10785660892724991,-0.3569693863391876,-0.15450531244277954,0.06500405818223953,0.16578099131584167,-0.09961595386266708,-0.09328271448612213,0.1195433959364891,-0.1020861491560936,-0.07850132882595062],[0.19428637623786926,-0.35056954622268677,0.06121831759810448,0.22002363204956055,-0.034264110028743744,-0.09379605948925018,-0.1441194862127304,0.07766939699649811,0.027660531923174858,0.2938272953033447,0.015864834189414978,0.4884544610977173,0.07826171815395355,-0.11696185916662216,-0.06123477593064308,-0.12291216105222702,0.06472736597061157,-0.2821296155452728,0.05723055824637413,-0.04862475022673607],[-0.1275942325592041,0.0712166279554367,-0.27139565348625183,-0.12005282938480377,-0.058501482009887695,-0.18230845034122467,-0.18014764785766602,-0.037619397044181824,0.17663797736167908,0.4513414204120636,0.13057217001914978,0.04715128615498543,-0.04906150698661804,0.04598960652947426,0.06830824911594391,0.14294885098934174,0.0695876032114029,-0.3044581413269043,-0.1447209119796753,0.20345145463943481],[-0.0881650447845459,-0.0012230930151417851,-0.2754116654396057,-0.16355039179325104,0.03024323657155037,-0.17387984693050385,-0.08673807233572006,0.036390241235494614,-0.2254410982131958,-0.059829533100128174,-0.08695849776268005,-0.010892230086028576,0.09579767286777496,0.2985151410102844,-0.11478336155414581,-0.07215487211942673,-0.142180398106575,-0.01553194411098957,-0.2555082440376282,0.012039141729474068],[0.022839894518256187,-0.1705373376607895,0.18250969052314758,0.11924891173839569,-0.1692153811454773,-0.027734948322176933,0.09761344641447067,-0.1039423942565918,-0.06782574951648712,-0.35151833295822144,0.20620237290859222,-0.3473397493362427,0.05843109264969826,0.20751620829105377,0.018302518874406815,0.08492880314588547,-0.07437057048082352,0.029815925285220146,0.04802617430686951,0.2343340963125229],[-0.152268186211586,0.03355005010962486,-0.21793153882026672,0.12100696563720703,0.07613597810268402,0.08219996094703674,0.12944069504737854,-0.01240939274430275,0.08986955136060715,-0.30791062116622925,-0.046319663524627686,-0.10314261168241501,0.1310947984457016,0.24314074218273163,-0.1584106981754303,0.19649623334407806,-0.10900911688804626,0.030915258452296257,-0.1534179449081421,-0.0323931947350502],[0.11322038620710373,0.043114639818668365,-0.23385338485240936,0.002683933125808835,-0.015216249041259289,0.4132445454597473,-0.18895475566387177,-0.20588059723377228,-0.3060517907142639,-0.20719316601753235,0.10111059993505478,0.006276208441704512,-0.1482667326927185,0.38735586404800415,-0.016330990940332413,0.17487533390522003,0.07898467779159546,0.25127050280570984,-0.10794056206941605,0.28272581100463867],[0.19218754768371582,-0.16507716476917267,-0.13931280374526978,-0.2009512484073639,-0.0503922775387764,-0.4842025339603424,-0.043783530592918396,0.21259896457195282,-0.19442136585712433,0.2786715030670166,-0.040781598538160324,0.48995912075042725,0.3732496201992035,-0.4635567367076874,0.23102742433547974,0.1520930528640747,0.2637784779071808,-0.4551461338996887,-0.26839321851730347,-0.13999514281749725],[-0.04523675888776779,0.1298806369304657,0.09020914137363434,0.17893913388252258,-0.0747670829296112,0.14235731959342957,0.09174387156963348,-0.20370067656040192,-0.1963408887386322,-0.280793696641922,0.1750505566596985,-0.30573010444641113,-0.2732023298740387,0.3609263002872467,0.1002689003944397,0.2798725366592407,-0.17578674852848053,0.03712667524814606,0.13747446238994598,0.2313780039548874],[0.11021872609853745,0.106424480676651,0.10910772532224655,0.23838520050048828,-0.09284232556819916,0.001540366210974753,0.20015403628349304,-0.18836745619773865,-0.070628821849823,0.009353051893413067,0.08435568958520889,-0.15296007692813873,-0.2575686573982239,0.1427098512649536,0.19753913581371307,-0.3343551754951477,-0.08992475271224976,0.24562972784042358,-0.08715054392814636,0.24677562713623047],[-0.09476683288812637,-0.108338862657547,-0.14932052791118622,-0.21367956697940826,-0.2930935323238373,0.027695845812559128,-0.06358761340379715,-0.16060268878936768,-0.10129465907812119,0.42028671503067017,0.09409075230360031,0.33081454038619995,0.03762087598443031,-0.31400251388549805,-0.05906994640827179,0.2001567780971527,0.0026199317071586847,-0.20718228816986084,-0.15411274135112762,-0.04413248598575592],[0.037997107952833176,-0.12268044054508209,0.1071636751294136,0.1204891949892044,-0.1505488157272339,-0.32216647267341614,0.1073293685913086,0.12189694494009018,-0.04538365453481674,0.5027531981468201,-0.1405455619096756,0.32584038376808167,0.25707098841667175,-0.4141269624233246,0.18394769728183746,-0.20128189027309418,-0.10812953114509583,-0.1960396021604538,-0.206348717212677,0.15090370178222656],[-0.06661075353622437,0.13705915212631226,-0.1999863088130951,0.1350938230752945,-0.0521397739648819,-0.18588539958000183,0.01843184418976307,0.10441995412111282,0.21942447125911713,-0.05249785631895065,-0.0934126228094101,0.12688052654266357,0.09797821193933487,-0.009308048523962498,0.11466175317764282,-0.1308291256427765,0.12427417188882828,0.11744847148656845,-0.07720766216516495,0.16773341596126556],[0.10045772790908813,0.1877337247133255,-0.1460360735654831,-0.1387408971786499,-0.07534380257129669,-0.1058160588145256,0.07569979131221771,-0.11593662947416306,0.14235621690750122,0.11582087725400925,0.14693337678909302,0.19960947334766388,-0.08824972808361053,-0.29692205786705017,-0.1655336618423462,0.16852635145187378,-0.05462844297289848,-0.1665482223033905,-0.0441499724984169,-0.13475406169891357],[0.04939557611942291,-0.2315138876438141,-0.21836432814598083,-0.23662562668323517,-0.0665414109826088,-0.08880246430635452,-0.005908040329813957,-0.058461323380470276,0.11567945033311844,0.29174768924713135,0.10840689390897751,-0.06732503324747086,-0.15476059913635254,0.042403221130371094,-0.1376628279685974,0.1861320286989212,0.17432354390621185,0.08432941883802414,0.18075668811798096,0.22388792037963867],[0.04756657034158707,-0.23393525183200836,0.1983577162027359,-0.09705343097448349,-0.10777263343334198,0.18179622292518616,0.17777715623378754,0.07324667274951935,0.04668397828936577,0.0375632643699646,-0.03478569537401199,0.2891501784324646,0.16777704656124115,-0.08350261300802231,-0.03644893690943718,-0.09220673143863678,0.12222569435834885,-0.06434568017721176,0.09924153238534927,-0.06445291638374329]],"b":[0.07860272377729416,0.1327684223651886,0.011093048378825188,0.1200951412320137,0.16123729944229126,0.16785655915737152,0.18320491909980774,-0.002162284916266799,-0.18760566413402557,0.02447531931102276,0.026545610278844833,-0.01798589527606964,-0.02772403135895729,0.008928033523261547,0.22635525465011597,0.05061693489551544,-0.06349065899848938,-0.06799638271331787,-0.025156471878290176,-0.09254515916109085]},{"W":[[0.3015510141849518,0.03537384793162346,0.39458605647087097,0.013828357681632042,0.07724136114120483,0.05684025213122368,-0.2311566025018692,0.07785515487194061,0.01083456166088581,-0.1165015697479248,-0.03081570938229561,-0.007225469220429659,0.33422741293907166,0.15050777792930603,0.1479753702878952,-0.29782378673553467,0.012963458895683289,-0.007831991650164127,-0.031627245247364044,-0.02063409425318241],[-0.29989445209503174,0.18864752352237701,-0.39433786273002625,-0.042086463421583176,0.1839790791273117,-0.03494485095143318,-0.030018018558621407,0.08509150892496109,-0.12714284658432007,-0.04492449015378952,0.04007876291871071,0.16606369614601135,-0.35699331760406494,-0.23030047118663788,0.05016258358955383,0.13620524108409882,-0.18235459923744202,0.22746646404266357,0.04333559796214104,-0.087014339864254],[-0.263144850730896,0.03232584521174431,-0.29862549901008606,-0.09582441300153732,-0.24745972454547882,0.08135067671537399,-0.15521115064620972,-0.3139921724796295,-0.19338123500347137,0.030361346900463104,-0.36297956109046936,0.12843245267868042,-0.04019720479846001,0.06989914178848267,0.19638608396053314,0.06945604085922241,-0.23463569581508636,0.0017209491925314069,0.12921279668807983,0.02711171843111515],[-0.2396051585674286,0.10671565681695938,-0.47048041224479675,-0.13582557439804077,-0.11066596210002899,0.2548370659351349,0.13308528065681458,-0.042009610682725906,-0.04778198152780533,-0.07165186107158661,-0.05305507406592369,0.3786556124687195,-0.18087607622146606,-0.22420461475849152,0.3336780071258545,0.2205875664949417,-0.11816740036010742,0.3048057556152344,0.23770137131214142,0.19650302827358246],[0.1506578028202057,-0.1547604501247406,0.3015598654747009,0.21110914647579193,-0.1798906922340393,-0.043974243104457855,-0.1626008152961731,0.12121287733316422,0.10725319385528564,-0.02676590345799923,0.14031235873699188,-0.10180706530809402,0.11717107146978378,-0.14548486471176147,0.11938080936670303,-0.3270251452922821,0.03711218386888504,-0.05818029120564461,0.0006927357753738761,-0.1974676549434662],[0.1942700445652008,-0.18253928422927856,0.06624752283096313,0.056963831186294556,-0.08764377236366272,-0.12150074541568756,-0.08762616664171219,-0.00409944960847497,-0.07761523127555847,-0.04518132656812668,0.21020998060703278,-0.378896564245224,0.022249942645430565,0.037283241748809814,-0.020859718322753906,-0.09419800341129303,-0.10834956914186478,-0.0033413174096494913,0.14829657971858978,0.13973258435726166],[-0.29289740324020386,-0.00017496560758445412,-0.41191527247428894,-0.18431399762630463,0.07476095110177994,0.0005236677243374288,0.11310169845819473,-0.19343221187591553,0.0021155800204724073,-0.15938708186149597,-0.055226217955350876,0.1352652907371521,-0.2392023205757141,-0.25557881593704224,0.08113747090101242,0.44333142042160034,0.04727213457226753,-0.01712748594582081,0.0027319625951349735,-0.03557945042848587],[-0.267246812582016,0.26948580145835876,-0.19435790181159973,0.04187145456671715,-0.11323634535074234,-0.08372875303030014,0.059362299740314484,0.01498366892337799,0.027175938710570335,-0.11551567167043686,0.07936645299196243,0.1729612499475479,-0.2998952567577362,-0.15351229906082153,0.2846338152885437,0.21483956277370453,-0.07497284561395645,-0.009066510014235973,-0.0712018609046936,-0.208086296916008],[-0.05761786922812462,0.044794417917728424,0.3938197195529938,0.2286750078201294,-0.1254032701253891,0.0859580785036087,-0.1534697711467743,0.23193541169166565,0.1934203952550888,0.2005866914987564,0.33838874101638794,-0.0737910121679306,0.18458636105060577,0.13690219819545746,-0.142053484916687,-0.13924790918827057,-0.015724217519164085,-0.09841505438089371,-0.1700596660375595,-0.04094408079981804],[-0.2063034325838089,0.03317416086792946,-0.41766104102134705,-0.2721738815307617,-0.06488827615976334,0.2594187259674072,0.2327370047569275,0.08860593289136887,-0.1872909665107727,-0.261730819940567,-0.09499683231115341,0.41168203949928284,-0.4591802954673767,0.004222886171191931,0.28176644444465637,0.3055134117603302,-0.14944663643836975,0.30586159229278564,0.08468684554100037,0.15202291309833527],[-0.028978515416383743,0.039397452026605606,0.026903754100203514,0.2244490683078766,-0.06184922903776169,0.1110776737332344,0.03232450410723686,0.15910258889198303,-0.01178807020187378,0.11137329787015915,0.07309814542531967,-0.39908692240715027,0.06473031640052795,0.2045416384935379,-0.11467139422893524,-0.1450107842683792,-0.024959219619631767,0.0794726014137268,0.162132129073143,0.09988076239824295],[-0.20887409150600433,-0.06661555916070938,-0.34506770968437195,-0.3018697500228882,0.10599862039089203,-0.16162574291229248,0.20509415864944458,0.27548855543136597,-0.007246232125908136,0.09696455299854279,-0.34536927938461304,0.5762196779251099,-0.2578926980495453,-0.45833492279052734,0.4467618763446808,0.1353689432144165,-0.06885213404893875,0.4543834328651428,-0.02470291405916214,-0.20724163949489594],[-0.048017460852861404,0.03834415599703789,-0.1353568732738495,-0.2090572863817215,-0.035730987787246704,-0.07627198845148087,-0.11109008640050888,-0.3458268344402313,0.10093312710523605,0.0033681706991046667,-0.38948363065719604,0.3779936730861664,-0.121120885014534,0.022316033020615578,-0.08772221952676773,0.2848474383354187,0.16276782751083374,0.21973370015621185,-0.21501928567886353,0.20079953968524933],[-0.04303348436951637,0.18064115941524506,-0.03769715502858162,0.159897118806839,-0.22021344304084778,0.2421114444732666,-0.1354273110628128,-0.062379587441682816,-0.18914242088794708,-0.07042246311903,-0.1683444380760193,0.20166794955730438,-0.2278202474117279,-0.029398972168564796,0.28697025775909424,0.36199620366096497,0.08905122429132462,0.16993294656276703,0.15871798992156982,-0.020046666264533997],[0.12036311626434326,-0.031325142830610275,-0.009822350926697254,-0.17215615510940552,0.06058865413069725,-0.10776925086975098,-0.011000053957104683,0.07009854912757874,0.053246159106492996,0.1728295534849167,0.1035958081483841,-0.01884269155561924,0.3425160348415375,-0.14533565938472748,-0.22199834883213043,-0.4102523624897003,-0.06951916217803955,-0.16135616600513458,0.01631776988506317,-0.04033806547522545],[-0.2018335908651352,-0.0032004094682633877,-0.23573967814445496,0.22210073471069336,-0.10686296224594116,-0.14864607155323029,0.10626053065061569,-0.08569535613059998,0.15510351955890656,0.1363706737756729,0.07990335673093796,-0.0003765015571843833,0.01946450024843216,0.1600203961133957,-0.06633651256561279,0.38916292786598206,0.12244178354740143,0.06752131879329681,0.09479783475399017,-0.10127150267362595],[-0.29356950521469116,0.1388585865497589,-0.1326715499162674,-0.14206187427043915,0.09159993380308151,-0.17417143285274506,0.21908724308013916,0.16824033856391907,0.03625640645623207,-0.140539288520813,-0.017305944114923477,0.2461489886045456,-0.08527304977178574,0.025014497339725494,0.2347819060087204,0.10700488835573196,-0.09265527874231339,0.1486908197402954,0.021670758724212646,0.1543022096157074],[-0.003011769615113735,-0.2666113078594208,0.43984368443489075,0.2825014293193817,0.4648689925670624,-0.4967360198497772,-0.25234299898147583,0.1347404420375824,0.16062156856060028,0.23449315130710602,0.2896966338157654,-0.6590796709060669,0.4075066149234772,0.20249538123607635,-0.3161202371120453,-0.21916897594928741,-0.09682264924049377,-0.08783973008394241,0.16076844930648804,-0.3160420358181],[-0.02988790161907673,0.25502195954322815,-0.3525981903076172,-0.15532557666301727,0.182503804564476,0.22880616784095764,-0.1110234409570694,0.03292695805430412,-0.057450540363788605,-0.2458626925945282,-0.16028526425361633,0.30663731694221497,-0.259699285030365,0.05026375874876976,-0.13870550692081451,0.3985869288444519,0.1633017510175705,0.19258207082748413,0.003099592635408044,0.06397069245576859],[-0.057692334055900574,-0.13322195410728455,0.15644267201423645,-0.1190720796585083,-0.13509084284305573,0.14188344776630402,0.14502432942390442,-0.08982840180397034,0.08319461345672607,0.11465463787317276,0.3869769871234894,-0.06241326779127121,0.3605499863624573,-0.04414674639701843,0.10810281336307526,-0.04279021918773651,-0.14947475492954254,-0.25485408306121826,0.07371510565280914,0.13780005276203156]],"b":[-0.12628990411758423,0.048723407089710236,0.012445560656487942,0.08644396811723709,-0.12512335181236267,0.11243174225091934,0.1524420529603958,-0.13009819388389587,-0.014322496019303799,0.008102189749479294,0.054132129997015,0.23158547282218933,0.06756352633237839,-0.03770700469613075,0.18913087248802185,-0.06860876083374023,-0.03824689984321594,0.016376972198486328,-0.15159907937049866,0.015502656809985638]},{"W":[[-0.19342878460884094,0.14838607609272003,0.14876563847064972,0.14910580217838287,-0.2843148708343506,-0.30913928151130676,0.2194356769323349,0.3715806007385254,-0.27472740411758423,0.24788829684257507,-0.1661841720342636,0.14438939094543457,0.27711641788482666,0.25099411606788635,-0.208108589053154,0.10972823202610016,0.19604328274726868,-0.33150121569633484,0.2740461230278015,-0.12311185896396637]],"b":[-0.035983581095933914]}]}