{"key":"kdv","name":"Korteweg-de Vries (KdV)","description":"Soliton equation \u2014 nonlinear dispersive waves","latex_equation":"\\frac{\\partial u}{\\partial t} + 6 u \\frac{\\partial u}{\\partial x} + \\frac{\\partial^3 u}{\\partial x^3} = 0","latex_ic":"u(x, 0) = -2 \\, \\mathrm{sech}^2(x)","latex_bc":"u(\\pm 5, t) = 0","latex_domain":"x \\in [-5, 5], \\; t \\in [0, 1]","x_min":-5.0,"x_max":5.0,"t_min":0.0,"t_max":1.0,"y_min":-2.5,"y_max":0.5,"y_label":"u(x, t)","params":{},"layers":[{"W":[[0.49328699707984924,0.9751369953155518],[-0.40932583808898926,0.8868385553359985],[-0.012297538109123707,0.43061575293540955],[-0.3825559914112091,0.5978425741195679],[0.4475613236427307,-0.5986985564231873],[0.531559944152832,0.16028040647506714],[0.4784161448478699,0.18988744914531708],[0.3345038890838623,-0.04809582605957985],[0.3893260955810547,-0.08046721667051315],[-0.3480903208255768,1.2799029350280762],[-0.08557216823101044,-0.8287965655326843],[-0.08975697308778763,0.6096640825271606],[-0.5791857838630676,-0.02866761013865471],[-0.17632469534873962,-1.007199764251709],[-0.0850202813744545,-1.2434147596359253],[0.5028085112571716,-0.39800789952278137],[0.2505609691143036,0.3077704608440399],[-0.36370840668678284,0.6303461790084839],[0.19115321338176727,0.8071945905685425],[0.02584712579846382,-0.33277830481529236],[0.22664852440357208,-0.9679136276245117],[0.24254834651947021,0.9334635734558105],[0.3543069362640381,-0.6241933107376099],[0.46426957845687866,-0.11346474289894104],[0.36720946431159973,-0.43615347146987915],[-0.5754246115684509,-0.41312432289123535],[-0.4541342556476593,0.6841057538986206],[0.054247234016656876,1.4201626777648926],[0.18973170220851898,-0.12908850610256195],[0.7409195899963379,-1.2878406047821045],[-0.1772909164428711,-0.8719142079353333],[0.12527602910995483,-0.28244733810424805],[0.1481783539056778,-0.20156557857990265],[0.6958275437355042,-0.975013792514801],[-0.26366230845451355,-0.7839486598968506],[0.6057966351509094,0.3706580400466919],[0.642968475818634,-0.7706807851791382],[-0.29201623797416687,-0.8241817951202393],[-0.48271435499191284,0.3577176630496979],[0.3996409773826599,0.7664394378662109]],"b":[-0.34467610716819763,-0.4337811768054962,0.3523367643356323,-0.29863491654396057,0.6867459416389465,0.018059251829981804,0.6756051182746887,-0.5656944513320923,-0.41577470302581787,0.38037872314453125,-0.14734232425689697,-0.33147069811820984,0.5280205607414246,0.5048524141311646,-0.42193686962127686,-0.15244367718696594,0.9649624228477478,-0.22271636128425598,-0.45168787240982056,-0.752747118473053,-0.20545218884944916,0.268909752368927,0.02255462482571602,-0.5123435854911804,0.07669173181056976,-0.6524658799171448,-0.7678369879722595,-0.3012368381023407,-0.7582409977912903,-0.5842848420143127,0.5693179965019226,0.2613830268383026,0.4022137522697449,-0.7073822617530823,-0.7124214172363281,-0.03294675424695015,0.1971127688884735,-1.0277882814407349,-0.3827717900276184,-0.2897861897945404]},{"W":[[0.06797736138105392,-0.12479351460933685,-0.0122416652739048,-0.17834338545799255,-0.06001878157258034,-0.03851758688688278,-0.02496371418237686,-0.06622442603111267,0.18768255412578583,-0.12016075849533081,0.1941145807504654,0.07484926283359528,-0.18956676125526428,0.13455957174301147,-0.2758367657661438,0.0008850598242133856,-0.22342754900455475,-0.21870343387126923,-0.08462564647197723,-0.044145915657281876,0.11402440071105957,-0.30233287811279297,0.20157544314861298,-0.055188149213790894,0.06181216239929199,0.003502367530018091,0.009200814180076122,0.04399217292666435,0.1847282201051712,-0.06758718192577362,0.1352279782295227,-0.13783754408359528,-0.12947924435138702,-0.06502960622310638,0.3289627134799957,-0.05844597890973091,0.1524142026901245,0.1695496290922165,-0.003426020033657551,-0.057092342525720596],[0.09277243912220001,-0.04544948413968086,0.009386220015585423,-0.2031068503856659,0.21918469667434692,0.006342781707644463,0.06534843891859055,0.12512074410915375,0.04196581616997719,-0.09396959841251373,-0.08601401746273041,-0.2514593005180359,0.10611654072999954,-0.037936534732580185,-0.07310264557600021,-0.05787213146686554,-0.04651778191328049,0.008550836704671383,0.18435153365135193,-0.14039959013462067,0.04755192622542381,0.26673150062561035,0.054906681180000305,-0.06903671473264694,0.10322269052267075,-0.010097368620336056,-0.08208784461021423,-0.048381682485342026,-0.047652341425418854,0.01567196100950241,-0.044537436217069626,0.1575557440519333,0.39088818430900574,0.12769745290279388,-0.1943499892950058,-0.02090451307594776,0.022897770628333092,-0.10485009849071503,-0.018593374639749527,0.027154646813869476],[-0.21172098815441132,-0.05853551998734474,0.07602167129516602,0.042523857206106186,0.030399156734347343,-0.07235424220561981,-0.07064613699913025,-0.15649034082889557,-0.04728549346327782,0.06460215151309967,0.05406566709280014,-0.03424152731895447,-0.11496465653181076,-0.11965754628181458,0.05135606229305267,0.14747768640518188,0.10381073504686356,-0.06273709237575531,0.14376004040241241,-0.015999535098671913,-0.10669862478971481,0.2338603138923645,-0.05307817831635475,-0.05509902164340019,-0.1400725245475769,0.09274774044752121,0.11975864320993423,0.07524113357067108,-0.11164404451847076,-0.16081330180168152,-0.18755210936069489,0.2515068054199219,0.2165076732635498,0.11554820835590363,-0.04371538385748863,0.04723890870809555,0.04451332613825798,-0.20804643630981445,-0.16621169447898865,-0.18192780017852783],[0.04934818670153618,-0.024990539997816086,0.015271126292645931,-0.05858645215630531,-0.12016810476779938,-0.16038329899311066,-0.1943640410900116,0.0130419647321105,-0.08541695773601532,0.13512355089187622,-0.03610162436962128,-0.0629035234451294,-0.0006329107563942671,-0.028162704780697823,-0.08989504724740982,-0.16218020021915436,0.08820096403360367,-0.08025439828634262,-0.005520936567336321,0.03109847940504551,0.06235300749540329,-0.25074562430381775,0.07776713371276855,-0.11257938295602798,0.04179242625832558,0.22174498438835144,0.05443885177373886,-0.019294461235404015,-0.0824979767203331,-0.15829989314079285,0.12443778663873672,-0.33735984563827515,0.005721348337829113,0.09191012382507324,0.21513886749744415,-0.08295799791812897,-0.13529521226882935,0.053504008799791336,0.12083593010902405,-0.19536635279655457],[0.015902718529105186,-0.13963767886161804,0.03716364502906799,-0.11469583213329315,-0.04482217878103256,-0.010801715776324272,-0.1547325849533081,0.17874088883399963,0.17832408845424652,-0.10212551802396774,0.06687302887439728,-0.014619828201830387,-0.1881614774465561,-0.08129474520683289,-0.15252916514873505,-0.0541926808655262,-0.21598556637763977,-0.04397262632846832,-0.18347111344337463,-0.10756427049636841,0.027664855122566223,-0.18746355175971985,-0.005729348864406347,-0.019812384620308876,-0.07953593134880066,0.14086493849754333,-0.1094551756978035,-0.07066147029399872,-0.03655267879366875,0.04866781458258629,0.2551511228084564,-0.03267647325992584,-0.2817419767379761,0.10176510363817215,0.31492501497268677,0.08663688600063324,0.12516775727272034,0.29607850313186646,-0.04754340648651123,0.02384437806904316],[-0.12947945296764374,-0.01925196498632431,0.0400087796151638,0.10267923027276993,-0.14465589821338654,-0.09722698479890823,-0.15190532803535461,-0.15128019452095032,-0.09579546749591827,-0.04752494394779205,0.16998185217380524,-0.17480631172657013,-0.1383674293756485,-0.14547716081142426,0.7422999739646912,-0.08345456421375275,0.14568845927715302,0.08278453350067139,-0.06467629969120026,0.05270233750343323,0.004906562622636557,-0.037765152752399445,-0.07018110156059265,-0.13365603983402252,-0.12361985445022583,-0.0443342849612236,0.21404211223125458,-0.2595348358154297,-0.10086863487958908,0.08525673300027847,0.011539637111127377,0.24437546730041504,0.29460200667381287,0.13551847636699677,-0.23199878633022308,0.051431428641080856,0.12907536327838898,-0.14071673154830933,-0.08577075600624084,0.129738911986351],[-0.10150586813688278,-0.22697801887989044,-0.17793098092079163,-0.07974879443645477,0.10161387175321579,0.03170337527990341,0.057375717908144,-0.10554821789264679,-0.143753319978714,-0.05992777273058891,0.3051493465900421,-0.08804703503847122,-0.08458641916513443,0.10190711915493011,0.8972328305244446,0.011894133873283863,0.02369120344519615,-0.0006033439422026277,-0.13043121993541718,-0.135855033993721,0.15854446589946747,-0.3588952422142029,0.11640241742134094,0.14108699560165405,0.06959239393472672,0.1526825726032257,-0.24631367623806,-0.5541634559631348,0.09451243281364441,0.04309670254588127,0.16724251210689545,-0.00024099329311866313,0.12141638249158859,0.1565406173467636,0.24644997715950012,-0.08643394708633423,-0.035279281437397,0.08098578453063965,0.019707076251506805,-0.14431017637252808],[-0.17308050394058228,0.06059561297297478,-0.15213057398796082,-0.010144037194550037,-0.035142965614795685,-0.13610517978668213,-0.20659232139587402,-0.05641719326376915,-0.06758780032396317,0.012137720361351967,0.10067484527826309,-0.32249265909194946,0.1878948211669922,0.09307423233985901,0.7075124979019165,-0.031494349241256714,0.04235690087080002,0.019023964181542397,-0.18838734924793243,0.06971687823534012,0.05637923255562782,-0.12126731127500534,-0.07684414088726044,0.08271219581365585,0.16763247549533844,0.11328690499067307,-0.009321000427007675,-0.38604867458343506,-0.01806897297501564,0.10755656659603119,0.08451385796070099,0.21263915300369263,0.14399702847003937,0.16100357472896576,-0.1733386069536209,0.1038704514503479,-0.015062110498547554,-0.0637643039226532,-0.04418940097093582,-0.09614241123199463],[-0.12259922921657562,0.18048100173473358,-0.07193883508443832,0.19152255356311798,0.08604887872934341,-0.1347583383321762,-0.17421303689479828,0.08980031311511993,0.07558735460042953,-0.057810667902231216,0.09620331227779388,-0.22982928156852722,-0.07062025368213654,-0.022307533770799637,0.3397793471813202,-0.011748138815164566,0.0037467596121132374,0.21022433042526245,0.14135706424713135,-0.03021809831261635,-0.03095647320151329,0.13921229541301727,-0.006086504086852074,-0.1544451117515564,-0.008563227020204067,-0.02328321896493435,-0.05618363991379738,-0.13394209742546082,0.15452374517917633,0.09500862658023834,0.06759943813085556,0.17823666334152222,0.21387764811515808,-0.06660956144332886,-0.18286214768886566,0.016199860721826553,-0.135542631149292,-0.165554478764534,0.017861267551779747,0.046400751918554306],[0.13110898435115814,-0.041406337171792984,-0.0699816644191742,0.04743152856826782,-0.14090649783611298,-0.10631484538316727,0.03508400917053223,-0.021514205262064934,0.14581823348999023,0.15038222074508667,-0.003959279973059893,0.14241762459278107,0.015924207866191864,0.010669774375855923,-0.25848445296287537,0.014647835865616798,0.04089448228478432,0.17489540576934814,-0.07293533533811569,-0.09305840730667114,-0.04492046684026718,-0.16168038547039032,0.01813548244535923,0.12857337296009064,0.11125601828098297,0.12462027370929718,-0.08244316279888153,-0.0530787892639637,-0.04314030334353447,-0.015494417399168015,0.0220713522285223,-0.26725897192955017,-0.05243417248129845,-0.10372695326805115,-0.04364286735653877,-0.12696197628974915,0.10514305531978607,-0.11434169858694077,0.15888750553131104,0.011742481961846352],[-0.00882740132510662,0.12787878513336182,-0.07312802225351334,0.12123105674982071,0.03484922647476196,-0.1305495649576187,0.04129328578710556,0.03299689292907715,0.04209732636809349,0.02686321921646595,0.25036829710006714,-0.3429275453090668,-0.03924955055117607,0.1504642218351364,1.150866985321045,-0.006470930762588978,-0.0970667153596878,0.014650569297373295,-0.16783107817173004,0.1456710547208786,-0.10585252195596695,-0.05275486037135124,-0.05569290369749069,0.041609521955251694,0.13639697432518005,0.01169657614082098,0.1665918380022049,-0.5183947086334229,0.13415652513504028,-0.04328478127717972,0.022405071184039116,0.20854471623897552,0.06250336021184921,0.08148336410522461,-0.011469092220067978,-0.07530929148197174,0.09082310646772385,-0.043383192270994186,0.06363532692193985,0.1521945297718048],[0.12379506230354309,0.15419694781303406,0.07806084305047989,-0.13292142748832703,-0.15591129660606384,-0.1354295313358307,-0.17729218304157257,-0.13060447573661804,-0.19048728048801422,-0.10831515491008759,-0.07712376117706299,-0.16201172769069672,-0.08390616625547409,0.14008021354675293,-0.0029102612752467394,-0.05448111519217491,0.007341526914387941,0.08841130137443542,-0.20674067735671997,-0.1482948362827301,0.03943889960646629,-0.197057843208313,-0.009351927787065506,0.10393590480089188,0.030040184035897255,0.07951061427593231,-0.06843729317188263,-0.09509661048650742,-0.06186981871724129,0.024436457082629204,0.1570044308900833,0.08593221008777618,-0.16812677681446075,-0.008209563791751862,-0.06024059280753136,-0.15364159643650055,-0.024109743535518646,-0.194570392370224,0.1252734214067459,-0.010059334337711334],[-0.1827152669429779,0.0881190299987793,-0.24265648424625397,-0.054034274071455,-0.040587376803159714,-0.16768132150173187,-0.11271409690380096,-0.06378405541181564,0.08124355226755142,0.19687746465206146,0.20768985152244568,-0.2237798124551773,-0.03576122969388962,0.13155250251293182,0.4784412086009979,0.001141845597885549,0.12482067197561264,-0.134742870926857,-0.0064764670096337795,0.24984323978424072,-0.02829178422689438,0.06551670283079147,-0.139146089553833,-0.14176693558692932,-0.005875898525118828,-0.07730823010206223,0.009155652485787868,-0.030193030834197998,-0.15643036365509033,0.04084800183773041,-0.15970927476882935,0.07635615766048431,0.22752369940280914,0.11582743376493454,-0.15694472193717957,-0.10318171232938766,-0.10089583694934845,-0.17096200585365295,-0.1344316303730011,-0.09331829845905304],[-0.0024029212072491646,-0.09769564121961594,0.07441537827253342,0.14562152326107025,-0.17445293068885803,-0.05190286785364151,0.017850123345851898,-0.008622572757303715,0.006331149023026228,-0.0784865990281105,0.16597147285938263,-0.11642720550298691,0.12823796272277832,-0.02765454538166523,0.23366664350032806,0.12704972922801971,-0.059286125004291534,-0.04577864333987236,0.03395158052444458,0.18187816441059113,-0.10156673192977905,0.051493506878614426,-0.14913633465766907,0.0983753353357315,0.0438249371945858,0.034873589873313904,0.12117141485214233,-0.024180103093385696,0.12313965708017349,-0.11121100932359695,-0.07251376658678055,0.11481267213821411,0.19290561974048615,0.09406352788209915,-0.11463326215744019,0.13867785036563873,-0.021354908123612404,-0.015343824401497841,-0.1162019595503807,-0.03314933180809021],[0.04179804027080536,0.019352661445736885,-0.16507434844970703,0.054404616355895996,-0.0650918036699295,0.1521693468093872,-0.2100166380405426,-0.08635770529508591,-0.16173838078975677,-0.031420718878507614,0.166572704911232,-0.07724685221910477,0.04451652243733406,0.19030918180942535,0.30222287774086,0.1193237155675888,0.23961013555526733,0.134577214717865,-0.12112827599048615,0.18966618180274963,0.08693213760852814,-0.0948801264166832,-0.07551863044500351,-0.16132020950317383,0.04139578342437744,-0.04812352731823921,0.09456104040145874,-0.23780301213264465,-0.1699184626340866,0.056786227971315384,0.021955091506242752,0.2774837017059326,0.292824923992157,-0.15172430872917175,0.08678127080202103,0.14657244086265564,0.1497928351163864,-0.22972947359085083,-0.06212220340967178,-0.10219531506299973],[0.015845200046896935,0.08029020577669144,0.08017691224813461,0.09309215098619461,-0.019109662622213364,0.11230745911598206,0.09395883977413177,-0.07893730700016022,-0.09417751431465149,-0.1477631777524948,0.31967127323150635,-0.12989240884780884,-0.19479283690452576,0.13746754825115204,0.6852136254310608,0.1829598993062973,-0.2427181601524353,-0.13090986013412476,-0.18162798881530762,0.0552387498319149,0.08912012726068497,-0.2122010439634323,0.10743061453104019,0.2131437212228775,-0.043331578373909,-0.12463226169347763,0.0753844752907753,-0.9500138759613037,-0.08038516342639923,0.19180932641029358,0.3083629906177521,-0.04728688672184944,-0.21988044679164886,0.09067782014608383,0.37102964520454407,-0.028977708891034126,0.04261191934347153,0.17754946649074554,-0.1562499701976776,0.15336814522743225],[0.03637770190834999,-0.04346802085638046,-0.10913455486297607,-0.11665968596935272,-0.1714807152748108,0.12384326010942459,0.07052923738956451,-0.08324097841978073,-0.058561548590660095,0.11608164757490158,-0.03133368864655495,0.08488797396421432,-0.1427987813949585,-0.1906844824552536,-0.1009545549750328,-0.023452023044228554,-0.08744515478610992,0.0020292543340474367,0.1635226607322693,0.047463156282901764,0.07137607038021088,-0.02906079590320587,0.07293026894330978,0.10657478868961334,-0.04646206647157669,-0.19124923646450043,0.07163893431425095,0.2333381623029709,0.008048868738114834,0.148910790681839,-0.20761074125766754,0.09321863204240799,0.0522635281085968,-0.14215151965618134,0.10088053345680237,-0.12147118896245956,-0.12401757389307022,-0.0492890402674675,-0.09750614315271378,0.2555399239063263],[0.06525278836488724,0.08644142001867294,-0.2693803012371063,0.05377199873328209,-0.017412712797522545,-0.08748816698789597,-0.0051048994064331055,0.15016435086727142,0.2057657688856125,-0.13303343951702118,-0.1423148512840271,0.047051966190338135,-0.024499965831637383,-0.07516727596521378,0.0830136314034462,-0.04288644343614578,0.0832541435956955,0.07731941342353821,0.12880125641822815,0.26582643389701843,0.1765003800392151,0.18065592646598816,-0.030447259545326233,-0.014819556847214699,-0.005574074108153582,-0.03022148832678795,0.09398657828569412,0.03286605700850487,0.19466127455234528,-0.06928041577339172,-0.03466983139514923,0.04431285709142685,-0.11084948480129242,-0.10942485928535461,-0.13847069442272186,0.11484017968177795,-0.12074366956949234,-0.007023870013654232,-0.023486629128456116,-0.0013885280350223184],[0.0808698758482933,-0.14137855172157288,-0.10477494448423386,-0.12463407218456268,-0.05871104821562767,-0.0565326102077961,0.0012245458783581853,-0.021079134196043015,0.08730055391788483,0.16393539309501648,-0.013198909349739552,-0.06194436550140381,-0.16714732348918915,0.01797209493815899,-0.3464708626270294,0.07703187316656113,0.16561558842658997,0.0800400823354721,0.19580894708633423,0.13072611391544342,0.003085740841925144,-0.06196734309196472,0.13290007412433624,-0.05964825674891472,-0.10051606595516205,0.17100150883197784,0.15597033500671387,0.17055177688598633,-0.00594063987955451,-0.12515021860599518,-0.0574796162545681,0.18441355228424072,0.1078183725476265,0.027351560071110725,-0.09698395431041718,-0.06364920735359192,0.08205613493919373,0.00014080766413826495,0.12624558806419373,-0.0023190267384052277],[-0.009189089760184288,0.031924374401569366,0.013059026561677456,0.05666486173868179,0.18042995035648346,0.14469096064567566,0.2022213637828827,-0.05392228811979294,-0.13767839968204498,0.024679219350218773,0.02526029199361801,-0.22447039186954498,0.007829765789210796,0.011888505890965462,0.15228305757045746,0.04550367221236229,0.14010927081108093,-0.09270885586738586,-0.0048810639418661594,-0.050888121128082275,0.1554366499185562,0.18817612528800964,0.1678798794746399,-0.018025659024715424,0.04619055986404419,-0.003322647651657462,-0.2460944652557373,-0.03464078530669212,-0.012621061876416206,-0.09343696385622025,-0.12358522415161133,0.24176664650440216,0.31130272150039673,0.062386661767959595,-0.06729624420404434,-0.08347347378730774,0.0037867927458137274,-0.13475394248962402,-0.06444916874170303,-0.05841222405433655],[-0.18596062064170837,-0.07492778450250626,-0.21992680430412292,-0.060943398624658585,0.18150869011878967,-0.04120292887091637,-0.008934084326028824,0.09775015711784363,-0.049008987843990326,-0.05107416212558746,0.27274763584136963,-0.31253015995025635,-0.11674156039953232,-0.03833816945552826,0.9178182482719421,0.013989787548780441,-0.011347626335918903,-0.011700736358761787,-0.10735294222831726,0.02467581443488598,-0.06587721407413483,-0.17066708207130432,-0.021095963194966316,-0.05083322897553444,-0.0842694342136383,0.030038611963391304,-0.2088216096162796,-0.9369158744812012,-0.1261601746082306,0.17410993576049805,0.01744277961552143,0.09401298314332962,0.23908892273902893,0.1876433938741684,0.14978143572807312,-0.1291223019361496,-0.051240645349025726,-0.11972641944885254,0.10296472907066345,-0.0490555614233017],[-0.08756224811077118,-0.029891423881053925,-0.16136419773101807,-0.06188824400305748,-0.029697714373469353,0.16548670828342438,0.05461542308330536,0.01144687831401825,0.058568309992551804,-0.08294828236103058,0.265605092048645,-0.006257215514779091,0.013122094795107841,-0.06819242238998413,0.400214284658432,0.005078371148556471,-0.11798501759767532,0.0754915252327919,0.0805385410785675,0.19038981199264526,0.08296491950750351,-0.1522735059261322,0.11901164799928665,0.1706550568342209,-0.11599835753440857,-0.02773429825901985,-0.1508336365222931,-0.10744131356477737,0.10154229402542114,-0.0023779382463544607,0.017827128991484642,0.0752052366733551,-0.05516409873962402,-0.10279552638530731,0.22265680134296417,-0.046814318746328354,-0.008077951148152351,0.09768228232860565,-0.02715195342898369,-0.14298129081726074],[0.0828375294804573,0.1300870180130005,-0.06969638913869858,0.10138367861509323,-0.1544281244277954,-0.08287114650011063,-0.003725216258317232,-0.059391628950834274,-0.08547735214233398,-0.03668469190597534,-0.07479354739189148,0.19194968044757843,-0.07236310094594955,-0.04206712171435356,-0.051288388669490814,0.09459435939788818,-0.25697654485702515,0.10822975635528564,0.19517214596271515,0.1657334417104721,-0.17060579359531403,0.06245715171098709,-0.16015198826789856,-0.11907432228326797,0.0878002941608429,-0.18803927302360535,0.22984416782855988,0.1438065618276596,0.056373853236436844,-0.08587539196014404,-0.011020893231034279,-0.3442783057689667,-0.28006643056869507,-0.147786945104599,-0.0014785995008423924,0.12509113550186157,0.0891304761171341,-0.0021895337849855423,-0.03353044018149376,0.012571558356285095],[-0.128938689827919,0.16588345170021057,0.013232170604169369,0.07283326983451843,-0.09872936457395554,-0.07026924192905426,0.010225672274827957,0.06945400685071945,0.03975345566868782,-0.07543444633483887,0.2919865846633911,0.0030827010050415993,-0.1027294248342514,-0.048939064145088196,0.5986687541007996,-0.013844863511621952,-0.14109128713607788,-0.02289162576198578,-0.09385623782873154,-0.15429890155792236,-0.12951990962028503,-0.007004279177635908,0.11328606307506561,0.1657894402742386,-0.13958096504211426,0.06913299113512039,-0.07668140530586243,-0.3049292266368866,0.11727341264486313,0.11404628306627274,0.17902852594852448,0.0241991076618433,-0.10248274356126785,0.06777150928974152,0.06785427033901215,0.08529118448495865,-0.07905290275812149,0.08013876527547836,-0.12234728783369064,-0.044315338134765625],[-0.023076042532920837,-0.018154215067625046,-0.04091461002826691,-0.12316055595874786,-0.020124739035964012,0.1254705935716629,0.12092088162899017,0.1533540040254593,-0.043383367359638214,-0.2180279940366745,0.02711566351354122,0.30871546268463135,-0.18397973477840424,0.05034874379634857,-0.02353784069418907,0.02322043478488922,-0.35222312808036804,0.1492862105369568,0.020524892956018448,0.07637505233287811,-0.09960521012544632,-0.03138888627290726,-0.08538735657930374,0.2158733308315277,-0.047247543931007385,0.09416933357715607,0.053580112755298615,0.24651354551315308,0.0226507019251585,0.09039526432752609,-0.04842154309153557,-0.3686680793762207,-0.31754645705223083,0.1601768285036087,0.16907855868339539,0.07469392567873001,-0.08464843034744263,0.34494009613990784,0.10052679479122162,0.09416544437408447],[-0.15972791612148285,-0.20709548890590668,0.029768820852041245,-0.17213545739650726,0.21119274199008942,-0.1876836121082306,0.2089473456144333,0.09743315726518631,0.035063717514276505,0.082526795566082,-0.11907139420509338,-0.04675911366939545,0.03675580769777298,-0.10827554017305374,0.05710802599787712,-0.12360676378011703,0.26884257793426514,0.08776930719614029,-0.08793384581804276,-0.16131603717803955,-0.0026143714785575867,0.1740208864212036,0.04948090761899948,-0.1904524713754654,0.03286793828010559,-0.19953259825706482,-0.26410096883773804,-0.22974617779254913,0.032880999147892,-0.02866087481379509,-0.08562348783016205,0.280738890171051,0.3328535258769989,-0.03877329081296921,-0.4431930482387543,-0.039497531950473785,0.13423983752727509,-0.14624884724617004,-0.18645153939723969,0.09082457423210144],[-0.043494097888469696,0.12073694914579391,0.03582334890961647,0.15959081053733826,-0.12253553420305252,0.1587051898241043,-0.11826162040233612,0.0020436164923012257,-0.10413801670074463,-0.017427435144782066,0.02532750740647316,-0.11226377636194229,-0.005414245184510946,-0.033123042434453964,0.5405088067054749,0.09657902270555496,0.15640725195407867,0.07960322499275208,0.22554874420166016,0.0660223662853241,0.02017817460000515,0.13548649847507477,-0.12905272841453552,-0.14417299628257751,0.02087077870965004,-0.038483768701553345,0.04226856306195259,-0.06769505143165588,0.03655029833316803,0.10581563413143158,-0.12936276197433472,0.25891104340553284,0.262529194355011,-0.12565113604068756,-0.251773864030838,-0.12071160227060318,-0.03577392175793648,-0.1281404048204422,-0.0014584059827029705,-0.05392700433731079],[-0.0427163727581501,-0.02996859885752201,-0.13327930867671967,0.15422673523426056,-0.03200951963663101,-0.04482059180736542,0.11730671674013138,0.01846567913889885,0.17706455290317535,0.06357476115226746,0.09375137090682983,-0.13566954433918,0.05640473961830139,0.05764066427946091,-0.049317143857479095,0.17185501754283905,0.14679470658302307,-0.005048597231507301,0.22793184220790863,0.03916743025183678,-0.08372243493795395,0.15476061403751373,0.08264990895986557,-0.07541347295045853,0.09317083656787872,-0.17359799146652222,0.15142707526683807,0.24793462455272675,0.08949501067399979,-0.07052446156740189,-0.06373748183250427,0.10266630351543427,0.1110411211848259,0.07556677609682083,0.019616853445768356,-0.007492030970752239,-0.012388428673148155,0.0031513480935245752,-0.000910826085601002,0.1784869283437729],[-0.1375410556793213,0.04575716704130173,-0.007071705535054207,0.00331489066593349,0.10492255538702011,0.024412544444203377,-0.1567998081445694,-0.008809608407318592,-0.06208973005414009,0.02632969431579113,-0.04968152567744255,-0.14744248986244202,-0.014609472826123238,-0.05494231358170509,0.07046971470117569,0.12898622453212738,-0.06295417249202728,0.14739513397216797,0.12463347613811493,-0.09028301388025284,0.033971115946769714,0.2086423933506012,-0.11329641193151474,-0.10043028742074966,0.1229955181479454,0.13534744083881378,-0.04888579994440079,0.150032177567482,0.00454876571893692,-0.16223110258579254,-0.04948083311319351,0.08277925103902817,-0.007948845624923706,0.05206383764743805,-0.1846712976694107,0.1065867617726326,0.12317138910293579,0.09651272743940353,0.056931670755147934,0.03756939247250557],[-0.08681333810091019,-0.08276746422052383,-0.06174734979867935,-0.12023669481277466,-0.10478377342224121,0.16550491750240326,0.13286295533180237,-0.1187700554728508,0.08718336373567581,0.007645583711564541,0.27787649631500244,-0.019878018647432327,0.10611821711063385,-0.02607118710875511,1.071614146232605,0.1832592636346817,-0.1693953275680542,-0.15732906758785248,-0.06910091638565063,0.10427034646272659,-0.0337713398039341,-0.107268325984478,0.055259205400943756,0.07319279760122299,-0.03972915932536125,0.06337088346481323,0.05653339624404907,-1.139406442642212,0.013683876022696495,0.07720170170068741,0.1505686640739441,0.17123772203922272,0.034385520964860916,0.023454397916793823,0.24495404958724976,0.013551976531744003,-0.007608137559145689,0.02749205008149147,-0.15155194699764252,0.022756684571504593],[-0.08110274374485016,-0.018836073577404022,-0.0013819333398714662,-0.03484629839658737,-0.05812034383416176,-0.09523171931505203,0.16477511823177338,0.17833353579044342,-0.09800125658512115,-0.007238856516778469,-0.229967400431633,0.1827428638935089,0.11870727688074112,0.09608647227287292,-0.288971871137619,0.13464774191379547,-0.14387796819210052,-0.049555715173482895,0.1849983185529709,-0.021415431052446365,0.02689560316503048,-0.09922327846288681,0.10453274101018906,0.07337120920419693,0.0845627561211586,-0.18953381478786469,-0.16465236246585846,0.39996767044067383,-0.07803677022457123,0.00023994105868041515,-0.024389978498220444,-0.2060007005929947,-0.14680662751197815,0.01789708621799946,0.22810935974121094,0.02699495479464531,-0.06684806942939758,0.2455342411994934,-0.036627817898988724,-0.014093304052948952],[-0.20509473979473114,0.006266340613365173,-0.2301437109708786,0.039851319044828415,0.08397785574197769,-0.19452133774757385,-0.12218479067087173,-0.17330265045166016,0.07689123600721359,0.21031364798545837,0.11399709433317184,-0.045705731958150864,0.015352110378444195,-0.16331493854522705,0.35086268186569214,0.03873801976442337,0.37449851632118225,-0.007519942242652178,0.15520592033863068,0.1491418182849884,0.09560903161764145,-0.09677403420209885,0.09610147029161453,-0.20116841793060303,0.11240292340517044,0.034340739250183105,-0.1517305076122284,-0.05161578208208084,-0.06676066666841507,-0.1646842062473297,-0.07358305156230927,0.2197006195783615,0.35617774724960327,-0.09507386386394501,-0.0641736164689064,-0.0381607823073864,0.04375864937901497,-0.1491517424583435,-0.09196875989437103,-0.19340597093105316],[-0.1482391357421875,-0.08380533009767532,-0.17567570507526398,0.06937650591135025,-0.14012844860553741,-0.07773634791374207,-0.0907512903213501,-0.011814695782959461,-0.0940534695982933,0.01433891337364912,0.11528084427118301,-0.013373265974223614,0.053763654083013535,-0.08370252698659897,0.3537673056125641,0.0037885040510445833,-0.12885476648807526,0.06068902090191841,0.027182934805750847,0.16432428359985352,0.06378904730081558,0.12317929416894913,-0.0061455280520021915,-0.13848243653774261,0.059260301291942596,-0.041294995695352554,0.0600532703101635,-0.1154799833893776,-0.029247771948575974,-0.04496046155691147,0.08265837281942368,0.16755135357379913,0.10661108046770096,0.16311684250831604,-0.16279873251914978,0.0007633359637111425,0.11533423513174057,0.12419184297323227,-0.07712792605161667,-0.007062644697725773],[-0.11437436193227768,0.05133633315563202,-0.1088605746626854,-0.09565223008394241,-0.1674087941646576,-0.07322856783866882,0.057796552777290344,0.08389440178871155,-0.11526866257190704,-0.056639164686203,-0.00503665441647172,-0.1992400735616684,0.0826055109500885,0.08660285919904709,0.25838416814804077,-0.10883935540914536,0.07002891600131989,0.0853915885090828,0.23102062940597534,-0.008237645030021667,-0.12696771323680878,0.15852007269859314,0.01991165801882744,-0.042147595435380936,-0.06692997366189957,-0.06641912460327148,0.19082537293434143,-0.04680973291397095,0.14414618909358978,0.16006644070148468,-0.05629744380712509,0.1312631219625473,0.08766628056764603,0.12176121771335602,-0.22992588579654694,0.08518442511558533,-0.0004669748595915735,0.02886592037975788,0.01464170217514038,-0.04512009397149086],[0.07282666116952896,0.08355395495891571,-0.22304227948188782,-0.09873174875974655,-0.046235378831624985,-0.03189456835389137,0.08295489847660065,0.20848873257637024,0.040161553770303726,0.06781386584043503,-0.0005743640940636396,0.04192476347088814,-0.12994253635406494,-0.2070537656545639,-0.08706764131784439,-0.13302481174468994,-0.3506341576576233,0.04082580283284187,0.17984995245933533,0.23918581008911133,0.24734334647655487,-0.08085480332374573,0.06926124542951584,-0.014933961443603039,0.07899317145347595,-0.18543963134288788,0.07772666215896606,0.019858283922076225,0.18913061916828156,0.06702381372451782,-0.13212035596370697,-0.01136568933725357,-0.1342768371105194,0.11722546815872192,0.20951834321022034,0.11565510183572769,0.04724820703268051,0.2507389485836029,0.13160987198352814,0.07425658404827118],[0.2157503068447113,0.010103409178555012,0.19964788854122162,0.12333643436431885,0.06745375692844391,-0.03481034189462662,0.03483720123767853,0.06292209774255753,0.04678390547633171,-0.062094222754240036,-0.053512509912252426,0.22360122203826904,-0.1495950073003769,-0.0231024157255888,-0.4433935880661011,-0.09268403798341751,-0.03360358253121376,-0.06391430646181107,-0.10606515407562256,-0.1497279852628708,-0.06216062232851982,0.1502123773097992,0.07496467232704163,0.18820923566818237,0.06759203970432281,-0.020949358120560646,0.006046156864613295,0.1500794142484665,-0.13284102082252502,-0.09425528347492218,-0.0184331052005291,-0.1353471726179123,-0.08868575096130371,0.05694130063056946,0.175243079662323,0.0607222244143486,-0.07408906519412994,-0.08610697835683823,-0.138714998960495,-0.02663980796933174],[0.0961754098534584,0.05622658133506775,0.1988009363412857,-0.07631916552782059,0.002811892656609416,-0.05121225863695145,-0.009671366773545742,0.05981241539120674,0.008824671618640423,-0.01339779607951641,0.04432736709713936,0.05726788938045502,-0.07906608283519745,-0.05635914206504822,-0.07484263926744461,0.021691342815756798,-0.06326869875192642,0.03876759111881256,-0.054450247436761856,-0.08433889597654343,-0.07370124012231827,-0.05055613815784454,-0.11537431180477142,0.05596841871738434,0.047215186059474945,0.12128079682588577,-0.0066605620086193085,-0.04090243950486183,0.019789544865489006,0.15139734745025635,-0.04533810541033745,0.06902895122766495,0.02157999575138092,-0.06521858274936676,0.07487145811319351,-0.09270939975976944,-0.02558693289756775,-0.060775842517614365,-0.12143418937921524,0.14736385643482208],[-0.09898283332586288,0.09755862504243851,-0.1431388258934021,-0.0033415169455111027,-0.010806594043970108,0.15676814317703247,-0.08828288316726685,0.0449162982404232,0.051318664103746414,0.07154117524623871,0.11412771046161652,-0.01699824258685112,-0.14352911710739136,0.033395491540431976,0.40502116084098816,-0.05072055011987686,-0.0033092964440584183,0.0020658476278185844,-0.06489069759845734,-0.09078368544578552,-0.14046451449394226,-0.1703489124774933,0.10399926453828812,0.09229506552219391,0.1461535096168518,0.008939232677221298,0.09910780936479568,-0.7545420527458191,0.0069638630375266075,0.1494232714176178,0.30392032861709595,-0.07343336939811707,-0.03875769302248955,0.11484145373106003,-0.04811200127005577,-0.05936460196971893,-0.10402456670999527,-0.008891146630048752,0.09514014422893524,0.03595535829663277],[-0.0019626303110271692,0.07887318730354309,-0.10300280153751373,0.049103476107120514,-0.1084916889667511,-0.16111770272254944,0.07395720481872559,-0.17105066776275635,-0.04574592038989067,-0.07113730162382126,-0.15712112188339233,-0.09348656982183456,0.10193907469511032,-0.13606169819831848,-0.24839691817760468,-0.16768428683280945,0.2608237564563751,-0.0974329262971878,0.26248592138290405,-0.013110003434121609,-0.017874926328659058,0.1648133397102356,0.041509468108415604,-0.003853446803987026,-0.19258131086826324,0.10872870683670044,-0.053566474467515945,1.0566582679748535,0.008226090110838413,-0.10099964588880539,-0.24424977600574493,0.13777083158493042,0.04486881196498871,0.0063851033337414265,-0.1279977709054947,0.010116126388311386,-0.02526267245411873,-0.25453996658325195,0.17735238373279572,-0.017900051549077034],[-0.22278237342834473,-0.08655796200037003,0.41848060488700867,0.11208338290452957,0.1322074830532074,0.08028317242860794,-0.055812202394008636,-0.7250998020172119,-0.5062665939331055,-0.01926429197192192,-0.22958599030971527,-0.06408313661813736,0.30080804228782654,0.39253807067871094,-0.4360511600971222,-0.19835613667964935,0.18847602605819702,0.06991956382989883,-0.43289366364479065,-0.3373006284236908,-0.425123006105423,0.06253395974636078,0.05903756618499756,-0.44675830006599426,0.006956994533538818,-0.01571049727499485,-0.013380646705627441,1.137121319770813,-0.6987453699111938,0.1557931900024414,0.4133025109767914,0.03724999353289604,-0.07174329459667206,0.055166058242321014,-0.025227021425962448,-0.06473042815923691,0.1796046644449234,-0.20325157046318054,0.01901436410844326,-0.36399704217910767]],"b":[0.024343812838196754,0.09422875195741653,-0.1822374016046524,-0.11254605650901794,-0.026607289910316467,0.054527316242456436,0.16222378611564636,-0.26711609959602356,-0.033058106899261475,-0.07292988896369934,-0.056806378066539764,0.18343231081962585,-0.014513684436678886,-0.0840362012386322,-0.0016917150933295488,0.15633521974086761,-0.03550271689891815,-0.16724149882793427,-0.10414387285709381,0.11523668467998505,0.06597917526960373,0.072210893034935,-0.13933520019054413,0.13122352957725525,0.10389559715986252,0.17860500514507294,-0.007947761565446854,0.0575978122651577,-0.04200436547398567,0.0785381868481636,0.1383499801158905,0.14170041680335999,-0.1513414829969406,0.0679951012134552,-0.027355274185538292,0.06333797425031662,0.1774861365556717,-0.010269679129123688,-0.008569194935262203,0.3571741580963135]},{"W":[[-0.26659122109413147,-0.07075440883636475,-0.040043916553258896,-0.11288703978061676,-0.250611811876297,-0.08341574668884277,-0.32073065638542175,0.0933886393904686,0.25185152888298035,0.0472840741276741,0.020230144262313843,-0.26453685760498047,-0.10276977717876434,0.09021353721618652,0.024769742041826248,-0.09669464081525803,0.1720777302980423,0.06712367385625839,0.2709437310695648,-0.1110413447022438,-0.08102603256702423,0.053060133010149,-0.09065776318311691,0.00520139979198575,0.052157461643218994,0.003164456458762288,0.16723252832889557,0.180761456489563,-0.14429420232772827,-0.218990296125412,-0.05220528692007065,-0.13929010927677155,-0.07086344808340073,0.3017767071723938,0.05550801753997803,-0.08684084564447403,-0.10879310220479965,-0.16360868513584137,0.2643454372882843,-0.1248001828789711],[-0.04475989565253258,-0.21154756844043732,-0.03636059910058975,0.058694321662187576,0.1041184738278389,0.045480262488126755,0.14030060172080994,0.10833628475666046,0.1466798335313797,-0.03952400013804436,0.2392347902059555,0.01016583014279604,-0.11930528283119202,0.11909783631563187,0.00152771535795182,0.2976764738559723,-0.008717922493815422,-0.17789754271507263,-0.4817165732383728,-0.019089072942733765,-0.027755480259656906,0.1079145073890686,0.08348266035318375,0.15325966477394104,0.10443396866321564,-0.17335619032382965,0.084417425096035,-0.22996434569358826,-0.11909735947847366,0.2516096234321594,-0.10079324245452881,-0.0879724845290184,-0.08401123434305191,-0.07241959869861603,0.08249054104089737,-0.04713936522603035,0.0748864933848381,0.3525029420852661,0.0013673579087480903,-0.05959939956665039],[-0.41427934169769287,0.06895370781421661,0.2641567587852478,-0.099061980843544,-0.41406136751174927,0.30311229825019836,0.01787821389734745,0.17479081451892853,0.4750898480415344,-0.061259590089321136,0.1702185571193695,-0.1224122866988182,0.2908984124660492,0.1424371898174286,0.274234414100647,0.07656748592853546,-0.11554168164730072,-0.17064979672431946,-0.03222750872373581,0.09556793421506882,0.1366555392742157,-0.12736168503761292,-0.06568151712417603,0.07636269181966782,-0.3436749279499054,0.18533702194690704,0.3616366386413574,-0.012427177280187607,0.10455870628356934,0.17910635471343994,-0.17988891899585724,0.34626105427742004,0.042366720736026764,0.39160436391830444,-0.24295690655708313,-0.08505536615848541,-0.06355760246515274,0.11396457254886627,0.15509504079818726,0.09729769825935364],[-0.07222658395767212,-0.1417413204908371,0.09601671993732452,0.12226405739784241,0.09253809601068497,-0.06730972230434418,-0.11442027986049652,-0.07923038303852081,0.09336182475090027,-0.01103005651384592,0.0583670400083065,0.1902913600206375,-0.13359080255031586,0.05279309302568436,0.012395566329360008,-0.15493378043174744,-0.03805047646164894,-0.05031793564558029,0.22741644084453583,-0.1881905198097229,0.04697265848517418,-0.27241072058677673,-0.017305968329310417,-0.032161369919776917,0.10227528214454651,0.010070379823446274,-0.12930896878242493,0.042798127979040146,-0.06851031631231308,-0.07411208003759384,-0.07259101420640945,-0.05711369216442108,0.10193346440792084,-0.13223415613174438,-0.1738201379776001,0.05303027480840683,0.008669605478644371,-0.11240539699792862,0.19447678327560425,-0.08238391578197479],[0.16226065158843994,-0.1147073432803154,-0.27332186698913574,0.027316736057400703,0.2265007197856903,-0.6298540830612183,-0.20335865020751953,-0.6579578518867493,-0.7103632092475891,0.22345289587974548,-0.6958538889884949,0.07032264769077301,-0.5085994601249695,-0.2725975811481476,-0.46754035353660583,-0.24491403996944427,0.2143036276102066,-0.2326740175485611,-0.15804754197597504,-0.05083045735955238,-0.46528956294059753,-0.28732672333717346,0.19607703387737274,-0.30701035261154175,0.14318493008613586,0.24359425902366638,-0.8552430868148804,-0.14054711163043976,0.08385275304317474,-0.46666449308395386,0.6169068217277527,-0.2584669291973114,-0.3815169036388397,-0.8069339990615845,-0.14585092663764954,0.4643678367137909,0.0084846131503582,-0.41194120049476624,0.18083511292934418,0.12379921227693558],[0.26278939843177795,0.017169184982776642,-0.21926717460155487,0.05439864471554756,0.15605764091014862,-0.0909695252776146,0.41409796476364136,0.19487588107585907,-0.14343932271003723,0.12468107044696808,0.1910029649734497,0.12938524782657623,-0.14302222430706024,-0.27712634205818176,0.03858991712331772,0.3388577103614807,-0.30730319023132324,-0.14517563581466675,-0.1520758867263794,0.11104816198348999,0.1840853989124298,0.0310230553150177,0.06512174755334854,0.1661534458398819,0.09045036882162094,-0.029675792902708054,-0.37516480684280396,-0.1559533327817917,-0.13121187686920166,0.1944708377122879,-0.013759568333625793,0.018180783838033676,-0.07391509413719177,-0.4119246006011963,-0.17387723922729492,-0.06833061575889587,-0.0234818197786808,0.23615284264087677,-0.39385703206062317,-0.0060361274518072605],[0.3189220428466797,-0.21982648968696594,-0.2664460837841034,0.13323085010051727,0.2520385682582855,-0.49469369649887085,-1.0850087404251099,-0.20502105355262756,-0.8708294630050659,0.18519744277000427,-0.8277708292007446,0.07498280704021454,-0.4387243986129761,-0.22914159297943115,-0.26812341809272766,-0.7026686072349548,0.032357342541217804,-0.17059817910194397,0.15347474813461304,-0.15760433673858643,-0.7970570921897888,-0.33490225672721863,0.3404507339000702,-0.1416931450366974,0.3543888330459595,-0.2356746792793274,-1.2820156812667847,-0.12184105068445206,-0.06347190588712692,-0.9359467029571533,0.5721852779388428,-0.3672111928462982,-0.48843905329704285,-0.9993432760238647,-0.0320880189538002,0.11053473502397537,0.12456152588129044,-0.3143303096294403,0.38704803586006165,0.1548311859369278],[0.11438699066638947,-0.10849347710609436,-0.24631056189537048,0.015890607610344887,0.15002276003360748,-0.04118875041604042,0.14759522676467896,0.07132337242364883,-0.01552235521376133,0.02251872792840004,0.06621429324150085,0.15830574929714203,-0.009473970159888268,-0.1346672624349594,-0.12010829150676727,0.09031736105680466,0.01539142057299614,0.0351477712392807,-0.4401240050792694,-0.18125063180923462,0.049311451613903046,-0.0206905547529459,0.05764913931488991,0.0030076017137616873,0.1507960557937622,-0.02967849373817444,0.021594643592834473,-0.12701959908008575,0.05916454270482063,0.09082751721143723,-0.033334214240312576,0.023841770365834236,-0.17264194786548615,-0.04517025500535965,0.02756626531481743,0.06911708414554596,0.08550131320953369,-0.018590938299894333,-0.0029908923897892237,0.09286324679851532],[-0.2930007576942444,0.1498614102602005,0.11663390696048737,-0.17945809662342072,-0.09682519733905792,0.16204802691936493,-0.30151262879371643,-0.09271840006113052,0.24276398122310638,-0.13485842943191528,-0.0178960170596838,-0.13489703834056854,0.10629837960004807,0.16153959929943085,-0.10979440808296204,-0.1476927250623703,0.12698917090892792,0.0831839069724083,0.20798107981681824,-0.040008604526519775,0.04071829468011856,0.00826213788241148,-0.06139606609940529,-0.06178819015622139,-0.03190765529870987,0.1958262324333191,0.1268082559108734,0.19613149762153625,0.039086852222681046,-0.10163205116987228,0.016560114920139313,0.03202304616570473,0.0528082437813282,0.31302177906036377,0.1377117782831192,0.015547721646726131,0.07221247255802155,0.13295641541481018,0.15335910022258759,0.0218155886977911],[0.2942836582660675,0.03652971610426903,-0.015259457752108574,0.17516520619392395,0.22304825484752655,-0.23630641400814056,0.34120962023735046,-0.2795805335044861,-0.09686819463968277,0.06444999575614929,0.03413734585046768,0.04792233556509018,-0.21665796637535095,0.03952333331108093,-0.24830946326255798,0.1732315868139267,0.16922904551029205,-0.14255580306053162,-0.23453299701213837,-0.07685373723506927,0.1664578765630722,-0.07587306201457977,0.09894952923059464,0.11356700956821442,0.18617118895053864,0.1322176158428192,-0.20041288435459137,-0.14700546860694885,0.09040761739015579,0.05853867158293724,0.2583906352519989,-0.2574899196624756,-0.09344863891601562,-0.34954825043678284,0.219094917178154,0.1873483955860138,0.11279382556676865,0.07022065669298172,-0.28143543004989624,-0.11854060739278793],[-0.3116547167301178,-0.18931162357330322,0.15324336290359497,0.20473644137382507,-0.3113750219345093,-0.2521265149116516,-1.085383415222168,-0.25075462460517883,-0.5321632027626038,0.43891647458076477,-2.146984100341797,0.11940396577119827,-0.22529461979866028,-0.3374219238758087,0.09514393657445908,-0.8474769592285156,-0.11447180062532425,-0.06929930299520493,0.7715789675712585,-0.014929112046957016,-0.8394564986228943,-0.5991730093955994,-0.1643710881471634,-0.8725181221961975,-0.10024499148130417,-0.14664624631404877,-0.8354036808013916,0.0726119801402092,-0.2045706957578659,-1.9580204486846924,0.061002958565950394,0.10324106365442276,-0.5195673108100891,-0.10749796777963638,-0.07184695452451706,-0.047561854124069214,0.11266136914491653,-0.5335586071014404,0.7163804769515991,0.28247469663619995],[0.24550695717334747,-0.08333417028188705,-0.2496490478515625,0.021984897553920746,0.030252473428845406,0.016117235645651817,0.162288099527359,0.11546146869659424,-0.07239290326833725,-0.011026544496417046,-0.07439574599266052,0.13817492127418518,-0.09354767948389053,0.009484252892434597,-0.17564494907855988,0.21217794716358185,-0.11342039704322815,-0.21195782721042633,-0.2017083764076233,0.056041110306978226,0.14667941629886627,-0.04430227726697922,-0.04893731698393822,0.00024307670537382364,-0.047878239303827286,-0.043283287435770035,-0.20871806144714355,0.09304229170084,0.02443455532193184,-0.10440707951784134,0.1013222262263298,-0.15018953382968903,-0.16148139536380768,-0.32399049401283264,0.013428877107799053,-0.10356166958808899,0.21476489305496216,0.1804419606924057,-0.30318522453308105,-0.14883846044540405],[0.6143388152122498,-0.04966329410672188,-1.0222210884094238,-0.0911373570561409,0.6803414821624756,-0.40370792150497437,0.1376303881406784,-0.16719384491443634,-0.27678734064102173,-0.06732799857854843,-0.05502748861908913,-0.05840764194726944,-0.36614158749580383,-0.18113623559474945,-0.3574226200580597,0.37600788474082947,0.04645026475191116,-0.05345241352915764,-0.6946545243263245,-0.20373542606830597,-0.08010902255773544,0.17698511481285095,0.3033686578273773,0.29980477690696716,0.5779869556427002,-0.18466128408908844,-0.510948657989502,-0.2096421867609024,0.02997177094221115,0.32285699248313904,0.34437674283981323,-0.28318309783935547,0.1471765786409378,-0.2718546390533447,0.23311880230903625,-0.04597145691514015,-0.14735622704029083,0.10757415741682053,-0.3801110088825226,-0.20281468331813812],[0.03365952894091606,-0.010241561569273472,-0.1881338208913803,-0.07439280301332474,0.11887921392917633,-0.5324332118034363,0.14899186789989471,-0.10503040254116058,0.10144864022731781,0.07914413511753082,0.13494274020195007,-0.07065267860889435,-0.07682076096534729,0.09941285103559494,-0.28206005692481995,0.08682873845100403,0.3249833285808563,0.044183164834976196,-0.17647463083267212,-0.194657102227211,-0.0319591723382473,0.040472354739904404,0.013530831784009933,-0.17148469388484955,0.4710909128189087,-0.1856301724910736,-0.1148604154586792,-0.023791896179318428,0.032395657151937485,0.10370998084545135,0.41438743472099304,-0.2865610718727112,0.2026095986366272,0.1641852706670761,0.1293351650238037,-0.1097508892416954,-0.20616120100021362,-0.19990597665309906,-0.11280427128076553,-0.21373355388641357],[-0.20851550996303558,-0.07401100546121597,0.2455226629972458,0.12257850170135498,-0.011054019443690777,0.1846471130847931,0.11269441246986389,0.2696457803249359,-0.024987244978547096,-0.05681022256612778,0.13725969195365906,-0.07716188579797745,-0.046758778393268585,0.07698714733123779,0.3462374806404114,-0.05326741933822632,-0.0690753161907196,-0.061233267188072205,-0.041633982211351395,0.09770538657903671,0.34066855907440186,0.08647884428501129,-0.2603450417518616,0.005032549146562815,-0.027028555050492287,0.08341778814792633,0.0418907068669796,-0.09162741154432297,-0.07545998692512512,0.054371628910303116,-0.326651930809021,0.1982484757900238,0.1000409871339798,0.08170926570892334,-0.11166691780090332,-0.13587264716625214,0.10107347369194031,0.25134941935539246,0.04424966499209404,0.09226342290639877],[-0.0389317125082016,-0.2886994779109955,0.06517941504716873,0.04938499629497528,0.11831461638212204,0.2731773257255554,0.04366997256875038,0.20998486876487732,0.07319456338882446,0.1972692310810089,0.164676696062088,0.0515170693397522,-0.09223221242427826,-0.03379686921834946,0.041819747537374496,0.014342432841658592,-0.3745638430118561,-0.06187106668949127,-0.03430730104446411,-0.1314542591571808,-0.08332742750644684,-0.10552656650543213,-0.12526270747184753,-0.06277353316545486,-0.002234881278127432,0.013313126750290394,0.17512521147727966,-0.2386864870786667,0.11629490554332733,-0.0799269825220108,-0.31585389375686646,0.02802557311952114,-0.02664821594953537,-0.21832866966724396,-0.20734922587871552,-0.1041584387421608,0.1283968687057495,0.1681053638458252,-0.06675758957862854,-0.04472823441028595],[0.22872914373874664,-0.057304076850414276,-0.4228404462337494,0.16649135947227478,0.292974054813385,-0.8188855648040771,-0.05437057465314865,-0.7097326517105103,-1.0064340829849243,0.09223750978708267,-0.5337578654289246,0.1755489706993103,-0.31144779920578003,-0.3737126886844635,-0.4564237892627716,-0.08217642456293106,-0.13366666436195374,0.051175136119127274,-0.4585435390472412,0.0952073484659195,-0.45965343713760376,-0.2987407147884369,0.05178385600447655,-0.05413484573364258,0.24158048629760742,0.22253194451332092,-0.8727991580963135,-0.036811381578445435,-0.13976484537124634,-0.41583654284477234,0.5988024473190308,-0.3794192373752594,-0.4165365993976593,-0.7888057827949524,-0.0991167351603508,0.5570064783096313,0.17478008568286896,-0.24966521561145782,0.12074706703424454,-0.036818843334913254],[-0.06770917028188705,0.07447856664657593,0.14126387238502502,-0.18872182071208954,0.04303808510303497,-0.16881340742111206,-0.5632093548774719,-0.03252235800027847,0.008363385684788227,-0.04855097085237503,-0.2738508880138397,0.10071725398302078,-0.07771454006433487,0.16727152466773987,-0.20009098947048187,-0.36485958099365234,0.1279493123292923,0.17687498033046722,0.5411772727966309,-0.17037276923656464,-0.12272107601165771,-0.3448227047920227,0.1547050178050995,0.041759807616472244,0.019175834953784943,-0.3733360767364502,0.24793663620948792,0.1342886984348297,0.18392711877822876,-0.6820735931396484,0.0163370743393898,-0.30755186080932617,-0.052567046135663986,0.5017926096916199,-0.043661415576934814,-0.027740629389882088,0.1467151939868927,-0.10621500760316849,0.2937505841255188,-0.16820645332336426],[-0.5460540056228638,-0.10049587488174438,0.5799396634101868,-0.039508260786533356,-0.5490639209747314,0.22767087817192078,-0.07229401171207428,0.30132272839546204,0.9120025038719177,0.05701513960957527,0.02215689606964588,0.1450134813785553,0.3107582628726959,0.03650085628032684,0.1786504089832306,-0.11588285118341446,-0.005717441439628601,0.05479911342263222,0.5001514554023743,0.0052847545593976974,0.2080811858177185,-0.07951444387435913,-0.16402031481266022,-0.14054855704307556,-0.36787986755371094,-0.04716605693101883,0.49201101064682007,-0.025824662297964096,0.023469997569918633,-0.0054731545969843864,-0.4022864103317261,0.42870384454727173,0.05092285946011543,0.5635538697242737,0.017360050231218338,-0.2968106269836426,-0.018316511064767838,0.25975683331489563,0.3116300106048584,0.06057045981287956],[0.2999740540981293,-0.1890224665403366,-0.2424180805683136,0.25289538502693176,0.11364319175481796,0.10935220867395401,0.2816679775714874,-0.10036883503198624,0.013168882578611374,0.22162604331970215,0.07403198629617691,0.03254939615726471,-0.0543900765478611,-0.0999920517206192,0.21813364326953888,0.05520820990204811,-0.00021354334603529423,0.004282284993678331,-0.16503466665744781,-0.14986030757427216,0.19374030828475952,0.09291611611843109,-0.0481593981385231,0.10163509100675583,0.02324923500418663,-0.10226967185735703,-0.23732520639896393,-0.11295941472053528,-0.18079817295074463,0.17399826645851135,0.22399382293224335,-0.05673015117645264,0.06651764363050461,-0.3219960629940033,0.01219241414219141,-0.04947288706898689,0.011272992938756943,0.10512852668762207,-0.0034047828521579504,0.006568283773958683],[-0.2909030616283417,0.14473645389080048,0.19251790642738342,-0.03562794625759125,-0.17027647793293,0.15623463690280914,-0.24343426525592804,0.18602228164672852,0.2556672692298889,-0.007046916056424379,0.055574074387550354,-0.03838775306940079,0.033471278846263885,0.25786063075065613,0.0023356438614428043,-0.18617960810661316,0.10445528477430344,-0.04275088384747505,0.17576122283935547,0.018222959712147713,0.018483014777302742,0.03219625726342201,0.13867484033107758,-0.025923261418938637,-0.05601488798856735,-0.027878565713763237,0.23043933510780334,0.05041176825761795,0.15353353321552277,-0.12350600957870483,-0.24207575619220734,0.0012038566637784243,0.15015952289104462,0.45480573177337646,0.1123974397778511,0.02471046708524227,0.1635807603597641,0.14291812479496002,0.23343954980373383,-0.025464996695518494],[-0.3124617636203766,-0.07463408261537552,0.1304023116827011,0.07723946869373322,-0.13363881409168243,0.1862572282552719,-0.24184581637382507,0.12084022164344788,0.15088234841823578,-0.07001756876707077,0.25723010301589966,-0.10395839810371399,0.1408657729625702,0.027839012444019318,-0.05936671793460846,-0.009867321699857712,0.10341595858335495,0.10427948832511902,0.15491949021816254,-0.12977957725524902,-0.053438324481248856,-0.08325865119695663,-0.12809044122695923,0.10871509462594986,-0.06056390330195427,0.1831928938627243,0.08779755234718323,0.05309350788593292,0.09794927388429642,-0.1205412745475769,-0.026237960904836655,-0.03687340393662453,0.1615179032087326,0.49313804507255554,-0.06432373821735382,-0.17655977606773376,0.09145034104585648,0.05311601981520653,0.10396773368120193,0.1374315321445465],[-0.23300237953662872,0.0005920108524151146,0.24419806897640228,-0.001324581797234714,-0.22507382929325104,0.008410988375544548,-0.39543959498405457,-0.08997464179992676,0.2001158744096756,-0.10099934041500092,-0.035664040595293045,-0.07979372143745422,0.01012066937983036,0.10018054395914078,-0.15171349048614502,-0.34915682673454285,0.06849741190671921,-0.015111047774553299,0.20544882118701935,-0.03397456556558609,-0.16931962966918945,-0.03415019437670708,-0.06498439610004425,-0.08812163770198822,-0.003988460637629032,-0.14907856285572052,0.1259426325559616,0.20547674596309662,0.14219540357589722,-0.13899123668670654,0.053178586065769196,0.11819256097078323,0.0465020127594471,0.11079815775156021,-0.09239129722118378,-0.058431413024663925,-0.05777370557188988,-0.24210196733474731,0.36679473519325256,-0.12126356363296509],[0.21049298346042633,-0.14625173807144165,-0.11093886941671371,0.09928625822067261,-0.01092142891138792,0.13792437314987183,-0.08905086666345596,-0.07187515497207642,-0.13923878967761993,0.08814524114131927,0.12623853981494904,0.25046399235725403,-0.02398749440908432,-0.11639383435249329,0.1649019867181778,0.03580153360962868,0.04620743542909622,-0.14994655549526215,-0.22469738125801086,-0.24426652491092682,0.1702306568622589,-0.06744606047868729,-0.1296333223581314,0.02324715256690979,-0.07634885609149933,-0.04614381492137909,0.009372320957481861,-0.10621914267539978,0.010809616185724735,-0.13642606139183044,0.01883230358362198,-0.1942872852087021,-0.060002610087394714,0.1482892483472824,0.13180464506149292,0.136070117354393,0.1647692322731018,0.2000076323747635,0.009858968667685986,0.06758911907672882],[0.04017290845513344,0.17499108612537384,0.12118231505155563,-0.08879326283931732,0.004793565720319748,-0.18596228957176208,0.025792889297008514,-0.2763204276561737,0.0095052570104599,-0.03143073990941048,-0.00915001891553402,0.05944883078336716,-0.15408574044704437,0.03616229072213173,-0.08335386961698532,-0.1730509102344513,0.32880261540412903,0.17765608429908752,0.47349482774734497,-0.07309290021657944,-0.13561438024044037,-0.13859891891479492,-0.009187462739646435,0.006638170685619116,0.10121330618858337,0.09215666353702545,-0.18910902738571167,0.21662667393684387,-0.10878700017929077,0.041574981063604355,0.24852000176906586,-0.009790433570742607,0.06990261375904083,0.3279212713241577,0.13600614666938782,0.02385123074054718,0.20056374371051788,-0.04317954182624817,0.08128587901592255,-0.09124981611967087],[0.23523516952991486,0.20347397029399872,-0.12737922370433807,0.10825590789318085,-0.10617496818304062,-0.3054850399494171,-0.22773033380508423,-0.009581308811903,-0.3341588079929352,-0.02711840346455574,-0.4092200696468353,0.06287747621536255,-0.1818498969078064,-0.17500333487987518,-0.06864788383245468,-0.13024058938026428,-0.026716560125350952,0.05825803056359291,-0.11797911673784256,0.05909615382552147,-0.06659859418869019,-0.2297300398349762,-0.039984818547964096,-0.2506794035434723,-0.034775249660015106,0.36897948384284973,-0.2747633755207062,0.18847769498825073,-0.05608782172203064,-0.2604718804359436,0.1344691514968872,-0.03564959764480591,-0.1914667934179306,-0.6023209095001221,0.0489971898496151,0.08646214008331299,0.14805172383785248,-0.16817010939121246,0.180141881108284,0.041066691279411316],[-0.05148906260728836,0.21450896561145782,0.261308878660202,-0.2543935477733612,-0.14061038196086884,-0.1123657152056694,-0.08326385915279388,-0.016840197145938873,0.28064894676208496,-0.037568338215351105,-0.02649630978703499,-0.2235589325428009,-0.062472037971019745,0.06749206781387329,-0.07459118217229843,-0.10192172229290009,0.12442617118358612,-0.007757067214697599,-0.0066230278462171555,0.329265832901001,0.047136373817920685,-0.06495348364114761,-0.0003995136939920485,0.06266070902347565,-0.15029987692832947,0.19301874935626984,0.13283130526542664,0.06506093591451645,0.2032892405986786,-0.1391185075044632,0.031502775847911835,-0.03755168989300728,-0.06698322296142578,0.26038888096809387,-0.06899704039096832,-0.024937037378549576,0.03640812262892723,-0.12636405229568481,-0.08864475786685944,0.030030107125639915],[0.11223771423101425,-0.0069578867405653,0.23396752774715424,-0.0023882752284407616,-0.0312681719660759,-0.23480172455310822,0.07403144985437393,0.07617874443531036,-0.01900366321206093,0.08123690634965897,-0.16804808378219604,-0.06564729660749435,-0.11914347857236862,0.02951386757194996,-0.06083224341273308,-0.023846635594964027,0.04049628973007202,-0.030390115454792976,0.0690922886133194,0.018032552674412727,-0.06047094240784645,-0.07444915920495987,0.1981227993965149,-0.05811340734362602,-0.09232795983552933,0.0829353779554367,0.10857393592596054,-0.06053679808974266,0.23567081987857819,-0.11467353999614716,0.1958312690258026,0.17148149013519287,0.20901009440422058,-0.025401774793863297,0.007630814332515001,0.021773984655737877,-0.0625377669930458,-0.15514293313026428,0.0748090073466301,-0.01164659671485424],[0.1775350570678711,-0.04123833775520325,-0.33174610137939453,-0.0970798060297966,0.046037014573812485,-0.38937562704086304,-0.007431273814290762,-0.5523453950881958,-0.9827812314033508,0.07894475758075714,-0.40017169713974,0.0027898605912923813,-0.32072627544403076,-0.31715407967567444,-0.35754477977752686,-0.020747506991028786,0.15869055688381195,0.06405244022607803,0.040119923651218414,0.0293858852237463,-0.32223910093307495,-0.07202792167663574,-0.11989625543355942,-0.06749726086854935,0.15770500898361206,0.08973602950572968,-0.6574515104293823,0.07654988765716553,0.11636227369308472,-0.061551399528980255,0.4856579601764679,-0.1412053406238556,-0.2669857144355774,-0.7313442826271057,-0.054333996027708054,0.33231544494628906,-0.04611356556415558,-0.32135558128356934,0.05860221013426781,0.05771329253911972],[0.29944342374801636,0.07416538894176483,-0.04110623523592949,0.1569245606660843,-0.00947610940784216,-0.34812337160110474,-0.0762280747294426,0.020675383508205414,0.02247229404747486,0.10550573468208313,-0.1584063321352005,0.03486625850200653,-0.05944749340415001,-0.005480350460857153,-0.28116828203201294,-0.16100026667118073,0.20775766670703888,0.0498371459543705,-0.16504232585430145,-0.13814622163772583,-0.22399213910102844,0.15468890964984894,-0.0786929577589035,0.04049663245677948,0.16181984543800354,0.01398259587585926,-0.11434018611907959,0.08798512071371078,0.02986869029700756,0.04219893738627434,0.3441321551799774,-0.07149429619312286,0.022031662985682487,-0.06949497014284134,-0.05093635246157646,0.012557350099086761,-0.09120631217956543,-0.2690945565700531,0.04403872415423393,-0.024213314056396484],[-0.1596793681383133,-0.09430379420518875,0.22186961770057678,0.09825213998556137,-0.14031882584095,-0.18948738276958466,-0.21938461065292358,-0.18323537707328796,-0.015104667283594608,-0.0124552883207798,-0.024470459669828415,-0.21906094253063202,0.010803883895277977,0.0016993654426187277,-0.17098110914230347,-0.3393598794937134,0.0566939152777195,0.03882645070552826,0.4271632730960846,0.09259528666734695,0.057670094072818756,0.024944350123405457,-0.004135399125516415,0.01474104542285204,-0.13150924444198608,0.13912224769592285,0.2572093605995178,0.0037506227381527424,0.0979342982172966,-0.33457911014556885,-0.08817900717258453,0.06350541859865189,0.040667932480573654,0.05884170159697533,0.07584866136312485,-0.07786811143159866,-0.14113128185272217,-0.007651612628251314,0.11057987809181213,0.010550754144787788],[0.0061273942701518536,0.26017335057258606,0.15173420310020447,-0.30242618918418884,-0.07487186044454575,-0.02183016948401928,-0.22983184456825256,0.13479019701480865,0.07554510980844498,-0.23968733847141266,-0.09995361417531967,-0.062188901007175446,0.0357939675450325,0.22432728111743927,-0.04313715547323227,-0.2083607017993927,0.23414663970470428,0.2643781304359436,0.33330976963043213,0.2088422328233719,-0.19400997459888458,0.009182724170386791,0.06614180654287338,-0.08667108416557312,0.06545598804950714,0.03591608628630638,0.1455308347940445,0.12634551525115967,-0.047983571887016296,-0.07258390635251999,0.08251961320638657,0.03355161100625992,0.21633721888065338,0.04171818122267723,0.1673256903886795,-0.03893452137708664,-0.09886771440505981,0.023241814225912094,-0.0107175437733531,-0.1082400530576706],[-0.14530865848064423,-0.08452076464891434,0.014209981076419353,0.07877472043037415,-0.24424812197685242,0.2178335189819336,0.1382574886083603,0.15995311737060547,0.025821566581726074,-0.13831281661987305,0.10958843678236008,0.10632074624300003,0.28885596990585327,0.062156353145837784,0.21532350778579712,0.11107107251882553,-0.2351030856370926,-0.09816303104162216,-0.2202964574098587,0.01576978713274002,0.07582999765872955,0.2205837070941925,-0.0249367393553257,0.08021331578493118,-0.08482293784618378,-0.1383107304573059,0.15985234081745148,-0.25813671946525574,0.10339957475662231,0.10189545899629593,-0.23848295211791992,0.18130744993686676,0.13281989097595215,0.12314850836992264,-0.09649494290351868,-0.32793283462524414,-0.026143623515963554,0.19747601449489594,0.05029793083667755,-0.01803532801568508],[-0.01292866189032793,0.11962613463401794,-0.011534444987773895,-0.1908065229654312,-0.0976020023226738,-0.05001194030046463,0.20697911083698273,0.14907214045524597,0.02640707790851593,-0.009479625150561333,0.06928560137748718,-0.12663498520851135,-0.07779724150896072,0.04924289509654045,0.02169598825275898,0.07532092928886414,-0.012264910154044628,0.16083848476409912,-0.03115903213620186,0.29295575618743896,0.22879399359226227,0.14247196912765503,-0.26120322942733765,-0.043346572667360306,0.10033167153596878,0.33032286167144775,-0.08508756756782532,0.18210814893245697,-0.04969348385930061,-0.06311975419521332,-0.04043925926089287,0.015102443285286427,-0.06689339131116867,0.17956402897834778,-0.038716912269592285,-0.04612533003091812,-0.15311263501644135,0.06205691769719124,-0.041710443794727325,-0.17173036932945251],[0.07080114632844925,0.060690738260746,-0.010077298618853092,-0.007487740367650986,0.14849430322647095,-0.1809777170419693,-0.14870192110538483,-0.14077214896678925,-0.03906793147325516,0.1368209421634674,-0.2160588502883911,0.14544044435024261,0.03791419789195061,-0.12964589893817902,-0.0989120751619339,-0.14564405381679535,0.07651911675930023,-0.02738540805876255,0.23767630755901337,0.07837353646755219,-0.10399606078863144,-0.22088603675365448,-0.2934059202671051,-0.14020611345767975,0.06505749374628067,0.1895536631345749,0.011107323691248894,-0.07296071946620941,0.004783004056662321,-0.2988315522670746,0.11406023800373077,0.003845745464786887,-0.22535273432731628,-0.13500379025936127,-0.01173924095928669,0.24090658128261566,-0.004610838834196329,-0.15632875263690948,0.15336862206459045,-0.09145171195268631],[-0.419213205575943,0.03304750844836235,0.04894643276929855,0.09978991001844406,-0.3106897473335266,0.38695651292800903,-0.17494294047355652,0.0998748391866684,0.41409945487976074,-0.06254563480615616,0.2276601642370224,0.09613748639822006,0.3273282051086426,-0.030978260561823845,0.13332484662532806,-0.07581139355897903,-0.06522344052791595,-0.11633928120136261,-0.002867763862013817,-0.03246274217963219,-0.03624827787280083,-0.15348391234874725,0.12425410002470016,-0.0059455460868775845,0.024745795875787735,0.034112218767404556,0.3794710636138916,-0.03535821661353111,-0.024211589246988297,-0.0028893824201077223,-0.317226380109787,0.24171830713748932,0.01745203509926796,0.29501697421073914,-0.11861146241426468,-0.083087258040905,0.1289089471101761,0.07047538459300995,0.2388351708650589,0.09050074219703674],[-0.03507186844944954,-0.027294253930449486,-0.014112054370343685,0.24039170145988464,-0.05287545546889305,0.1585443913936615,0.16913378238677979,0.09694046527147293,0.06872352212667465,-0.025706887245178223,0.15103241801261902,0.24621282517910004,-0.12929555773735046,-0.020511513575911522,0.15817958116531372,0.19170770049095154,-0.03484028950333595,0.04268290847539902,-0.012124191038310528,-0.27595826983451843,-0.006142848636955023,-0.039575040340423584,0.07225911319255829,-0.09564463049173355,-0.012892622500658035,-0.2456582933664322,-0.20695830881595612,0.10972459614276886,-0.09896821528673172,0.08258798718452454,-0.05055074766278267,-0.10179809480905533,-0.03144552931189537,0.22271287441253662,-0.02427440881729126,0.21409252285957336,0.13516391813755035,0.18765324354171753,-0.1973741352558136,-0.07378067076206207],[-0.11407139152288437,-0.034240514039993286,-0.073645681142807,0.08444683998823166,0.17942237854003906,0.07428766787052155,-0.08778581768274307,-0.16553150117397308,0.15532900393009186,0.02436264231801033,0.09736183285713196,-0.007182950619608164,-0.060453303158283234,0.07449622452259064,-0.13184280693531036,0.1434202790260315,0.08099441230297089,-0.12372713536024094,-0.14989028871059418,-0.13432544469833374,0.039308976382017136,-0.11813103407621384,0.1606687307357788,-0.1371808499097824,-0.08535677939653397,-0.18195709586143494,0.05190527066588402,0.03622468188405037,-0.09348262846469879,0.13890404999256134,-0.16799838840961456,-0.0009328347514383495,-0.0861632227897644,0.18581530451774597,-0.15086345374584198,-0.05467376857995987,-0.10796256363391876,0.11342201381921768,-0.10507158935070038,0.0892133042216301],[-0.2595190703868866,-0.10345311462879181,0.2598944306373596,0.1438554972410202,-0.19706794619560242,0.3542710244655609,-0.0703815370798111,0.3401796221733093,0.5859047770500183,0.03246084600687027,-0.0034027567598968744,-0.0874791294336319,0.28620752692222595,0.19090192019939423,0.2124142050743103,-0.010364706628024578,-0.18436887860298157,0.10976584255695343,0.1912529170513153,-0.11038478463888168,-0.017380550503730774,-0.09644124656915665,-0.03329978883266449,-0.11725173890590668,-0.16886816918849945,-0.06604491174221039,0.22220179438591003,-0.03985850512981415,0.08250783383846283,0.03480653092265129,-0.32239362597465515,0.08470598608255386,0.22407521307468414,0.29416540265083313,-0.11929523199796677,-0.261755108833313,-0.052702680230140686,0.09509774297475815,0.11519750952720642,-0.06423976272344589],[0.009285581298172474,0.03239043429493904,-0.05768198147416115,-0.10439864546060562,-0.14768345654010773,-0.09932772815227509,-0.21251390874385834,-0.13516268134117126,0.16811750829219818,-0.1237947940826416,0.021938001736998558,-0.18996502459049225,0.005630438216030598,-0.0915517583489418,-0.09521348029375076,-0.05888640880584717,0.15021143853664398,-0.020235031843185425,0.15067076683044434,0.18220104277133942,-0.13660097122192383,0.056927040219306946,0.0956769734621048,-0.1461103856563568,-0.11262751370668411,0.15602931380271912,-0.009925232268869877,-0.08619073033332825,-0.03590165823698044,-0.17622849345207214,0.1766592115163803,0.08482149988412857,0.05540056899189949,-0.05893716961145401,-0.11540262401103973,0.10568530112504959,-0.04117102175951004,-0.20026510953903198,0.22977499663829803,-0.08681530505418777]],"b":[-0.0890887901186943,-0.06813231855630875,0.16904935240745544,0.06626903265714645,0.004040891770273447,0.1813315600156784,0.051512233912944794,-0.06461077928543091,0.09804635494947433,0.0659400224685669,0.14817602932453156,0.01936904527246952,-0.12602612376213074,-0.21423029899597168,0.11922518163919449,0.08532460778951645,0.03762060031294823,0.10860972106456757,0.11811757832765579,-0.030080245807766914,0.07447181642055511,-0.08535613119602203,0.00010127073619514704,0.17003227770328522,-0.14783875644207,-0.09355418384075165,-0.04633412882685661,-0.05215057358145714,-0.0977601557970047,-0.14535245299339294,-0.07148994505405426,-0.08515714854001999,0.046156059950590134,-0.007554817944765091,0.003244909690693021,0.04112808406352997,0.06033515930175781,0.006118786055594683,-0.0011524382280185819,0.0705161839723587]},{"W":[[0.17468474805355072,-0.25064247846603394,0.5113615393638611,0.03353302925825119,-0.3936975300312042,-0.27373334765434265,-0.01468734908849001,-0.12286537140607834,0.17155084013938904,-0.4227873682975769,-0.15237735211849213,-0.022716550156474113,-0.648370623588562,-0.3786410689353943,0.3806231617927551,0.3719865679740906,-0.5377655625343323,0.06208375096321106,0.1990365833044052,0.013291622512042522,0.5374857187271118,0.6496676802635193,0.36675968766212463,-0.02367820404469967,-0.04603149741888046,-0.19543732702732086,0.08320647478103638,-0.06161920726299286,-0.04839581251144409,-0.2774583697319031,0.48087894916534424,-0.27280664443969727,0.8965945839881897,-0.022043852135539055,0.2274019718170166,0.16367468237876892,0.19624154269695282,-0.18076954782009125,0.23344893753528595,-0.1710021048784256],[-0.022358039394021034,-0.2461438775062561,-0.3018421232700348,0.02717498317360878,0.20825856924057007,-0.05670792981982231,0.2332233339548111,-0.051194533705711365,-0.05936281755566597,-0.15370437502861023,0.331306517124176,-0.16617143154144287,-0.0045119039714336395,-0.06758076697587967,-0.1745099574327469,0.015356057323515415,0.10478018969297409,0.2660013735294342,-0.042429644614458084,-0.056057438254356384,-0.028948407620191574,0.00859218742698431,0.21489261090755463,0.08955894410610199,0.16288398206233978,0.2679135203361511,-0.07422390580177307,-0.025676198303699493,0.08987953513860703,0.1330367624759674,0.28433388471603394,0.03568153455853462,-0.2740989029407501,-0.02410030923783779,0.3446744680404663,0.04016983509063721,-0.23127296566963196,-0.1251617968082428,-0.21016325056552887,0.07843288779258728],[0.03741057217121124,-0.06513148546218872,-0.11283209174871445,-0.18284228444099426,0.4309183359146118,0.1939859241247177,0.29007962346076965,0.05428966507315636,-0.031183481216430664,0.12646366655826569,-0.011661903001368046,-0.012741011567413807,0.31211283802986145,0.08822035789489746,-0.15462739765644073,-0.3136928379535675,0.32503077387809753,0.053993336856365204,-0.44228819012641907,0.06211269274353981,-0.46687307953834534,-0.22478137910366058,-0.1620086431503296,-0.048947494477033615,-0.021953441202640533,0.15006139874458313,0.18745525181293488,-0.2522629201412201,0.3686521351337433,0.3153396546840668,-0.16635578870773315,0.12769073247909546,-0.18436889350414276,0.30964741110801697,0.21988865733146667,-0.3871452808380127,-0.30929863452911377,-0.2726891338825226,-0.3298666477203369,0.08614497631788254],[-0.09749805182218552,0.1744343787431717,0.43380770087242126,-0.15604861080646515,-0.366829514503479,-0.0674147754907608,0.09980611503124237,0.06221297010779381,0.011378531344234943,-0.16596855223178864,-0.30834636092185974,-0.079012431204319,-0.028134135529398918,-0.06969016790390015,0.3917602002620697,0.06322638690471649,-0.3003571033477783,-0.1757880002260208,0.30811578035354614,-0.10919759422540665,0.14906051754951477,0.20595693588256836,0.0606326200067997,0.14580845832824707,-0.10437654703855515,-0.468538373708725,-0.014220149256289005,-0.047757912427186966,-0.2250855565071106,-0.12781554460525513,0.04203944280743599,-0.07032898813486099,0.16672880947589874,-0.17497093975543976,-0.39883139729499817,0.1633324772119522,-0.005524704698473215,0.11246088892221451,0.038619667291641235,-0.231157124042511],[-0.0381111241877079,0.08402544260025024,0.08728945255279541,0.2135876715183258,-0.058476243168115616,0.19959594309329987,-0.17267099022865295,0.12968097627162933,-0.04241490736603737,0.21463416516780853,-0.07552529126405716,0.01539826113730669,0.14517484605312347,-0.08808452636003494,-0.12069856375455856,0.08584243059158325,-0.11051689833402634,-0.17036397755146027,0.04822631925344467,0.2159111052751541,-0.15445999801158905,-0.26530981063842773,0.0016503690276294947,0.21758252382278442,-0.11633235216140747,-0.05090498551726341,-0.14556507766246796,-0.08473289012908936,0.06594644486904144,0.05520668625831604,-0.01818765513598919,-0.2518007159233093,-0.13784047961235046,0.026037199422717094,0.00824947189539671,-0.07837497442960739,-0.0635136142373085,0.18334145843982697,-0.1566765010356903,-0.19642657041549683],[0.1616252064704895,-0.0631500631570816,0.1085444837808609,-0.06728018075227737,0.04961610957980156,-0.14489063620567322,0.1923702210187912,0.09293809533119202,0.03696685656905174,0.07231871783733368,0.15326502919197083,-0.022878114134073257,-0.0317516028881073,0.08548435568809509,-0.13303761184215546,0.08504971116781235,0.06407090276479721,-0.010852337814867496,-0.11200015246868134,0.07149503380060196,-0.16559341549873352,-0.05130012333393097,0.04237322509288788,-0.0033068193588405848,0.173026442527771,0.05771506577730179,-0.028997767716646194,-0.12566600739955902,-0.10738611221313477,0.12244642525911331,0.04438916593790054,-0.07347175478935242,-0.12745852768421173,-0.09508483856916428,0.2055944800376892,-0.07275685667991638,0.13088785111904144,0.12093601375818253,0.060795433819293976,0.11304567009210587],[-0.13292911648750305,0.21779730916023254,0.2769300639629364,0.03045405074954033,-0.27705636620521545,0.37392112612724304,-0.25647711753845215,0.23960691690444946,-0.059167250990867615,0.14249266684055328,-0.10235819220542908,0.09648668020963669,-0.007282450329512358,-0.050470296293497086,0.2745901942253113,0.21127218008041382,-0.1484767347574234,-0.3298097550868988,0.28991004824638367,0.11270824074745178,0.12197895348072052,-0.018742123618721962,-0.3921322524547577,0.11003199219703674,-0.33190903067588806,-0.5020952820777893,-0.14095664024353027,0.016351498663425446,-0.04044489935040474,-0.0026380992494523525,-0.18770870566368103,-0.35123351216316223,0.41977035999298096,-0.22787317633628845,-0.2833242118358612,0.0829615369439125,0.19543462991714478,0.0484929159283638,0.24505917727947235,-0.29688188433647156],[-0.14819908142089844,-0.12264839559793472,-0.2637864947319031,0.08877016603946686,-0.014371385797858238,-0.011666124686598778,0.2114049792289734,0.17406269907951355,-0.049899179488420486,-0.06997029483318329,-0.08185296505689621,0.053437575697898865,-0.11360064893960953,-0.14814481139183044,0.008450217545032501,0.1875072866678238,-0.0813731849193573,0.01382767129689455,-0.21634644269943237,-0.14850296080112457,-0.2654956877231598,0.03150016814470291,0.17155814170837402,-0.11633376032114029,-0.009206325747072697,-0.0034228877630084753,0.06772840768098831,-0.1552794724702835,0.007844087667763233,-0.02745216339826584,0.03306109458208084,0.1530725210905075,0.010760518722236156,0.10665513575077057,0.1587427854537964,-0.08103097975254059,-0.04392514377832413,-0.1102236807346344,-0.1422736644744873,0.10515336692333221],[0.32218286395072937,-0.33539697527885437,0.17223800718784332,0.023793119937181473,-0.016964951530098915,-0.4285826086997986,0.05390096828341484,-0.008671773597598076,-0.0006720193196088076,-0.25092992186546326,0.19214315712451935,-0.3796628713607788,-0.18612831830978394,-0.09533537179231644,-0.07488445192575455,-0.008928176946938038,0.023854302242398262,0.13845309615135193,0.18002885580062866,-0.1327505111694336,0.30817902088165283,0.23208419978618622,0.34824973344802856,-0.27750515937805176,0.013067969121038914,0.13334423303604126,-0.014206122606992722,0.041111670434474945,-0.08079613000154495,0.14279614388942719,0.6020644903182983,0.11524928361177444,-0.08302620053291321,-0.07198351621627808,-0.13574014604091644,0.17514531314373016,-0.3146238923072815,-0.24573197960853577,0.11671820282936096,0.22939717769622803],[0.08301203697919846,-0.16590163111686707,0.01589011959731579,0.04238549992442131,0.08932260423898697,-0.1802210807800293,0.1581498384475708,-0.15907655656337738,0.2244582176208496,-0.14393135905265808,-0.1615999937057495,0.06447066366672516,-0.03689710050821304,0.08065678924322128,-0.10172611474990845,0.07731930166482925,0.14417999982833862,0.20028875768184662,0.13622762262821198,-0.1614818572998047,0.025884153321385384,0.09423798322677612,0.13595406711101532,-0.12237222492694855,0.12027791142463684,-0.00027043750742450356,-0.06737305968999863,0.042944155633449554,-0.13214460015296936,-0.119659423828125,0.07683030515909195,0.13058851659297943,0.14440929889678955,0.0013960973592475057,-0.16635841131210327,-0.1326584815979004,0.1429164558649063,-0.15457111597061157,0.051172077655792236,0.22483044862747192],[0.10482765734195709,-0.18633314967155457,-0.2773906886577606,-0.13925834000110626,0.21492181718349457,-0.14968474209308624,-0.057135701179504395,-0.1564410775899887,0.1747613251209259,0.10469009727239609,0.22800187766551971,0.07743752747774124,-0.05856551229953766,-0.10553780198097229,-0.1601058542728424,0.01677054539322853,0.17796824872493744,0.10272373259067535,-0.16108658909797668,0.005099562928080559,-0.17751507461071014,-0.0802345871925354,0.03102722205221653,-0.025055663660168648,-0.12204353511333466,0.5321574807167053,0.04113214462995529,0.06722655892372131,0.22213250398635864,0.0978180468082428,0.09396888315677643,0.13669218122959137,0.08774490654468536,0.1148781105875969,0.2903832793235779,-0.11338582634925842,-0.21993492543697357,-0.14024142920970917,-0.01791648007929325,0.112651027739048],[-0.0832110047340393,-0.029950348660349846,0.24984855949878693,0.042248740792274475,-0.021739354357123375,-0.11996075510978699,-0.39054396748542786,-0.08390078693628311,-0.027326550334692,-0.24705977737903595,0.4111543595790863,-0.0026718482840806246,-0.010206588543951511,0.06703025102615356,-0.07447416335344315,0.05292649194598198,-0.2799755334854126,-0.0017239630687981844,0.17343203723430634,0.004025469999760389,0.2662671208381653,0.3283229172229767,0.1899344027042389,0.1769496351480484,-0.0031353160738945007,0.014992657117545605,-0.003918693400919437,0.10399051755666733,-0.1506890207529068,-0.0658135935664177,-0.020937610417604446,-0.15223512053489685,-0.22659258544445038,0.011609424836933613,0.01161891408264637,0.08594422042369843,0.033353254199028015,0.19342733919620514,0.1901589334011078,-0.08586622029542923],[0.08077899366617203,-0.12881357967853546,0.07793238013982773,0.06244147941470146,-0.07367908954620361,0.12014633417129517,-0.2586204409599304,0.07921899110078812,0.055599816143512726,-0.1430637389421463,-0.22930507361888885,-0.13309626281261444,0.06958591938018799,0.03619122505187988,0.14406025409698486,-0.03758196532726288,-0.24424736201763153,-0.19761738181114197,-0.12288320809602737,-0.03961196541786194,-0.007899961434304714,-0.04641375690698624,-0.09580845385789871,-0.19835926592350006,-0.12146008014678955,-0.2888301610946655,-0.0510668121278286,-0.06917627155780792,-0.004079494625329971,0.09539125114679337,0.17794692516326904,0.043495576828718185,0.1568024456501007,0.058702293783426285,-0.09293074160814285,-0.11473344266414642,0.09465450048446655,-0.1465275138616562,-0.10295037180185318,-0.00509624183177948],[0.028858518227934837,-0.052124056965112686,0.14661277830600739,0.006539400666952133,0.10677775740623474,-0.2222464680671692,-0.12279894948005676,-0.14584073424339294,0.1764599233865738,-0.10674987733364105,0.055494800209999084,0.07280516624450684,-0.08159443736076355,0.045894116163253784,0.09872131794691086,0.05237651243805885,-0.021435320377349854,-0.056980788707733154,0.049218520522117615,-0.2433384656906128,-0.06502745300531387,0.25212982296943665,0.15231573581695557,-0.18893621861934662,0.15061022341251373,0.13649296760559082,0.17811083793640137,0.15791292488574982,-0.03526470437645912,-0.0499848872423172,0.166207417845726,0.0600140355527401,0.03290889039635658,0.03213676065206528,0.1969478875398636,0.07211102545261383,-0.16435275971889496,-0.18839745223522186,-0.011770755052566528,0.09758174419403076],[0.01712200418114662,-0.05086883157491684,-0.1383078545331955,0.0032358646858483553,-0.36789125204086304,0.3557841181755066,0.06490226089954376,0.1750226467847824,-0.14421691000461578,-0.03140346705913544,-0.07572966814041138,0.13634352385997772,-0.11084169149398804,-0.07637201994657516,-0.012909543700516224,0.2042703777551651,-0.04522848129272461,-0.052609559148550034,0.2336081713438034,0.17581915855407715,0.2456001192331314,0.1344718337059021,-0.04348776116967201,0.13382650911808014,-0.1802995502948761,-0.12628529965877533,0.021734165027737617,-0.13093701004981995,-0.1777200698852539,-0.2395050823688507,-0.2149762511253357,0.07164166867733002,0.5078926682472229,-0.022307446226477623,-0.07969234138727188,0.058172039687633514,0.12568819522857666,0.0337100513279438,0.1149539053440094,-0.2237786054611206],[0.03454609215259552,0.024084651842713356,-0.0015971899265423417,0.062144987285137177,-0.3517906069755554,-0.00745801767334342,0.1691255420446396,0.12838953733444214,-0.07792703062295914,-0.36176177859306335,-0.08479832112789154,0.0066698589362204075,-0.2141176164150238,-0.2163415551185608,0.3356073200702667,0.20185495913028717,-0.15455006062984467,-0.18101662397384644,0.29974615573883057,0.043239712715148926,0.10981561988592148,0.21245594322681427,-0.10513907670974731,0.1453748345375061,-0.44139358401298523,0.04140879586338997,-0.13891494274139404,0.13658230006694794,-0.1395597904920578,-0.0824817419052124,-0.03191833198070526,-0.153586283326149,0.44427505135536194,-0.15285469591617584,-0.09065284579992294,0.22768841683864594,0.15261958539485931,0.0650879442691803,0.2290308028459549,-0.13272294402122498],[0.0023606184404343367,0.13596585392951965,-0.23943032324314117,0.1099337488412857,0.4078000783920288,0.19034883379936218,0.08342044055461884,0.11496618390083313,-0.14274930953979492,0.415593683719635,0.22630131244659424,0.3248995244503021,0.12245196104049683,0.18299949169158936,-0.2258276790380478,-0.004101331811398268,0.5030606985092163,-0.26561930775642395,-0.27939149737358093,0.07870302349328995,-0.2940846085548401,-0.19991637766361237,-0.05779960751533508,-0.05203124135732651,0.20034857094287872,-0.12911953032016754,0.14820076525211334,-0.06623172760009766,0.30551692843437195,0.14327876269817352,-0.09932369738817215,0.1333410143852234,-0.35638687014579773,0.0840880498290062,0.0869135931134224,-0.2516985833644867,-0.0550866536796093,-0.24588081240653992,-0.37639740109443665,0.1519964188337326],[0.18929089605808258,-0.11489447206258774,0.135819211602211,0.016738206148147583,0.12309445440769196,-0.35448652505874634,-0.060053128749132156,-0.11551496386528015,-0.04722993075847626,-0.0911262184381485,-0.09874855726957321,0.14194026589393616,-0.040106214582920074,0.05376172065734863,-0.10390711575746536,-0.00559786893427372,-0.1986514925956726,0.1950506865978241,0.16804811358451843,0.11812800168991089,0.1150570660829544,0.16880670189857483,-0.08097751438617706,0.05812230333685875,0.0013414943823590875,-0.1992839127779007,-0.12591689825057983,-0.18584680557250977,-0.028848931193351746,-0.060436610132455826,-0.05153045803308487,0.20506243407726288,-0.1259293407201767,0.0024365969002246857,0.01852237805724144,0.1407204568386078,0.06366319954395294,0.1969839483499527,0.08627309650182724,-0.06112699583172798],[0.4379385709762573,-0.016391685232520103,-0.09593480080366135,0.0026652293745428324,-0.033749520778656006,-0.5950040221214294,0.23529204726219177,-0.08543414622545242,0.08611579239368439,-0.20157530903816223,-0.06471540033817291,-0.1967395395040512,0.01640797033905983,0.13005273044109344,-0.10047478973865509,-0.12488996982574463,-0.11721116304397583,0.46197181940078735,0.047730911523103714,-0.2140578180551529,0.27242666482925415,-0.006178762298077345,0.3068509101867676,-0.03214645758271217,0.013641954399645329,0.04582231864333153,0.09907403588294983,0.09584201127290726,-0.1108306497335434,-0.021772058680653572,0.21670874953269958,0.1260165125131607,-0.058725759387016296,-0.05758119374513626,0.05251641198992729,0.023297397419810295,-0.19345815479755402,-0.12832002341747284,0.06538356840610504,0.2550320625305176],[0.23130923509597778,-0.002668915782123804,0.06615778058767319,-0.19789688289165497,0.12675635516643524,-0.05203160643577576,0.08044247329235077,-0.11959531158208847,0.2528572976589203,-0.18906208872795105,-0.0704977735877037,-0.1068207398056984,-0.12829485535621643,-0.10848187655210495,-0.1448449194431305,-0.011420813389122486,0.04650302603840828,0.09988037496805191,-0.04228076711297035,0.002305788453668356,0.0874016284942627,0.20608606934547424,0.15045605599880219,-0.20894959568977356,-0.07258836925029755,0.08137257397174835,0.23868107795715332,-0.14662803709506989,0.04978732764720917,-0.03255492448806763,0.19956207275390625,0.2643527686595917,0.16021695733070374,0.1572461575269699,-0.02279556170105934,0.147630974650383,-0.13133317232131958,-0.06698249280452728,-0.05197882279753685,-0.035445842891931534],[-0.20214079320430756,0.06067875772714615,-0.06590593606233597,-0.10767647624015808,-0.19435590505599976,0.10482753813266754,-0.10614348948001862,0.20231378078460693,-0.224751278758049,-0.08928167074918747,-0.16297534108161926,-0.1695627123117447,-0.05692038685083389,0.0896284282207489,0.21941956877708435,0.16791224479675293,-0.05598267540335655,-0.1897973120212555,0.16935661435127258,0.15168552100658417,-0.12093701958656311,-0.09732142090797424,0.06430871039628983,0.08484703302383423,-0.2425965517759323,-0.15830616652965546,0.05401909351348877,0.06466937810182571,-0.12259774655103683,-0.22248250246047974,0.08043820410966873,-0.18398140370845795,0.37109360098838806,-0.042408525943756104,-0.0592280849814415,0.15463948249816895,0.040076322853565216,0.059403374791145325,0.2389691174030304,-0.2090393602848053],[0.22078995406627655,-0.07024025917053223,-0.20322588086128235,0.19617120921611786,-0.11899031698703766,-0.31786048412323,0.3556070625782013,-0.11977613717317581,0.18514667451381683,-0.15177515149116516,0.5445988774299622,-0.03122672438621521,-0.1527237594127655,0.08645262569189072,-0.14067436754703522,-0.13324305415153503,0.043427154421806335,1.2778980731964111,0.0147338155657053,0.14213426411151886,0.532032310962677,0.022901663556694984,0.3830733597278595,0.10746495425701141,0.02742117829620838,0.22640812397003174,-0.19054527580738068,-0.08683016151189804,-0.06806164234876633,0.061904724687337875,0.15362374484539032,0.1479187160730362,-0.2814578115940094,-0.19425232708454132,0.27677562832832336,-0.07716178894042969,0.14462251961231232,0.02114029787480831,0.051577430218458176,0.1655293107032776],[0.043721988797187805,-0.20521865785121918,-0.14118167757987976,-0.08982612192630768,0.22888144850730896,0.05150292068719864,-0.05247886851429939,0.09663835167884827,0.045076824724674225,0.2872369587421417,0.04985412582755089,0.2645736336708069,0.13382276892662048,0.07316398620605469,0.0050802468322217464,-0.17756035923957825,0.11744823306798935,0.04401972517371178,-0.342448353767395,-0.09202030301094055,0.010609992779791355,-0.07033230364322662,-0.08988683670759201,-0.038805413991212845,0.004223613999783993,0.1546276956796646,0.023228216916322708,-0.13477526605129242,0.0872543528676033,-0.1095445305109024,-0.058225806802511215,0.01684069260954857,-0.18801863491535187,0.13384535908699036,-0.10852808505296707,-0.2080717533826828,-0.11305274814367294,0.08252722769975662,0.00925662461668253,-0.06943003088235855],[0.4276752173900604,0.011700068600475788,0.284014493227005,-0.08658929169178009,0.015605740249156952,-0.10169003903865814,-0.007811884395778179,-0.15806351602077484,0.22687752544879913,0.1273767203092575,-0.0018653256120160222,-0.22162781655788422,0.056090615689754486,0.20728527009487152,-0.15362301468849182,-0.2919011414051056,-0.06548712402582169,0.01067047193646431,-0.18640221655368805,-0.08639072626829147,0.2340518981218338,0.32915911078453064,0.17989753186702728,-0.20573292672634125,0.2774237394332886,0.04327814653515816,-0.0603657104074955,-0.03940253332257271,-0.07893174141645432,0.23988227546215057,0.025910871103405952,0.3429257571697235,-0.06244459003210068,0.17359274625778198,-0.0401814766228199,-0.19286838173866272,0.02003238908946514,0.11907683312892914,-0.11786288768053055,-0.02509448304772377],[-0.20908047258853912,-0.11545629054307938,0.02161971665918827,0.09013189375400543,0.2613779902458191,0.06667172908782959,0.8811624050140381,-0.0475509911775589,-0.013247814029455185,-0.13360579311847687,0.15330593287944794,-0.04241928830742836,-0.6608071327209473,-0.07207956165075302,-0.07801632583141327,0.13490428030490875,0.2869913578033447,-0.04076578840613365,-0.04748993739485741,-0.14779146015644073,0.07882869243621826,0.0954774022102356,-0.15070901811122894,0.23308083415031433,0.04180264472961426,0.01790478825569153,0.08897797018289566,-0.09537462145090103,0.01826031319797039,0.006934402510523796,-0.071402408182621,-0.21944473683834076,0.012131518684327602,-0.1920911818742752,0.10248266905546188,0.11449923366308212,0.13124389946460724,0.22414802014827728,-0.028615592047572136,0.1552324891090393],[-0.38964980840682983,-0.012136947363615036,-0.20987841486930847,-0.011475538834929466,-0.08723768591880798,0.6514699459075928,-0.10213639587163925,0.12131163477897644,-0.14625512063503265,0.3804226219654083,-0.3726852536201477,0.6309990286827087,0.09975641220808029,0.03101012483239174,0.08762629330158234,-0.11003386229276657,0.15896612405776978,-0.5253795385360718,-0.22803093492984772,0.09227914363145828,-0.30757927894592285,-0.435398668050766,-0.463397353887558,0.16279590129852295,0.03748280182480812,0.015492848120629787,-0.04264363273978233,-0.11953512579202652,-0.13080289959907532,-0.13257397711277008,-0.1723085641860962,-0.06682728976011276,-0.005904895253479481,0.044640619307756424,-0.2400396466255188,-0.13965000212192535,0.06090697646141052,0.16143539547920227,0.02263854257762432,0.06829001009464264],[-0.35825544595718384,0.07400155812501907,-0.12888889014720917,0.12252126634120941,0.16448888182640076,0.4327014982700348,0.15894198417663574,0.16838841140270233,-0.47140052914619446,0.005558845587074757,-0.09996074438095093,0.21112164855003357,-0.13988500833511353,-0.08631279319524765,-0.08298648148775101,-0.10751083493232727,-0.03337293490767479,0.0808425098657608,0.06580102443695068,0.35651057958602905,-0.37486618757247925,-0.28546497225761414,-0.1806599348783493,0.13051752746105194,-0.1427028626203537,0.05876437947154045,-0.23382225632667542,0.04959874227643013,0.13860146701335907,0.0026548050809651613,-0.047763191163539886,-0.2919011414051056,-0.11268346011638641,-0.19079022109508514,0.00793455820530653,-0.10704896599054337,0.02174297906458378,-0.05197078362107277,-0.09056062996387482,-0.13265232741832733],[-0.027164684608578682,-0.13255417346954346,0.36045822501182556,0.07500976324081421,-0.6017791628837585,-0.16940659284591675,0.03882848098874092,-0.1470065861940384,-0.12283249199390411,-0.12721587717533112,-0.1824456751346588,-0.12126347422599792,-0.1487593799829483,-0.05475526303052902,0.21234267950057983,-0.01590542681515217,-0.5187307000160217,-0.17517001926898956,0.13813871145248413,0.05274622514843941,0.1663641482591629,0.27227291464805603,0.18604931235313416,-0.04551197215914726,-0.10984382033348083,-0.367262601852417,-0.08228820562362671,0.03605017066001892,-0.5488308072090149,-0.03998599946498871,0.10356207191944122,-0.0007870463305152953,0.1622011661529541,0.10090585052967072,-0.20556412637233734,-0.030253421515226364,-0.0786726325750351,-0.036737341433763504,0.06216343119740486,0.05795839801430702],[-0.1575051248073578,-0.17829620838165283,-0.3647783100605011,-0.018657516688108444,0.4723147749900818,0.08173730224370956,0.13426415622234344,0.05003519728779793,-0.05328594148159027,0.43476542830467224,0.2678544521331787,0.3517465889453888,0.16782568395137787,0.27012869715690613,0.024522043764591217,0.07212811708450317,0.6060362458229065,-0.0834105983376503,-0.34402942657470703,0.06329458206892014,-0.2894730865955353,-0.09236560761928558,-0.11555986851453781,-0.013948502950370312,0.14050187170505524,0.30881407856941223,0.1456093043088913,-0.07735764235258102,0.1495971828699112,0.10316260904073715,-0.014519053511321545,-0.22160643339157104,-0.1761738508939743,0.09826504439115524,0.18741704523563385,-0.05496310442686081,-0.11155669391155243,-0.12776273488998413,-0.2473057359457016,0.06649953126907349],[-0.14824791252613068,0.089015431702137,0.2006307989358902,-0.19888129830360413,-0.12754468619823456,-0.11359245330095291,-0.3445744514465332,-0.09271091967821121,0.1456543505191803,-0.14417482912540436,-0.38481956720352173,-0.12558875977993011,0.13880811631679535,-0.04523235559463501,0.21201232075691223,-0.12991920113563538,-0.06781436502933502,-0.0850919634103775,-0.09578584134578705,-0.14889773726463318,0.09856056421995163,0.09876518696546555,0.13633032143115997,-0.03752845153212547,0.155202254652977,-0.3788442015647888,-0.06754665076732635,-0.07821977883577347,-0.19872714579105377,0.028974540531635284,0.2147393822669983,0.08700831234455109,-0.032033905386924744,-0.014795538038015366,-0.2731207013130188,-0.12789347767829895,0.11026791483163834,0.16282469034194946,0.09994024783372879,-0.09719483554363251],[0.11880162358283997,-0.09300829470157623,0.001541813719086349,0.10149811208248138,-0.16806794703006744,-0.13057731091976166,-0.2919164001941681,-0.08727600425481796,0.1557360738515854,-0.030708415433764458,0.4596991240978241,-0.10881587117910385,-0.13197989761829376,0.08280976116657257,0.16112880408763885,-0.05446609854698181,-0.12132565677165985,0.14835086464881897,-0.10190588235855103,-0.18554794788360596,0.21595484018325806,-0.07009373605251312,0.17141848802566528,-0.015193491242825985,-0.03747236356139183,0.25385385751724243,0.16061536967754364,0.017474446445703506,-0.129017174243927,-0.04158422723412514,0.017827678471803665,0.26083773374557495,-0.01411376427859068,-0.02945142425596714,-0.08331023901700974,0.02185809053480625,0.10715076327323914,0.045215219259262085,-0.1661437600851059,0.19144617021083832],[-0.3025381565093994,0.19555562734603882,0.206705704331398,-0.1601845771074295,0.02814597077667713,0.49388185143470764,-0.14972040057182312,0.252090185880661,-0.048205144703388214,0.36832356452941895,-0.09388475120067596,0.3047405481338501,-0.13196814060211182,-0.02396981045603752,0.05876242741942406,0.18444092571735382,0.1418682038784027,-0.2708664536476135,-0.10206242650747299,0.17302173376083374,-0.21923983097076416,-0.24245387315750122,-0.42772066593170166,0.014611586928367615,-0.056173767894506454,-0.3318893015384674,0.011689807288348675,0.14560852944850922,0.07364482432603836,-0.13446135818958282,-0.4383836090564728,0.012214702554047108,0.24707624316215515,0.07064542919397354,-0.12005651742219925,0.01962343230843544,0.26261869072914124,0.15494923293590546,-0.0860736072063446,-0.09850342571735382],[0.26546815037727356,0.000670157081913203,-0.11879975348711014,-0.07379590719938278,-0.0003155581944156438,-0.5395976901054382,0.14679484069347382,0.05817285552620888,0.06213906779885292,-0.04392249882221222,-0.1516684889793396,-0.1361040621995926,0.1134674996137619,0.028948482125997543,-0.014142801985144615,-0.12724649906158447,0.1379658430814743,0.3535318970680237,0.02227947674691677,-0.17937816679477692,0.38992103934288025,0.12440018355846405,0.2065839171409607,-0.05197720602154732,0.16017520427703857,0.04290531948208809,0.14511731266975403,0.12535208463668823,-0.0010801011230796576,-0.003727517556399107,0.21077217161655426,0.22118639945983887,-0.12814784049987793,0.07453170418739319,-0.15888053178787231,-0.07643534243106842,-0.015933912247419357,0.06284604966640472,-0.03749683126807213,0.32513949275016785],[0.1923602670431137,0.07448562979698181,-0.1026863157749176,-0.05912604182958603,0.04632836580276489,0.060479771345853806,-0.14229708909988403,-0.013912677764892578,0.11739146709442139,-0.05340542271733284,-0.00821601040661335,0.20358845591545105,0.060969799757003784,0.1863592118024826,-0.2025764286518097,-0.0925162211060524,0.0641305074095726,-0.019843123853206635,0.06490872800350189,-0.1789226531982422,0.19932109117507935,-0.06581677496433258,-0.0077048721723258495,-0.14223286509513855,-0.020089009776711464,-0.1141919195652008,-0.114027239382267,-0.07730060815811157,-0.1281769573688507,0.12502485513687134,0.05551845207810402,0.14617353677749634,-0.1516856551170349,-0.008093632757663727,0.1743544042110443,-0.13644056022167206,-0.11605243384838104,0.1692364662885666,-0.002906885463744402,0.027244294062256813],[0.10487577319145203,-0.10933643579483032,0.06321345269680023,-0.13409097492694855,-0.012498436495661736,-0.295979380607605,-0.03545603156089783,-0.13303065299987793,0.23009274899959564,0.002995795337483287,-0.21245025098323822,-0.19125805795192719,-0.1525694578886032,0.02188394032418728,0.15863041579723358,-0.18883077800273895,0.002738792449235916,0.1188335120677948,-0.07929623872041702,-0.05449555069208145,0.20646144449710846,0.23307092487812042,0.11577939242124557,-0.07863737642765045,-0.08103980123996735,-0.02291257306933403,0.12542474269866943,0.01834820955991745,0.11531156301498413,-0.13562330603599548,0.03926254063844681,0.029973171651363373,0.1135663166642189,0.21694517135620117,-0.04631904512643814,-0.017608322203159332,-0.1138535588979721,-0.26301509141921997,-0.13320980966091156,0.16364382207393646],[-0.2821456789970398,0.09400354325771332,-0.0961110070347786,0.1458594799041748,0.1166652962565422,0.3513232469558716,0.037461794912815094,0.18493908643722534,-0.26179635524749756,0.18665315210819244,-0.09229560196399689,0.2834636867046356,-0.06376083195209503,0.02418145351111889,0.11717072129249573,0.05598298832774162,0.13286404311656952,-0.12014748156070709,-0.10744655877351761,0.326291561126709,-0.2825733423233032,-0.04287281632423401,0.04366474598646164,0.20251746475696564,-0.07849367707967758,-0.009491126984357834,-0.23481884598731995,-0.08933079987764359,-0.08661653846502304,-0.1376076340675354,-0.02376304566860199,-0.06093593314290047,-0.11456860601902008,-0.09400863200426102,0.16906262934207916,-0.04315072298049927,0.20642448961734772,0.22442318499088287,-0.07724779099225998,-0.31164348125457764],[0.1639501303434372,0.003721893997862935,0.3048146665096283,-0.07499361783266068,-0.46966278553009033,0.0364210270345211,-0.19578056037425995,0.14397767186164856,-0.14323507249355316,-0.056206945329904556,