{"key":"reaction_diffusion","name":"Reaction-Diffusion (Fisher-KPP)","description":"Fisher equation \u2014 diffusion with logistic growth","latex_equation":"\\frac{\\partial u}{\\partial t} = D \\frac{\\partial^2 u}{\\partial x^2} + r \\, u (1 - u)","latex_ic":"u(x, 0) = e^{-10 x^2}","latex_bc":"u(-1, t) = 0, \\; u(1, t) = 0","latex_domain":"x \\in [-1, 1], \\; t \\in [0, 1]","x_min":-1.0,"x_max":1.0,"t_min":0.0,"t_max":1.0,"y_min":-0.2,"y_max":1.3,"y_label":"Concentration u(x, t)","params":{"D":0.01,"r":1.0},"layers":[{"W":[[0.7833734154701233,0.4838308095932007],[-0.42684510350227356,0.7294325828552246],[-0.4200970530509949,0.07405214756727219],[-0.5319993495941162,0.23603911697864532],[0.7415919303894043,-0.41351041197776794],[0.796425998210907,0.0571911558508873],[0.7055325508117676,0.15934312343597412],[0.6566513180732727,0.14083658158779144],[0.7224944829940796,0.07704479247331619],[-0.5237537026405334,0.007209903560578823],[-0.5129796862602234,-0.13202868402004242],[-0.46522367000579834,0.35865911841392517],[-0.7386767268180847,-0.2754819989204407],[-0.1772841364145279,-0.24624714255332947],[0.19009144604206085,-0.5532639026641846],[0.7367039322853088,-0.42186856269836426],[0.7415803670883179,0.012164195068180561],[-0.23588693141937256,0.46324583888053894],[0.15060928463935852,0.7629113793373108],[-0.015786943957209587,-0.23337028920650482],[0.3421402871608734,-0.15552783012390137],[0.5291967988014221,0.49717265367507935],[0.5896691083908081,-0.15152883529663086],[0.6592454314231873,0.0367693267762661],[0.655434250831604,-0.4139927327632904],[-0.8479413390159607,-0.11598985642194748],[-0.7140640616416931,0.45391884446144104],[0.42945873737335205,0.31082141399383545],[0.3857404887676239,0.18002347648143768],[0.5411186814308167,-0.4024180769920349],[-0.11690814793109894,-0.642657458782196],[0.14716143906116486,-0.31443682312965393]],"b":[0.244657501578331,-0.06462529301643372,0.5677531957626343,-0.42559054493904114,-0.4155168831348419,-0.4250441789627075,0.6262985467910767,0.24029991030693054,0.6510471105575562,-0.6204676628112793,-0.6740424036979675,-0.5199351906776428,-0.4678032696247101,0.35381391644477844,0.18523381650447845,0.624082088470459,-0.3983953297138214,-0.5226410031318665,0.42988839745521545,-0.26815763115882874,0.4538578689098358,-0.13599614799022675,0.4598660171031952,-0.5462409853935242,-0.38264337182044983,0.26124143600463867,0.19242778420448303,-0.14584651589393616,0.42449620366096497,0.47287842631340027,-0.5226482152938843,-0.3276277482509613]},{"W":[[0.26764318346977234,-0.06380443274974823,-0.06268472969532013,-0.18678414821624756,-0.09384328871965408,0.07288675755262375,0.05076567828655243,-0.02159866690635681,0.0759810283780098,-0.16542479395866394,-0.19216075539588928,-0.09404550492763519,-0.25032350420951843,-0.15472404658794403,0.1700451672077179,0.03308452293276787,0.0853811576962471,-0.15457861125469208,-0.10232047736644745,-0.07251202315092087,0.04662352427840233,-0.09295675158500671,-0.030764102935791016,-0.0942242220044136,0.016067299991846085,-0.17467527091503143,-0.046185679733753204,-0.04301813617348671,-0.07930639386177063,-0.09210585057735443,-0.06996534019708633,-0.1442636251449585],[0.07903342694044113,-0.007602827623486519,0.15310557186603546,0.03867319971323013,-0.08593343943357468,0.17764891684055328,-0.10861935466527939,-0.11948393285274506,-0.20627570152282715,-0.14535290002822876,0.08102187514305115,-0.06849813461303711,0.1388089507818222,-0.06006408482789993,0.12032284587621689,-0.12084390968084335,0.017943132668733597,0.011596075259149075,0.1178969070315361,0.13535942137241364,0.16268521547317505,-0.17845232784748077,0.021584445610642433,-0.04695026949048042,-0.012488462030887604,-0.09891126304864883,0.10275302082300186,-0.1727147102355957,0.07792017608880997,0.058635368943214417,0.03722967952489853,-0.10068745911121368],[0.37282294034957886,0.004643503576517105,-0.0461263544857502,-0.2485722154378891,0.19779431819915771,0.1304241418838501,0.02751009166240692,0.36823663115501404,0.14610342681407928,-0.16474314033985138,-0.13253435492515564,-0.07009374350309372,-0.05692550539970398,-0.10942184925079346,-0.05196117237210274,0.03569779545068741,0.02844313532114029,0.014817614108324051,0.1425066888332367,-0.13510270416736603,0.07947447896003723,0.22066736221313477,0.15068311989307404,0.04085426405072212,0.2022480070590973,-0.14394743740558624,-0.07854597270488739,0.1346406191587448,-0.000534793536644429,0.11872661113739014,-0.01515975408256054,0.0019117146730422974],[0.24856148660182953,0.10868396610021591,-0.03898739814758301,-0.09685126692056656,0.07142001390457153,0.045409634709358215,0.09489431977272034,0.1300199031829834,-0.11496841162443161,-0.09445111453533173,0.12298140674829483,0.010999898426234722,-0.09421681612730026,-0.0770355612039566,-0.02936643920838833,-0.09086795151233673,0.006735996808856726,-0.016146782785654068,0.15774929523468018,0.09452735632658005,-0.1226300299167633,-0.09968956559896469,0.026293836534023285,0.20025581121444702,0.08106579631567001,-0.13907180726528168,-0.01488049328327179,-0.07825764268636703,-0.08692748099565506,0.2176738828420639,-0.10439857095479965,-0.01399313472211361],[-0.32313433289527893,0.07443817704916,0.07710923999547958,0.1374141126871109,-0.07939768582582474,-0.18409022688865662,-0.272201269865036,-0.02471054531633854,-0.043025851249694824,0.25696268677711487,0.19758933782577515,0.08596304059028625,0.14060954749584198,-0.06505754590034485,-0.09506253153085709,-0.21740853786468506,0.0572856143116951,-0.08024194836616516,-0.1217881590127945,-0.016964685171842575,-0.11289089918136597,-0.23811215162277222,-0.22916756570339203,0.08325552940368652,-0.009134338237345219,0.2163076102733612,-0.09195825457572937,-0.2463793009519577,-0.13392074406147003,-0.14151626825332642,0.022744175046682358,-0.09980211406946182],[0.06660332530736923,-0.13077203929424286,0.12876495718955994,0.09232905507087708,-0.05145536735653877,-0.32740071415901184,0.164419487118721,-0.12310043722391129,0.10604571551084518,0.15297135710716248,-0.03934677690267563,0.0004942557425238192,-0.06850645691156387,-0.07271182537078857,0.1057935357093811,-0.16816547513008118,-0.08421821892261505,0.12906499207019806,0.11464464664459229,-0.03354700654745102,-0.1451677829027176,-0.051663391292095184,0.09234267473220825,-0.3057827055454254,-0.15333987772464752,0.10250431299209595,0.16047872602939606,-0.19760799407958984,-0.07760807126760483,-0.061590880155563354,-0.14110708236694336,0.12132314592599869],[0.09545034170150757,-0.04556592181324959,-0.020569441840052605,-0.03389136120676994,-0.26220643520355225,-0.29262417554855347,0.06085415184497833,-0.14711633324623108,-0.11642687767744064,0.009250574745237827,-0.03806953877210617,-0.02897208370268345,0.014800400473177433,0.0014400758082047105,-0.04897637665271759,-0.1133636087179184,-0.2607426643371582,0.16665251553058624,-0.12385138124227524,0.0764702707529068,-0.08830802887678146,-0.042431388050317764,0.12744273245334625,0.011594424024224281,-0.20002758502960205,0.20961767435073853,0.2761451303958893,-0.007908234372735023,0.08813535422086716,0.14581096172332764,0.012536359950900078,0.0452578067779541],[-0.3428614139556885,-0.09116831421852112,0.06268303841352463,0.23751762509346008,-0.04770318418741226,-0.1943199187517166,-0.34243831038475037,-0.42262715101242065,-0.35178834199905396,0.1326707899570465,0.29629549384117126,0.14535975456237793,0.09383540600538254,-0.05858723446726799,0.1170925572514534,-0.27077746391296387,-0.07647696882486343,0.15740825235843658,-0.23985877633094788,0.09919868409633636,-0.13726985454559326,-0.19978083670139313,-0.27133268117904663,-0.15918855369091034,-0.07611526548862457,0.053505901247262955,0.1692715883255005,-0.25608113408088684,-0.29361796379089355,-0.09540290385484695,0.18776217103004456,0.19268657267093658],[0.14628605544567108,0.32444843649864197,0.026945240795612335,0.08896378427743912,-0.22530581057071686,-0.19838181138038635,-0.07612749189138412,0.10855308175086975,-0.04420294240117073,-0.13796846568584442,-0.245308518409729,0.024880442768335342,0.07749969512224197,0.0516032949090004,-0.12134619057178497,-0.14692659676074982,-0.36795854568481445,0.03425297141075134,0.5148695111274719,-0.15565496683120728,-0.08223257213830948,-0.03244977444410324,-0.19975627958774567,-0.2504369914531708,-0.34124815464019775,0.3104640543460846,0.5484139919281006,-0.18409372866153717,0.24128255248069763,-0.2042127549648285,-0.24200032651424408,-0.1387050747871399],[-0.16089801490306854,0.2817250192165375,-0.06873965263366699,0.015037263743579388,-0.12629307806491852,-0.15131647884845734,-0.16452014446258545,-0.26126229763031006,0.005649130791425705,0.1588461995124817,0.12086396664381027,-0.06637546420097351,0.0254327692091465,0.053837571293115616,-0.03149222582578659,-0.1335521638393402,-0.18902738392353058,0.13514548540115356,0.06490272283554077,-0.050618402659893036,-0.08285658061504364,-0.17465843260288239,-0.2763805687427521,-0.17246250808238983,-0.33259662985801697,0.17872354388237,0.2375248521566391,-0.17246098816394806,0.10257289558649063,-0.01040200050920248,0.08416729420423508,-0.1831313967704773],[0.03171888738870621,-0.016287757083773613,-0.17334356904029846,-0.17048686742782593,0.05988467112183571,-0.017057834193110466,-0.053165387362241745,0.20400209724903107,0.22100381553173065,-0.01357176247984171,-0.052916333079338074,-0.18651576340198517,-0.1605604887008667,0.007688487879931927,0.14742164313793182,0.04678834229707718,-0.00971380528062582,0.08701853454113007,-0.20123891532421112,0.17192359268665314,-0.056559253484010696,0.03894057124853134,0.043875809758901596,0.055238451808691025,0.06451915949583054,0.00693093566223979,-0.16301341354846954,0.24212977290153503,0.1758289933204651,-0.021051209419965744,-0.06998826563358307,0.20999307930469513],[0.28736042976379395,-0.12142036855220795,-0.026502201333642006,-0.20316767692565918,-0.11159298568964005,0.09456983953714371,0.14057572185993195,0.18514154851436615,0.040552228689193726,0.10861294716596603,-0.02792246825993061,-0.10906419903039932,-0.13307127356529236,-0.022141341120004654,0.03515251725912094,-0.10365370661020279,0.13085103034973145,-0.0781068429350853,-0.11973480880260468,-0.11323179304599762,0.19081328809261322,0.2607252597808838,0.218087300658226,0.13774226605892181,0.1718035340309143,-0.16334715485572815,-0.16568008065223694,0.20644545555114746,-0.036120641976594925,-0.09342876821756363,-0.06968747079372406,0.03899684548377991],[0.17730766534805298,-0.13605573773384094,-0.14239740371704102,-0.013944140635430813,0.0021651259157806635,-0.02264096587896347,0.1331690102815628,0.04377042502164841,0.20040352642536163,0.14788678288459778,0.039182621985673904,0.03878682106733322,-0.016782721504569054,-0.01904088445007801,0.046193722635507584,0.041180916130542755,0.17020392417907715,0.14560388028621674,-0.0581403523683548,-0.035278040915727615,-0.0325978547334671,-0.0383077934384346,0.07614462822675705,0.18769872188568115,0.2422153502702713,-0.06020604074001312,-0.3111354410648346,-0.014760700054466724,-0.02680707536637783,0.0070129758678376675,0.036689240485429764,-0.11075124889612198],[0.03915403038263321,-0.1228410005569458,-0.14967091381549835,-0.13634859025478363,0.2265920788049698,-0.07191222161054611,0.0933794155716896,-0.03132953867316246,-0.06255524605512619,0.141154482960701,0.014363668859004974,0.11935392767190933,0.16691862046718597,-0.17464594542980194,0.05866808444261551,0.030136344954371452,0.12639708817005157,0.033103279769420624,0.04380965232849121,-0.0586027167737484,-0.046346284449100494,0.16755244135856628,0.09845031797885895,0.05475020036101341,-0.12162385880947113,-0.1357506513595581,-0.186456099152565,0.1392921805381775,-0.13317011296749115,-0.017857933416962624,-0.024904068559408188,0.06373783200979233],[0.25933706760406494,0.011060302145779133,0.09065259248018265,0.12187960743904114,0.21434073150157928,-0.011755665764212608,0.004838529042899609,0.14968392252922058,-0.007078647147864103,0.05941936746239662,-0.06134634092450142,-0.12058601528406143,0.008120534010231495,-0.005451512057334185,0.07331159710884094,0.1879536211490631,0.17977432906627655,0.1767982691526413,-0.02739718183875084,-0.13794347643852234,-0.11663146317005157,-0.06316331773996353,-0.12618747353553772,-0.059474922716617584,-0.09200067073106766,-0.2510739266872406,-0.21381837129592896,-0.12365997582674026,-0.08635217696428299,0.08033081144094467,0.18421556055545807,-0.0181563887745142],[-0.014409827068448067,0.08901968598365784,-0.10492616146802902,-0.07998273521661758,0.10871957242488861,-0.17398333549499512,0.039920177310705185,0.17149648070335388,0.04751260206103325,0.051831603050231934,-0.09989040344953537,-0.002300717867910862,-0.02107306569814682,0.041317518800497055,0.08136880397796631,0.15001143515110016,-0.14364369213581085,-0.000728386512491852,-0.11537829041481018,-0.11910441517829895,-0.02329362742602825,-0.12892942130565643,0.12052802741527557,0.018903760239481926,-0.06973636150360107,0.07556388527154922,-0.17464172840118408,-0.05199980363249779,-0.04186312109231949,-0.13624383509159088,-0.08831558376550674,-0.009459983557462692],[0.2033284306526184,0.2017979472875595,0.11462539434432983,-0.1112959012389183,-0.17037495970726013,0.16499042510986328,0.08982399851083755,0.048109136521816254,0.046151578426361084,-0.15682145953178406,-0.07690171897411346,0.16957198083400726,-0.08502468466758728,-0.06630177050828934,-0.18171986937522888,-0.06821214407682419,-0.0006889582145959139,-0.09502974897623062,0.030968790873885155,0.050352975726127625,-0.17474062740802765,0.09669490158557892,-0.10013390332460403,-0.08363720774650574,0.01503875944763422,-0.05172218754887581,0.03350980207324028,-0.023284221068024635,-0.13575062155723572,-0.08855535089969635,-0.1949932873249054,-0.0616627112030983],[0.06832858175039291,-0.19193990528583527,0.18475577235221863,0.08173614740371704,-0.23619747161865234,-0.16464293003082275,0.10472326725721359,-0.0023576770909130573,0.0303940549492836,-0.11518505215644836,0.11059501767158508,-0.12973760068416595,0.09780649095773697,0.04520709067583084,0.07291412353515625,0.17500978708267212,-0.10869304835796356,-0.1308434009552002,-0.038854338228702545,0.13276366889476776,-0.10208267718553543,0.04667514190077782,-0.1383492648601532,0.03620132803916931,0.04283680394291878,0.0353376604616642,0.1045665293931961,-0.015265927650034428,0.12272575497627258,-0.10475342720746994,-0.030451444908976555,0.059726472944021225],[0.2545987665653229,0.028039850294589996,-0.1572023630142212,0.10907779633998871,-0.030260257422924042,0.00518896896392107,-0.12156714498996735,0.035038456320762634,0.1619388312101364,0.003973858896642923,-0.11560441553592682,0.03423387557268143,-0.11590692400932312,0.1621612310409546,-0.09879546612501144,-0.025999028235673904,-0.12072430551052094,-0.09090998768806458,0.06750455498695374,0.18745623528957367,0.038726504892110825,0.17946045100688934,0.06837950646877289,0.1353342980146408,0.17482993006706238,0.04796671122312546,-0.1462111920118332,0.18641464412212372,0.12270844727754593,-0.05274354666471481,-0.10098847001791,-0.131273552775383],[0.0773792713880539,-0.1792437583208084,0.08750995248556137,0.06223630532622337,-0.257232666015625,-0.08537375926971436,0.02750123105943203,0.08052300661802292,0.1441645473241806,-0.19017592072486877,0.1474800705909729,0.15013684332370758,0.022355813533067703,-0.12839756906032562,-0.029681652784347534,-0.045233432203531265,-0.16987468302249908,0.09374789148569107,0.02088085561990738,0.15713074803352356,-0.06697682291269302,0.014144780114293098,0.06728064268827438,-0.22153827548027039,-0.2053312063217163,0.056134894490242004,0.21630656719207764,-0.222970649600029,-0.15380649268627167,0.10454659909009933,0.12283623963594437,0.14911384880542755],[-0.1486021727323532,-0.07740531116724014,0.11600252985954285,0.15654146671295166,0.16741441190242767,0.11804564297199249,0.0166091900318861,0.15302878618240356,-0.15687882900238037,-0.0660988911986351,0.13068075478076935,-0.12864461541175842,-0.05654489994049072,0.12516966462135315,0.020825333893299103,0.036970894783735275,0.009567799977958202,-0.012340076267719269,0.2407190203666687,-0.15785644948482513,0.013762368820607662,0.11716794967651367,-0.1413099616765976,0.21592414379119873,-0.12087950110435486,-0.11243551224470139,-0.07422143965959549,-0.09825611859560013,-0.1588689386844635,0.08727888762950897,-0.017317647114396095,-0.20966854691505432],[-0.11624467372894287,0.12304810434579849,0.017332591116428375,0.03918254375457764,0.06532442569732666,0.10982085764408112,-0.05522191897034645,0.008273164741694927,-0.1503782570362091,0.01975294016301632,0.033748917281627655,-0.03225723281502724,0.04898446425795555,-0.11056815832853317,0.066034696996212,0.08005356043577194,0.09640295058488846,-0.1779652237892151,0.1008959412574768,0.06395581364631653,-0.08454953134059906,0.18714910745620728,-0.05191482603549957,0.238505020737648,0.2110781967639923,-0.34952569007873535,-0.09200726449489594,-0.0992034301161766,-0.09726961702108383,-0.01028357446193695,-0.11339417845010757,0.21724572777748108],[-0.03447895497083664,0.055000826716423035,-0.16927069425582886,0.11586855351924896,-0.1374911069869995,-0.23853051662445068,0.04488278180360794,0.06233568862080574,0.1733989417552948,-0.10293268412351608,-0.07927892357110977,0.045089151710271835,0.02722170203924179,0.08073180168867111,0.11319205164909363,-0.03570143133401871,-0.0012091549579054117,0.1374329775571823,-0.10736188292503357,0.16335484385490417,0.06925629824399948,0.12490107864141464,-0.10679521411657333,-0.13664333522319794,-0.05691066384315491,0.12218483537435532,0.18732066452503204,-0.14009591937065125,0.06557445973157883,-0.06451886892318726,0.15373478829860687,0.017125330865383148],[-0.041007883846759796,-0.12248629331588745,-0.16348987817764282,0.08732834458351135,-0.12927661836147308,0.008772670291364193,0.10233048349618912,-0.024794651195406914,0.1131788119673729,-0.19288919866085052,-0.14294427633285522,-0.13883347809314728,-0.14310665428638458,-0.12356776744127274,0.02899826131761074,-0.03252612054347992,0.11525414884090424,0.18670699000358582,0.026114078238606453,-0.03707035630941391,-0.17631444334983826,0.1461085081100464,-0.058757245540618896,0.11569102853536606,0.1708957552909851,-0.06605510413646698,0.13738000392913818,0.26367318630218506,0.043977975845336914,-0.12163946032524109,0.19494448602199554,-0.048432689160108566],[-0.22991828620433807,0.2215987592935562,0.26323696970939636,0.10842873156070709,-0.21653078496456146,-0.3580450415611267,-0.07708670198917389,0.035041242837905884,-0.0034745915327221155,0.04597936198115349,-0.017452355474233627,-0.05018889531493187,0.20367400348186493,0.08764814585447311,0.09587005525827408,-0.053866803646087646,-0.1443730592727661,0.05998612195253372,0.051590677350759506,0.05183631181716919,0.09853525459766388,0.11375733464956284,0.06295707821846008,-0.21582746505737305,-0.3539154529571533,0.21560510993003845,0.23838330805301666,-0.1470586210489273,-0.06339606642723083,-0.030364567413926125,0.08738113194704056,-0.050051651895046234],[0.04785476624965668,-0.12331473082304001,-0.03680983930826187,-0.1317742019891739,0.16820907592773438,0.13028492033481598,0.2543882429599762,0.1590624451637268,0.1276198923587799,-0.013193631544709206,-0.2311592400074005,-0.02666655369102955,-0.12265772372484207,-0.11389363557100296,-0.09392468631267548,0.21654388308525085,0.18054570257663727,0.05183149129152298,0.21169811487197876,-0.10783245414495468,0.0180264413356781,0.10592182725667953,0.060813698917627335,-0.026869093999266624,-0.14013175666332245,-0.09735308587551117,-0.1453428566455841,0.09567030519247055,0.24216504395008087,-0.0009692757739685476,-0.09322105348110199,0.08709001541137695],[-0.3642803132534027,-0.3366275429725647,0.11872774362564087,-0.06137378513813019,-0.060906410217285156,-0.18519166111946106,-0.20009060204029083,-0.3004205524921417,-0.21637552976608276,0.16144193708896637,0.1457989662885666,-0.06210729852318764,0.0739414170384407,0.04116765782237053,0.13941173255443573,-0.04149685427546501,-0.23586367070674896,0.0021456931717693806,-0.41376781463623047,0.026373645290732384,-0.18994572758674622,-0.1732361763715744,-0.16219019889831543,-0.09955054521560669,0.26902398467063904,0.27294743061065674,-0.04512612521648407,-0.3927309513092041,-0.27683886885643005,-0.030172845348715782,0.36091142892837524,0.15889115631580353],[-0.12780830264091492,-0.014723912812769413,-0.14698205888271332,-0.07688016444444656,0.08011377602815628,0.29065436124801636,0.039126742631196976,0.008120077662169933,0.013156941160559654,-0.06341850012540817,0.06080641970038414,0.04002700001001358,0.06845466792583466,-0.09291162341833115,0.16068391501903534,0.0027297446504235268,0.06490206718444824,0.08799635618925095,0.19394077360630035,0.1535046547651291,0.07508453726768494,-0.04478498175740242,0.12085679918527603,0.23091918230056763,-0.10947776585817337,-0.19042223691940308,-0.2697993516921997,0.05754875764250755,0.09431791305541992,-0.005121327005326748,-0.04951035976409912,0.07810753583908081],[-0.10370748490095139,-0.16439959406852722,0.17169331014156342,-0.05742310360074043,-0.17479555308818817,-0.14784406125545502,-0.009543302468955517,-0.22799186408519745,0.08500121533870697,-0.06659820675849915,-0.08157019317150116,0.058270297944545746,-0.07986350357532501,-0.005941457115113735,-0.037430744618177414,-0.08109439164400101,-0.24180994927883148,-0.042758628726005554,-0.007177357561886311,-0.12553545832633972,-0.12201721966266632,-0.06936957687139511,-0.008732746355235577,-0.018521485850214958,-0.22320988774299622,0.2197662591934204,0.2665291726589203,0.011006702668964863,-0.18812434375286102,-0.08896934241056442,-0.12077578902244568,-0.1258031725883484],[0.10414090007543564,-0.07053656876087189,0.07330262660980225,-0.11165119707584381,-0.0531456358730793,-0.22707636654376984,0.12758302688598633,-0.07635175436735153,-0.00275732041336596,-0.1720687597990036,-0.013144189491868019,0.16292476654052734,0.05093126744031906,-0.0710996761918068,0.03949382156133652,0.007099590729922056,-0.2563525438308716,0.13370339572429657,-0.07486836612224579,0.07826011627912521,-0.0722297802567482,-0.12819118797779083,0.04839618131518364,-0.0029931918252259493,0.035147879272699356,0.0368996188044548,0.2284570336341858,-0.07152621448040009,-0.11706996709108353,-0.06390635669231415,0.2322932332754135,0.030084429308772087],[-0.042354293167591095,0.006794894114136696,-0.05934601277112961,-0.11742612719535828,-0.12620319426059723,0.14516983926296234,0.11780527234077454,0.13814011216163635,-0.16316469013690948,0.12241551280021667,-0.08689635992050171,0.1341918706893921,0.16061381995677948,0.1298346221446991,0.09186620265245438,0.07164996862411499,0.04047568142414093,0.09620542079210281,-0.028157630935311317,0.07472482323646545,-0.0791640356183052,0.024112913757562637,-0.18860456347465515,-0.01905297115445137,-0.09482231736183167,-0.09549163281917572,-0.08647111803293228,-0.1494671255350113,-0.005065027624368668,0.08120079338550568,0.1407647281885147,0.09977295994758606],[-0.06855116039514542,-0.17424219846725464,0.0815223976969719,0.13124296069145203,-0.25179970264434814,-0.03750651702284813,0.180325448513031,0.0008976164972409606,-0.075124591588974,0.14034175872802734,0.06639226526021957,0.15181799232959747,-0.15674330294132233,0.10111508518457413,-0.12727876007556915,0.13847239315509796,-0.17244218289852142,0.13810314238071442,0.004256157670170069,0.04949723929166794,-0.03887070715427399,0.06466636061668396,-0.08850543946027756,-0.22452586889266968,-0.11937381327152252,0.2463216930627823,0.0653688982129097,0.04717351868748665,-0.0672702044248581,0.09906116873025894,0.1245064064860344,0.05099398270249367]],"b":[-0.08175142109394073,-0.1407284140586853,-0.024184567853808403,-0.10331158339977264,0.07766704261302948,-0.15808388590812683,0.061114128679037094,0.08694533258676529,0.22654922306537628,0.07952103018760681,-0.2034296691417694,0.17218436300754547,-0.047134026885032654,-0.19433918595314026,0.1747867316007614,-0.09108216315507889,-0.011360950767993927,0.18592636287212372,-0.13611246645450592,-0.12466330081224442,0.05611102283000946,-0.04234146326780319,0.019050518050789833,-0.1760944128036499,0.058132562786340714,-0.054909855127334595,-0.14441965520381927,-0.15144212543964386,0.09512212872505188,0.023483050987124443,-0.1647462248802185,0.14104962348937988]},{"W":[[-0.03363607078790665,0.10981754958629608,-0.21802912652492523,0.031709443777799606,0.28121912479400635,0.08064381033182144,-0.2000194936990738,0.31611016392707825,-0.0135621577501297,0.07776378840208054,0.13191662728786469,0.03173282369971275,-0.11115074902772903,0.17866800725460052,-0.1340513527393341,-0.02660883404314518,-0.15683667361736298,-0.06371089071035385,-0.039064034819602966,-0.07565299421548843,-0.007017245516180992,0.09329555928707123,0.11901526153087616,0.06140798330307007,0.08252444118261337,-0.07080880552530289,0.1863909363746643,0.05109214410185814,-0.041225679218769073,-0.049479804933071136,-0.11734093725681305,-0.2130071520805359],[0.025361625477671623,-0.08624434471130371,-0.09151578694581985,-0.1128925308585167,0.030080663040280342,0.22411327064037323,0.10245560109615326,0.22994349896907806,0.3508863151073456,0.04218147695064545,-0.21679435670375824,-0.19380918145179749,-0.16578702628612518,-0.16140997409820557,-0.08591847121715546,-0.010966397821903229,-0.09954454749822617,0.05065026879310608,-0.11427520215511322,0.28801077604293823,-0.1224866658449173,-0.21599559485912323,0.2560574412345886,-0.012648181058466434,0.34336864948272705,0.024889159947633743,0.3552004396915436,-0.2563822865486145,0.2821597158908844,0.3097880780696869,-0.10106075555086136,0.3391159176826477],[0.2030264288187027,-0.11437806487083435,0.1844855099916458,-0.04612506181001663,-0.300474613904953,0.01879100501537323,0.02784227579832077,-0.30932557582855225,-0.06305946409702301,-0.24244196712970734,0.21011394262313843,0.2940906882286072,0.086818628013134,-0.08944101631641388,0.1446787565946579,0.047608230262994766,0.06199714541435242,0.031043190509080887,0.17870719730854034,-0.09339667856693268,0.00205811089836061,0.010215811431407928,0.02523166686296463,0.1913922280073166,-0.19325615465641022,0.14857624471187592,-0.01795828901231289,-0.02458944544196129,0.07800445705652237,-0.0013847800437361002,-0.16766417026519775,-0.025646332651376724],[-0.027551427483558655,-0.0388936884701252,-0.016586607322096825,-0.1633525937795639,-0.08409083634614944,0.07485531270503998,0.1134432852268219,0.18141956627368927,0.23649980127811432,0.1731777936220169,0.05625253915786743,-0.12780016660690308,-0.0038114001508802176,0.05510050803422928,-0.13035531342029572,-0.06140126660466194,0.2427363246679306,0.2716818153858185,-0.05799098312854767,0.16018688678741455,0.004475234542042017,-0.22187986969947815,0.12159161269664764,0.07409697026014328,0.14150889217853546,0.0491068959236145,-0.16448324918746948,-0.01951867714524269,0.3084860146045685,0.10142149031162262,0.016240345314145088,0.2119699865579605],[-0.11075310409069061,-0.08375805616378784,-0.03083663247525692,-0.07467668503522873,-0.17397692799568176,0.15086954832077026,0.14844690263271332,-0.20454613864421844,0.021853292360901833,0.08719431608915329,0.22137854993343353,0.12797404825687408,0.21774551272392273,-0.03915010020136833,0.08063707500696182,0.11487888544797897,-0.18737530708312988,-0.1510259211063385,0.06832890957593918,0.13738471269607544,-0.12850171327590942,0.0012042929884046316,0.031745802611112595,0.1434887945652008,-0.11474771797657013,0.08490907400846481,0.19570612907409668,-0.1250995397567749,-0.000379833480110392,0.03875299170613289,0.11333021521568298,0.19609065353870392],[0.04354959353804588,-0.03182133659720421,0.19259561598300934,-0.054950110614299774,-0.011989250779151917,0.016665702685713768,-0.14777584373950958,0.0529814250767231,-0.21047605574131012,0.0035314420238137245,-0.022689292207360268,0.02065601386129856,-0.17909753322601318,-0.18496625125408173,0.0919262021780014,0.1476646512746811,-0.07882967591285706,0.08970378339290619,-0.08691565692424774,-0.0005970880738459527,0.17139126360416412,0.12310841679573059,-0.13154099881649017,0.10465399920940399,0.0674310252070427,0.03985460847616196,0.10209069401025772,-0.08741851150989532,-0.0457303561270237,-0.10351163148880005,-0.020160119980573654,0.03067285567522049],[0.019918885082006454,-0.13573093712329865,-0.03287900239229202,0.0793624222278595,-0.2295800894498825,-0.060454901307821274,-0.04284345358610153,-0.1912442147731781,-0.08601240068674088,-0.048124175518751144,0.1368604153394699,0.03698425740003586,-0.08425851911306381,0.14510639011859894,0.05409523844718933,-0.08888236433267593,-0.07512534409761429,-6.857225525891408e-05,-0.14042484760284424,0.0024420067202299833,0.1398150622844696,-0.15046338737010956,-0.14059990644454956,-0.079960897564888,0.03994417563080788,0.2166578769683838,0.02348696067929268,0.19661377370357513,-0.09860658645629883,-0.21534432470798492,0.04427206516265869,0.023230785503983498],[0.21561817824840546,-0.07250280678272247,0.22404508292675018,0.19493383169174194,-0.012026512064039707,-0.1793876737356186,0.12041441351175308,-0.34929633140563965,0.1129881739616394,-0.02722121588885784,-0.144769549369812,0.14849086105823517,-0.03399883955717087,-0.15493690967559814,-0.03394075855612755,0.028914904221892357,0.20593775808811188,-0.06962006539106369,0.20512644946575165,-0.012993386946618557,0.038428761065006256,0.03287114202976227,-0.17508132755756378,-0.11247249692678452,-0.10284461081027985,-0.024307824671268463,-0.16966913640499115,0.03107854165136814,-0.13831067085266113,-0.15863697230815887,-0.08011374622583389,-0.06759013235569],[-0.02142408862709999,-0.12560319900512695,0.09327095746994019,0.10991876572370529,-0.12496607005596161,-0.13092723488807678,-0.12276338785886765,-0.1493283212184906,-0.4250684678554535,-0.1051318347454071,0.07174506783485413,0.19986724853515625,0.11109794676303864,0.18078985810279846,0.06010657176375389,-0.10242550075054169,0.11762697994709015,-0.14311257004737854,0.13730552792549133,-0.0972915068268776,-0.04871007427573204,-0.07054062932729721,0.15153174102306366,0.16235047578811646,-0.10420362651348114,0.3218064308166504,-0.22511820495128632,0.08366148918867111,0.01367331761866808,0.062353555113077164,-0.145908921957016,0.018542004749178886],[-0.12454790621995926,0.030059408396482468,-0.08417288959026337,-0.1695088893175125,-0.07354645431041718,-0.11652093380689621,0.07288681715726852,0.2181004285812378,-0.16098521649837494,-0.07120005041360855,-0.006734477821737528,-0.2002481073141098,0.09734780341386795,0.15190812945365906,0.02124246023595333,-0.13854695856571198,-0.005582588259130716,0.07814742624759674,0.10622899234294891,-0.0935508981347084,-0.16312767565250397,0.07448127865791321,0.0024549802765250206,-0.06881722062826157,-0.06511864066123962,-0.1610749512910843,0.30674031376838684,-0.032806310802698135,0.13344089686870575,0.18438895046710968,0.0313970185816288,0.03547327220439911],[-0.0740477591753006,0.22952544689178467,-0.26372700929641724,0.011426331475377083,0.10894656926393509,0.09403637796640396,0.045048244297504425,0.08388127386569977,0.1311013400554657,0.19164817035198212,-0.19523178040981293,-0.25531280040740967,-0.08720352500677109,-0.08774470537900925,0.031470317393541336,0.09528152644634247,0.012953434139490128,0.17844931781291962,-0.13984757661819458,-0.08564495295286179,-0.08988375961780548,-0.10971620678901672,-0.09982889890670776,-0.20222553610801697,-0.04161912947893143,-0.07300690561532974,0.11787267029285431,0.12410687655210495,0.21026214957237244,0.01770152524113655,0.027863843366503716,-0.07424367964267731],[0.07565848529338837,-0.18629616498947144,0.09255111217498779,0.0320027731359005,0.04245856776833534,0.1370363086462021,-0.0224106777459383,0.19800418615341187,0.2456464171409607,0.24572575092315674,-0.003753288881853223,0.09900569915771484,0.0887613371014595,0.06419626623392105,0.11065378785133362,-0.006454047281295061,0.17215652763843536,0.06933120638132095,0.14676052331924438,0.23898988962173462,-0.0031642490066587925,-0.10251840204000473,0.11298536509275436,0.03329118713736534,0.12879900634288788,-0.05880561098456383,0.02727777138352394,0.05837622657418251,-0.06707587093114853,0.02678360603749752,-0.020732827484607697,-0.03016558662056923],[0.05009238049387932,-0.08654903620481491,-0.14368689060211182,-0.10756009072065353,-0.10590845346450806,0.22118698060512543,0.18070410192012787,0.1737835705280304,0.24033111333847046,0.09772595763206482,0.05199775844812393,0.030812861397862434,-0.16952836513519287,-0.16328424215316772,-0.07131215184926987,0.030712051317095757,0.030363496392965317,0.14720290899276733,0.08938145637512207,0.0908183678984642,-0.07115401327610016,-0.19249457120895386,-0.021155718713998795,-0.1032194271683693,0.19703160226345062,0.0656462237238884,0.3085062801837921,-0.12929898500442505,0.09355063736438751,0.0053497361950576305,-0.004558157175779343,0.18617263436317444],[-0.0017708567902445793,-0.003392189508304,0.006427634973078966,0.05742308869957924,-0.09506506472826004,-0.09480448812246323,0.06509894132614136,-0.06922365725040436,-0.11046736687421799,0.09980489313602448,-0.010027432814240456,-0.014770027250051498,-0.08707260340452194,-0.03211339935660362,-0.16186214983463287,0.00683900061994791,-0.007709323428571224,0.102760449051857,0.004995500668883324,0.02600651979446411,0.05008555203676224,0.11583942919969559,-0.03955504298210144,0.1227845847606659,0.04157787188887596,-0.11611348390579224,0.0938238650560379,-0.11817730218172073,-0.04310769587755203,-0.07965761423110962,-0.11638613045215607,0.16586707532405853],[-0.1968212127685547,0.15980301797389984,-0.21354730427265167,-0.030587077140808105,0.11808345466852188,0.1569785624742508,-0.04062279313802719,0.20555467903614044,0.17276325821876526,0.1904684603214264,-0.04028412327170372,-0.0149042634293437,-0.15136031806468964,-0.14423072338104248,0.10562485456466675,-0.1148902177810669,-0.016750812530517578,0.001983491238206625,0.16533872485160828,-0.01748616062104702,-0.16387011110782623,-0.024120133370161057,0.10685069113969803,0.006089556962251663,0.24410057067871094,-0.13294574618339539,0.049963053315877914,-0.19704051315784454,0.10900452733039856,0.10613829642534256,0.10922040790319443,-0.09002864360809326],[-0.05099288746714592,0.0422193668782711,-0.17845609784126282,-0.16926707327365875,-0.18413670361042023,0.01322364341467619,0.1452459990978241,0.057262178510427475,0.06314646452665329,0.06531362235546112,-0.11459482461214066,-0.002728972816839814,-0.04148910194635391,-0.09817858785390854,0.12739722430706024,-0.14810363948345184,-0.011566609144210815,-0.13812686502933502,-0.04390371963381767,-0.059783801436424255,0.05985722690820694,-0.11191419512033463,0.16475002467632294,-0.13549858331680298,0.1484847515821457,-0.16846591234207153,0.20634470880031586,-0.08564113825559616,0.027289466932415962,0.0016355752013623714,0.13005167245864868,0.10383777320384979],[-0.1194341778755188,-0.08403613418340683,-0.015363110229372978,0.1662881225347519,-0.08377749472856522,-0.05946476012468338,-0.12280643731355667,-0.07322023063898087,-0.34131020307540894,-0.004899449180811644,0.14048275351524353,0.21191257238388062,0.07831384986639023,-0.13366764783859253,0.16804781556129456,-0.045425210148096085,-0.008642949163913727,-0.03224869817495346,0.19343505799770355,0.10397212207317352,0.04926116019487381,0.08100561797618866,-0.17348352074623108,0.017221856862306595,-0.26669806241989136,0.19910135865211487,-0.20023488998413086,-0.038695018738508224,0.07212651520967484,0.1269240379333496,-0.1221652552485466,-0.12470261007547379],[0.07297934591770172,-0.0032537535298615694,-0.01797015592455864,-0.05288730561733246,-0.18885095417499542,0.09639319032430649,0.20539289712905884,-0.14438171684741974,0.12583118677139282,0.06672707200050354,0.20132064819335938,0.014642943628132343,0.036113157868385315,0.12887632846832275,0.07164568454027176,0.22289079427719116,-0.05082039162516594,0.11693042516708374,0.15771959722042084,-0.07714065164327621,0.007014209870249033,-0.047658003866672516,0.12416274100542068,-0.08703594654798508,0.01329739484935999,0.12531228363513947,-0.1534671187400818,-0.15584728121757507,-0.09261573851108551,0.11479908227920532,0.1521431803703308,-0.09072660654783249],[0.03368689492344856,-0.1457478106021881,-0.11806590855121613,0.13913674652576447,0.03471997752785683,-0.04340614378452301,0.03893038257956505,-0.02342866361141205,0.022485405206680298,-0.10008610039949417,-0.05128716677427292,0.12414778769016266,0.05638328194618225,0.09012208133935928,-0.11085715889930725,0.08055582642555237,0.066856250166893,0.10192659497261047,0.03819214180111885,0.1903863102197647,-0.0552121065557003,0.0337909460067749,0.1829695999622345,0.202199324965477,-0.09700976312160492,0.1474093198776245,0.15648585557937622,-0.012083749286830425,0.1339970827102661,-0.07680042088031769,0.16591429710388184,0.19773860275745392],[-0.17490720748901367,-0.013618005439639091,-0.17861808836460114,-0.04487457498908043,-0.056967321783304214,-0.053678516298532486,0.05001659691333771,0.2460540384054184,0.100325807929039,0.1692684143781662,0.0061341021209955215,-0.16611307859420776,-0.17785781621932983,-0.0023299972526729107,0.18718241155147552,-0.037535637617111206,0.026411930099129677,-0.11773578077554703,-0.10225999355316162,-0.15082846581935883,0.14718380570411682,-0.01565220020711422,-0.17034953832626343,-0.0032895554322749376,0.052988674491643906,-0.0785895362496376,-0.004661001265048981,0.07389340549707413,-0.12897402048110962,-0.12917384505271912,-0.04385792464017868,-0.18221032619476318],[-0.2320643663406372,0.23978997766971588,-0.006415073294192553,0.003655539359897375,-0.046907007694244385,-0.2506951093673706,-0.0478326641023159,-0.06818646937608719,-0.33641690015792847,-0.13600532710552216,0.22763951122760773,-0.025478383526206017,0.22107934951782227,0.38084396719932556,-0.03918455168604851,-0.1562388688325882,0.20823578536510468,-0.5202988386154175,0.12300539016723633,-0.2318841964006424,-0.04770774021744728,0.49645736813545227,-0.1759897768497467,0.34147387742996216,-0.289173424243927,-0.09689603745937347,-0.14787501096725464,0.4032316505908966,-0.35726219415664673,-0.0023304875940084457,0.15143491327762604,-0.1897740215063095],[0.09584629535675049,-0.06756148487329483,0.09369458258152008,-0.13020338118076324,-0.10228805243968964,0.11959319561719894,0.0543883740901947,-0.06196482852101326,-0.111225925385952,-0.11991869658231735,0.1228155866265297,0.006585936993360519,0.015132851898670197,0.055031996220350266,0.11460598558187485,-0.13413061201572418,-0.05389728397130966,0.08042284846305847,0.11543622612953186,-0.08574718981981277,-0.17783060669898987,0.037700966000556946,0.11988800764083862,0.1303686946630478,0.09864034503698349,-0.14651426672935486,0.16006702184677124,-0.09427450597286224,0.08746450394392014,0.12937147915363312,0.0694405660033226,0.14138664305210114],[-0.2036820501089096,-0.14388017356395721,-0.2626599371433258,0.09948596358299255,0.278014600276947,-0.10453677177429199,0.12445657700300217,0.45112109184265137,-0.23060102760791779,0.13639287650585175,0.016653962433338165,-0.08721324801445007,0.17752239108085632,0.17482581734657288,0.06684229522943497,0.09046154469251633,0.09653741866350174,0.0024958020076155663,-0.12899833917617798,0.064088374376297,-0.11272340267896652,0.06031570956110954,0.15958000719547272,0.02512745000422001,-0.09130045771598816,-0.2494298219680786,0.17865090072155,0.053383469581604004,0.11153098940849304,0.02007371000945568,-0.01068089809268713,0.022359780967235565],[0.12100452184677124,-0.09940174221992493,0.14635087549686432,0.1253250241279602,-0.23947468400001526,0.016029488295316696,-0.07280691713094711,-0.24627119302749634,0.053698763251304626,-0.05720018967986107,0.1697065681219101,-0.06468741595745087,0.08939274400472641,-0.11846029758453369,-0.09489567577838898,0.003309357212856412,0.16332092881202698,0.06312210112810135,-0.13558688759803772,0.015635896474123,-0.10219614207744598,0.04119764640927315,-0.22097060084342957,-0.03446497768163681,0.06475477665662766,-0.10129842907190323,-0.1481575220823288,0.06087114289402962,-0.004872228484600782,-0.037083324044942856,0.146585613489151,-0.17004075646400452],[-0.1727764904499054,-0.01853451505303383,-0.10363343358039856,0.010597297921776772,0.23977188766002655,0.10640984773635864,0.15040640532970428,0.10962916910648346,0.43485158681869507,0.41011708974838257,-0.2956807613372803,-0.13402731716632843,-0.2513805627822876,0.05683572590351105,-0.2802976071834564,-0.20280340313911438,0.25808554887771606,-0.20826241374015808,0.16031590104103088,0.10994890332221985,0.20385101437568665,-0.08237668126821518,0.20111532509326935,0.0937342494726181,0.2053287774324417,0.029624544084072113,-0.14041949808597565,-0.19717179238796234,0.27122920751571655,-0.11225526034832001,-0.14848537743091583,0.06629376113414764],[-0.02304014004766941,-0.06525323539972305,-0.11579375714063644,0.06397457420825958,-0.1988295018672943,0.042764097452163696,0.14952491223812103,-0.01702643185853958,0.05112585425376892,0.011547708883881569,-0.0056184739805758,0.0013088358100503683,-0.0477277971804142,-0.12323179095983505,-0.11076769232749939,0.20143869519233704,-0.04832052066922188,0.08301693201065063,0.12414147704839706,0.01090589351952076,-0.10292286425828934,-0.14273761212825775,-0.038838788866996765,0.08649638295173645,-0.13708730041980743,-0.019718941301107407,0.11942429095506668,0.12280614674091339,0.07470044493675232,0.05294518917798996,0.15225426852703094,0.12742409110069275],[0.04712701588869095,-0.006105287931859493,-0.17047911882400513,-0.06194527447223663,0.048845671117305756,0.057444825768470764,0.032783303409814835,0.18941575288772583,0.2830463945865631,0.01027598511427641,-0.2246924489736557,-0.15223157405853271,-0.13261662423610687,0.05796125903725624,-0.1324116736650467,0.014895477332174778,-0.02490854263305664,-0.05503041669726372,0.052287179976701736,-0.0479976050555706,-0.007680149283260107,-0.1405949890613556,0.002737348899245262,-0.017807183787226677,0.11614219844341278,-0.13257218897342682,0.07446398586034775,-0.10033231228590012,-0.017159100621938705,-0.09380608052015305,-0.0718926265835762,-0.11998296529054642],[0.148546501994133,-0.09031262993812561,-0.07386507838964462,0.03211148455739021,-0.004681739956140518,0.019408978521823883,0.1339384913444519,-0.1561037003993988,0.04112658649682999,0.04152961075305939,-0.13078178465366364,-0.05267871543765068,0.05827081948518753,0.06495023518800735,0.09464104473590851,0.09278003871440887,-0.06569920480251312,-0.10680869966745377,-0.02193552441895008,-0.08740926533937454,-0.06134908273816109,-0.12698209285736084,0.09519729763269424,0.1464049220085144,-0.003215416567400098,-0.10694509744644165,-0.23753270506858826,-0.0511576272547245,0.04003969952464104,0.010154156014323235,0.056449044495821,0.16739530861377716],[0.07707265019416809,0.07566224783658981,-0.007292342372238636,0.10836267471313477,0.08263665437698364,-0.1442878693342209,-0.14055581390857697,-0.0032942749094218016,0.023364555090665817,0.11018188297748566,-0.10082291811704636,-0.1528145968914032,0.01629423350095749,-0.0015786616131663322,0.07152163982391357,-0.06866851449012756,0.12131175398826599,-0.013636155053973198,0.14081650972366333,-0.11961870640516281,0.06932975351810455,0.0162738636136055,-0.11262388527393341,0.11010976880788803,-0.22480782866477966,0.15280938148498535,-0.014940017834305763,0.039348721504211426,0.06458882987499237,0.03339191898703575,0.08188129216432571,0.07859468460083008],[-0.1497708112001419,0.16659852862358093,0.008192609995603561,-0.061260391026735306,0.09342024475336075,0.09013649821281433,-0.12494156509637833,-0.05752740055322647,0.12426453083753586,-0.085279680788517,-0.0060288188979029655,-0.04672212153673172,-0.012389890849590302,0.09979623556137085,-0.05297442153096199,-0.06431864947080612,0.11804426461458206,0.031592220067977905,-0.04706248268485069,-0.20131085813045502,0.1890789121389389,0.003884722013026476,-0.06920724362134933,-0.12739267945289612,-0.022145269438624382,0.08644814044237137,-0.04125561565160751,0.1525072157382965,-0.0028761299327015877,-0.06177458539605141,0.02551093138754368,-0.030490808188915253],[-0.03958979621529579,0.06534697115421295,0.12781508266925812,0.07858149707317352,0.08331205695867538,0.12474518269300461,0.04499320685863495,0.03328993171453476,0.08469883352518082,0.021035058423876762,0.17548340559005737,0.17358051240444183,0.09523642808198929,0.0347602441906929,0.13123765587806702,-0.16366930305957794,0.12695199251174927,0.07150653749704361,0.12300658971071243,0.007973064668476582,-0.1324920803308487,0.14154362678527832,-0.0860004648566246,0.08991887420415878,0.07345863431692123,-0.18278807401657104,0.022552309557795525,-0.02000834234058857,0.11113139241933823,-0.11121655255556107,0.14087235927581787,0.09720771014690399],[0.08961948752403259,0.18707169592380524,0.0894601047039032,-0.09168778359889984,0.15072405338287354,0.007036804687231779,-0.0600903294980526,-0.1727490872144699,-0.1214609369635582,-0.13117863237857819,0.16630272567272186,0.14421667158603668,0.13276781141757965,0.1332690417766571,-0.08804554492235184,-0.08632547408342361,-0.021915292367339134,-0.10999420285224915,0.2135782241821289,0.02827153354883194,0.16809798777103424,-0.01138793583959341,-0.22440461814403534,-0.046534087508916855,0.038838572800159454,0.15906435251235962,-0.041261762380599976,-0.02058965153992176,-0.20433858036994934,-0.11926812678575516,0.05252185836434364,-0.13549543917179108]],"b":[0.06320694088935852,0.08636260032653809,-0.05167219415307045,0.12002184242010117,-0.09056658297777176,0.016137363389134407,-0.05660891905426979,-0.15969739854335785,0.032308463007211685,0.059706080704927444,-0.08951439708471298,0.10094694793224335,-0.1294483095407486,-0.15539956092834473,-0.11404594779014587,-0.053460318595170975,-0.017474953085184097,-0.06025827303528786,0.05277051031589508,-0.14259520173072815,-0.11737293004989624,-0.0019350552465766668,0.031720686703920364,0.15378139913082123,0.08584488183259964,-0.11589904129505157,-0.12797841429710388,-0.07264101505279541,-0.08914431184530258,0.10712428390979767,-0.03460559993982315,0.14628921449184418]},{"W":[[0.10454364120960236,-0.16988644003868103,-0.05957363545894623,0.07012323290109634,0.008039756678044796,0.17056208848953247,-0.048966675996780396,0.09542916715145111,-0.12005461752414703,-0.17287659645080566,-0.029213005676865578,0.0873536765575409,0.06869268417358398,0.02623540535569191,-0.09904523193836212,-0.05397384613752365,-0.01190152857452631,-0.039842817932367325,-0.03807787224650383,0.15670013427734375,0.07403689622879028,-0.1312447488307953,0.03766922652721405,-0.11285610496997833,0.020368440076708794,-0.1719347983598709,-0.006134745664894581,-0.14074896275997162,0.2044215351343155,0.14605271816253662,-0.1053028255701065,-0.17058438062667847],[0.0079733831807971,-0.14006808400154114,0.017053058370947838,-0.12602968513965607,0.08072971552610397,-0.15499278903007507,-0.06430415064096451,-0.06381048262119293,0.0935732051730156,-0.033452194184064865,-0.17760764062404633,-0.08907473832368851,-0.10652915388345718,-0.1402704268693924,0.013432392850518227,0.05206785723567009,-0.020439809188246727,-0.06083449721336365,0.01196134090423584,-0.14999346435070038,-0.12210602313280106,-0.028526315465569496,0.15567940473556519,-0.04512197524309158,0.09435178339481354,-0.06625465303659439,-0.057268086820840836,-0.17219649255275726,0.1535060852766037,0.16327518224716187,-0.034836869686841965,0.10868029296398163],[0.19079232215881348,-0.020475495606660843,0.020554659888148308,-0.18796281516551971,-0.2433471828699112,-0.14633280038833618,0.026277432218194008,-0.151300311088562,-0.15287379920482635,-0.08034396916627884,-0.1375216245651245,0.005734196398407221,-0.022885428741574287,-0.12729106843471527,0.13629300892353058,-0.08562038838863373,-0.026731478050351143,0.09460717439651489,0.029913945123553276,0.0008689669193699956,-0.09470116347074509,-0.07431242614984512,0.06035143509507179,0.0828331783413887,0.09509918838739395,-0.0892743468284607,-0.1462574154138565,-0.18269434571266174,-0.034841388463974,0.0396575927734375,-0.051476527005434036,-0.15920953452587128],[0.0033467260655015707,-0.4218558371067047,-0.15010830760002136,-0.34379976987838745,-0.07349184900522232,0.19789549708366394,0.13827519118785858,0.09265738725662231,0.13153168559074402,0.019529584795236588,-0.09396515041589737,-0.17003874480724335,-0.3288831114768982,-0.11752066016197205,-0.07194354385137558,-0.3046901226043701,0.11178475618362427,-0.081235870718956,0.14230504631996155,0.13544675707817078,0.20807798206806183,-0.0501401349902153,-0.0858633890748024,0.08571921288967133,-0.16051919758319855,-0.12389075011014938,-0.07889294624328613,-0.08490860462188721,-0.07872183620929718,0.10942743718624115,0.1440637856721878,0.0564950592815876],[0.11962155997753143,-0.09518224000930786,-0.09854710847139359,0.02135966531932354,0.054689276963472366,0.0009786050068214536,-0.17635338008403778,-0.109117791056633,0.040277011692523956,0.07375174015760422,0.0449797697365284,0.03128761798143387,-0.08652706444263458,-0.09375450760126114,-0.04512396082282066,0.017598086968064308,0.06258860230445862,0.08796961605548859,-0.14994101226329803,0.035548944026231766,0.13351361453533173,0.04263628274202347,0.08277221024036407,0.015033009462058544,0.03247831016778946,-0.16608735918998718,0.045677945017814636,-0.029621344059705734,0.1841350793838501,0.19754081964492798,0.10765651613473892,0.10604561120271683],[-0.2576309144496918,0.27146267890930176,0.40350013971328735,-0.03765517845749855,0.192427858710289,0.0425088033080101,0.16828599572181702,0.21049495041370392,-0.1407717764377594,-0.15606160461902618,-0.14033670723438263,-0.08897419273853302,0.027066228911280632,0.052389904856681824,-0.3023016154766083,-0.06040887534618378,-0.02594073861837387,0.29396528005599976,0.37051910161972046,-0.3013097643852234,0.026104142889380455,0.11274375021457672,-0.3914526104927063,0.1673451066017151,-0.13822858035564423,0.0047367229126393795,-0.25977373123168945,-0.10351520031690598,0.029477806761860847,0.038798365741968155,-0.18327797949314117,-0.02878154069185257],[-0.11317020654678345,0.08229894936084747,-0.08722048252820969,0.26420339941978455,0.030559802427887917,-0.13497041165828705,0.0517704151570797,-0.13196587562561035,-0.2425234615802765,0.02643168345093727,-0.019842924550175667,0.13044452667236328,0.2713712751865387,-0.12034742534160614,-0.037673525512218475,0.13012224435806274,-0.25568294525146484,0.1718737781047821,-0.0795782208442688,0.11173656582832336,-0.18703098595142365,-0.1661015897989273,0.04461634159088135,0.04028182104229927,0.22733359038829803,0.10124976933002472,0.05065837875008583,0.05711105465888977,0.0070303152315318584,-0.0246591717004776,0.053779151290655136,-0.3355697989463806],[-0.04624375328421593,0.12932798266410828,-0.21258249878883362,0.20956407487392426,0.037025086581707,0.04322170093655586,0.11166490614414215,-0.21632429957389832,-0.1808813512325287,0.1030222550034523,0.17570117115974426,-0.15507347881793976,0.10561272501945496,-0.06427427381277084,0.06275828927755356,0.18309442698955536,-0.05285937339067459,-0.08304528892040253,-0.02934841439127922,0.1710374355316162,0.07172739505767822,0.12647312879562378,0.012582405470311642,-0.14688396453857422,0.19730328023433685,0.16500036418437958,0.1371442675590515,-0.18494538962841034,0.15618851780891418,-0.03661595284938812,0.16165314614772797,0.08717026561498642],[-0.07721270620822906,0.014032331295311451,0.2931708097457886,-0.1544504463672638,0.14363162219524384,-0.15767620503902435,-0.005074704997241497,-0.060038138180971146,0.019985029473900795,0.03228007256984711,-0.22514812648296356,-0.18316935002803802,0.10956425964832306,0.07674379646778107,-0.058017797768116,-0.14651232957839966,-0.017178794369101524,0.0020477960351854563,0.11643414199352264,-0.08775461465120316,0.0011397599009796977,-0.11635922640562057,-0.18824569880962372,0.16176797449588776,0.05189862102270126,0.016230590641498566,-0.12109317630529404,0.21687836945056915,0.0026486669667065144,-0.06363982707262039,-0.05339112877845764,0.048436470329761505],[0.10590359568595886,0.21204908192157745,0.14714691042900085,0.04255357012152672,0.1489640176296234,-0.06091470271348953,-0.12085594981908798,-0.16403046250343323,-0.21683405339717865,-0.06424937397241592,-0.1257973164319992,-0.0206610020250082,0.07647300511598587,-0.06316031515598297,-0.09449873119592667,0.19256384670734406,-0.09357378631830215,0.07137782871723175,0.1357085257768631,-0.09939249604940414,-0.037705231457948685,0.11264748126268387,0.19884800910949707,-0.04720935970544815,0.11974277347326279,-0.1361783891916275,-0.09044981002807617,0.1386898010969162,-0.02438891865313053,0.18179646134376526,0.03963284194469452,-0.0886848196387291],[0.2279302328824997,0.36212313175201416,0.028487153351306915,-0.02761009708046913,0.0036439457908272743,-0.042699407786130905,0.07311626523733139,-0.19334308803081512,-0.09903711080551147,0.2098686248064041,0.1658487468957901,-0.12294401973485947,0.28390204906463623,0.0787881389260292,-0.07254619151353836,0.21565675735473633,-0.03925453871488571,-0.08535114675760269,-0.10612724721431732,-0.008415624499320984,-0.2513330280780792,0.09056314826011658,0.19333773851394653,-0.09908351302146912,0.13145093619823456,-0.052044183015823364,0.07060379534959793,-0.15504971146583557,-0.029724542051553726,0.09094955772161484,0.03599328547716141,-0.013532471843063831],[-0.0925549864768982,0.230115607380867,0.18731223046779633,4.814624844584614e-05,-0.15998892486095428,0.029901253059506416,-0.03770674020051956,0.12006933987140656,0.023359671235084534,0.02393956296145916,0.012686757370829582,0.11054053157567978,0.005050409119576216,0.11618862301111221,0.08980490267276764,-0.14028045535087585,-0.0032309817615896463,-0.19222241640090942,-0.17938309907913208,0.03996965289115906,0.054993923753499985,-0.06366768479347229,0.1466650664806366,-0.10078945755958557,-0.11185009032487869,-0.04771658405661583,0.008443481288850307,-0.01984219066798687,0.1543859839439392,-0.025158440694212914,-0.09364978969097137,0.04447207972407341],[0.16924843192100525,0.16492488980293274,0.09786254167556763,0.0529254786670208,0.0988839864730835,0.10265251994132996,0.0756329819560051,-0.09407220035791397,-0.19110196828842163,-0.042351674288511276,0.09361352026462555,0.12882277369499207,-0.023819703608751297,0.12337779253721237,0.05852523818612099,0.022301506251096725,-0.018543096259236336,-0.0689525455236435,0.12502345442771912,0.03820744901895523,0.1195191890001297,-0.15704922378063202,-0.05401374027132988,-0.011719898320734501,0.14514130353927612,0.07805171608924866,0.06709760427474976,-0.187465101480484,-0.00195971317589283,-0.09608952701091766,-0.12223807722330093,0.01541126612573862],[0.03304602578282356,0.3341515362262726,-0.24134059250354767,0.14840944111347198,-0.03721588850021362,-0.10868290066719055,-0.05867549777030945,-0.27064651250839233,-0.12897014617919922,0.2866920828819275,0.1488681137561798,-0.050394270569086075,0.25465360283851624,0.0071456399746239185,0.09332727640867233,0.23774504661560059,-0.2085980623960495,-0.12695695459842682,0.07728775590658188,0.1271306574344635,-0.1888572722673416,-0.08316826820373535,-0.021817384287714958,-0.16666245460510254,0.1295008659362793,-0.06915540248155594,0.006041271146386862,-0.04062989354133606,0.05859892815351486,-0.052316758781671524,-0.1647104024887085,-0.22025685012340546],[0.14037984609603882,-0.12589310109615326,-0.13282261788845062,0.12398243695497513,-0.11998256295919418,-0.09186765551567078,-0.18658758699893951,-0.17790600657463074,-0.14423441886901855,-0.1325659304857254,-0.014309103600680828,0.2470473051071167,0.10045912861824036,-0.0681847482919693,0.04695216193795204,0.22216592729091644,-0.23474335670471191,-0.14099209010601044,-0.1388729363679886,0.01722683571279049,-0.10237407684326172,-0.08088840544223785,0.24349549412727356,-0.1879059374332428,0.3132399320602417,-0.08184888958930969,0.03887847438454628,0.018448995426297188,-0.07672029733657837,0.12767638266086578,-0.11372891813516617,-0.16270586848258972],[-0.21330101788043976,0.10124988108873367,0.2780700922012329,0.07190342992544174,0.04262825474143028,-0.05378444865345955,0.21804679930210114,0.1199670061469078,0.207769975066185,-0.12848003208637238,-0.17001889646053314,-0.20008878409862518,0.11297577619552612,-0.009538756683468819,-0.18129128217697144,-0.031809251755476,-0.04140612483024597,0.047470416873693466,0.05952940136194229,-0.10913130640983582,0.09109865874052048,-0.12297170609235764,-0.06232040748000145,-0.11679153144359589,-0.03790373355150223,0.14325161278247833,0.11752298474311829,0.08512654900550842,0.12340647727251053,0.2088969498872757,0.044525548815727234,0.15041260421276093],[0.045884888619184494,0.18887223303318024,0.11477876454591751,-0.04763227701187134,0.003142674919217825,-0.1053062230348587,0.0658489465713501,-0.1532086730003357,0.027184877544641495,-0.044196031987667084,0.08596403896808624,0.09660189598798752,-0.04990183934569359,0.1361820101737976,0.09540250152349472,-0.1336316168308258,0.15738117694854736,0.13518117368221283,0.256912499666214,-0.0024669484701007605,0.010580561123788357,-0.15731748938560486,-0.044592179358005524,0.06825602054595947,0.10558010637760162,0.09203100204467773,-0.15123756229877472,0.1742771565914154,-0.08201742172241211,0.12981486320495605,0.11724378168582916,0.036607030779123306],[0.10634786635637283,0.09294963628053665,0.220250204205513,-0.26077041029930115,0.14156025648117065,0.12388942390680313,0.18684253096580505,0.0602475143969059,0.22320134937763214,0.13152869045734406,-0.20787301659584045,0.011477867141366005,-0.25005146861076355,-0.16971594095230103,-0.23027698695659637,-0.05309439077973366,-0.03830568864941597,-0.08561732620000839,-0.16568215191364288,0.052479248493909836,-0.0766802653670311,-0.09582860767841339,-0.08910459280014038,0.06885548681020737,-0.24788889288902283,-0.003739722538739443,-0.1718694567680359,-0.18454112112522125,-0.009268355555832386,0.006222239695489407,-0.007530179340392351,0.07052522897720337],[-0.04155827686190605,0.26173725724220276,-0.07564657181501389,0.3474907875061035,-0.02446052059531212,0.004267319105565548,-0.0789148211479187,-0.17191804945468903,-0.17134463787078857,-0.1711808741092682,0.11968041211366653,0.053742509335279465,0.39959293603897095,0.07365473359823227,0.12913915514945984,0.15785615146160126,-0.031559448689222336,0.2521807849407196,0.24580681324005127,-0.2442697137594223,-0.3182407319545746,0.030490661039948463,-0.010982668027281761,-0.04092543199658394,0.12630563974380493,0.11351369321346283,-0.025461269542574883,-0.02872774563729763,-0.297456294298172,-0.04382133483886719,-0.08971723914146423,-0.1981286108493805],[0.17612910270690918,-0.14754809439182281,-0.1819225251674652,0.20923206210136414,0.05311990901827812,-0.14089418947696686,0.03239731118083,0.0692649856209755,-0.2070944607257843,0.02314891666173935,0.08696944266557693,0.05569114536046982,0.20314174890518188,-0.08291447162628174,0.13247805833816528,-0.06666234135627747,-0.16840174794197083,0.10619828850030899,-0.08149143308401108,0.016541915014386177,0.05854126811027527,-0.15950585901737213,-0.09189403057098389,0.0385594479739666,0.2385791838169098,0.009564138017594814,0.15163367986679077,0.05790227651596069,0.05716624855995178,-0.14342465996742249,0.1992654949426651,0.00012900910223834217],[0.031844764947891235,0.044179413467645645,-0.18754248321056366,0.06874080002307892,-0.04395880550146103,-0.019838647916913033,0.09508141130208969,0.08517425507307053,0.04673309624195099,-0.15727780759334564,-0.13142888247966766,0.013550232164561749,-0.024424472823739052,-0.11316610127687454,0.16810278594493866,0.012159807607531548,-0.10849899053573608,0.11056879162788391,0.11973613500595093,-0.10925225168466568,0.061226438730955124,-0.13515910506248474,0.06478393822908401,0.17917412519454956,0.12804344296455383,0.1071130707859993,-0.05103890970349312,0.04476509988307953,0.07578147202730179,0.01873875968158245,-0.053245075047016144,-0.002160499570891261],[-0.09466502815485,-0.3176954388618469,-0.18055325746536255,-0.26401111483573914,-0.12625283002853394,0.17123009264469147,0.09047719836235046,-0.03347700834274292,0.0013695507077500224,-0.016260435804724693,-0.1251266896724701,-0.057878073304891586,-0.21171239018440247,-0.029303181916475296,-0.025260668247938156,-0.07181762158870697,0.19956333935260773,0.12122233957052231,0.11270953714847565,-0.023355815559625626,-0.012073327787220478,0.007062144111841917,-0.14843538403511047,0.10508418083190918,-0.0352151058614254,-0.07437010109424591,-0.18871349096298218,0.07713749259710312,0.12673747539520264,0.17976629734039307,-0.10161269456148148,0.11626508086919785],[-0.061881281435489655,-0.31196507811546326,-0.08868180960416794,0.059048980474472046,-0.04944518953561783,0.1177271232008934,0.1115790456533432,0.16862288117408752,0.25412920117378235,0.020466644316911697,-0.03819842264056206,0.10775130987167358,-0.17490115761756897,-0.07628817111253738,-0.08076189458370209,0.0490829274058342,0.1841340959072113,0.218118816614151,0.0013602649560198188,-0.08763567358255386,-0.09991790354251862,0.11707664281129837,-0.170027494430542,-0.018434081226587296,0.182881161570549,0.029902976006269455,-0.13483446836471558,-0.0575551837682724,-0.1203155592083931,0.07684462517499924,-0.14086729288101196,0.16818566620349884],[0.18844111263751984,-0.07317198812961578,-0.06502538919448853,0.17525850236415863,0.10226687043905258,0.17318707704544067,0.11211725324392319,-0.20063059031963348,0.09657412022352219,0.11311595141887665,-0.11762168258428574,0.10738871991634369,-0.0920998752117157,-0.10590703040361404,0.018197765573859215,-0.025833528488874435,-0.04980994015932083,-0.11877847462892532,0.1851627081632614,0.1512361615896225,-0.08455388247966766,-0.09136716276407242,0.025222087278962135,-0.1747913360595703,-0.12916944921016693,-0.05136403068900108,0.11801707744598389,-0.17229855060577393,-0.019716575741767883,-0.10185842216014862,-0.1953495889902115,-0.06328939646482468],[0.024964071810245514,-0.07958697527647018,0.06130556762218475,0.09862994402647018,0.11045344918966293,0.06465864926576614,0.020047126337885857,0.05052116513252258,-0.14864100515842438,0.10203138738870621,0.11670417338609695,-0.07048386335372925,0.003692390164360404,-0.10453137755393982,-0.14379405975341797,0.013480676338076591,0.02404434233903885,-0.05604580044746399,0.05925603583455086,-0.1278386414051056,-0.13104280829429626,0.11544058471918106,-0.13260121643543243,0.012303907424211502,0.14833274483680725,0.14318369328975677,0.06790625303983688,-0.18526634573936462,0.030376508831977844,-0.07427823543548584,-0.09599114954471588,0.108258455991745],[0.024332495406270027,-0.19055548310279846,-0.27455440163612366,0.18139560520648956,-0.03378228098154068,0.14852704107761383,-0.01397014781832695,-0.2594214975833893,-0.020175820216536522,0.20419712364673615,0.1759735643863678,0.10401995480060577,-0.10517437011003494,-0.06115772947669029,0.17274630069732666,-0.08208274096250534,0.018306545913219452,-0.07009667903184891,0.059546325355768204,0.03370781987905502,-0.16946379840373993,-0.06246083229780197,0.2576661705970764,-0.03330465778708458,0.1434217244386673,-0.06840310990810394,0.17931979894638062,-0.06087525188922882,-0.04725947231054306,-0.004002781584858894,-0.05471194162964821,-0.146186962723732],[-0.004916276782751083,-0.10339795053005219,-0.11537108570337296,0.03853479400277138,-0.25866827368736267,0.08604047447443008,0.12338914722204208,0.039682187139987946,-0.0018131359247490764,-0.20221537351608276,0.06562221050262451,0.1860480159521103,0.09507542103528976,-0.027519911527633667,0.05529751256108284,0.14668609201908112,0.03520266339182854,-0.09838179498910904,-0.18144845962524414,0.08201073110103607,0.050174031406641006,0.00911028403788805,-0.10025604814291,0.08209238946437836,-0.027848728001117706,-0.06580516695976257,0.11741343885660172,-0.1514897346496582,0.13215237855911255,0.11093796789646149,-0.12979911267757416,0.1094028502702713],[-0.06909642368555069,0.10940281301736832,0.006781858392059803,-0.2163318544626236,-0.05167527496814728,0.09162884205579758,-0.04807572439312935,-0.08153750747442245,0.0188092440366745,0.056208718568086624,-0.05140724778175354,-0.16795814037322998,-0.09265288710594177,-0.03766310214996338,0.0764065831899643,0.17141379415988922,-0.02126731164753437,0.057947445660829544,0.10654310137033463,-0.06328009068965912,-0.0387515053153038,0.14767587184906006,0.10055805742740631,0.040701285004615784,-0.16762675344944,0.10283349454402924,-0.12872973084449768,0.08508753776550293,-0.003266132203862071,0.052353352308273315,-0.22551225125789642,-0.02721599116921425],[0.1314896047115326,0.175080806016922,-0.14216984808444977,0.2320532351732254,-0.07206520438194275,-0.1340869963169098,-0.1179032176733017,-0.11555147171020508,-0.12194927781820297,0.08186088502407074,-0.03158159181475639,0.002498385962098837,-0.11847825348377228,0.14488154649734497,0.0015097134746611118,-0.10640251636505127,-0.030343281105160713,-0.012472971342504025,0.03957325220108032,-0.013592272996902466,0.07337623089551926,-0.07072211056947708,-0.011795924045145512,-0.05257292091846466,0.09115218371152878,0.16069547832012177,0.018704723566770554,0.14880168437957764,0.1394260972738266,-0.10878753662109375,0.030445558950304985,-0.14968733489513397],[0.19900909066200256,-0.12270504981279373,-0.12485696375370026,0.09197545796632767,-0.17989902198314667,-0.15607622265815735,-0.28781941533088684,-0.21485914289951324,-0.05577091872692108,0.09706079959869385,0.24421395361423492,-0.11837027966976166,0.019847875460982323,-0.05275832861661911,0.09891556203365326,0.12625381350517273,-0.19482192397117615,0.06364327669143677,-0.07684390991926193,0.21089932322502136,-0.044993363320827484,0.11120111495256424,0.31840845942497253,-0.15692557394504547,0.040882088243961334,0.12137582898139954,-0.06822262704372406,0.061453185975551605,-0.07749525457620621,0.11306050419807434,-0.0849757045507431,-0.18948936462402344],[0.05977950617671013,-0.06168794259428978,0.27227383852005005,0.021407797932624817,0.18918819725513458,-0.14454285800457,0.051204338669776917,0.01988985948264599,0.11083457618951797,-0.16447843611240387,0.004959520883858204,-0.07872015237808228,-0.13921289145946503,-0.21301431953907013,0.040300220251083374,-0.10273408889770508,0.15798816084861755,0.0689275786280632,0.03185000270605087,-0.03283032402396202,0.03102116473019123,-0.08289232105016708,-0.24223318696022034,0.15456609427928925,-0.1836169809103012,0.07424785941839218,-0.0954509973526001,0.1260269433259964,0.14669035375118256,-0.06226931884884834,0.1288103461265564,0.09697835147380829],[-0.18363717198371887,0.12251236289739609,0.17837533354759216,0.09268689155578613,-0.17734982073307037,0.17382338643074036,0.14518699049949646,0.24449937045574188,0.14923951029777527,-0.10116049647331238,0.09043420851230621,0.12632018327713013,-0.10193833708763123,-0.05630146712064743,0.11574621498584747,0.11757936328649521,0.12901663780212402,0.14717485010623932,-0.11299091577529907,-0.025257831439375877,-0.027828868478536606,0.0810927227139473,-0.013568013906478882,-0.11195411533117294,-0.05081554874777794,-0.167711079120636,-0.17938737571239471,0.1698516607284546,-0.09436576813459396,0.10231208801269531,-0.04039615020155907,0.021527228876948357]],"b":[0.014086805284023285,0.13285911083221436,-0.047232650220394135,0.13714128732681274,0.12686023116111755,0.15141233801841736,-0.1516512632369995,-0.08986435830593109,-0.14221474528312683,-0.035950638353824615,-0.027386073023080826,0.057223182171583176,0.16379843652248383,0.07662404328584671,-0.10656104981899261,-0.09948171675205231,0.13026398420333862,0.01587243564426899,0.12369101494550705,-0.09761378169059753,-0.039676912128925323,0.04153790324926376,-0.11927817016839981,0.14283248782157898,0.07173765450716019,-0.10992328822612762,-0.0517137348651886,-0.03206489980220795,0.027892544865608215,-0.08136719465255737,0.16542573273181915,-0.1682480126619339]},{"W":[[-0.09650449454784393,-0.08323631435632706,0.055335648357868195,-0.0058695781044662,-0.03682170435786247,0.182830348610878,-0.1503053903579712,0.06411217153072357,-0.09566369652748108,-0.038710176944732666,-0.13954460620880127,-0.1441110074520111,-0.1521213948726654,0.10870131850242615,-0.10362159460783005,0.09316140413284302,-0.07086896151304245,-0.008462011814117432,0.08473822474479675,0.13728611171245575,-0.029990261420607567,0.08766444027423859,-0.007807053159922361,0.10593286901712418,0.14520393311977386,0.04459669440984726,-0.06646599620580673,-0.05229904130101204,0.09488920867443085,0.07786139100790024,-0.0021521609742194414,0.08124228566884995],[-0.1439763307571411,0.06259996443986893,-0.09799794852733612,-0.11368948966264725,-0.12412707507610321,-0.19294263422489166,0.05513394623994827,-0.10957011580467224,-0.016011271625757217,0.006687217857688665,-0.1570272147655487,-0.08320338279008865,-0.04445691406726837,0.02690218947827816,0.1492132544517517,-0.07919493317604065,0.07596384733915329,-0.026513325050473213,-0.19309821724891663,-0.06385927647352219,0.018309717997908592,0.033236853778362274,0.07520939409732819,-0.11889886111021042,0.09102781116962433,0.05054110288619995,-0.20217923820018768,0.02023560181260109,-0.0866885632276535,-0.0603519007563591,-0.09483805298805237,-0.10125856846570969],[0.17749176919460297,-0.13281384110450745,0.17249466478824615,-0.16792292892932892,-0.027542060241103172,-0.03490729629993439,-0.0962999165058136,0.062256570905447006,0.10618116706609726,-0.11947664618492126,-0.053085196763277054,0.09065371006727219,-0.02679048478603363,0.07175575941801071,0.05246646702289581,-0.062136806547641754,-0.06998693197965622,0.10380658507347107,0.0005705102812498808,-0.13179811835289001,-0.0696573331952095,-0.09416994452476501,0.11766345053911209,0.03014216758310795,0.10453544557094574,-0.0071340990252792835,-0.1279224157333374,0.12418946623802185,-0.0006378591060638428,-0.06800999492406845,0.15352796018123627,-0.09620945155620575],[0.02737751044332981,-0.11019126325845718,0.08079054951667786,0.06147007644176483,-0.13668182492256165,0.16036652028560638,-0.004565154667943716,-0.11530324816703796,0.17508536577224731,0.05376823991537094,0.048082031309604645,-0.08607657253742218,-0.11832259595394135,-0.09316125512123108,0.006309500429779291,0.07037380337715149,-0.06315793842077255,0.22292464971542358,0.13974705338478088,-0.09750283509492874,0.09947779774665833,-0.06600871682167053,0.030720271170139313,0.1209743544459343,-0.13494661450386047,-0.13930778205394745,-0.012906970456242561,0.03271062672138214,-0.14261873066425323,-0.17308808863162994,0.012659642845392227,-0.010451831854879856],[0.06781546771526337,-0.009148295037448406,0.0758485272526741,0.027917655184864998,0.01746630296111107,-0.08455487340688705,0.08740124851465225,0.16504307091236115,-0.12485355883836746,-0.07318137586116791,0.08548302203416824,-0.1382303684949875,0.13761423528194427,0.08078161627054214,0.11012592166662216,-0.11205950379371643,-0.03841342031955719,-0.23951658606529236,-0.2215047925710678,0.22648897767066956,-0.12675055861473083,-0.1593322604894638,-0.050154902040958405,0.04598119854927063,0.024014677852392197,-0.018754826858639717,-0.010579352267086506,-0.07939070463180542,0.17102064192295074,0.23645524680614471,0.023680564016103745,-0.03639736399054527],[0.12942931056022644,-0.1106267124414444,0.07169804722070694,-0.12683765590190887,0.14923714101314545,-0.1101873442530632,0.0589679516851902,-0.1558029055595398,0.11508960276842117,0.024037299677729607,0.1736876517534256,-0.13446539640426636,0.10251834243535995,-0.09499669820070267,-0.1449189931154251,0.07880666851997375,0.006149403750896454,-0.09049541503190994,-0.08828235417604446,-0.06833676248788834,0.06831563264131546,0.1495029479265213,0.07981882244348526,-0.012518579140305519,-0.08502579480409622,-0.19794192910194397,0.15768368542194366,-0.09430943429470062,-0.01438184641301632,-0.17760924994945526,-0.1035807654261589,0.03920181840658188],[-0.05318041890859604,0.020099518820643425,-0.019052641466259956,0.0528978668153286,-0.033002860844135284,-0.019813986495137215,0.0567900687456131,0.11412665247917175,0.16122041642665863,-0.16398008167743683,-0.18803825974464417,-0.028021560981869698,-0.028463317081332207,0.054740238934755325,0.18059387803077698,0.05847829952836037,-0.14146561920642853,-0.030452540144324303,0.046416472643613815,0.05579815059900284,-0.16003544628620148,0.03901899233460426,-0.11239596456289291,-0.07601608335971832,0.08116603642702103,-0.06815411895513535,0.13271579146385193,-0.12418542057275772,0.12000146508216858,0.08728926628828049,0.12217486649751663,0.06477537006139755],[0.011865159496665001,-0.11472257971763611,-0.09843999892473221,-0.08884572237730026,0.1354399025440216,-0.0957644060254097,0.0024527476634830236,-0.16853146255016327,0.04245368391275406,-0.053575485944747925,-0.1816236972808838,0.01378300879150629,-0.15241681039333344,-0.04956422001123428,-0.10309162735939026,0.10482440888881683,-0.17172986268997192,-0.013325809501111507,0.0019163363613188267,-0.1256110966205597,0.08960923552513123,0.1568836271762848,-0.050392698496580124,0.018849879503250122,0.02931078150868416,0.17735333740711212,0.13743092119693756,-0.15059971809387207,-0.16958414018154144,-0.13457147777080536,-0.08755747228860855,-0.03277282789349556],[-0.0572790764272213,0.13139183819293976,-0.10549522936344147,-0.20040564239025116,-0.1326272189617157,-0.08287876844406128,0.2026207000017166,0.04469576105475426,-0.03981751576066017,-0.034176480025053024,-0.024940775707364082,-0.05837060883641243,0.10389512032270432,0.1895449459552765,0.0989811047911644,0.007017944473773241,-0.07334932684898376,-0.08537429571151733,0.29284974932670593,-0.164455384016037,0.06655320525169373,-0.05564558506011963,0.06981535255908966,0.10841833055019379,-0.016143646091222763,-0.16678665578365326,0.008160472847521305,-0.1262912005186081,0.024327551946043968,0.047969210892915726,0.08091112226247787,-0.062457386404275894],[-0.1578187644481659,-0.13458317518234253,-0.22330926358699799,0.009639427065849304,-0.11040084809064865,0.0891481414437294,-0.1170407310128212,-0.19034448266029358,0.1662561148405075,0.07962246984243393,0.06938637793064117,0.17944632470607758,-0.15237000584602356,-0.12117651849985123,-0.22865250706672668,0.1610550731420517,0.1507071852684021,0.2745709717273712,-0.0968247726559639,-0.17206403613090515,0.11360365152359009,-0.11815253645181656,-0.10730990022420883,0.013268367387354374,-0.139805868268013,-0.13147340714931488,0.06302610039710999,0.19904892146587372,-0.06800375133752823,-0.2690981924533844,0.17048349976539612,0.2369045466184616],[-0.12588167190551758,0.0261656753718853,-0.1148868203163147,-0.12431976199150085,0.07485368847846985,0.12608906626701355,0.07278361916542053,-0.1619408130645752,-0.03538449853658676,0.07021209597587585,0.0334201455116272,-0.040455449372529984,-0.09862368553876877,0.2017366886138916,-0.18086381256580353,-0.13180044293403625,0.1636401116847992,-0.07513658702373505,0.18997864425182343,-0.10792158544063568,0.005636146292090416,-0.10193847864866257,0.08110196888446808,0.10980704426765442,0.03601725399494171,-0.02964203990995884,-0.07151930034160614,-0.10272911190986633,-0.03145208954811096,0.03616704046726227,-0.024508891627192497,0.11721045523881912],[0.021257491782307625,-0.03286563232541084,-0.11635800451040268,0.09478993713855743,-0.181576207280159,-0.002368499990552664,0.06966762989759445,0.036251019686460495,0.11761372536420822,0.05221332237124443,-0.07591932266950607,-0.1279437392950058,-0.1528826802968979,0.06577065587043762,0.13922078907489777,-0.1412365585565567,0.016089556738734245,-0.10614431649446487,0.08893588185310364,-0.04376640170812607,0.12904000282287598,0.13239848613739014,0.15431301295757294,0.12618379294872284,0.030477140098810196,0.09396755695343018,-0.1489585041999817,-0.03753051906824112,-0.04330458492040634,0.10896002501249313,-0.08056992292404175,0.08646981418132782],[0.1283286213874817,0.04870359227061272,0.08335982263088226,-0.004828037228435278,0.04864843562245369,-0.09627135843038559,0.1635870337486267,0.001302788034081459,-0.023998238146305084,-0.14986033737659454,0.13647037744522095,-0.050649892538785934,0.13957461714744568,-0.13781209290027618,-0.10068677365779877,-0.03943406417965889,-0.162167489528656,-0.014276036992669106,-0.05113742873072624,-0.04083950072526932,0.12859390676021576,0.11933282762765884,-0.10402300953865051,-0.12611356377601624,0.11349766701459885,-0.07117310911417007,0.03209827095270157,-0.06130818650126457,0.013978214003145695,-0.07099531590938568,-0.015243351459503174,-0.06610593944787979],[-0.10988970845937729,-0.060306258499622345,0.0021863088477402925,0.0868268832564354,-0.00939372181892395,0.061927199363708496,0.13935931026935577,0.1074896901845932,0.005344978999346495,-0.1493094116449356,0.06376221776008606,0.0366843044757843,-0.15273931622505188,-0.1382029801607132,-0.05859934166073799,0.2025694102048874,-0.11681520938873291,-0.006114484276622534,0.014372706413269043,-0.2059355080127716,-0.13024333119392395,0.13801975548267365,0.09806621819734573,-0.16326457262039185,0.029497869312763214,-0.20658817887306213,0.05880764126777649,-0.08310713618993759,-0.10285158455371857,-0.15117618441581726,0.06845755130052567,0.14791439473628998],[-0.028749939054250717,0.06939361244440079,0.148511603474617,0.01382487639784813,0.026759620755910873,0.027838025242090225,-0.01868823915719986,0.11020465195178986,0.06810229271650314,-0.13350075483322144,0.16371814906597137,0.08602146059274673,-0.04870942234992981,0.13236412405967712,0.031905729323625565,0.0943472757935524,-0.14851264655590057,0.14787815511226654,0.15689289569854736,-0.1264781802892685,-0.11230850964784622,-0.03260507807135582,-0.10362109541893005,0.0943637266755104,0.09030986577272415,-0.00680523132905364,0.147978737950325,-0.03739272430539131,-0.05910506099462509,-0.13946785032749176,0.040545057505369186,-0.19667527079582214],[-0.01084196101874113,0.008112246170639992,-0.11789347976446152,0.10268586874008179,0.02212221547961235,0.08957887440919876,0.09217429161071777,-0.15897905826568604,-0.12351838499307632,-0.07741007953882217,-0.20632928609848022,0.06034329533576965,-0.12563271820545197,-0.1898740828037262,0.08526377379894257,0.1131897121667862,-0.06968093663454056,-0.20454268157482147,-0.08428243547677994,0.09628826379776001,0.12365057319402695,0.04701347276568413,0.21043947339057922,-0.16545160114765167,0.1421455293893814,-0.09160248935222626,-0.10460176318883896,0.13336418569087982,-0.0790129005908966,0.11452478915452957,-0.12161829322576523,0.15192750096321106],[0.15377728641033173,0.031670182943344116,0.11918626725673676,-0.08220869302749634,-0.050568051636219025,0.03674187511205673,0.0843699723482132,-0.11619210988283157,0.1216728687286377,-0.06368795037269592,-0.168570876121521,0.04178054258227348,-0.14287564158439636,-0.20963536202907562,0.08149286359548569,0.06794068217277527,0.048782892525196075,-0.03872634097933769,-0.23456154763698578,-0.14486578106880188,0.1361209899187088,-0.12614285945892334,0.13631238043308258,0.1318097710609436,0.10680150985717773,-0.09769931435585022,-0.044461317360401154,-0.1255580186843872,0.06279069930315018,-0.17375777661800385,-0.15518814325332642,-0.09464651346206665],[0.1299646943807602,0.11353402584791183,0.08451011776924133,0.22044529020786285,-0.07917658239603043,-0.11168421059846878,-0.16245675086975098,0.01782984845340252,0.08322105556726456,0.0007653127540834248,-0.2795843482017517,0.013726882636547089,-0.11607885360717773,-0.12201113998889923,-0.016644984483718872,0.020697131752967834,-0.16680289804935455,0.16735690832138062,-0.2270296812057495,0.03338801488280296,0.09125195443630219,0.13311271369457245,0.24742361903190613,0.09205477684736252,0.10828173160552979,0.043556977063417435,0.15089669823646545,-0.04829546436667442,-0.17224164307117462,0.056079551577568054,0.06450610607862473,0.01845807582139969],[-0.15026749670505524,0.027322519570589066,0.106300950050354,0.008845179341733456,0.023510368540883064,0.041756771504879,-0.17357927560806274,-0.030092136934399605,-0.07099855691194534,-0.086028553545475,0.06772522628307343,0.1745152771472931,0.03513178601861,0.07922789454460144,-0.09145083278417587,0.026023317128419876,-0.051775284111499786,-0.14497116208076477,-0.0377175509929657,0.07094775885343552,-0.026318471878767014,0.087155282497406,0.14359615743160248,0.1679905205965042,-0.016095006838440895,0.03770965710282326,0.001841692952439189,0.023765994235873222,-0.14073866605758667,-0.0027877548709511757,-0.1585339605808258,-0.12028174102306366],[-0.2123614251613617,0.12437787652015686,-0.17743182182312012,-0.07174959778785706,-0.03893961384892464,0.29174432158470154,0.0975806936621666,-0.21154817938804626,0.24141015112400055,-0.15511563420295715,0.03945401683449745,0.14435945451259613,0.15702445805072784,-0.006350443698465824,-0.2207629382610321,0.15311267971992493,0.23275962471961975,0.009669840335845947,0.07392271608114243,-0.17730790376663208,0.06376916915178299,0.021685605868697166,0.08123069256544113,-0.1533152461051941,-0.11753375828266144,-0.1932300180196762,-0.1577109843492508,-0.010156416334211826,0.012614798732101917,-0.28707587718963623,0.08483337610960007,-0.07376241683959961],[-0.10816443711519241,-0.10442088544368744,-0.026851855218410492,-0.14616446197032928,0.025924673303961754,0.11533940583467484,0.1636047065258026,0.09250815212726593,-0.009104023687541485,-0.02225814200937748,0.23090320825576782,-0.10571198165416718,0.12769103050231934,-0.11064165830612183,-0.14617548882961273,0.043241746723651886,-0.051020972430706024,0.026973634958267212,0.29248130321502686,0.09872347861528397,0.23792991042137146,-0.11328744888305664,-0.1747913956642151,-0.019041119143366814,0.005242886487394571,-0.08521182835102081,-0.021112924441695213,0.13267073035240173,-0.033889349550008774,0.1198122575879097,0.06530573219060898,0.08024906367063522],[0.05242381617426872,-0.04863183572888374,0.09182482957839966,-0.1317785233259201,-0.11367911100387573,0.19959473609924316,0.16693808138370514,-0.11772361397743225,0.146714985370636,0.050622206181287766,0.12171423435211182,0.155373677611351,-0.006500744726508856,-0.007341252639889717,0.07605275511741638,-0.041422683745622635,-0.01822243444621563,-0.052846696227788925,0.2754233181476593,0.08262241631746292,0.002782586496323347,-0.03364361822605133,-0.06662217527627945,-0.1152084618806839,0.09230804443359375,-0.16398736834526062,-0.030991852283477783,-0.047068558633327484,-0.030595991760492325,0.1540645807981491,0.05294163152575493,0.07996939867734909],[-0.09796091914176941,0.04470380023121834,0.0758175328373909,0.03445114567875862,-0.036431510001420975,-0.01633538492023945,-0.11696687340736389,0.13597795367240906,0.1028035506606102,0.09847460687160492,0.18947778642177582,0.1177777647972107,0.17921331524848938,0.12218470126390457,0.04148329794406891,0.04211430251598358,-0.08564870059490204,0.05952690914273262,0.17668747901916504,-0.13695745170116425,-0.03157375380396843,-0.1475532501935959,-0.21416537463665009,0.13780789077281952,0.15709732472896576,-0.03711894527077675,0.042616020888090134,-0.056532613933086395,0.09064949303865433,-0.019312893971800804,-0.1047702506184578,-0.10185553133487701],[0.1724671870470047,0.04105295240879059,-0.05688319355249405,0.0700119361281395,-0.1743009239435196,-0.05695461854338646,0.13334478437900543,0.04261727258563042,0.009726742282509804,-0.1634642332792282,-0.024834854528307915,0.05653894692659378,-0.1271815299987793,-0.09133796393871307,0.15697185695171356,0.02074151672422886,0.04941771551966667,-0.21670421957969666,0.1031242236495018,-0.013364091515541077,0.07156773656606674,0.17458686232566833,-0.13263627886772156,0.08028441667556763,-0.1847010999917984,0.16938179731369019,0.06457360088825226,-0.01964031346142292,-0.0609377883374691,0.1143353134393692,-0.10516303032636642,0.0017335653537884355],[0.16440005600452423,-0.11846450716257095,-0.022301435470581055,-0.01754557155072689,0.040110740810632706,0.01978079043328762,0.18112489581108093,-0.015797557309269905,0.03409441187977791,0.11051357537508011,0.06880073249340057,0.11616029590368271,0.12360196560621262,0.14200028777122498,-0.06321799010038376,0.1433340311050415,-0.08901601284742355,0.0618714764714241,0.1563548594713211,0.13372980058193207,-0.11839062720537186,-0.009626656770706177,-0.20203045010566711,0.10299218446016312,0.08146513998508453,-0.14882251620292664,-0.030513666570186615,0.03229009360074997,0.1333504468202591,0.17225490510463715,0.06646433472633362,0.009162560105323792],[0.09576473385095596,-0.15593743324279785,0.12785887718200684,-0.07578058540821075,0.09990769624710083,0.0755116418004036,0.0159221850335598,0.14102527499198914,-0.10589870065450668,0.0656653568148613,0.16733109951019287,-0.0728171318769455,0.06910461187362671,-0.11676957458257675,-0.12290304899215698,0.08616308122873306,0.11275152862071991,-0.13657443225383759,0.18147414922714233,0.012199481949210167,0.19563840329647064,-0.2062363624572754,-0.12705765664577484,-0.10037466138601303,-0.0736037939786911,-0.05162140354514122,-0.18433763086795807,0.1361950933933258,-0.022867530584335327,0.05675224959850311,-0.10440826416015625,-0.008087844587862492],[-0.12913404405117035,0.15054167807102203,0.1339118629693985,0.22731243073940277,-0.05458811670541763,0.09208223968744278,-0.2081713080406189,0.04734887555241585,-0.0005483615095727146,-0.18146465718746185,-0.3038213551044464,-0.16624359786510468,0.0031833620741963387,-0.1722766011953354,-0.06984685361385345,0.1846044957637787,-0.06532210111618042,0.07054251432418823,-0.2081189751625061,0.09158140420913696,0.05258769914507866,0.1700153946876526,0.17344625294208527,-0.05235486477613449,0.13495920598506927,-0.0011864242842420936,-0.0769878551363945,0.05772395059466362,-0.09434087574481964,-0.14998885989189148,0.03445113077759743,-0.021113840863108635],[-0.0873156189918518,-0.052937883883714676,-0.09568148106336594,-0.0904431939125061,0.01994188129901886,0.22896316647529602,-0.11641762405633926,-0.1097513884305954,-0.09355497360229492,-0.015563723631203175,0.014935223385691643,-0.15369363129138947,0.06981605291366577,-0.14472568035125732,0.09889202564954758,0.05719376727938652,0.02520122565329075,0.003643935779109597,0.13184019923210144,0.0927341878414154,-0.11189974844455719,-0.04316791146993637,0.10294737666845322,-0.06211189925670624,-0.09221327304840088,-0.11133875697851181,-0.0019121660152450204,-0.014869865030050278,-0.12736624479293823,-0.17497648298740387,0.07994496822357178,0.14200682938098907],[0.15805479884147644,-0.016934966668486595,0.055779047310352325,-0.053371649235486984,0.09681465476751328,0.16383010149002075,0.03226662054657936,-0.11093907803297043,0.16662761569023132,-0.20392948389053345,-0.20337645709514618,-0.05034629628062248,-0.20142701268196106,-0.21339546144008636,-0.11234911531209946,0.06641846895217896,-0.01680978760123253,0.07094734162092209,-0.22221818566322327,0.14571106433868408,0.039339713752269745,0.2067449539899826,0.2855639159679413,-0.17607545852661133,-0.13683825731277466,0.11221366375684738,0.1917479783296585,-0.17326399683952332,-0.06418482214212418,-0.09850447624921799,0.18341876566410065,0.18128588795661926],[0.07763763517141342,0.12040282785892487,-0.0771891251206398,0.16740810871124268,-0.07810188084840775,0.07911352068185806,-0.09007852524518967,-0.19891446828842163,-0.04478246718645096,0.0200449600815773,-0.07890734821557999,-0.11405308544635773,-0.051757972687482834,-0.023536982014775276,-0.2537616491317749,0.13929998874664307,-0.12116546928882599,0.17339938879013062,-0.13552531599998474,-0.2828264534473419,-0.11336294561624527,0.2089087814092636,0.1807354986667633,0.031361714005470276,0.1522349864244461,-0.16965234279632568,0.08202127367258072,0.20029900968074799,-0.25348472595214844,-0.22665207087993622,0.14293183386325836,0.06176620349287987],[-0.11585129052400589,-0.17883148789405823,0.13236679136753082,0.04142117500305176,-0.02288421429693699,-0.22593452036380768,0.16909080743789673,-0.10464268177747726,0.06641507893800735,-0.006725159473717213,-0.013691025786101818,0.07740098983049393,-0.03415580466389656,-0.07032874971628189,0.19492173194885254,-0.1482124626636505,0.04062886908650398,-0.10430386662483215,-0.1226075142621994,0.14822641015052795,0.02752208337187767,-0.16162559390068054,0.2070322483778,-0.07852138578891754,0.1293463557958603,-0.01109142042696476,0.17435836791992188,0.04355024918913841,-0.021935798227787018,0.10840429365634918,-0.026034638285636902,-0.09147165715694427],[0.08664070814847946,0.11608888953924179,-0.011018974706530571,0.12409628927707672,-0.005947648547589779,-0.06278768926858902,-0.0811970978975296,0.11649326980113983,-0.060597628355026245,0.12728267908096313,-0.14582881331443787,0.006995908450335264,-0.1107003316283226,0.0935126319527626,0.10814596712589264,0.07773550599813461,-0.02469518780708313,-0.1421399861574173,-0.011454667896032333,-0.10860763490200043,0.21146097779273987,-0.11718660593032837,0.01565142720937729,0.12348750978708267,0.08756045997142792,-0.18547172844409943,-0.038436196744441986,-0.061329785734415054,0.1442890614271164,-0.03840269148349762,0.004234541207551956,0.16173799335956573]],"b":[0.044393863528966904,0.05149446055293083,-0.05641568452119827,0.11892358213663101,0.016910823062062263,-0.0333375409245491,0.022759519517421722,-0.14572416245937347,0.01440403051674366,0.08965212851762772,-0.16593511402606964,-0.10069336742162704,0.11532700806856155,0.01409946195781231,-0.006931690964847803,0.016667090356349945,-0.0830930545926094,0.1326611191034317,-0.018778184428811073,-0.03731750324368477,0.09932336211204529,-0.14507324993610382,-0.03024129942059517,0.04229693114757538,-0.05293326824903488,0.10162022709846497,-0.16350817680358887,-0.04969896748661995,-0.0798889771103859,0.17207452654838562,0.06471945345401764,-0.11477697640657425]},{"W":[[0.037444643676280975,-0.001959357876330614,0.07254505157470703,0.11215978115797043,-0.1355649083852768,0.12231232970952988,-0.00025872679543681443,-0.03220169618725777,0.07946760952472687,0.23689264059066772,0.056453485041856766,-0.15220259130001068,0.00020517289522103965,0.1552722454071045,0.030565595254302025,-0.11526814103126526,-0.12484193593263626,-0.11789168417453766,-0.015204697847366333,0.1214638501405716,0.08814831078052521,0.16072791814804077,0.1566658318042755,-0.006035871338099241,0.10875876992940903,0.11791844666004181,-0.1852530688047409,0.08163919299840927,-0.13837458193302155,0.15154540538787842,-0.12612390518188477,-0.0002444129204377532]],"b":[0.0013894472504034638]}]}