{"key":"wave","name":"Wave Equation","description":"Linear wave equation \u2014 propagation of disturbances","latex_equation":"\\frac{\\partial^2 u}{\\partial t^2} = c^2 \\frac{\\partial^2 u}{\\partial x^2}","latex_ic":"u(x,0) = \\sin(\\pi x), \\; u_t(x,0) = 0","latex_bc":"u(-1, t) = u(1, t) = 0","latex_domain":"x \\in [-1, 1], \\; t \\in [0, 1]","x_min":-1.0,"x_max":1.0,"t_min":0.0,"t_max":1.0,"y_min":-1.3,"y_max":1.3,"y_label":"Displacement u(x, t)","params":{"c":1.0},"layers":[{"W":[[0.6792755722999573,0.8074028491973877],[-0.23282082378864288,0.6928767561912537],[-0.18810322880744934,0.23382216691970825],[-0.3768112361431122,0.4976899027824402],[0.7064859867095947,-0.5614913702011108],[0.5721990466117859,0.0995442196726799],[0.5913295149803162,0.18107420206069946],[0.37303709983825684,-0.1820472776889801],[0.62734454870224,0.17808231711387634],[-0.28595811128616333,0.2595841884613037],[-0.23261304199695587,-0.04662797227501869],[-0.33359333872795105,0.5354499816894531],[-0.5441159009933472,-0.36519601941108704],[-0.28128328919410706,-0.46931523084640503],[0.11775378882884979,-0.6812279224395752],[0.6738520860671997,-0.6944705843925476],[0.5055940747261047,0.11218158900737762],[-0.25291678309440613,0.4669651985168457],[0.32229024171829224,0.504828155040741],[0.10560405999422073,-0.26635539531707764],[0.25446975231170654,-0.24462313950061798],[0.4189395308494568,0.5038531422615051],[0.44897523522377014,-0.4080323278903961],[0.48095816373825073,0.32156386971473694],[0.3715284764766693,-0.46736863255500793],[-0.5961726903915405,-0.38748449087142944],[-0.6104556918144226,0.6283287405967712],[0.39948755502700806,0.36542969942092896],[0.24577344954013824,-0.12272386252880096],[0.5940336585044861,-0.5835027694702148],[0.0825132206082344,-0.5066131949424744],[0.3146950304508209,-0.3145323693752289]],"b":[0.5705196261405945,-0.1085982471704483,0.6228510141372681,-0.20938070118427277,-0.3548620939254761,-0.553626537322998,0.6390637755393982,0.18772388994693756,0.7083320021629333,-0.5931594967842102,-0.9466444849967957,-0.5234799981117249,-0.5114243030548096,0.4224681854248047,0.4940241873264313,0.5749834775924683,-0.5199910402297974,-0.5748255252838135,0.42129361629486084,-0.32712823152542114,0.4627171456813812,-0.32615992426872253,0.3446184992790222,-0.6732848882675171,-0.2976534068584442,0.45617610216140747,0.06521815806627274,-0.5710815787315369,0.40212759375572205,0.4954466223716736,-0.5011452436447144,-0.4454033076763153]},{"W":[[0.21162991225719452,-0.13126249611377716,-0.05003317818045616,-0.16070272028446198,-0.12967465817928314,-0.1464642584323883,0.030619798228144646,-0.1789127141237259,0.06668927520513535,-0.08625409007072449,-0.1801067590713501,-0.10000427067279816,-0.22069929540157318,0.12038902193307877,0.3048384189605713,0.01329878345131874,-0.13409996032714844,-0.17795266211032867,-0.07799655199050903,-0.009271071292459965,-0.008157076314091682,-0.3542990982532501,-0.11245141178369522,-0.39584317803382874,-0.0008750961278565228,0.04535037279129028,-0.01755519211292267,-0.3909268081188202,-0.15378060936927795,-0.1285899579524994,-0.027261272072792053,-0.15933102369308472],[0.12452550232410431,0.042541660368442535,0.21835418045520782,0.13178884983062744,-0.2490764856338501,0.10256007313728333,-0.06694910675287247,-0.1137448400259018,-0.1627369523048401,-0.13806046545505524,0.06366384774446487,0.03158731758594513,0.09275012463331223,-0.1779131442308426,0.0522148460149765,-0.19926366209983826,-0.05723239853978157,0.11062916368246078,0.1160767674446106,0.06872044503688812,0.10546768456697464,-0.11521740257740021,-0.020730774849653244,-0.08703802525997162,-0.12046535313129425,-0.12034313380718231,0.23542317748069763,-0.11738843470811844,0.06454089283943176,-0.013621335849165916,0.006375280674546957,-0.2021578848361969],[0.222105011343956,0.0869702696800232,0.057845551520586014,-0.06092245131731033,0.013965098187327385,-0.11285991221666336,-0.06687403470277786,0.07998168468475342,0.06202291324734688,-0.047658320516347885,-0.09711826592683792,0.0792073905467987,0.04128868505358696,0.006035748869180679,-0.1315385103225708,-0.1429029405117035,-0.21857279539108276,0.14446207880973816,0.17190338671207428,-0.18000449240207672,-0.033805616199970245,0.06767534464597702,-0.048780933022499084,-0.17063665390014648,0.05991658195853233,0.1272727996110916,0.12267867475748062,-0.10096944123506546,-0.10532788187265396,-0.06275615096092224,-0.03239087387919426,-0.10015568882226944],[0.11312689632177353,0.13154074549674988,-0.15436990559101105,-0.029321566224098206,0.09866008162498474,0.17924515902996063,0.05135967209935188,0.08471110463142395,-0.15050055086612701,-0.05135074630379677,0.1640489101409912,0.11021988838911057,-0.013293708674609661,-0.46572616696357727,-0.15028323233127594,-0.16821472346782684,0.13516634702682495,0.1263258457183838,0.09950003772974014,0.12642374634742737,-0.18367989361286163,0.34927234053611755,-0.031078148633241653,0.5500006079673767,0.12573003768920898,-0.16825838387012482,0.023004353046417236,0.49227601289749146,-0.0962759405374527,0.11731880903244019,-0.03846772760152817,0.09235552698373795],[-0.18131929636001587,0.22489839792251587,0.19011510908603668,0.17217706143856049,-0.25658509135246277,-0.21789738535881042,-0.1476750522851944,0.08299746364355087,0.08256686478853226,0.18658234179019928,0.08205688744783401,0.12235847115516663,0.005391503684222698,-0.1613677591085434,-0.24660846590995789,-0.2372763454914093,0.02400088869035244,-0.007841095328330994,0.019214794039726257,-0.18419937789440155,-0.0934864804148674,-0.09371557086706161,-0.18847930431365967,0.006252905819565058,-0.1574903428554535,0.11953860521316528,0.07421700656414032,-0.13366064429283142,-0.04670682176947594,-0.16314062476158142,-0.12369541078805923,-0.2671736776828766],[0.21857550740242004,-0.21142128109931946,0.11630118638277054,0.0968705490231514,0.18104934692382812,-0.23858250677585602,0.19218072295188904,-0.11694861948490143,0.13983401656150818,0.19127142429351807,-0.049465831369161606,0.028665093705058098,-0.15294162929058075,-0.028909428045153618,0.09789451956748962,-0.20875999331474304,0.00915665365755558,0.14867952466011047,0.21348366141319275,-0.023268980905413628,-0.16283811628818512,0.00017539947293698788,0.07114574313163757,-0.3398344814777374,0.023297516629099846,-0.05734407529234886,-0.07308096438646317,-0.21273018419742584,-0.09980440139770508,-0.08369661122560501,-0.15572457015514374,0.157696932554245],[0.1165224239230156,0.20056739449501038,0.175989031791687,-0.04602091386914253,-0.328268826007843,-0.1731882393360138,0.060034144669771194,-0.0980323851108551,-0.11576005816459656,-0.05690087750554085,-0.1190670058131218,-0.04987643286585808,0.023170938715338707,-0.11229640245437622,-0.14219677448272705,-0.06454123556613922,-0.1446409523487091,0.1592710167169571,-0.02978413924574852,-0.13748152554035187,-0.03439119830727577,0.04030604660511017,0.16599249839782715,0.11391112208366394,-0.41812893748283386,0.060154907405376434,0.25334256887435913,0.09991095215082169,0.1551361083984375,0.18833234906196594,-0.1569214165210724,-0.19300957024097443],[-0.13302671909332275,0.06575538218021393,0.12324044853448868,0.17363832890987396,-0.15547333657741547,-0.1383378952741623,-0.1261938363313675,-0.20524044334888458,-0.14083118736743927,-0.01408606767654419,0.11756584793329239,0.09610170125961304,-0.12302782386541367,-0.18091824650764465,-0.010601555928587914,-0.19656330347061157,-0.026163579896092415,0.15913981199264526,-0.019438806921243668,-0.0782669335603714,-0.08639849722385406,-0.0006727154832333326,-0.1513134390115738,-0.15905730426311493,-0.14417362213134766,-0.10333576053380966,0.23474474251270294,-0.0624658539891243,-0.13238291442394257,-0.028118323534727097,-0.015769097954034805,0.10151869803667068],[0.2110678255558014,-0.02818547748029232,-0.1303553730249405,-0.030002648010849953,0.10314394533634186,-0.2718425691127777,-0.2148713767528534,0.11324533075094223,-0.16094668209552765,-0.07978036999702454,-0.12790872156620026,-0.06280432641506195,0.14460235834121704,0.6578608751296997,0.22252455353736877,-0.09488333761692047,-0.4180547297000885,-0.09275834262371063,0.057854969054460526,0.1696152687072754,-0.06864859163761139,-0.7292685508728027,-0.10869119316339493,-0.555687427520752,0.03498656675219536,0.3914019763469696,0.09133986383676529,-0.9331362247467041,0.05195236578583717,-0.08530163019895554,0.13862089812755585,0.09917641431093216],[0.11025768518447876,0.13099686801433563,-0.15616324543952942,-0.08254500478506088,0.1740957498550415,-0.01922665908932686,-0.1259016990661621,-0.08939684927463531,0.03315884247422218,0.1133267730474472,0.12668399512767792,-0.10792011767625809,-0.12245776504278183,0.07382272183895111,0.06852316856384277,-0.06538469344377518,-0.029622215777635574,0.10475044697523117,-0.05165424570441246,0.0329287014901638,-0.04128652438521385,-0.18170586228370667,-0.15372496843338013,-0.08856822550296783,-0.052358705550432205,0.06620020419359207,-0.1113114058971405,-0.11522402614355087,0.10014601051807404,0.08105853945016861,0.1720508188009262,-0.0705498605966568],[-0.008426475338637829,-0.005811859853565693,-0.24644915759563446,-0.19309015572071075,0.08982434868812561,-0.012997996993362904,-0.0836358517408371,0.15409542620182037,0.18883712589740753,0.010021121241152287,-0.040760960429906845,-0.22465880215168,-0.1350875049829483,0.057230934500694275,0.1585148125886917,0.08041773736476898,-0.013992857187986374,0.033442769199609756,-0.12873075902462006,0.2217368334531784,-0.03240261971950531,0.020853573456406593,0.034705374389886856,0.05237588286399841,0.07619693130254745,0.08064349740743637,-0.0964832529425621,0.16042928397655487,0.18712569773197174,0.005047109443694353,-0.06781592965126038,0.30032581090927124],[0.10834379494190216,-0.1589706689119339,-0.007527517154812813,-0.12468182295560837,-0.12836019694805145,-0.08357882499694824,0.06957483291625977,-0.042021770030260086,-0.018638039007782936,0.24501627683639526,0.017876405268907547,-0.055648740381002426,-0.05267651379108429,0.24413225054740906,0.11231237649917603,-0.19517600536346436,-0.05411018431186676,-0.049295954406261444,-0.12400458008050919,-0.06714525818824768,0.09988526254892349,0.0032086328137665987,0.08654851466417313,-0.06428087502717972,0.14852802455425262,0.011981254443526268,-0.10587285459041595,-0.09048283100128174,-0.16079434752464294,-0.19013334810733795,-0.014280352741479874,0.02834293805062771],[0.09209010750055313,0.027838798239827156,0.12102925032377243,0.11621945351362228,-0.2108999788761139,-0.14633524417877197,0.0782618373632431,-0.07163127511739731,0.1485370695590973,0.19444432854652405,0.028825262561440468,0.13605660200119019,0.04990770295262337,0.015087137930095196,-0.09472709894180298,-0.08101671189069748,0.03058946505188942,0.23138327896595,-0.014477650634944439,-0.18280959129333496,-0.0026289070956408978,-0.09668967127799988,0.003297614399343729,0.08456182479858398,-0.019901297986507416,0.09466975927352905,-0.026019178330898285,-0.11852247267961502,-0.046623725444078445,-0.0847892314195633,-0.057307757437229156,-0.39291849732398987],[0.06565596908330917,-0.2664029002189636,-0.26931628584861755,-0.14304456114768982,0.268147349357605,-0.18759730458259583,0.13144391775131226,-0.03355025127530098,-0.026097705587744713,0.18288443982601166,0.05084933340549469,0.13698336482048035,0.11957556754350662,-0.09389689564704895,0.14544378221035004,-0.009469393640756607,0.02013442851603031,0.051422398537397385,-0.02493860013782978,0.11273463070392609,-0.08298083394765854,0.13377590477466583,0.08668087422847748,-0.04887205362319946,0.017726458609104156,0.011880027130246162,-0.18847034871578217,0.09400417655706406,-0.16700705885887146,-0.05327007547020912,0.1289653480052948,0.1920243501663208],[0.186533585190773,0.022045068442821503,0.08526454120874405,0.11315569281578064,0.21854443848133087,-0.03526913374662399,-0.06550010293722153,0.10683167725801468,-0.08021049201488495,0.05996336787939072,-0.002183858770877123,-0.12202521413564682,0.07378015667200089,0.04431118443608284,0.05184905230998993,0.2115238904953003,0.15076322853565216,0.168092280626297,-0.008917233906686306,-0.1289469599723816,-0.0925922840833664,-0.1175052672624588,-0.11374501138925552,-0.06494743376970291,-0.11030524224042892,-0.1708189994096756,-0.1742553412914276,-0.16738948225975037,-0.10890329629182816,0.11196720600128174,0.17571572959423065,-0.007636017631739378],[-0.0031981312204152346,0.07187896966934204,-0.10854113847017288,-0.1935615837574005,0.21613994240760803,-0.06211457774043083,0.07295927405357361,0.2514035403728485,0.07687216997146606,-0.043166350573301315,-0.11716143786907196,-0.05441137030720711,-0.020840967074036598,-0.06967044621706009,-0.017479117959737778,0.34429478645324707,-0.03830179572105408,-0.030148282647132874,-0.11011328548192978,-0.1069367453455925,0.17776870727539062,-0.09285368025302887,0.3142584562301636,0.1365474909543991,0.003748820163309574,0.033078890293836594,-0.30480584502220154,0.04373576492071152,0.026960359886288643,0.05095959082245827,-0.07706119120121002,0.0700504258275032],[0.10026600956916809,0.25151655077934265,0.13688501715660095,0.009875904768705368,-0.21584168076515198,0.0951511412858963,0.024265475571155548,-0.06275127828121185,-0.011540991254150867,-0.08493077009916306,-0.03598713129758835,0.2479851245880127,-0.0058008176274597645,0.023191744461655617,-0.21101538836956024,-0.19762974977493286,-0.06633499264717102,-0.03471268340945244,-0.004551982972770929,0.020877555012702942,-0.2459702342748642,0.028645573183894157,-0.2145123928785324,-0.15042386949062347,0.012156512588262558,0.18574227392673492,0.04522695019841194,-0.11715293675661087,-0.2015925943851471,-0.19790086150169373,-0.194663405418396,-0.10882382094860077],[0.05959008261561394,-0.2913878560066223,0.02456534467637539,0.07170074433088303,-0.14199692010879517,-0.08003868907690048,0.11975738406181335,-0.01711452379822731,0.04871608689427376,-0.06253573298454285,0.1549529880285263,-0.12206932157278061,0.08985435217618942,0.003655350999906659,0.13188229501247406,0.18221662938594818,-0.022989897057414055,-0.11204015463590622,-0.019592270255088806,0.2931098937988281,-0.14786531031131744,0.0420529767870903,-0.15065352618694305,0.08983726799488068,0.1843598335981369,-0.019320504739880562,0.03227692469954491,0.010812540538609028,0.07987241446971893,-0.10705220699310303,0.0795239806175232,0.21158471703529358],[0.06002875789999962,0.13461142778396606,0.047303859144449234,0.17988134920597076,-0.13506439328193665,-0.10785935074090958,-0.21888044476509094,-0.07995037734508514,0.07165981084108353,0.009380418807268143,-0.1348343938589096,0.0764504224061966,0.03510800004005432,0.20638802647590637,-0.18532614409923553,-0.11769329756498337,-0.2449990212917328,-0.05338943377137184,0.028131535276770592,0.05231521651148796,0.060076210647821426,0.1104445531964302,-0.009528358466923237,0.03552672266960144,0.010045425035059452,0.20278309285640717,-0.028552979230880737,0.10643479973077774,0.1115959957242012,-0.13741521537303925,-0.14803268015384674,-0.3170909881591797],[0.045481130480766296,-0.15270845592021942,0.060756199061870575,0.08251876384019852,-0.13211633265018463,0.07141245156526566,-0.041092511266469955,0.06653044372797012,0.07362796366214752,-0.16237127780914307,0.19326728582382202,0.1618054062128067,0.09560154378414154,-0.17946761846542358,-0.03844960033893585,-0.08266046643257141,-0.029450848698616028,0.11720467358827591,0.05308226868510246,0.16175934672355652,-0.07933374494314194,0.06433351337909698,0.03534134849905968,-0.12694844603538513,-0.17915630340576172,-0.09505695849657059,0.11348642408847809,-0.1529761105775833,-0.17390188574790955,0.062266942113637924,0.10183797776699066,0.13900519907474518],[-0.10690105706453323,-0.2079940289258957,-0.029439564794301987,0.10819338262081146,0.19057336449623108,0.025457113981246948,0.0791693776845932,0.18435688316822052,-0.09150039404630661,-0.06179337576031685,0.13878731429576874,-0.14992110431194305,-0.1369895190000534,0.1413673460483551,0.10810516029596329,0.10607590526342392,-0.07206462323665619,-0.033233992755413055,0.16302286088466644,-0.030851241201162338,-0.022392872720956802,0.08895157277584076,-0.09750654548406601,0.17023487389087677,0.026648180559277534,-0.03184351325035095,-0.13660186529159546,-0.11887641996145248,-0.17808806896209717,0.14076200127601624,0.10183510929346085,-0.044426556676626205],[-0.14491356909275055,0.22384080290794373,0.0866532251238823,0.11622820049524307,-0.19787926971912384,-0.11920345574617386,-0.04451973736286163,-0.07916595786809921,-0.13602429628372192,0.07216917723417282,0.028517374768853188,-0.009435056708753109,0.054556310176849365,-0.046762533485889435,0.04796499386429787,0.007047649472951889,-0.14233890175819397,-0.15971247851848602,0.125376358628273,0.0024185003712773323,-0.14745406806468964,0.16209961473941803,-0.16096970438957214,0.06336554884910583,0.04176289960741997,-0.123993881046772,0.19616006314754486,-0.19990642368793488,-0.1264674961566925,-0.1078326404094696,-0.1607883870601654,0.11175736039876938],[-0.05374599248170853,0.18938276171684265,-0.19897307455539703,0.3018464148044586,-0.24191507697105408,-0.1842217743396759,-0.0225394107401371,-0.034410178661346436,0.09864591807126999,0.047126226127147675,-0.03953593224287033,0.19228814542293549,0.07559904456138611,0.05471112206578255,-0.00469834404066205,-0.6702559590339661,0.04629570618271828,0.27396824955940247,-0.030300365760922432,0.047604482620954514,-0.3716810643672943,0.16536158323287964,-0.9793828129768372,-0.13407281041145325,-0.17925019562244415,0.019405892118811607,0.3183458149433136,-0.1141718253493309,-0.001382298767566681,-1.1703085899353027,0.05670734867453575,-0.07539287209510803],[-0.18635870516300201,-0.06308507919311523,-0.17415155470371246,0.10233985632658005,-0.1828007698059082,-0.055662669241428375,-0.027438614517450333,-0.17543017864227295,-0.016661152243614197,-0.06436145305633545,-0.04703645780682564,-0.16653341054916382,0.004461515694856644,-0.045428913086652756,0.005537866614758968,-0.19693182408809662,0.03404808044433594,0.17752276360988617,0.062046077102422714,-0.04051147773861885,-0.361112505197525,0.042064327746629715,-0.26178714632987976,0.03579891100525856,0.07173692435026169,0.10389625281095505,0.3120940029621124,0.13611343502998352,-0.03969442471861839,-0.3340573310852051,0.1683620661497116,-0.12636709213256836],[-0.03774398937821388,0.08449427783489227,-0.006995051167905331,-0.04337957873940468,0.09483405947685242,-0.09287414699792862,0.050889331847429276,0.24352265894412994,0.11177859455347061,-0.018284164369106293,-0.03064887411892414,-0.14302191138267517,0.0316116139292717,-0.01127626933157444,0.1800498366355896,0.11062704771757126,0.13831281661987305,0.0009013694361783564,0.045219048857688904,0.20592965185642242,0.14627429842948914,0.19876228272914886,0.2319197952747345,0.01943160407245159,-0.023605087772011757,-0.02818635292351246,-0.10697777569293976,-0.007842853665351868,-0.004313420969992876,0.12949326634407043,0.17317979037761688,0.2056887447834015],[-0.03683239966630936,-0.12190967798233032,-0.07538962364196777,-0.06561074405908585,0.27031049132347107,0.04558900371193886,0.12988485395908356,-0.042597696185112,0.004604909103363752,0.1495482623577118,-0.12999458611011505,0.03548506647348404,-0.008198539726436138,-0.028648557141423225,-0.10693560540676117,0.05035390704870224,0.09677718579769135,0.10444290190935135,0.15097257494926453,-0.03142143785953522,-0.13731057941913605,0.01967105269432068,-0.10774756968021393,-0.10515082627534866,-0.064252108335495,0.0894133597612381,-0.16040007770061493,-0.06134597957134247,0.11631042510271072,-0.1524360030889511,0.001123399822972715,0.1650129109621048],[-0.04898387938737869,-0.049854036420583725,0.13761663436889648,-0.14236052334308624,-0.08422718942165375,-0.03553421050310135,-0.11280964314937592,-0.028758494183421135,-0.17129747569561005,0.028343433514237404,0.08884109556674957,-0.13780905306339264,-0.07498175650835037,-0.02998453751206398,-0.03514000400900841,0.00680946558713913,-0.09882055968046188,-0.04934479668736458,-0.22922709584236145,-0.09663237631320953,-0.07427487522363663,0.05899782106280327,-0.036073487251996994,-0.015220883302390575,0.16394595801830292,0.0497872419655323,0.052216921001672745,-0.17169196903705597,-0.11039888858795166,0.002591109834611416,0.19466401636600494,0.04804464057087898],[-0.09972447156906128,-0.1214984729886055,-0.355602502822876,-0.13011527061462402,0.1437223255634308,0.1855776011943817,0.04811006411910057,-0.014087594114243984,0.01752360723912716,-0.013287801295518875,0.14051282405853271,-0.004476110450923443,0.039345066994428635,-0.03421560674905777,0.2212415635585785,0.01567803882062435,-0.03516841679811478,0.0371929332613945,0.0825943872332573,0.3516246974468231,0.03374083712697029,-0.06410769373178482,0.1287524551153183,0.18062984943389893,0.14899951219558716,-0.042729612439870834,-0.2194201648235321,0.009800980798900127,0.033504635095596313,0.004332287237048149,0.12295889854431152,0.35193341970443726],[-0.03318221494555473,-0.07655802369117737,0.05809394270181656,0.030566681176424026,-0.0339181013405323,-0.0214852225035429,-0.07331907004117966,-0.22335931658744812,0.015270604752004147,0.04223497956991196,-0.0004055025929119438,0.16642704606056213,-0.044168923050165176,-0.08196356892585754,-0.12827257812023163,-0.2630351483821869,-0.11602970212697983,0.07921894639730453,0.018945608288049698,-0.1399918645620346,-0.3245040774345398,-0.011999308131635189,-0.12458092719316483,0.06713569164276123,-0.173125222325325,0.09313519299030304,0.17630688846111298,0.08193383365869522,-0.2414425015449524,-0.28190454840660095,-0.13048340380191803,-0.12266851216554642],[0.09583146125078201,0.098760224878788,0.007955173030495644,0.13247822225093842,-0.09793277829885483,-0.13145944476127625,0.031976018100976944,-0.2091561108827591,-0.10762254148721695,0.15179800987243652,0.10205637663602829,0.3513134717941284,0.122684046626091,-0.11499128490686417,-0.1146661788225174,-1.3036489486694336,-0.17124633491039276,0.3091670870780945,0.011768418364226818,-0.02327752485871315,-1.015505075454712,-0.07364625483751297,-0.8412052989006042,0.034502800554037094,-0.10903669148683548,-0.07620858401060104,0.5352467894554138,-0.022664448246359825,-0.23314741253852844,-2.1641697883605957,0.1408001035451889,-0.06918903440237045],[-0.01071234792470932,-0.08639616519212723,-0.03233041986823082,-0.20433932542800903,-0.1295783519744873,0.1580410897731781,0.17311714589595795,0.24092432856559753,-0.1150270476937294,0.0025110789574682713,-0.12134930491447449,0.08004383742809296,0.12905292212963104,0.09375812858343124,0.13180170953273773,0.2089214026927948,0.05872992426156998,0.06527591496706009,-0.06502850353717804,0.06970416754484177,0.003657751949504018,0.03109918348491192,-0.054127179086208344,0.02043645642697811,-0.10723426192998886,-0.08026647567749023,-0.14633344113826752,-0.109873466193676,0.07954385876655579,0.21845245361328125,0.15632599592208862,0.10516901314258575],[-0.012130477465689182,-0.17768236994743347,0.0358857698738575,0.07415445148944855,-0.14928153157234192,0.08540390431880951,0.1389351338148117,0.03479014337062836,-0.12500374019145966,0.13063174486160278,0.12179473042488098,0.10647314786911011,-0.13163061439990997,0.10496832430362701,-0.14912152290344238,0.2242501825094223,-0.054814741015434265,0.10564383864402771,0.022580724209547043,0.056119658052921295,-0.0016405296046286821,0.07362549751996994,-0.03510018810629845,-0.15774767100811005,-0.05948663875460625,0.12501613795757294,-0.06258243322372437,0.05007254332304001,-0.06901602447032928,0.180827796459198,0.12098412215709686,0.07194077968597412]],"b":[-0.06804603338241577,-0.1402428299188614,0.016316017135977745,-0.2049936205148697,0.16222169995307922,-0.11278241127729416,0.20395280420780182,0.15017123520374298,0.12486609816551208,0.0528794527053833,-0.22926251590251923,0.18464022874832153,0.16492384672164917,-0.28013312816619873,0.1697775274515152,-0.030185891315340996,-0.013501256704330444,0.062202051281929016,0.03998850658535957,-0.1385742723941803,-0.0637274906039238,-0.02842019870877266,-0.17995311319828033,-0.2658628821372986,-0.10876362770795822,-0.10133427381515503,-0.10695832967758179,-0.3223365843296051,-0.06834987550973892,-0.23609690368175507,-0.13430213928222656,0.09637995064258575]},{"W":[[0.14547403156757355,0.019372139126062393,-0.16464121639728546,-0.00854503270238638,0.14017853140830994,0.1928781419992447,-0.22085358202457428,0.1389283686876297,-0.06694810092449188,0.14204105734825134,0.2036050707101822,0.1805487424135208,-0.1578855812549591,0.23274557292461395,-0.08724095672369003,-0.01559287216514349,-0.14721113443374634,-0.01252752635627985,-0.04023456946015358,0.052931588143110275,0.00642485311254859,-0.002864458365365863,0.2180631309747696,0.16464228928089142,0.1220831573009491,0.11905764043331146,0.144562765955925,0.033175140619277954,0.012431565672159195,0.11696619540452957,-0.08826808631420135,-0.11191913485527039],[-0.0467141792178154,-0.043142251670360565,-0.004254640080034733,-0.009948430582880974,0.04986528307199478,0.06353253126144409,-0.03183891624212265,0.1465435028076172,0.20846550166606903,-0.1484638750553131,-0.180215522646904,-0.16413958370685577,-0.05652124434709549,-0.1350749135017395,-0.03225576505064964,-0.0586266815662384,-0.07630569487810135,-0.06318407505750656,-0.035650573670864105,0.15183274447917938,-0.08363072574138641,-0.14436040818691254,0.09250184893608093,0.0009940230520442128,0.05202040448784828,0.042123764753341675,0.13343659043312073,-0.1951046884059906,0.13478107750415802,0.17304727435112,-0.0610295869410038,0.14101481437683105],[0.011217240244150162,0.025648100301623344,0.20628231763839722,-0.0859249010682106,-0.12834809720516205,0.05476175993680954,0.1286211758852005,-0.10177050530910492,0.22624805569648743,-0.08259395509958267,0.06496747583150864,0.13950999081134796,0.15419700741767883,-0.19892486929893494,0.07527521252632141,0.03793856501579285,0.10675357282161713,0.031121201813220978,0.21315710246562958,-0.11691330373287201,-0.10615859180688858,0.06350566446781158,0.058064889162778854,0.16743436455726624,-0.21302907168865204,-0.0565669909119606,0.03490936756134033,-0.14632736146450043,0.1465325653553009,0.06516920775175095,-0.24521510303020477,0.05741582065820694],[0.13039857149124146,-0.04133957251906395,-0.02953411638736725,-0.2693910002708435,-0.06936568021774292,0.12494362145662308,-0.18217496573925018,0.1433412879705429,-0.13622967898845673,0.14362171292304993,0.10206793993711472,0.02525956742465496,-0.051245927810668945,0.315677285194397,-0.037853870540857315,-0.11149632930755615,0.1159416139125824,0.1785675436258316,-0.15432818233966827,0.14660866558551788,0.05830738693475723,-0.2119053155183792,-0.03837842121720314,0.004837751854211092,0.012997061014175415,0.17486809194087982,-0.16715094447135925,0.2399330884218216,0.1097615584731102,0.051677215844392776,0.04060385376214981,0.06748593598604202],[-0.28746455907821655,-0.04645794257521629,-0.005929067265242338,-0.009646237827837467,-0.14353938400745392,0.05361337587237358,0.1344352513551712,-0.1681879460811615,0.327170193195343,0.10322551429271698,0.1350850760936737,-0.0041010756976902485,0.20615752041339874,-0.11010345816612244,0.1510634869337082,0.1821473240852356,-0.14482499659061432,-0.16371561586856842,0.055806394666433334,0.03683618828654289,-0.11965419352054596,0.003973923623561859,0.011448489502072334,0.0004145130224060267,-0.1208677589893341,0.03840434178709984,0.15431693196296692,-0.17077185213565826,-0.02002021111547947,0.019543631002306938,0.05901963636279106,0.11702549457550049],[0.10901661962270737,-0.10623310506343842,0.18086636066436768,-0.08347196131944656,-0.12020279467105865,0.03664941340684891,-0.14053502678871155,-0.03682294115424156,-0.11867348849773407,0.015016994439065456,0.05931112915277481,0.06573106348514557,-0.25835028290748596,-0.14483442902565002,0.11969775706529617,0.2904786467552185,-0.2450285255908966,0.11344369500875473,-0.17726653814315796,-0.0809200331568718,0.25869089365005493,0.08128606528043747,-0.29026833176612854,-0.04404967650771141,0.1725328266620636,0.050271447747945786,0.13480053842067719,-0.026045605540275574,-0.16364187002182007,-0.2703213691711426,0.027954908087849617,0.05543283000588417],[0.03586650267243385,-0.13643565773963928,-0.09051957726478577,0.03437967225909233,-0.24745634198188782,0.028947021812200546,-0.10928399860858917,-0.13455845415592194,0.01988906040787697,0.014447171241044998,0.25550875067710876,0.028629835695028305,-0.13812413811683655,0.24769574403762817,0.01373667735606432,0.008474132046103477,-0.17183718085289001,0.08468350023031235,-0.20169790089130402,-0.0035513644106686115,0.19361896812915802,-0.17189429700374603,-0.1842016875743866,-0.21491797268390656,0.1962781548500061,0.1474202275276184,-0.01897941716015339,0.2615983188152313,-0.1749855875968933,-0.23277834057807922,0.1481383591890335,0.021886050701141357],[0.0781969353556633,-0.013799825683236122,0.1810307651758194,0.18631799519062042,0.13127774000167847,-0.24924737215042114,0.20965281128883362,-0.15615986287593842,0.180760458111763,-0.19131994247436523,-0.1791059672832489,0.0010185891296714544,-0.056174226105213165,-0.19528789818286896,-0.10057485848665237,0.039010755717754364,0.1158904880285263,-0.07286058366298676,0.09785420447587967,-0.019026756286621094,0.02019522897899151,0.020398087799549103,-0.17146599292755127,-0.2067582756280899,-0.02645283378660679,-0.17696262896060944,-0.12475370615720749,-0.010101336985826492,-0.1484009325504303,-0.1412046104669571,-0.0836876705288887,-0.10838919132947922],[-0.245332732796669,0.06951867043972015,0.02833348512649536,0.05243903025984764,-0.0008048625313676894,-0.07384024560451508,-0.051916901022195816,0.030867179855704308,-0.009713892824947834,0.04914839565753937,-0.1424800455570221,0.014815841801464558,0.13164925575256348,0.09776964783668518,-0.036855053156614304,-0.26342159509658813,0.16924144327640533,-0.23459506034851074,0.060024604201316833,-0.05019824951887131,-0.17913448810577393,0.013881475664675236,0.33532074093818665,0.20267567038536072,-0.08071266114711761,0.1560654491186142,-0.12808844447135925,-0.01357472687959671,0.19003969430923462,0.3659422695636749,-0.30035847425460815,-0.003427339717745781],[-0.11548961699008942,0.07359513640403748,-0.050773490220308304,-0.16434814035892487,-0.1563817858695984,-0.00801888108253479,0.06597936153411865,0.08529914915561676,-0.08076956123113632,-0.013333833776414394,-0.00869043916463852,-0.08992471545934677,0.11479262262582779,0.1718028485774994,0.03046189434826374,-0.28211095929145813,0.14168448746204376,0.09999313205480576,0.13447332382202148,0.015696607530117035,-0.21604347229003906,0.06431667506694794,0.24450406432151794,-0.013353042304515839,-0.09641336649656296,-0.07024312764406204,0.14649970829486847,0.0008161011501215398,0.21809306740760803,0.8351385593414307,-0.04837125539779663,0.05165853351354599],[0.03888007253408432,0.07279463857412338,-0.13776066899299622,0.058570895344018936,-0.08586090058088303,0.16381336748600006,-0.09988568723201752,-0.06666192412376404,-0.03426904231309891,0.09008162468671799,-0.10470688343048096,-0.07842627912759781,-0.12524732947349548,0.06432553380727768,0.0856776237487793,0.08947938680648804,-0.05053262040019035,0.20192937552928925,-0.1061139926314354,-0.05666055902838707,-0.021843018010258675,-0.08062980324029922,-0.11774268001317978,-0.15759466588497162,-0.12530377507209778,0.1371370106935501,0.08797241747379303,0.2913348376750946,0.11386796832084656,-0.00964778196066618,0.004656375385820866,-0.12957856059074402],[0.18758222460746765,-0.2200303077697754,0.10622202605009079,-0.12930940091609955,-0.0025250317994505167,0.17527824640274048,-0.12442078441381454,0.10176971554756165,0.09653321653604507,0.18957392871379852,-0.0068788062781095505,0.15404365956783295,0.119986891746521,0.07726495712995529,0.24176636338233948,0.03735760971903801,0.10659829527139664,0.0008961487910710275,0.14490120112895966,0.12294227629899979,0.047273121774196625,-0.09019910544157028,-0.03474614769220352,-0.009535189718008041,-0.007210989948362112,-0.0576353445649147,0.13453350961208344,0.1067991554737091,-0.17333684861660004,0.004074095748364925,0.014468224719166756,-0.06429076194763184],[0.025126885622739792,-0.09416279196739197,-0.06436380743980408,-0.0802561566233635,-0.10374558717012405,0.24271054565906525,0.04600808396935463,0.15092429518699646,0.060081325471401215,0.028910772874951363,0.04134155437350273,-0.006544358562678099,-0.15784220397472382,-0.10283299535512924,-0.03337765485048294,9.341278928332031e-05,0.057999495416879654,0.007674034219235182,0.1397414356470108,0.06549946218729019,-0.06393186748027802,-0.09393387287855148,-0.10660001635551453,-0.07637610286474228,0.048786189407110214,0.1457984447479248,0.11537191271781921,-0.032727714627981186,-0.085306316614151,0.006507625337690115,-0.000582730513997376,0.048016250133514404],[-0.019654227420687675,0.0004788797232322395,0.04193240404129028,0.06523726135492325,-0.05526231229305267,-0.17197652161121368,0.04069562628865242,-0.019962312653660774,-0.05366266518831253,0.07189208269119263,-0.007001406047493219,-0.0058687240816652775,-0.07644180953502655,0.002690116874873638,-0.1673584282398224,0.041630253195762634,-0.04191763326525688,0.09364243596792221,0.014055310748517513,0.0027479552663862705,0.06456563621759415,0.12773965299129486,-0.10638220608234406,0.07518176734447479,0.05880524218082428,-0.1574917435646057,0.07205474376678467,-0.09996221959590912,-0.07730262726545334,-0.11433485895395279,-0.14226891100406647,0.15257528424263],[-0.1345793902873993,0.08926540613174438,-0.2058417648077011,0.016363484784960747,0.05567893385887146,-0.005572188179939985,-0.009847935289144516,0.08153960108757019,0.16044746339321136,0.07203882187604904,0.08306416869163513,0.13129830360412598,-0.17550750076770782,-0.18377207219600677,0.10747656226158142,-0.10386007279157639,-0.0672219842672348,0.07916207611560822,0.1077435314655304,-0.07363052666187286,-0.07373886555433273,-0.0674857571721077,0.033176664263010025,0.0354624018073082,0.23028331995010376,-0.04763820394873619,0.10374169796705246,-0.15834112465381622,0.0808638483285904,-0.021150527521967888,0.12058582901954651,-0.10600222647190094],[-0.19613488018512726,0.0266826543956995,-0.1025204285979271,-0.0835600346326828,-0.189390167593956,-0.07320280373096466,0.14040422439575195,0.02161085233092308,0.19742389023303986,0.020601719617843628,-0.16051848232746124,-0.06746327131986618,-0.016126718372106552,-0.1387813836336136,0.1639874428510666,-0.09418699145317078,0.034244198352098465,-0.19940245151519775,0.00969439186155796,-0.13928477466106415,0.03916804865002632,-0.11945655196905136,0.1016683578491211,-0.18525320291519165,0.05608835071325302,-0.15500661730766296,0.08916167169809341,-0.11408766359090805,-0.02547505870461464,-0.04194566607475281,0.10020548105239868,0.0015010560164228082],[-0.29899007081985474,-0.00516756996512413,-0.11699212342500687,0.13801471889019012,0.021498918533325195,-0.14153088629245758,-0.08583178371191025,0.04787067323923111,0.07353110611438751,0.14489951729774475,0.05686026066541672,0.07723742723464966,0.08110273629426956,-0.21165765821933746,0.13716241717338562,-0.034652143716812134,-0.04468883201479912,-0.03456966578960419,0.13575902581214905,0.07704254239797592,0.005810192786157131,0.07372435927391052,-0.15342162549495697,-0.0006645587855018675,-0.2258652299642563,0.012802468612790108,-0.0898679569363594,-0.09587443619966507,0.13002990186214447,0.1770179271697998,-0.10801181197166443,-0.07335609197616577],[-0.14061316847801208,0.056195247918367386,0.016093900427222252,-0.03159688040614128,-0.12584003806114197,-0.0008470104075968266,0.23236529529094696,-0.08921835571527481,0.3246808648109436,0.16328869760036469,0.1266975700855255,-0.11879605054855347,0.0755506083369255,0.0743948444724083,0.12021149694919586,0.2470458447933197,-0.027646396309137344,0.007507754489779472,0.16645310819149017,-0.16978773474693298,-0.011441822163760662,-0.050585612654685974,0.12887756526470184,-0.10217537730932236,-0.05282668396830559,0.047160807996988297,-0.10750547051429749,-0.20569775998592377,-0.11210000514984131,0.14836779236793518,0.11304814368486404,-0.007776153739541769],[0.05464295670390129,0.020346729084849358,-0.07871592789888382,0.10271667689085007,0.1310700923204422,0.004926008637994528,0.06573401391506195,0.06318376958370209,0.0517047718167305,-0.027659891173243523,-0.14124980568885803,0.10062339156866074,0.059560131281614304,0.08329854160547256,-0.09182258695363998,0.05637242645025253,0.22472906112670898,0.13176655769348145,0.0849803239107132,0.280626118183136,-0.08409470319747925,0.06346197426319122,0.1988855004310608,0.2387561798095703,-0.10848970711231232,0.1036335751414299,0.08615043759346008,-0.08055752515792847,0.22764557600021362,-0.03584042936563492,0.13166694343090057,0.23944267630577087],[-0.04963580146431923,-0.22029832005500793,-0.21314039826393127,-0.032491572201251984,-0.2897915244102478,-0.020534556359052658,-0.10328681021928787,0.03000953048467636,0.031318627297878265,0.06909842789173126,0.3232322335243225,-0.013163702562451363,-0.26439300179481506,0.14684399962425232,0.19813886284828186,0.0208063255995512,-0.09702371060848236,-0.03334236517548561,-0.19193284213542938,-0.15085899829864502,0.24465306103229523,-0.061186954379081726,-0.2228783220052719,-0.045959144830703735,0.10230615735054016,0.052050381898880005,-0.0013096723705530167,0.2813165783882141,-0.28092682361602783,-0.17970797419548035,-0.021018078550696373,-0.17808830738067627],[-0.004991854541003704,0.13353270292282104,-0.023030346259474754,-0.09454001486301422,-0.056713368743658066,-0.061760641634464264,0.10852719843387604,-0.04876028746366501,-0.4453531801700592,-0.22083432972431183,0.137510746717453,0.07376663386821747,-0.08169874548912048,0.02356734685599804,-0.1161937564611435,-0.06292803585529327,0.08316910266876221,-0.07566086947917938,-0.03525018319487572,-0.09230804443359375,-0.019813155755400658,0.15482574701309204,-0.035882022231817245,0.18672645092010498,0.014629142358899117,-0.006815768778324127,-0.1743515282869339,0.2273806929588318,-0.1227317824959755,0.047863706946372986,0.039474986493587494,0.029863571748137474],[0.2953782379627228,-0.09162147343158722,0.13985875248908997,-0.3468214273452759,-0.12282653898000717,0.2676161229610443,0.011073334142565727,-0.07486223429441452,-0.15483909845352173,0.021060951054096222,0.08506272733211517,0.06448034197092056,-8.001270907698199e-05,0.04234075918793678,0.24353455007076263,-0.015306884422898293,-0.06695053726434708,0.11635798215866089,0.13255050778388977,-0.15002791583538055,-0.15500378608703613,0.004645278677344322,0.05130677670240402,-0.02392304316163063,0.09524112939834595,-0.17544716596603394,0.10346891731023788,-0.11373910307884216,0.028496237471699715,0.10944067686796188,0.09062447398900986,0.2795914113521576],[0.08819117397069931,-0.15440963208675385,-0.15169119834899902,0.03739896044135094,0.06932201236486435,0.0017425045371055603,0.06300104409456253,0.1651153862476349,-0.27531805634498596,0.08650214225053787,0.037696532905101776,0.09988667070865631,0.13647125661373138,0.2033892124891281,0.12257673591375351,0.06937219947576523,0.06806837022304535,0.04772505536675453,-0.17931628227233887,0.045887455344200134,-0.09411215037107468,0.03510071337223053,0.04594117030501366,0.0254292581230402,-0.11011573672294617,-0.07917345315217972,0.08828658610582352,0.08665183931589127,0.12405680865049362,-0.037908755242824554,-0.0091924536973238,-0.06924009323120117],[0.1590297520160675,-0.13850003480911255,0.06026472896337509,0.16226224601268768,-0.21361622214317322,-0.15226317942142487,-0.003304741345345974,-0.1298745721578598,0.037444643676280975,-0.08723270148038864,0.2710440754890442,-0.14391711354255676,-0.028954539448022842,-0.14587409794330597,-0.042249877005815506,0.24821506440639496,0.010225430130958557,0.15746115148067474,-0.2710200548171997,-0.004991000983864069,0.011099866591393948,-0.002106967382133007,-0.2980498969554901,-0.17731724679470062,0.3045099079608917,-0.2001432627439499,-0.18957969546318054,0.0685042068362236,-0.05762946233153343,-0.3922939598560333,0.24373292922973633,-0.0979083850979805],[-0.11389201879501343,-0.10455679893493652,-0.005966589320451021,-0.09542973339557648,0.15657007694244385,-0.059147320687770844,0.13449405133724213,-0.04582441970705986,0.2280544638633728,0.1462952047586441,-0.13690006732940674,-0.034733373671770096,-0.0901133120059967,-0.01655285805463791,-0.15866446495056152,-0.037943001836538315,0.21809977293014526,-0.05170236527919769,0.14137890934944153,0.004281981382519007,0.11727618426084518,-0.0949837863445282,0.15149153769016266,0.05134153366088867,-0.00936883594840765,0.035807814449071884,-0.16550323367118835,-0.23140043020248413,0.22216002643108368,-0.08481507748365402,-0.1158204898238182,0.06504558771848679],[-0.31118911504745483,0.04528973996639252,-0.19745342433452606,0.263292521238327,-0.1253737360239029,-0.2273179292678833,0.14361341297626495,0.048053398728370667,0.16178089380264282,-0.03973504528403282,-0.08675669133663177,-0.23191580176353455,-0.10303156077861786,-0.21110589802265167,-0.1561829298734665,0.16942910850048065,0.012266957201063633,0.07960066199302673,0.05369432643055916,0.04790446162223816,-0.14167903363704681,-0.0648876428604126,-0.04291184991598129,0.11998162418603897,-0.14268958568572998,-0.08104830980300903,0.0811857283115387,0.12221523374319077,0.10136371105909348,0.05417822301387787,0.15629200637340546,-0.010217759758234024],[-0.06290409713983536,-0.002256507519632578,-0.15625052154064178,0.018057111650705338,0.012680633924901485,-0.16300147771835327,0.05219569429755211,0.10839812457561493,0.16671007871627808,-0.10701373219490051,-0.18904829025268555,-0.10137421637773514,-0.1215667650103569,0.010394790209829807,-0.1922791302204132,0.00934412982314825,-0.03413446247577667,-0.0897628515958786,0.05019734427332878,-0.06996174156665802,-0.028706196695566177,-0.058081403374671936,-0.029869768768548965,0.024535389617085457,0.05530652776360512,-0.10526411235332489,0.05643736571073532,-0.0415758341550827,-0.08031982183456421,-0.1573057621717453,-0.07655427604913712,-0.15771275758743286],[0.02736935019493103,-0.11338871717453003,-0.06936293840408325,0.06322753429412842,0.026013709604740143,-0.11970599740743637,0.13397160172462463,-0.13043299317359924,0.2007485032081604,0.013258866965770721,-0.16180767118930817,-0.13543985784053802,0.06466370075941086,0.005958571098744869,0.13774795830249786,0.1667793095111847,-0.1040673479437828,-0.09498673677444458,-0.04017309099435806,-0.185935840010643,-0.048223525285720825,-0.18449045717716217,0.04593300819396973,0.08631063997745514,-0.025929588824510574,-0.1515035182237625,-0.13166391849517822,-0.08447141945362091,0.024621695280075073,-0.01440755371004343,0.050753090530633926,0.15665863454341888],[-0.09205275774002075,0.08768506348133087,-0.10067111998796463,0.20655067265033722,0.10482452809810638,-0.36967340111732483,-0.04691220447421074,0.026591496542096138,0.17699074745178223,-0.04766788333654404,-0.11098047345876694,-0.26456230878829956,-0.032086391001939774,-0.11539334058761597,-0.0010659104445949197,-0.004586455877870321,0.14077484607696533,0.08386164158582687,0.07175452262163162,-0.1433059126138687,0.0795951783657074,0.024293791502714157,-0.0775555744767189,0.09815077483654022,-0.1442732959985733,0.08440647274255753,-0.012896422296762466,-0.023756712675094604,0.1270156353712082,0.0020979770924896,0.12169299274682999,-0.023564422503113747],[0.05901910737156868,0.10137898474931717,0.09738573431968689,-0.30577296018600464,0.003813259769231081,0.3760935962200165,-0.056339964270591736,-0.11810965836048126,0.05950133875012398,0.0008222681353799999,-0.018568074330687523,0.04060472175478935,0.10693900287151337,0.10129618644714355,0.009960014373064041,-0.0014054920757189393,0.13585834205150604,-0.06679952144622803,0.05916699022054672,-0.23907779157161713,0.1258973479270935,-0.007799399551004171,-0.014599364250898361,-0.1346765011548996,-0.1085072010755539,0.04659207537770271,-0.015836700797080994,0.07208289951086044,-0.03507023677229881,0.0008227009093388915,0.047677330672740936,0.08682344853878021],[-0.011072189547121525,0.0920761451125145,0.16502098739147186,0.05939195305109024,0.07954839617013931,0.19125083088874817,0.08627746999263763,0.03339740261435509,-0.06261381506919861,-0.007443234324455261,0.13587023317813873,0.09946619719266891,0.10025603324174881,-0.013711427338421345,0.1682262420654297,-0.17054860293865204,0.17623378336429596,0.045211706310510635,0.14594508707523346,0.05013909563422203,-0.15691271424293518,0.09795502573251724,-0.06778447329998016,0.09981904923915863,0.11406561732292175,-0.1603527069091797,-0.00878111645579338,-0.0905158743262291,0.14069543778896332,-0.09340091794729233,0.10297504812479019,0.08802108466625214],[0.20881924033164978,0.20175985991954803,0.1304347962141037,-0.3342004716396332,0.13074959814548492,0.17252711951732635,0.061237532645463943,-0.13450118899345398,0.01754581369459629,0.11996350437402725,0.11179075390100479,0.12035231292247772,0.22393213212490082,0.07257324457168579,-0.0662027969956398,0.007258276920765638,0.007997318170964718,-0.1288340538740158,0.25284630060195923,0.048432912677526474,0.08175133168697357,0.06229211017489433,-0.12453087419271469,-0.09040025621652603,0.06000179052352905,0.04912761598825455,0.12302903831005096,-0.15456895530223846,-0.19392359256744385,-0.05397208034992218,0.027525577694177628,0.10524484515190125]],"b":[-0.0088876998052001,0.08757206797599792,-0.0011969381012022495,0.012687388807535172,-0.02885422669351101,0.026198264211416245,-0.12102152407169342,-0.10898192971944809,0.05521899834275246,-0.019538259133696556,-0.16929899156093597,0.13373540341854095,-0.13001179695129395,-0.16834959387779236,-0.03594944626092911,-0.024447135627269745,0.04916591942310333,-0.03976888209581375,-0.021244332194328308,-0.23130841553211212,0.02586962841451168,0.03004317171871662,0.05257180705666542,0.1855257749557495,0.1532587856054306,-0.09539765119552612,-0.07964871823787689,-0.024559099227190018,-0.04252335801720619,0.13429845869541168,-0.06163826212286949,0.15071983635425568]},{"W":[[0.10980439186096191,-0.030067991465330124,-0.03448579087853432,0.1544675976037979,-0.08895019441843033,0.18655379116535187,-0.231137216091156,0.04601774364709854,-0.16510000824928284,-0.19343391060829163,-0.032481852918863297,0.12253706157207489,0.17494262754917145,0.10284901410341263,-0.08869630843400955,-0.04746726527810097,-0.1361868530511856,-0.04791422188282013,0.013205792754888535,0.07883580029010773,0.15537385642528534,-0.04073381796479225,-0.006990026216953993,-0.04968806728720665,-0.04804359748959541,-0.27012088894844055,0.011559323407709599,-0.1893673688173294,0.11705517768859863,0.14991679787635803,-0.10815151035785675,-0.10714630037546158],[-0.014861330389976501,-0.013919198885560036,0.11503241956233978,-0.30715319514274597,0.038224201649427414,-0.18388059735298157,-0.2589097023010254,-0.02842271514236927,0.06081174686551094,-0.007083466276526451,-0.2772378623485565,-0.10591964423656464,-0.07942148298025131,-0.18564262986183167,0.03287744149565697,0.03157363086938858,0.08145936578512192,-0.07601199299097061,0.02995150536298752,-0.33467361330986023,-0.09376561641693115,0.027842026203870773,0.17176076769828796,-0.040368642657995224,0.1764468550682068,-0.061171554028987885,-0.023842867463827133,-0.1699933558702469,0.18856321275234222,0.14222243428230286,0.05516326427459717,0.14957836270332336],[0.1737155020236969,0.07569140940904617,0.04514125734567642,-0.052430395036935806,-0.2431485950946808,-0.08294131606817245,0.014027602970600128,-0.19292490184307098,-0.18854202330112457,-0.12231665849685669,-0.12792573869228363,0.027928868308663368,0.05866031348705292,-0.06549802422523499,0.12812329828739166,-0.13058769702911377,-0.11534833163022995,0.1132366731762886,0.1497824341058731,-0.048365116119384766,-0.054337915033102036,0.013572832569479942,0.017188429832458496,0.1639334112405777,0.045814111828804016,-0.1930277794599533,-0.18643729388713837,-0.2006649672985077,-0.11861734837293625,0.012296006083488464,-0.09568425267934799,-0.11347636580467224],[0.0987531766295433,-0.14794500172138214,-0.19002099335193634,-0.02955867163836956,-0.3231438994407654,0.17885616421699524,-0.014264322817325592,-0.10691523551940918,0.03266578167676926,0.06093573197722435,-0.00872066617012024,-0.26657041907310486,-0.13739696145057678,-0.03829094022512436,-0.05596251040697098,-0.3970009386539459,-0.0290417168289423,-0.26829996705055237,0.22206202149391174,0.08966600894927979,0.4012208878993988,0.021287336945533752,0.04573614522814751,0.06386628746986389,-0.1557760089635849,-0.14982013404369354,-0.06572217494249344,-0.22330468893051147,-0.19496656954288483,-0.0488455668091774,0.1614442765712738,-0.10334379971027374],[0.009371906518936157,-0.01305441651493311,0.03186246007680893,-0.0024956411216408014,0.1564387083053589,0.02994268201291561,-0.051577333360910416,-0.007807282730937004,0.08559063076972961,0.08789388835430145,0.007036301307380199,-0.01603741943836212,-0.048644743859767914,-0.041441891342401505,-0.24529173970222473,0.08070958405733109,0.04271847754716873,0.13764838874340057,-0.08651959151029587,0.07754085212945938,0.1478687971830368,0.1894916594028473,0.050575826317071915,0.06594426184892654,0.010116836056113243,-0.1814401000738144,-0.053819138556718826,-0.04249732568860054,0.1279798448085785,0.17915251851081848,0.030677195638418198,0.17054513096809387],[-0.05000699311494827,0.18818187713623047,0.21009965240955353,-0.022058764472603798,-0.09222047030925751,-0.15534375607967377,-0.144241601228714,-0.06316360831260681,-0.1293724924325943,0.05262169614434242,-0.07407689094543457,0.004679959267377853,-0.06407393515110016,-0.13556048274040222,-0.13693737983703613,-0.10706942528486252,0.11539701372385025,0.16455909609794617,0.2031126469373703,-0.21000482141971588,0.009893128648400307,-0.03963848948478699,-0.15371474623680115,-0.10109574347734451,-0.07378564029932022,-0.155964657664299,-0.13108046352863312,-0.10837805271148682,0.1813351809978485,0.1250237077474594,-0.043067168444395065,-0.09486918896436691],[-0.18143540620803833,-0.11479947715997696,-0.02206079475581646,-0.020614083856344223,0.09311281144618988,-0.08124886453151703,0.18411119282245636,-0.05886814370751381,-0.08149338513612747,0.07086493819952011,-0.13267505168914795,0.0034793629311025143,0.1151857078075409,-0.12205564975738525,-0.1570698320865631,0.09346376359462738,-0.11385170370340347,0.1444704383611679,-0.10254435241222382,0.11732501536607742,-0.14981837570667267,-0.22481441497802734,0.047561898827552795,0.03981375694274902,0.16633084416389465,0.25877273082733154,-0.06114868447184563,-0.018311146646738052,0.064357690513134,-0.07312743365764618,0.014840112067759037,-0.20691972970962524],[-0.1395779699087143,0.13671499490737915,-0.13260024785995483,0.10725859552621841,0.02982976846396923,0.06743127107620239,0.1812988519668579,-0.034275270998477936,-0.03271207958459854,0.05068901926279068,0.06306483596563339,-0.212288498878479,0.0325765386223793,-0.08192987740039825,0.08040450513362885,0.10218695551156998,-0.03348381817340851,-0.04852376505732536,0.010547854006290436,0.1905304491519928,0.10376361012458801,-0.12980367243289948,-0.06133725866675377,-0.11146736890077591,0.1405736356973648,0.25344640016555786,0.1365106850862503,-0.1453155279159546,0.19945602118968964,-0.07991816103458405,0.15462812781333923,0.09126774966716766],[-0.027998315170407295,-0.08868389576673508,0.18866921961307526,-0.18048055469989777,0.1922624558210373,-0.20104649662971497,0.041408102959394455,-0.09582690894603729,-0.042905811220407486,0.08641190826892853,-0.11769095063209534,-0.1755632907152176,0.10136481374502182,0.06363467127084732,0.136657252907753,-0.0533955842256546,-0.003782198764383793,-0.02832525223493576,0.08016492426395416,0.022025173529982567,-0.1483020931482315,-0.2205810546875,-0.08082748204469681,0.054595671594142914,0.12500393390655518,0.15183377265930176,-0.004608496092259884,0.2450534701347351,0.08822125196456909,-0.08572348207235336,-0.07686387002468109,-0.08815919607877731],[0.04560181871056557,0.06105312332510948,0.18506330251693726,-0.07770782709121704,0.36428651213645935,-0.11118355393409729,0.0033870141487568617,-0.027548357844352722,-0.1428288221359253,-0.11368431150913239,-0.14396794140338898,0.04773687198758125,0.012148808687925339,-0.11476168036460876,-0.13071885704994202,0.3085676431655884,-0.03883981704711914,0.21609416604042053,0.1047741025686264,-0.04149147868156433,-0.15674397349357605,0.11658783257007599,0.1064368188381195,-0.05965419486165047,0.13568761944770813,-0.0858394131064415,-0.09504322707653046,0.2744860351085663,-0.0005736194434575737,0.2543543577194214,0.0041247038170695305,-0.06296232342720032],[0.12338760495185852,0.13041943311691284,0.038869161158800125,-0.1980668306350708,0.037668000906705856,-0.11477963626384735,0.21571287512779236,0.06170280650258064,0.07671818137168884,0.12283775955438614,0.050892796367406845,-0.17275971174240112,0.09612294286489487,0.07990704476833344,-0.0883125588297844,0.17344610393047333,0.08934145420789719,-0.029209846630692482,-0.14897330105304718,0.043525516986846924,-0.20846053957939148,-0.005692946724593639,0.13730603456497192,-0.06746263802051544,0.18326042592525482,0.014403775334358215,0.04153798520565033,-0.08083376288414001,0.02022075280547142,0.050041135400533676,0.06390229612588882,-0.04458276554942131],[-0.13833263516426086,0.10185940563678741,0.1326829195022583,-0.05591019243001938,-0.03527996316552162,0.0014067614683881402,0.008226639591157436,0.22511370480060577,0.0531940795481205,-0.0009510933887213469,-0.01389459241181612,0.030674848705530167,-0.03072306700050831,0.11605972051620483,0.08100482821464539,-0.1123199611902237,0.01662662997841835,-0.11683227121829987,-0.1271505206823349,0.028429469093680382,-0.02452908270061016,-0.17249788343906403,0.1355186104774475,-0.0974116101861,-0.050750188529491425,0.016391608864068985,0.024207334965467453,0.03239144757390022,0.17193229496479034,-0.08960438519716263,-0.09168407320976257,0.011128593236207962],[0.10167426615953445,0.039357054978609085,0.1305115669965744,-0.07969814538955688,0.23396481573581696,0.05861104279756546,0.19436904788017273,0.02566423825919628,-0.10441698879003525,-0.06322788447141647,0.035973772406578064,0.06171777471899986,-0.10118412971496582,0.127913698554039,0.06184815987944603,0.05372971296310425,0.0743217021226883,-0.02476474829018116,0.16144917905330658,0.0546809583902359,0.019051548093557358,-0.2776283621788025,-0.07755202800035477,-0.02557666227221489,0.17540748417377472,0.21176429092884064,0.07763482630252838,-0.12870678305625916,0.0730176493525505,-0.1573764830827713,-0.1418474316596985,-0.023923465982079506],[-0.1085115298628807,0.18279799818992615,-0.13191452622413635,0.03243231773376465,0.0953102707862854,-0.18632544577121735,0.10031738132238388,0.032016776502132416,0.10662498325109482,0.21235954761505127,-0.09948588162660599,-0.10356652736663818,0.12235167622566223,0.025458883494138718,0.05994304269552231,0.1392822563648224,-0.04434701055288315,-0.025533219799399376,0.16495388746261597,0.08247251063585281,-0.13352574408054352,-0.04588726535439491,-0.11353224515914917,-0.14931300282478333,0.12295156717300415,0.04425884783267975,-0.05662459507584572,0.04109806567430496,0.10732543468475342,-0.17473231256008148,-0.09221772104501724,-0.23473213613033295],[0.11126921325922012,-0.10051369667053223,-0.005052458960562944,0.07664649933576584,-0.16417235136032104,-0.017196642234921455,-0.20809093117713928,-0.16672562062740326,-0.0466584712266922,-0.1812160164117813,-0.12066273391246796,0.23984718322753906,0.07750046253204346,-0.07444676011800766,-0.0035367836244404316,0.07755674421787262,-0.20120567083358765,-0.08956000953912735,-0.12180861085653305,-0.07130388915538788,0.012642480432987213,0.02015254832804203,0.10874742269515991,-0.12008321285247803,0.11868204921483994,-0.2465677112340927,-0.047043927013874054,-0.00523682264611125,-0.13898439705371857,0.21431097388267517,-0.1356041580438614,0.04263922572135925],[-0.1867501586675644,0.030694643035531044,0.16711437702178955,0.06948145478963852,0.0796467587351799,-0.10565148293972015,0.24581241607666016,0.08072945475578308,0.14647062122821808,-0.08788440376520157,-0.08982159942388535,-0.2318442165851593,0.13080239295959473,0.004542824812233448,-0.14074763655662537,0.06513654440641403,-0.05235637351870537,0.02347361110150814,0.03285213187336922,-0.029491888359189034,-0.023098094388842583,-0.24356894195079803,0.028615275397896767,-0.18096503615379333,0.04947122558951378,0.28237274289131165,0.19417136907577515,0.11527088284492493,0.16558735072612762,0.13897442817687988,0.0418383963406086,0.029410794377326965],[0.08581402152776718,0.2770686149597168,0.22882339358329773,-0.17452722787857056,0.24362371861934662,-0.1917387992143631,0.003262785030528903,-0.19018591940402985,0.060203004628419876,-0.002794046886265278,-0.05385635048151016,0.2517852783203125,-0.011886928230524063,0.012899208813905716,0.09259650856256485,-0.03311287239193916,0.18842247128486633,0.3730415105819702,0.20433169603347778,-0.08415322750806808,-0.1797790229320526,-0.031669750809669495,-0.16611230373382568,-0.031621839851140976,0.1965746432542801,0.13834147155284882,-0.16181053221225739,0.2823149561882019,0.04368989169597626,0.32624250650405884,0.2471594214439392,0.07224473357200623],[0.32739973068237305,0.1433064043521881,0.09734978526830673,-0.07675453275442123,0.1421208679676056,-0.08316691219806671,0.16333279013633728,-0.08343520015478134,0.25897422432899475,0.29523009061813354,-0.18411190807819366,0.12337300181388855,-0.2037626951932907,-0.15570425987243652,-0.06847374886274338,0.01510655228048563,-0.04456593096256256,-0.13172534108161926,-0.03607657179236412,0.10034795105457306,-0.16265670955181122,-0.11309269815683365,0.12673409283161163,-0.12784291803836823,-0.05367336794734001,0.16654258966445923,-0.20428574085235596,-0.14861969649791718,-0.008159363642334938,-0.18388612568378448,0.16577817499637604,-0.2797822058200836],[0.0579921156167984,0.10476122796535492,-0.16304714977741241,0.23764856159687042,-0.13782839477062225,-0.07190822809934616,-0.25540727376937866,-0.16596458852291107,-0.059480730444192886,-0.16345329582691193,0.037420302629470825,0.040256522595882416,0.16323134303092957,0.10530705004930496,0.15097174048423767,-0.009268627502024174,0.07953730970621109,0.14391447603702545,0.21135005354881287,-0.2624474763870239,-0.03986160457134247,-0.07879991829395294,0.020942822098731995,-0.04979884624481201,0.18154826760292053,-0.12154565006494522,-0.038041096180677414,-0.14613017439842224,-0.1686832457780838,0.07899978756904602,-0.05057770386338234,-0.04646586626768112],[0.15884847939014435,-0.07870196551084518,-0.09187596291303635,0.22961856424808502,-0.02176835387945175,-0.07725892961025238,-0.02030358277261257,0.04250439628958702,-0.18736350536346436,0.035629842430353165,0.05266110599040985,0.03362957388162613,0.19854839146137238,-0.09637486934661865,0.06785569339990616,-0.14882561564445496,-0.18641293048858643,0.09770578891038895,-0.06795559078454971,-0.05211455002427101,0.16939260065555573,-0.0300789512693882,-0.13766881823539734,0.08199550956487656,0.13769423961639404,-0.10862532258033752,0.08866763114929199,0.00936537142843008,0.013173841871321201,-0.09582208842039108,0.17715170979499817,0.10391402989625931],[0.04976089298725128,0.12172114104032516,-0.19022974371910095,0.1408272236585617,-0.2318209856748581,-0.007375682238489389,-0.05613447725772858,0.03289157897233963,0.031470466405153275,-0.12011000514030457,-0.11316119134426117,0.025760427117347717,-0.059583548456430435,-0.1499633491039276,0.08892059326171875,-0.08735626190900803,-0.17955546081066132,0.0256696417927742,0.1052086278796196,-0.1810130774974823,0.23966050148010254,0.001548759755678475,0.09735041111707687,0.18231572210788727,0.07825255393981934,-0.060639992356300354,-0.14451932907104492,-0.04587971046566963,-0.028603143990039825,0.07233286648988724,-0.030620768666267395,0.06553645431995392],[-0.04820556193590164,-0.10628915578126907,-0.18626292049884796,-0.04333168640732765,-0.16823051869869232,0.2648469805717468,0.005547660402953625,-0.17648452520370483,-0.1431715041399002,-0.002239104127511382,0.003746400121599436,-0.02595333196222782,-0.02114110067486763,0.0029467646963894367,-0.04865064471960068,-0.04906560480594635,0.03763451427221298,0.09277957677841187,0.11125898361206055,-0.0035910250153392553,0.018841158598661423,0.08896338939666748,-0.12280938774347305,0.1263902336359024,-0.07750242948532104,-0.14038878679275513,-0.1623469889163971,0.015311935916543007,0.02887795679271221,0.18400655686855316,-0.0824737623333931,0.09624683856964111],[-0.04508918896317482,-0.1186123937368393,-0.07632675766944885,-0.01851798966526985,0.0007988925790414214,0.12469872832298279,0.15765386819839478,0.11983862519264221,0.13537392020225525,0.09137289226055145,0.07048246264457703,0.06486265361309052,-0.08373229205608368,-0.12439396977424622,-0.09505003690719604,0.18247710168361664,0.14194771647453308,0.19655631482601166,-0.09674140065908432,0.054954156279563904,-0.1700211763381958,0.028410421684384346,-0.15073162317276,-0.09005182981491089,0.15583810210227966,0.16634614765644073,-0.044729430228471756,-0.06209240481257439,-0.08682908862829208,0.14651994407176971,-0.1759330779314041,0.1458371877670288],[0.09636054933071136,0.02434278093278408,0.032006487250328064,0.013291236013174057,0.23859213292598724,0.12052435427904129,0.24705973267555237,-0.050803329795598984,0.1540171205997467,0.11256276071071625,-0.14374645054340363,0.06848876178264618,-0.07958415150642395,-0.13936588168144226,0.0977352187037468,0.09890251606702805,0.009581178426742554,-0.0570434145629406,0.07645533233880997,0.25060316920280457,-0.21147513389587402,-0.22515153884887695,-0.03155643865466118,-0.20337733626365662,-0.0950009897351265,0.08714522421360016,0.18448762595653534,-0.031018346548080444,0.05153242498636246,-0.11197803914546967,-0.15666121244430542,-0.09951161593198776],[0.03615090623497963,-0.021735163405537605,0.09658175706863403,0.17580272257328033,0.013653750531375408,0.1041724756360054,-0.021614132449030876,0.031715042889118195,-0.1465734988451004,0.08768350630998611,0.115379698574543,-0.02312120981514454,0.021105365827679634,-0.10070990025997162,-0.15116113424301147,-0.0642923042178154,-0.010466786101460457,-0.06387048214673996,0.057913873344659805,-0.16277730464935303,-0.0024013028014451265,0.24540002644062042,-0.15875181555747986,0.04330272972583771,0.09781464189291,0.05210920795798302,0.039217475801706314,-0.21711917221546173,-0.01156369224190712,-0.044515423476696014,-0.0598677359521389,0.14970438182353973],[0.0020448064897209406,-0.10794457793235779,-0.16561850905418396,0.24395005404949188,-0.12798228859901428,0.19755256175994873,-0.055474694818258286,-0.24302278459072113,0.022796854376792908,0.1635885238647461,0.11859837919473648,0.12221448868513107,-0.10845252126455307,-0.09408149123191833,0.19550596177577972,-0.20526763796806335,0.004808410536497831,-0.07765865325927734,0.08757334202528,-0.06019875779747963,-0.07397416979074478,0.05943112075328827,0.17644621431827545,0.03992912173271179,0.06943456083536148,-0.19373267889022827,0.10118044912815094,-0.11197264492511749,-0.09245094656944275,0.047146912664175034,-0.05243516340851784,-0.05616723373532295],[-0.06369251757860184,-0.06502419710159302,-0.170762836933136,-0.03638414666056633,-0.11662881821393967,0.13411225378513336,0.20044255256652832,0.08786137402057648,-0.0946081131696701,-0.22338497638702393,0.08731069415807724,0.08120714873075485,0.124794140458107,0.05049256607890129,0.12865084409713745,0.23331108689308167,0.008483231998980045,-0.04498014226555824,-0.13461023569107056,0.06760603934526443,0.03623392805457115,0.032442010939121246,-0.12104374915361404,0.12053172290325165,-0.16330018639564514,0.0023502912372350693,0.2574326694011688,-0.10752681642770767,0.15180586278438568,0.06960014253854752,-0.21722571551799774,0.10667825490236282],[-0.08175397664308548,0.00990787148475647,-0.025035828351974487,-0.2739822268486023,0.060798969119787216,0.03527922183275223,0.03292909264564514,-0.035284947603940964,0.04128802940249443,0.04787507653236389,-0.07750239223241806,-0.1849822700023651,-0.11798305064439774,-0.055107999593019485,0.029088390991091728,0.22235654294490814,0.0504341758787632,0.10454216599464417,0.10231615602970123,-0.03965766355395317,-0.13192327320575714,0.013222924433648586,0.11706424504518509,-0.0004060300125274807,-0.10651113092899323,0.18685917556285858,-0.11399304121732712,0.1541242003440857,0.06559925526380539,0.05039738118648529,-0.16325074434280396,-0.08569609373807907],[0.136602520942688,0.15588009357452393,-0.06036718934774399,0.2325657308101654,-0.1290675550699234,-0.12079267203807831,-0.18833620846271515,-0.07702244818210602,-0.04022159427404404,0.11485560238361359,-0.1264982670545578,-0.039916083216667175,-0.18286068737506866,0.16280530393123627,-0.045689862221479416,-0.2188684344291687,-0.02349039725959301,-0.060475822538137436,0.1127035990357399,-0.12261590361595154,0.2010481208562851,0.016897346824407578,-0.004494179040193558,-0.056526679545640945,0.04025144875049591,0.05504712462425232,-0.06563185155391693,0.07555960863828659,0.11665455251932144,-0.1003962829709053,0.019992990419268608,-0.07980846613645554],[0.13747327029705048,-0.04707832261919975,0.027317939326167107,0.13547638058662415,-0.19526255130767822,-0.09113024920225143,-0.289166122674942,-0.1676533967256546,0.016279058530926704,-0.010784194804728031,0.1286322921514511,-0.07483982294797897,0.03019113279879093,-0.1413411945104599,-0.0017317364690825343,-0.02065359801054001,-0.1935722380876541,0.13001593947410583,-0.019633153453469276,0.054252561181783676,0.04083803668618202,0.22163206338882446,0.16075348854064941,-0.04133646935224533,-0.062118951231241226,-0.03048507682979107,-0.18017776310443878,0.039341896772384644,-0.15241292119026184,0.1969899982213974,-0.10279252380132675,-0.029897324740886688],[0.09156250953674316,-0.09582190215587616,0.18496067821979523,0.011515014804899693,0.25951746106147766,-0.20715922117233276,0.08702655881643295,-0.004294606391340494,0.0812208279967308,-0.12082863599061966,0.07636626064777374,-0.06464162468910217,-0.11118374764919281,-0.17762866616249084,0.1466633528470993,-0.009108670987188816,0.19336830079555511,0.06348422914743423,0.026953667402267456,0.04357340559363365,-0.0863889679312706,-0.18627725541591644,-0.1514158546924591,0.06893239915370941,-0.09787966310977936,0.2214267998933792,-0.004356099758297205,0.1732669323682785,0.20136401057243347,-0.12917745113372803,0.1349928379058838,-0.03800902143120766],[-0.18507666885852814,0.04560031369328499,0.10925539582967758,0.09242446720600128,-0.1067873165011406,0.16096118092536926,0.22913594543933868,0.23592336475849152,0.11518508940935135,-0.09290634840726852,0.14760422706604004,0.11534959077835083,-0.08533871173858643,-0.051372747868299484,0.06779815256595612,0.19952787458896637,0.11535520851612091,0.1665859967470169,-0.12926200032234192,0.059135664254426956,-0.10836121439933777,-0.0021707608830183744,0.02861570380628109,-0.13447411358356476,-0.026410367339849472,-0.06402616947889328,-0.15416577458381653,0.20083175599575043,-0.0777239203453064,0.07050037384033203,-0.06057482212781906,-0.0447903573513031]],"b":[-0.03863263130187988,0.23765882849693298,-0.04369143024086952,0.0826161652803421,0.09605535864830017,0.13715282082557678,-0.10333316773176193,-0.10223431140184402,-0.10873602330684662,-0.0072474610060453415,0.027150463312864304,0.09962382912635803,0.16648633778095245,0.069966159760952,-0.12851661443710327,-0.05479540675878525,0.10902728140354156,-0.0012214474845677614,-0.007208332419395447,-0.12996675074100494,-0.02766096219420433,0.014800822362303734,-0.07261615991592407,0.13577793538570404,0.034288179129362106,-0.1396975964307785,0.04124942049384117,-0.01754441112279892,-0.01375934574753046,-0.10436885058879852,0.182970330119133,-0.11405479162931442]},{"W":[[-0.17546772956848145,-0.15844888985157013,0.021693037822842598,-0.08957470208406448,-0.04892587661743164,0.11719521135091782,-0.05683943256735802,0.1367589831352234,-0.02167891338467598,-0.02351868338882923,-0.09672334045171738,-0.08692031353712082,0.06382264941930771,0.14819343388080597,-0.22942961752414703,0.2267027199268341,-0.07002975046634674,0.03395704925060272,-0.04599389433860779,0.13198749721050262,-0.11741850525140762,0.07926879078149796,0.05765768513083458,0.25872310996055603,0.09484056383371353,-0.029548954218626022,0.024246754124760628,-0.054188936948776245,0.03115740418434143,-0.09753663092851639,0.07774868607521057,0.11516951769590378],[-0.045035041868686676,0.1639542132616043,-0.015133603475987911,-0.10758843272924423,-0.06308193504810333,-0.08892247080802917,-0.04068553447723389,-0.17493949830532074,-0.09869443625211716,0.015500207431614399,-0.1689821481704712,-0.03691757470369339,-0.1730547994375229,-0.03396650031208992,0.2506330907344818,-0.2523358464241028,0.0842934250831604,-0.10025091469287872,-0.029331060126423836,-0.06790844351053238,0.08645239472389221,0.04985833540558815,-0.0015675785252824426,-0.2296678125858307,0.11779452860355377,0.06922122836112976,-0.25030604004859924,0.007059577386826277,-0.03183920308947563,0.07182936370372772,-0.15927265584468842,-0.15778037905693054],[0.12727172672748566,-0.20800237357616425,0.16387629508972168,-0.20779326558113098,-0.0509372279047966,-0.10295050591230392,-0.00887231808155775,0.130461186170578,0.16171586513519287,-0.1180938333272934,-0.029283765703439713,0.10725825279951096,0.14920617640018463,0.1062035784125328,-0.027608051896095276,0.0383940227329731,-0.07820121943950653,0.13743922114372253,-0.11061287671327591,-0.11560112237930298,-0.11208605021238327,-0.0948629304766655,0.1691330522298813,0.18931260704994202,0.0681975707411766,-0.04497266188263893,-0.043684255331754684,0.07864344120025635,-0.054880909621715546,-0.19509339332580566,0.217021644115448,-0.07706236839294434],[-0.020706797018647194,-0.20251357555389404,0.08534722030162811,0.023103730753064156,-0.15760233998298645,0.06548997759819031,0.09430503100156784,-0.01641881838440895,0.20686137676239014,0.0656895637512207,0.11428368836641312,-0.02063731662929058,0.06796962767839432,-0.02646598406136036,-0.0832514837384224,0.15592247247695923,-0.08441692590713501,0.24112525582313538,0.04481597617268562,-0.07955992966890335,0.07910631597042084,-0.09095266461372375,0.0488290898501873,0.30299198627471924,-0.18627208471298218,-0.15620440244674683,0.06817112863063812,-0.015520060434937477,-0.17147748172283173,-0.26353776454925537,0.04519287496805191,-0.00889957882463932],[0.10103614628314972,0.06388542056083679,0.06209923326969147,0.11629144847393036,0.013747173361480236,0.019954396411776543,-0.006150125525891781,0.05187678337097168,-0.14411655068397522,-0.09805683046579361,0.025323547422885895,-0.174797922372818,-0.06846626102924347,0.018806442618370056,0.19392789900302887,-0.19585789740085602,-0.01755341701209545,-0.20951306819915771,-0.09319435060024261,0.17616496980190277,-0.17114104330539703,-0.13337521255016327,-0.07447466254234314,-0.11320851743221283,0.049131233245134354,0.008771895430982113,-0.09399200975894928,-0.015254369005560875,0.1845092475414276,0.3405604064464569,0.004689735826104879,-0.026519805192947388],[0.09494704753160477,-0.19240902364253998,0.042904049158096313,-0.17478236556053162,0.11882610619068146,-0.21677976846694946,0.12713143229484558,-0.08850233256816864,0.09427862614393234,0.029195493087172508,0.17491106688976288,-0.1353779137134552,0.25903254747390747,-0.0878375768661499,-0.25491073727607727,0.1393909901380539,-0.03129258379340172,-0.08176655322313309,-0.2819182276725769,-0.06060810759663582,0.014089388772845268,0.16669292747974396,0.15228809416294098,0.09849636256694794,-0.13079622387886047,-0.24229243397712708,0.23006534576416016,-0.03577103093266487,-0.0778958797454834,-0.34389951825141907,-0.042933493852615356,0.07482469826936722],[0.0224355086684227,0.0627475380897522,0.02659802883863449,0.12611626088619232,-0.046253569424152374,0.025839395821094513,0.0342557393014431,0.07140713930130005,0.10807531327009201,-0.16384661197662354,-0.19610396027565002,-0.06457281857728958,-0.13545192778110504,0.03655359894037247,0.3016033470630646,-0.06381428986787796,-0.1520325094461441,-0.08860258758068085,0.18329842388629913,0.07283923029899597,-0.189488023519516,0.020832043141126633,-0.18247440457344055,-0.1572786420583725,0.12436134368181229,0.023800810799002647,0.02484224922955036,-0.12150159478187561,0.20029672980308533,0.24390514194965363,0.05887315794825554,0.015500931069254875],[0.1284167468547821,-0.06812558323144913,-0.060597050935029984,-0.02499251253902912,0.16162268817424774,-0.04536641016602516,-0.07383991777896881,-0.2575039565563202,-0.05541902780532837,-0.08214341849088669,-0.24863402545452118,-0.059175532311201096,-0.3645267188549042,-0.1467282921075821,0.005765789188444614,-0.032137054949998856,-0.1989360898733139,-0.0938991904258728,0.1289997696876526,-0.08943645656108856,0.1545289158821106,0.19563208520412445,-0.09337461739778519,-0.15024979412555695,0.08691733330488205,0.23509275913238525,0.08606836199760437,-0.22968505322933197,-0.12983585894107819,-0.009906196035444736,-0.1938740313053131,-0.027636418119072914],[-0.13062727451324463,0.10695891827344894,-0.12117601186037064,-0.21748167276382446,-0.17127415537834167,-0.11955378204584122,0.2207714170217514,0.08570019155740738,0.03768450766801834,-0.05863336846232414,-0.07808663696050644,0.013919558376073837,0.2395203411579132,0.2003938853740692,0.0012380412081256509,0.1306772232055664,-0.0631166324019432,-0.014818159863352776,0.14810369908809662,-0.17651589214801788,0.10199540108442307,-0.04970690235495567,0.1324491947889328,0.2420959174633026,-0.06395447999238968,-0.19936107099056244,0.07521361112594604,-0.14612744748592377,-0.026368437334895134,-0.08841314911842346,0.16421262919902802,-0.06417546421289444],[-0.17410843074321747,-0.1586237996816635,-0.16142766177654266,0.028481030836701393,-0.11181026697158813,0.00567978248000145,-0.08215652406215668,-0.07916876673698425,0.14226271212100983,0.0768415629863739,0.153141587972641,0.242849200963974,-0.07216335833072662,-0.03210270404815674,-0.24865901470184326,0.19351376593112946,0.13903386890888214,0.2150915414094925,-0.15352311730384827,-0.12081490457057953,0.23823478817939758,-0.15102703869342804,-0.14652173221111298,0.16156306862831116,-0.15808545053005219,-0.10176196694374084,0.13060742616653442,0.08309947699308395,-0.02739962376654148,-0.24549879133701324,0.1459098607301712,0.16536523401737213],[-0.1961546093225479,-0.024774054065346718,-0.1184707060456276,-0.22872647643089294,0.07851210981607437,0.07214464247226715,0.09955505281686783,-0.1251281201839447,0.0029519142117351294,0.10587767511606216,0.02762782759964466,-0.06474954634904861,-0.000697861541993916,0.22966909408569336,-0.22356770932674408,-0.04527462273836136,0.17897190153598785,-0.04098481684923172,0.07123955339193344,-0.09758841246366501,0.05134490132331848,-0.0990610420703888,0.14992648363113403,0.1952245831489563,0.03816734254360199,-0.08114200085401535,-0.009992063976824284,-0.16523006558418274,-0.09981698542833328,-0.055623140186071396,0.03350372239947319,0.13874226808547974],[0.08180685341358185,0.047675374895334244,-0.08273438364267349,0.1501016914844513,-0.17102457582950592,0.08061928302049637,0.016254037618637085,-0.02272571437060833,0.09516078233718872,0.04391422122716904,-0.08242082595825195,-0.20212075114250183,-0.2936093509197235,0.05123313516378403,0.25958845019340515,-0.23425458371639252,0.038796406239271164,-0.11858794838190079,0.2386949509382248,-0.04298998415470123,0.14659720659255981,0.11955033242702484,0.09039728343486786,0.06334960460662842,0.047934774309396744,0.17084121704101562,-0.24181951582431793,-0.04099184274673462,0.02567099779844284,0.29050469398498535,-0.11632083356380463,0.04801476001739502],[0.21039071679115295,0.10258162766695023,0.11091618239879608,0.04735760763287544,0.0829305425286293,-0.04671454057097435,0.083704374730587,-0.07666607946157455,-0.08067575842142105,-0.16434292495250702,0.07939786463975906,-0.07328484207391739,-0.041176360100507736,-0.2312970608472824,-0.003169205505400896,-0.1535058468580246,-0.18355682492256165,-0.06857014447450638,0.03780415281653404,-0.028878364711999893,0.15338319540023804,0.15133187174797058,-0.15659989416599274,-0.31261199712753296,0.12637855112552643,-0.038243617862463,-0.011854583397507668,-0.06874871253967285,0.04434423893690109,0.01872498169541359,-0.07716018706560135,-0.06463059037923813],[-0.10639205574989319,-0.115810327231884,-0.03651606664061546,0.07487571239471436,-0.02634766884148121,-0.08199691772460938,0.225600466132164,0.24177558720111847,-0.05055661126971245,-0.20261754095554352,0.06438300013542175,0.11779994517564774,0.08603969216346741,-0.16143077611923218,-0.16513945162296295,0.23745125532150269,-0.19457212090492249,-0.05522199347615242,-0.17404891550540924,-0.16417720913887024,-0.16167986392974854,0.1623401939868927,0.1500079482793808,-0.04548950493335724,-0.011952864937484264,-0.24047528207302094,0.16567647457122803,-0.06716413795948029,-0.1514672189950943,-0.37108391523361206,0.0677487701177597,0.1600634753704071],[0.0011262519983574748,0.09817661345005035,0.17017361521720886,0.13549642264842987,0.014710321091115475,0.0525473989546299,-0.10288447886705399,0.02579299360513687,0.023792849853634834,-0.1294618546962738,0.09908341616392136,0.10078950971364975,-0.24857714772224426,0.08958346396684647,0.1790037453174591,-0.010499024763703346,-0.17560553550720215,0.08594712615013123,0.24196027219295502,-0.12201519310474396,-0.08429382741451263,-0.03321538120508194,-0.13361620903015137,-0.07882893085479736,0.09214802086353302,0.08087196201086044,0.047874316573143005,-0.026683365926146507,-0.007527797017246485,0.04050745069980621,-0.04415702447295189,-0.20527632534503937],[0.04849455505609512,0.08684837818145752,-0.11182424426078796,0.07815760374069214,0.1025458499789238,0.17024335265159607,-0.03261386603116989,-0.24756814539432526,-0.2078515589237213,-0.027285045012831688,-0.18227055668830872,-0.004067384637892246,-0.4300772249698639,-0.19942060112953186,0.24636365473270416,-0.03878679499030113,-0.08313026279211044,-0.264311820268631,0.08263373374938965,0.09818684309720993,0.23483134806156158,0.030510447919368744,0.12920252978801727,-0.46809500455856323,0.2475511133670807,-0.07328706234693527,-0.2166084498167038,0.11251175403594971,-0.02671394869685173,0.34717071056365967,-0.2620191276073456,0.12005571275949478],[0.2300095409154892,0.09023609012365341,0.15029126405715942,-0.055424559861421585,-0.037396691739559174,0.07569970190525055,0.05518881976604462,-0.1430433839559555,0.058740682899951935,-0.061878595501184464,-0.14696425199508667,-0.0100634740665555,-0.24550141394138336,-0.221495121717453,0.16650982201099396,-0.042962513864040375,0.04241921380162239,-0.09525537490844727,-0.0739121064543724,-0.125684916973114,0.14826352894306183,-0.13664279878139496,0.0633961409330368,0.046174392104148865,0.13246239721775055,-0.029918726533651352,-0.12474628537893295,-0.10276488214731216,0.13904231786727905,-0.02256239578127861,-0.21822096407413483,-0.13027215003967285],[0.20693208277225494,0.11598820984363556,0.1218620166182518,0.20036599040031433,-0.07657518237829208,-0.09372511506080627,-0.15496616065502167,-0.0027495548129081726,0.007513011805713177,0.038725268095731735,-0.1838635951280594,-0.04674719274044037,-0.2377501279115677,-0.10289134085178375,0.08431614190340042,-0.09597058594226837,-0.19623510539531708,0.07997389882802963,-0.05406257510185242,0.06839681416749954,0.07778693735599518,0.09134403616189957,0.14813101291656494,-0.009593483060598373,0.1251687854528427,0.10066789388656616,0.06547272950410843,-0.04563494399189949,-0.07843455672264099,0.2075289487838745,-0.024387139827013016,0.002066232729703188],[-0.08995987474918365,0.09425200521945953,0.12635158002376556,0.07404206693172455,0.04481663554906845,0.10308855772018433,-0.2342720776796341,-0.09193795919418335,-0.12576298415660858,-0.0977528914809227,0.05587422475218773,0.12195209413766861,-0.13557259738445282,0.04378088563680649,0.009302047081291676,-0.08207251876592636,-0.04885357245802879,-0.18381989002227783,0.09037796407938004,0.06834070384502411,-0.04122287407517433,0.09223707765340805,0.095913827419281,0.04641154408454895,0.015036866068840027,0.0936129093170166,-0.07470865547657013,0.048988956958055496,-0.08499463647603989,0.14478901028633118,-0.2144070714712143,-0.13711793720722198],[-0.2810654938220978,0.2563886344432831,-0.20083731412887573,-0.17522868514060974,0.024771321564912796,0.1946791708469391,0.14848655462265015,-0.07783909887075424,0.297452449798584,-0.13010646402835846,0.10798763483762741,0.4828266203403473,0.39897507429122925,0.008843082003295422,-0.32268786430358887,0.28455737233161926,0.20470879971981049,-0.04624194651842117,-0.044881176203489304,-0.1917719691991806,0.1204489916563034,-0.0060150702483952045,0.05035552754998207,0.03698432445526123,-0.1614322066307068,-0.220088928937912,-0.0907462015748024,0.12276685237884521,0.04278021678328514,-0.4848024547100067,0.19113440811634064,-0.21205288171768188],[-0.17756502330303192,-0.1491585522890091,-0.0597468800842762,-0.16452720761299133,0.018565058708190918,0.0886140987277031,0.15908437967300415,0.09963373839855194,0.03883412480354309,-0.029874589294195175,0.15408098697662354,-0.041514478623867035,0.21989740431308746,-0.11771687120199203,-0.2378486841917038,0.13569197058677673,-0.043430253863334656,0.09809136390686035,0.10447346419095993,0.07186871767044067,0.23983052372932434,-0.08374661207199097,-0.09907737374305725,0.04563359543681145,-0.025631040334701538,-0.1521942913532257,0.05846275016665459,0.11182977259159088,-0.12231320142745972,-0.035638559609651566,0.12994296848773956,0.11020886152982712],[-0.009330442175269127,-0.1131792813539505,0.06079573929309845,-0.2515111267566681,-0.07824977487325668,0.13981971144676208,0.22718161344528198,-0.07589689642190933,0.1972489356994629,0.0730273574590683,0.0901811346411705,0.1256781816482544,0.17356641590595245,-0.002564869122579694,-0.014811414293944836,0.051902830600738525,-0.008996239863336086,-0.012738250195980072,0.10847721248865128,0.09529391676187515,-0.06284672766923904,-0.006668843794614077,0.044025156646966934,-0.017864950001239777,0.0767582431435585,-0.25461602210998535,0.06602168083190918,-0.08799140900373459,-0.12148746103048325,-0.009620276279747486,0.1286240518093109,0.13012364506721497],[-0.1781337559223175,-0.015123403631150723,0.03786388412117958,0.038245026022195816,-0.07655449211597443,-0.06771069020032883,-0.03441416844725609,0.18927481770515442,0.1843753606081009,0.06924580782651901,0.14669087529182434,0.14587658643722534,0.3930807411670685,0.12235511094331741,-0.0926399752497673,0.17984351515769958,-0.06901795417070389,0.1186298206448555,0.0010353366378694773,-0.14550189673900604,-0.09894736856222153,-0.12624423205852509,-0.10863728076219559,0.31823256611824036,0.10116396099328995,-0.08818051964044571,0.13598594069480896,-0.07314815372228622,0.012026447802782059,-0.2133476883172989,0.008624264970421791,-0.05084749311208725],[0.23648424446582794,0.10162241011857986,-0.07863454520702362,0.041253138333559036,-0.14020304381847382,0.061847858130931854,0.1126696839928627,-0.03657016158103943,0.04283002018928528,-0.17049024999141693,-0.08739649504423141,-0.004476640373468399,-0.1917729675769806,-0.15524572134017944,0.23409806191921234,-0.013648578897118568,0.0696837455034256,-0.2708224952220917,0.16965307295322418,-0.017893433570861816,-0.006208441220223904,0.17867788672447205,-0.15139149129390717,-0.029293863102793694,-0.09742775559425354,0.1813025027513504,-0.03889653831720352,0.03850705921649933,-0.04765962064266205,0.16581840813159943,-0.14320720732212067,0.019456984475255013],[0.10169617831707001,-0.17386680841445923,-0.044704727828502655,-0.0016689624171704054,0.0021026208996772766,-0.02433331497013569,0.22995807230472565,0.02278549037873745,0.0994407907128334,0.07290472090244293,0.010244390927255154,0.16692420840263367,0.2808534801006317,0.1462535560131073,-0.16506658494472504,0.2610023319721222,-0.07804997265338898,0.12902240455150604,-0.0022724128793925047,0.11896217614412308,-0.16000927984714508,0.016014952212572098,-0.11970273405313492,0.2450929880142212,0.044470250606536865,-0.1862126588821411,0.054345954209566116,0.0011096453526988626,0.06054846569895744,0.02301994152367115,0.1499573290348053,0.036468859761953354],[0.029937762767076492,-0.20475775003433228,0.09171216189861298,-0.15680035948753357,0.10992061346769333,0.03039199486374855,0.055472735315561295,0.18144914507865906,-0.03951229900121689,0.0784006416797638,0.13130363821983337,-0.02450891025364399,0.2377089262008667,-0.1157163679599762,-0.24804557859897614,0.20371420681476593,0.1200067475438118,-0.09621310234069824,-0.0019401300232857466,0.004257136955857277,0.17817096412181854,-0.18533819913864136,-0.033674243837594986,0.0001758678408805281,-0.10106872767210007,-0.14177224040031433,-0.09016990661621094,0.12050063163042068,-0.1015992984175682,-0.12872375547885895,-0.03426220640540123,0.02988692745566368],[-0.06764458119869232,0.18101093173027039,0.17682132124900818,0.2644650638103485,-0.07396895438432693,0.12954486906528473,-0.18892838060855865,0.03958429396152496,-0.053393587470054626,-0.1764802783727646,-0.17899870872497559,-0.18294444680213928,-0.06579883396625519,-0.11119004338979721,0.03637899458408356,0.0689847394824028,-0.0791119858622551,0.0009699417860247195,0.038852300494909286,0.12111681699752808,0.047678690403699875,0.11337245255708694,0.033470891416072845,-0.10562843084335327,0.1365746259689331,0.09291567653417587,-0.17821219563484192,0.04650770500302315,0.01994178630411625,0.024317342787981033,-0.02767276205122471,-0.07313133776187897],[-0.14727982878684998,-0.13965532183647156,-0.11764834821224213,-0.25844651460647583,0.05185160040855408,0.1417444348335266,-0.01793242245912552,-0.03400012478232384,-0.0747874304652214,0.058647383004426956,0.07215386629104614,-0.13357506692409515,0.2646077573299408,-0.10680702328681946,0.01403360441327095,0.1511961668729782,0.0186428464949131,-0.006103300489485264,-0.005390623584389687,0.11595647782087326,-0.2245521992444992,-0.04539800435304642,0.17897145450115204,0.042819298803806305,-0.10266678035259247,-0.191036194562912,0.08561760187149048,0.029513852670788765,-0.17474927008152008,-0.30507516860961914,0.14733271300792694,0.1754794418811798],[0.2341192662715912,0.01871664635837078,0.09472526609897614,-0.0549972727894783,0.09657985717058182,0.19511504471302032,-0.01210311334580183,-0.1535424292087555,0.07371693849563599,-0.18233460187911987,-0.0899924486875534,-0.05996647849678993,-0.37213775515556335,-0.17549969255924225,0.018298042938113213,-0.06738830357789993,-0.04735855758190155,0.005441389512270689,0.016083894297480583,0.15320473909378052,0.07857620716094971,0.16576237976551056,0.12758241593837738,-0.3128829002380371,-0.10113321989774704,0.19327102601528168,0.09096680581569672,-0.1432918906211853,0.03937307372689247,0.11674743890762329,0.07554002106189728,0.11539129912853241],[0.05431464686989784,0.03286358714103699,-0.08261113613843918,0.01650768704712391,-0.0809958428144455,-0.06516316533088684,0.054658710956573486,-0.04290936142206192,-0.017153076827526093,0.054183851927518845,0.04221286252140999,-0.04989604279398918,0.23536552488803864,0.061552174389362335,-0.34460756182670593,0.24643012881278992,-0.16190992295742035,0.05289245769381523,-0.28689393401145935,-0.1749492585659027,-0.1103004664182663,0.162653386592865,0.20587903261184692,0.1452840119600296,0.11414607614278793,-0.23118793964385986,0.2133818119764328,0.21857693791389465,-0.23608461022377014,-0.47570231556892395,0.17571784555912018,0.07241480052471161],[-0.056080784648656845,-0.12436864525079727,0.1656596064567566,0.11467283964157104,0.004407291766256094,-0.1548706740140915,0.05350157991051674,-0.18844842910766602,0.0038845818489789963,-0.0207802876830101,-0.047313716262578964,0.048235125839710236,-0.2735900282859802,-0.1096760556101799,0.3042161762714386,-0.2589259445667267,0.04985843226313591,-0.10116205364465714,-0.01772443950176239,0.12220799177885056,0.07962196320295334,-0.1503305584192276,0.14850199222564697,-0.24561327695846558,0.16242484748363495,0.0316065177321434,0.1087755635380745,0.05031309276819229,0.0231191273778677,0.28711315989494324,-0.11271610110998154,-0.10847070068120956],[0.03998546302318573,0.0769151821732521,-0.04238462820649147,0.05562626197934151,0.007981965318322182,-0.1172436997294426,-0.0039665913209319115,0.18734951317310333,-0.002705683233216405,0.11549172550439835,-0.1153481975197792,0.056969523429870605,0.11897997558116913,0.12327404320240021,-0.03836338594555855,0.19306625425815582,-0.037117522209882736,-0.10209550708532333,-0.13733796775341034,-0.11340884864330292,0.091652512550354,-0.10973907262086868,0.06831235438585281,0.29298996925354004,0.04989579692482948,-0.24903275072574615,0.04246923327445984,-0.057312916964292526,0.08603553473949432,-0.22798952460289001,0.0762939453125,0.17098349332809448]],"b":[0.05929333344101906,0.05081477388739586,-0.03736846521496773,0.13929903507232666,-0.009588277898728848,-0.021522613242268562,-0.009007817134261131,-0.14597764611244202,0.009063792414963245,0.13152888417243958,-0.12083566933870316,-0.1438198685646057,0.07969924062490463,0.02904437854886055,-0.01752384565770626,-0.007717096246778965,-0.10182146728038788,0.1177295371890068,-0.0437115840613842,-0.012639021500945091,0.12208852916955948,-0.10689110308885574,-0.009033908136188984,-0.039897289127111435,-0.04046456143260002,0.12630689144134521,-0.1932845264673233,0.006690246518701315,-0.09168335050344467,0.18679508566856384,0.04467618837952614,-0.10958940535783768]},{"W":[[0.19378934800624847,-0.12949565052986145,0.3666461110115051,0.30161052942276,-0.38778162002563477,0.25510260462760925,-0.28343814611434937,-0.12140274792909622,0.346668004989624,0.3514123260974884,0.1741093546152115,-0.4040450155735016,-0.1579047590494156,0.2523403763771057,-0.05700306221842766,-0.24574032425880432,-0.28196078538894653,-0.19145368039608002,-0.37914857268333435,0.17733553051948547,0.2641240060329437,0.27649161219596863,0.24160587787628174,-0.09816469252109528,0.31345415115356445,0.2783985137939453,-0.2744380831718445,0.1965698003768921,-0.15791645646095276,0.24101552367210388,-0.1055711954832077,0.11274062097072601]],"b":[0.006645245477557182]}]}